#include "model_0324_5_49_model.h"

// Prototipos inicialización
conv2d_layer_t init_conv2d_data(void);
conv2d_layer_t init_conv2d_1_data(void);
conv2d_layer_t init_conv2d_2_data(void);
dense_layer_t init_dense_data(void);
dense_layer_t init_dense_1_data(void);
dense_layer_t init_dense_2_data(void);


// Variables Globales
conv2d_layer_t conv2d_data;
conv2d_layer_t conv2d_1_data;
conv2d_layer_t conv2d_2_data;
dense_layer_t dense_data;
dense_layer_t dense_1_data;
dense_layer_t dense_2_data;


void model_init(){
    conv2d_data = init_conv2d_data();
    conv2d_1_data = init_conv2d_1_data();
    conv2d_2_data = init_conv2d_2_data();
    dense_data = init_dense_data();
    dense_1_data = init_dense_1_data();
    dense_2_data = init_dense_2_data();

}

void model_predict(data3d_t input, data1d_t * output){
  
    
    //*************** LAYER 0 **************//
    // Layer name: conv2d
    data3d_t output0;
        // convert image for first EmbedIA Conv2d layer
        image_adapt_layer(input, &output0);
        input = output0;
    
     conv2d_layer(conv2d_data, input, &output0);
    // Activation layer for conv2d
    relu_activation(output0.data, 576);
    
    //*************** LAYER 1 **************//
    // Layer name: dropout
    input = output0;
    
    
    //*************** LAYER 2 **************//
    // Layer name: conv2d_1
    input = output0;
    conv2d_layer(conv2d_1_data, input, &output0);
    // Activation layer for conv2d_1
    relu_activation(output0.data, 800);
    
    //*************** LAYER 3 **************//
    // Layer name: dropout_1
    input = output0;
    
    
    //*************** LAYER 4 **************//
    // Layer name: conv2d_2
    input = output0;
    conv2d_layer(conv2d_2_data, input, &output0);
    // Activation layer for conv2d_2
    relu_activation(output0.data, 768);
    
    //*************** LAYER 5 **************//
    // Layer name: dropout_2
    input = output0;
    
    
    //*************** LAYER 6 **************//
    // Layer name: max_pooling2d
    input = output0;
    static const pooling2d_layer_t max_pooling2d_data = { 2, 2 };
    max_pooling2d_layer(max_pooling2d_data, input, &output0);
    
    //*************** LAYER 7 **************//
    // Layer name: flatten
    input = output0;
    data1d_t output1;
    flatten3d_layer(input, &output1);
    
    //*************** LAYER 8 **************//
    // Layer name: dense
    data1d_t input1;
    input1 = output1;
    dense_layer(dense_data, input1, &output1);
    
    // Activation layer for dense
    relu_activation(output1.data, 128);
    
    //*************** LAYER 9 **************//
    // Layer name: dropout_3
    input1 = output1;
    
    
    //*************** LAYER 10 **************//
    // Layer name: dense_1
    input1 = output1;
    dense_layer(dense_1_data, input1, &output1);
    
    // Activation layer for dense_1
    tanh_activation(output1.data, 128);
    
    //*************** LAYER 11 **************//
    // Layer name: dense_2
    input1 = output1;
    dense_layer(dense_2_data, input1, &output1);
    
    // Activation layer for dense_2
    softmax_activation(output1.data, 5);
    

    *output = output1;

}

int model_predict_class(data3d_t input, data1d_t * results){
  
   
    model_predict(input, results);
    
    return argmax(*results);
    //return argmax(data1d_t);

}

// Implementación de funciones de inicialización



conv2d_layer_t init_conv2d_data(void){

        static filter_t filters[16];
        
        static const float weights0[]={ 
    -0.002070642774924636, 0.40768730640411377, 
    -0.4609324336051941, -0.4254100024700165, 

        };
        static filter_t filter0 = {1, 2, weights0, 0.02065318077802658};
        filters[0]=filter0;
            
        static const float weights1[]={ 
    0.27066347002983093, -1.0129963159561157, 
    0.22019681334495544, 0.043894678354263306, 

        };
        static filter_t filter1 = {1, 2, weights1, 0.012046018615365028};
        filters[1]=filter1;
            
        static const float weights2[]={ 
    0.21761135756969452, 0.31424233317375183, 
    0.0004868369142059237, 0.011664183810353279, 

        };
        static filter_t filter2 = {1, 2, weights2, -0.07764410972595215};
        filters[2]=filter2;
            
        static const float weights3[]={ 
    0.20598100125789642, 0.12373047322034836, 
    -0.34494447708129883, -1.3101390600204468, 

        };
        static filter_t filter3 = {1, 2, weights3, 0.08326549082994461};
        filters[3]=filter3;
            
        static const float weights4[]={ 
    0.42041271924972534, 0.20924557745456696, 
    -0.39818981289863586, 0.10370389372110367, 

        };
        static filter_t filter4 = {1, 2, weights4, 0.004723977297544479};
        filters[4]=filter4;
            
        static const float weights5[]={ 
    -0.5741430521011353, 0.034559499472379684, 
    0.14116056263446808, 0.29576629400253296, 

        };
        static filter_t filter5 = {1, 2, weights5, 0.09451247751712799};
        filters[5]=filter5;
            
        static const float weights6[]={ 
    -3.460695505142212, 0.08569765090942383, 
    0.03161798417568207, -0.007741972338408232, 

        };
        static filter_t filter6 = {1, 2, weights6, 0.08500567823648453};
        filters[6]=filter6;
            
        static const float weights7[]={ 
    0.43436527252197266, -0.4870870113372803, 
    0.05520086735486984, 0.020033441483974457, 

        };
        static filter_t filter7 = {1, 2, weights7, 0.003099585184827447};
        filters[7]=filter7;
            
        static const float weights8[]={ 
    -1.0355304479599, -0.10828815400600433, 
    0.19448700547218323, 0.036578740924596786, 

        };
        static filter_t filter8 = {1, 2, weights8, 0.11201869696378708};
        filters[8]=filter8;
            
        static const float weights9[]={ 
    -0.48678597807884216, 0.17967019975185394, 
    0.38991254568099976, -0.5429626107215881, 

        };
        static filter_t filter9 = {1, 2, weights9, 0.06651467084884644};
        filters[9]=filter9;
            
        static const float weights10[]={ 
    -0.4102822244167328, 0.42394110560417175, 
    -0.02915174327790737, 0.11743220686912537, 

        };
        static filter_t filter10 = {1, 2, weights10, 0.014366068877279758};
        filters[10]=filter10;
            
        static const float weights11[]={ 
    0.32423484325408936, 0.10095416754484177, 
    0.13959971070289612, -0.2953731417655945, 

        };
        static filter_t filter11 = {1, 2, weights11, 0.003659486072137952};
        filters[11]=filter11;
            
        static const float weights12[]={ 
    -0.3454158902168274, -0.2145586609840393, 
    -0.5115550756454468, 0.2188134640455246, 

        };
        static filter_t filter12 = {1, 2, weights12, 0.16663140058517456};
        filters[12]=filter12;
            
        static const float weights13[]={ 
    0.5289356112480164, 0.044743284583091736, 
    0.014791282825171947, -0.4435061514377594, 

        };
        static filter_t filter13 = {1, 2, weights13, 0.00540368864312768};
        filters[13]=filter13;
            
        static const float weights14[]={ 
    0.3247823417186737, 0.0011353070149198174, 
    0.0014846110716462135, 0.177779883146286, 

        };
        static filter_t filter14 = {1, 2, weights14, -0.0003805622982326895};
        filters[14]=filter14;
            
        static const float weights15[]={ 
    -2.157665729522705, -0.5148273706436157, 
    0.04527287930250168, 0.03893473744392395, 

        };
        static filter_t filter15 = {1, 2, weights15, 0.17523618042469025};
        filters[15]=filter15;
            
        conv2d_layer_t layer = {16,filters};
        return layer;
        }
        

conv2d_layer_t init_conv2d_1_data(void){

        static filter_t filters[32];
        
        static const float weights0[]={ 
    0.024135475978255272, 0.061888229101896286, 
    -0.10749240964651108, -0.24596206843852997, 

    0.1625393182039261, -0.10474316030740738, 
    -0.02992650866508484, 0.04605553671717644, 

    0.10842686146497726, -0.03268977999687195, 
    0.12080144137144089, -0.05858151242136955, 

    0.071054607629776, -0.00849479902535677, 
    0.1478242725133896, -0.10699855536222458, 

    0.09805477410554886, -0.0668628066778183, 
    -0.013192410580813885, -0.11051508784294128, 

    -0.23403140902519226, 0.008885268121957779, 
    -0.022276602685451508, -0.23870153725147247, 

    -0.23383337259292603, -0.36273354291915894, 
    -0.14485350251197815, -0.46716025471687317, 

    0.13147690892219543, 0.0028230894822627306, 
    0.061644356697797775, 0.06640956550836563, 

    -0.11704488098621368, -0.1004437506198883, 
    0.15640820562839508, -0.4557376205921173, 

    -0.24302594363689423, 0.0629754289984703, 
    -0.1487995833158493, -0.3602101802825928, 

    -0.018847418949007988, 0.07858394831418991, 
    -0.008893167600035667, -0.23206079006195068, 

    0.18146052956581116, 0.10732322931289673, 
    0.1320149302482605, -0.034990910440683365, 

    -0.5086243748664856, 0.058883436024188995, 
    -0.15567895770072937, -0.23153606057167053, 

    0.2614341378211975, 0.1644667237997055, 
    0.1701628416776657, -0.10063842684030533, 

    0.022041451185941696, 0.03844546154141426, 
    -0.0033612889237701893, -0.0895049199461937, 

    -0.01496734656393528, -0.07925156503915787, 
    0.06855621933937073, -0.4293802082538605, 

        };
        static filter_t filter0 = {16, 2, weights0, 0.15207034349441528};
        filters[0]=filter0;
            
        static const float weights1[]={ 
    0.09706724435091019, -0.08250121772289276, 
    -0.18694810569286346, 0.2177337110042572, 

    -0.28929421305656433, -0.1556551307439804, 
    0.25061583518981934, -0.006795692723244429, 

    -0.0913599282503128, 0.04823218658566475, 
    -0.24701979756355286, 0.024203099310398102, 

    0.04199961572885513, -0.013103930279612541, 
    0.11708364635705948, 0.38619330525398254, 

    0.09710009396076202, -6.124947685748339e-05, 
    -0.27283522486686707, 0.024459436535835266, 

    -0.24279338121414185, -0.08651449531316757, 
    0.2349058985710144, -0.09485794603824615, 

    -0.2943107783794403, -0.12991183996200562, 
    0.3826823830604553, 0.0613565519452095, 

    -0.36801546812057495, -0.16621679067611694, 
    -0.032677989453077316, 0.030241476371884346, 

    -0.2088654637336731, -0.11666683852672577, 
    0.2431599199771881, -0.0949414074420929, 

    -0.427776962518692, 0.10548338294029236, 
    0.20282694697380066, 0.09366532415151596, 

    -0.028844531625509262, -0.16575630009174347, 
    -0.02951199747622013, -0.05082191154360771, 

    -0.2666618227958679, -0.1431930959224701, 
    -0.09514749050140381, 0.1277860403060913, 

    0.011823941022157669, 0.1613505333662033, 
    -0.02841847948729992, 0.07487037777900696, 

    -0.1895218789577484, -0.17842556536197662, 
    -0.3236766755580902, 0.006001191213726997, 

    -0.0973908081650734, -0.0007101406808942556, 
    -0.1516454815864563, -0.14833872020244598, 

    -0.25701743364334106, -0.2617965638637543, 
    0.2445610910654068, 0.052836861461400986, 

        };
        static filter_t filter1 = {16, 2, weights1, 0.125372514128685};
        filters[1]=filter1;
            
        static const float weights2[]={ 
    -0.5684381127357483, -0.14528095722198486, 
    -0.0010782320750877261, -0.397213339805603, 

    -0.16378234326839447, -0.08108412474393845, 
    0.00012479170982260257, 0.24471387267112732, 

    -0.03493155166506767, 0.16950902342796326, 
    0.039067890495061874, -0.06433653086423874, 

    -0.48976239562034607, -0.043574258685112, 
    0.3376757800579071, 0.027413686737418175, 

    0.05271803215146065, -0.21855823695659637, 
    0.040617384016513824, -0.12398567795753479, 

    -0.10423421859741211, 0.04222628474235535, 
    0.14126570522785187, 0.17768776416778564, 

    -0.10850859433412552, -0.04668709635734558, 
    0.5115573406219482, -0.8840792775154114, 

    0.0713564082980156, -0.17813265323638916, 
    -0.3892678916454315, 0.20351864397525787, 

    -0.09345568716526031, 0.09317692369222641, 
    0.13219252228736877, -0.331992506980896, 

    -0.6729987263679504, 0.17000387609004974, 
    0.07080394774675369, -0.12064745277166367, 

    -0.19073447585105896, 0.006011487450450659, 
    0.1182723343372345, -0.3196272552013397, 

    -0.250772088766098, 0.1870047003030777, 
    -0.21548616886138916, 0.041578348726034164, 

    -0.040859948843717575, -0.10995988547801971, 
    0.10838068276643753, 0.05589520186185837, 

    -0.22457170486450195, 0.20155778527259827, 
    -0.10801863670349121, -0.10640566796064377, 

    0.09433714300394058, -0.18539874255657196, 
    -0.10412435978651047, 0.06281253695487976, 

    -0.02033732831478119, 0.100919708609581, 
    0.016959605738520622, -0.306965708732605, 

        };
        static filter_t filter2 = {16, 2, weights2, 0.13829879462718964};
        filters[2]=filter2;
            
        static const float weights3[]={ 
    -0.286891371011734, 0.017654266208410263, 
    0.21622687578201294, 0.033000051975250244, 

    -0.36515384912490845, -0.1698118895292282, 
    0.1991153210401535, 0.0620788112282753, 

    -0.7347171902656555, -0.021654769778251648, 
    -0.20945559442043304, -0.016156908124685287, 

    -0.03123205527663231, 0.009715580381453037, 
    -0.30596813559532166, -0.17077089846134186, 

    -0.4373329281806946, -0.0553680844604969, 
    -0.20254480838775635, 0.05300739035010338, 

    0.15806153416633606, -0.02936052344739437, 
    0.09586333483457565, 0.07178210467100143, 

    0.5062033534049988, 0.14786945283412933, 
    0.3101741075515747, 0.2579846978187561, 

    -0.7733694911003113, -0.10065121948719025, 
    0.1304677277803421, 0.12050844728946686, 

    0.5209574103355408, -0.13153347373008728, 
    0.12582793831825256, 0.21125870943069458, 

    0.050751712173223495, -0.09781777113676071, 
    -0.1582958698272705, 0.018480977043509483, 

    -0.12543147802352905, 0.05177117511630058, 
    0.20294448733329773, 0.0811038687825203, 

    -0.5243815779685974, -0.12835560739040375, 
    -0.11256539821624756, 0.0480041429400444, 

    0.3819543123245239, 0.06614229083061218, 
    0.08170643448829651, 0.014716805890202522, 

    -1.1300355195999146, -0.27010583877563477, 
    -0.2788020372390747, -0.08016975969076157, 

    -0.6689453125, -0.0322907380759716, 
    -0.05404238775372505, -0.0020630420185625553, 

    0.8413988947868347, -0.17289194464683533, 
    0.2121698260307312, -0.013795292004942894, 

        };
        static filter_t filter3 = {16, 2, weights3, 0.01709350198507309};
        filters[3]=filter3;
            
        static const float weights4[]={ 
    -0.02137056551873684, 0.16225627064704895, 
    -0.08257309347391129, 0.09480929374694824, 

    -0.07665355503559113, 0.10807599872350693, 
    -0.07786281406879425, -0.24602365493774414, 

    0.06897278875112534, -0.058635663241147995, 
    -0.025126170367002487, -0.03262864425778389, 

    0.23373226821422577, -0.015231168828904629, 
    -0.360275000333786, -0.006498372182250023, 

    0.21679262816905975, -0.03304385021328926, 
    -0.10360332578420639, 0.12085460126399994, 

    -0.0591403990983963, 0.07710876315832138, 
    0.16088224947452545, 0.07083555310964584, 

    0.0531729981303215, 0.08648079633712769, 
    -0.14187783002853394, -0.0184024590998888, 

    0.05033962056040764, 0.038263265043497086, 
    -0.19058862328529358, -0.24457323551177979, 

    -0.15704545378684998, -0.25041839480400085, 
    -0.22176724672317505, 0.03192264586687088, 

    -0.45401695370674133, -0.21118593215942383, 
    -0.23044289648532867, -0.2232477068901062, 

    0.08783694356679916, 0.020672254264354706, 
    0.22736018896102905, 0.1567675620317459, 

    0.07263772189617157, 0.04019203782081604, 
    -0.12082977592945099, -0.008500857278704643, 

    0.08953938633203506, -0.20223471522331238, 
    0.12429206073284149, -0.07322021573781967, 

    0.10984323918819427, -0.12508684396743774, 
    -0.309074342250824, -0.07268142700195312, 

    0.11975770443677902, -0.08284453302621841, 
    -0.020377565175294876, 0.015084754675626755, 

    -0.2077622413635254, -0.5758980512619019, 
    0.10603785514831543, -0.049759164452552795, 

        };
        static filter_t filter4 = {16, 2, weights4, 0.168073371052742};
        filters[4]=filter4;
            
        static const float weights5[]={ 
    0.1497100293636322, -0.09999601542949677, 
    -0.6356843709945679, -0.09851213544607162, 

    0.08133570104837418, -0.17008568346500397, 
    -0.0007444160291925073, -0.1688060611486435, 

    0.1083630621433258, 0.0504719503223896, 
    -0.1711721271276474, -0.022967997938394547, 

    0.2507244944572449, 0.03787413239479065, 
    -0.16613228619098663, 0.03037496656179428, 

    -0.008014285005629063, 0.03105992265045643, 
    -0.4962395429611206, -0.013302137143909931, 

    -0.6398211121559143, 0.03687073290348053, 
    0.05154525488615036, -0.054574523121118546, 

    -0.3129119873046875, 0.011245738714933395, 
    0.1864178329706192, 0.2680618464946747, 

    0.04533231258392334, -0.14082778990268707, 
    -0.01728178933262825, -0.07645922154188156, 

    -0.7712309956550598, 0.17189918458461761, 
    0.1887219101190567, -0.03134671971201897, 

    -0.34215742349624634, 0.04777791351079941, 
    0.2286064475774765, -0.2929375171661377, 

    -0.08385464549064636, 0.012645786628127098, 
    -0.15127810835838318, -0.04546303674578667, 

    -0.011257221922278404, 0.1138557568192482, 
    0.21868044137954712, -0.3530281186103821, 

    -0.29341650009155273, -0.08674204349517822, 
    -0.25050464272499084, -0.04781930148601532, 

    0.0728226751089096, 0.0889681875705719, 
    -0.04450781270861626, -0.3107536733150482, 

    0.039868567138910294, 0.061374958604574203, 
    -0.24303902685642242, -0.0726027637720108, 

    0.213030144572258, -0.05959976464509964, 
    -0.041302505880594254, 0.20594707131385803, 

        };
        static filter_t filter5 = {16, 2, weights5, 0.2012285590171814};
        filters[5]=filter5;
            
        static const float weights6[]={ 
    -0.14508773386478424, -0.010385648347437382, 
    -0.5468440055847168, 0.12948615849018097, 

    -0.2960827052593231, 0.07718691229820251, 
    0.07320749759674072, -0.08535560965538025, 

    -0.042103737592697144, 0.054330505430698395, 
    0.12623891234397888, -0.06929563730955124, 

    -0.1919156312942505, 0.05741141363978386, 
    -0.03048638626933098, 0.2618541121482849, 

    -0.3661595284938812, 0.13801944255828857, 
    0.09888570755720139, -0.18434099853038788, 

    -0.006159396842122078, 0.07130526751279831, 
    -0.29244014620780945, -0.009398640133440495, 

    0.08049095422029495, -0.0028373762033879757, 
    -0.8595877289772034, 0.4589845538139343, 

    -0.162915900349617, 0.0444766990840435, 
    0.10334938764572144, -0.08306162059307098, 

    0.16525796055793762, 0.27591466903686523, 
    -0.1317371129989624, -0.0004919798811897635, 

    0.22034627199172974, -0.1048942357301712, 
    0.09035317599773407, -0.00444143358618021, 

    0.10378894209861755, -0.00828146655112505, 
    -0.7730071544647217, -0.03634257614612579, 

    0.038566187024116516, -0.0038701046723872423, 
    0.14747482538223267, -0.04458509013056755, 

    -0.06271740794181824, 0.054617684334516525, 
    -0.07199353724718094, 0.19489166140556335, 

    0.08769606053829193, -0.0249768178910017, 
    -0.03772244602441788, 0.09189792722463608, 

    -0.2538544535636902, -0.020830154418945312, 
    0.08771006017923355, -0.1297501027584076, 

    -0.052948903292417526, 0.18425987660884857, 
    -0.39381125569343567, 0.06146756559610367, 

        };
        static filter_t filter6 = {16, 2, weights6, 0.08999158442020416};
        filters[6]=filter6;
            
        static const float weights7[]={ 
    -0.0504770465195179, 0.17528843879699707, 
    -0.10477011650800705, 0.08290065824985504, 

    -0.016900543123483658, 0.2724369168281555, 
    -0.06510119885206223, 0.029249081388115883, 

    0.0847570076584816, 0.10633376985788345, 
    -0.01675562746822834, 0.0796586126089096, 

    -0.1730208843946457, -0.013365521095693111, 
    -0.07688718289136887, 0.17504270374774933, 

    0.1722719669342041, 0.09447883814573288, 
    -0.05796842649579048, 0.01300341822206974, 

    -0.2614724338054657, 0.09691412001848221, 
    0.17299485206604004, 0.08226001262664795, 

    -0.26941487193107605, -0.060790255665779114, 
    0.22685399651527405, -0.14237427711486816, 

    0.022631140425801277, 0.23592345416545868, 
    -0.08356356620788574, -0.08395020663738251, 

    -0.5283427834510803, -0.18742559850215912, 
    -0.0581720732152462, 0.0021964237093925476, 

    -0.20919381082057953, 0.07179190963506699, 
    -0.03175107762217522, -0.10989627987146378, 

    0.2182478904724121, 0.1149943396449089, 
    0.23050378262996674, 0.0808807834982872, 

    0.061506178230047226, 0.060437433421611786, 
    0.06112169474363327, -0.051040731370449066, 

    -0.30713748931884766, -0.21449768543243408, 
    -0.07909445464611053, 0.052485376596450806, 

    0.032868947833776474, -0.0532245859503746, 
    0.02995946817100048, 0.18926021456718445, 

    0.024120012298226357, 0.043047886341810226, 
    -0.05364178866147995, 0.12163025885820389, 

    -0.5277892351150513, 0.022487720474600792, 
    0.18808963894844055, 0.037086352705955505, 

        };
        static filter_t filter7 = {16, 2, weights7, -0.05460372567176819};
        filters[7]=filter7;
            
        static const float weights8[]={ 
    0.018458791077136993, -0.26248490810394287, 
    -0.330638587474823, 0.2030661702156067, 

    -0.2869653105735779, 0.15158089995384216, 
    0.1281445473432541, 0.280233770608902, 

    -0.08011933416128159, -0.29396793246269226, 
    0.058993443846702576, -0.04234731197357178, 

    0.05206723511219025, -0.02174237184226513, 
    0.035981886088848114, 0.05277840048074722, 

    -0.18271498382091522, -0.054617516696453094, 
    0.15672950446605682, -0.038299478590488434, 

    -0.05298184975981712, 0.014050369150936604, 
    0.1364043802022934, 0.09263675659894943, 

    0.25436845421791077, -0.6154342889785767, 
    -0.10007759183645248, 0.11692219972610474, 

    -0.4331953227519989, 0.1664910465478897, 
    -0.020303158089518547, 0.08934672921895981, 

    0.14353694021701813, -0.13545817136764526, 
    0.16906024515628815, 0.016739262267947197, 

    -0.010206163860857487, -0.3461983799934387, 
    -0.08414005488157272, 0.11855030804872513, 

    0.09498138725757599, -0.3597080707550049, 
    0.0021490994840860367, 0.014058757573366165, 

    0.07603553682565689, 0.06484785676002502, 
    -0.11431851238012314, 0.08642446249723434, 

    -0.16978731751441956, -0.08516302704811096, 
    -0.03510662913322449, 0.031605686992406845, 

    0.06274451315402985, -0.05458748713135719, 
    -0.06999843567609787, -0.1225903332233429, 

    -0.2248164415359497, -0.07299472391605377, 
    0.10362287610769272, -0.011534985154867172, 

    0.06467421352863312, -0.023949552327394485, 
    -0.03900262340903282, 0.1767493635416031, 

        };
        static filter_t filter8 = {16, 2, weights8, 0.13474729657173157};
        filters[8]=filter8;
            
        static const float weights9[]={ 
    -0.1585703045129776, -0.006426436360925436, 
    0.29496726393699646, -0.060827866196632385, 

    -0.05257571116089821, 0.1174388900399208, 
    -0.183810293674469, -0.14778338372707367, 

    0.06859606504440308, -0.02090858481824398, 
    -0.1310623437166214, -0.012594571337103844, 

    -0.1395900696516037, -0.08545001596212387, 
    0.45919710397720337, -0.10248851776123047, 

    0.020251845940947533, 0.07408519834280014, 
    0.10009395331144333, 0.010359048843383789, 

    0.012109012342989445, -0.08088146150112152, 
    -0.2236061990261078, 0.01450975239276886, 

    -0.2105453610420227, -0.12012502551078796, 
    -0.7535824179649353, 0.2526392936706543, 

    0.007539885584264994, 0.0876537337899208, 
    -0.11193203926086426, 0.0053259930573403835, 

    0.01700124703347683, -0.16518361866474152, 
    -0.563228189945221, 0.14243799448013306, 

    0.08601917326450348, 0.07731273025274277, 
    -0.33850976824760437, 0.18054281175136566, 

    -0.027965666726231575, 0.019947946071624756, 
    -0.1434657722711563, -0.025684893131256104, 

    0.12671324610710144, 0.11553002893924713, 
    -0.11413639038801193, 0.09297245740890503, 

    -0.22100748121738434, 0.08724986016750336, 
    0.32389509677886963, 0.03347564861178398, 

    0.033783361315727234, -0.014211866073310375, 
    0.08470530807971954, -0.007086527533829212, 

    0.006719360593706369, 0.13169027864933014, 
    -0.06827303022146225, 0.11995832622051239, 

    -0.45697271823883057, 0.13083431124687195, 
    -0.37338319420814514, -0.012342889793217182, 

        };
        static filter_t filter9 = {16, 2, weights9, 0.09252845495939255};
        filters[9]=filter9;
            
        static const float weights10[]={ 
    -0.4507257342338562, 0.01982467621564865, 
    0.24381381273269653, -0.27632325887680054, 

    0.07481899112462997, -0.0679243952035904, 
    0.04452768713235855, -0.1153789833188057, 

    -0.033321257680654526, -0.11395642906427383, 
    0.07166040688753128, 0.06797083467245102, 

    -0.04399503767490387, -0.008727101609110832, 
    -0.16029073297977448, -0.2618814706802368, 

    0.025608008727431297, 0.004156022798269987, 
    -0.005902435630559921, -0.023418322205543518, 

    -0.04974561929702759, 0.12062861770391464, 
    0.04774758964776993, 0.14788341522216797, 

    -0.8028641939163208, -0.1565234363079071, 
    -0.542400598526001, -0.0164342001080513, 

    0.03671885281801224, -0.09214886277914047, 
    -0.1262856274843216, -0.04176916182041168, 

    0.021023854613304138, -0.04175425320863724, 
    -0.1688220500946045, 0.02714850753545761, 

    -0.13379648327827454, -0.0840415358543396, 
    -0.0244839359074831, -0.0013429411919787526, 

    -0.33811137080192566, 0.09356130659580231, 
    0.06716564297676086, -0.05827995389699936, 

    0.0110557209700346, 0.0314815528690815, 
    -0.044467173516750336, -0.07205124199390411, 

    0.0440286323428154, 0.19487601518630981, 
    -0.026800889521837234, 0.20466461777687073, 

    0.00610594917088747, -0.05135608837008476, 
    0.03775437921285629, 0.0897117331624031, 

    -0.03526533767580986, -0.03357648476958275, 
    0.06510812044143677, 0.1237330511212349, 

    -0.26710110902786255, -0.09696963429450989, 
    -0.16726092994213104, 0.10603441298007965, 

        };
        static filter_t filter10 = {16, 2, weights10, 0.15138161182403564};
        filters[10]=filter10;
            
        static const float weights11[]={ 
    0.03131803125143051, 0.02697291411459446, 
    0.11681970208883286, 0.07851595431566238, 

    -0.22315506637096405, 0.015566108748316765, 
    0.04341558739542961, 0.05560136213898659, 

    -0.04438919201493263, 0.11964410543441772, 
    0.03578951582312584, 0.11615467816591263, 

    -0.32423436641693115, 0.02993357740342617, 
    0.0021877905819565058, 0.0006561836926266551, 

    -0.23858784139156342, -0.07886666059494019, 
    -0.05343671888113022, 0.017961770296096802, 

    -0.005702685564756393, -0.04994537681341171, 
    -0.10167182981967926, 0.21024475991725922, 

    0.6566818356513977, -0.10752743482589722, 
    -0.20013684034347534, 0.4113151729106903, 

    -0.4446435868740082, -0.043928489089012146, 
    -0.14904305338859558, -0.026729203760623932, 

    0.11527179181575775, -0.0022461838088929653, 
    -0.2694856822490692, 0.19744721055030823, 

    0.20797696709632874, 0.05839742720127106, 
    -0.20196934044361115, 0.09256304800510406, 

    0.15520143508911133, -0.04552478715777397, 
    0.22308650612831116, 0.10017931461334229, 

    -0.11250188946723938, 0.03740455582737923, 
    0.04499087110161781, -0.053238607943058014, 

    -0.14726783335208893, -0.17055828869342804, 
    0.10080453753471375, -0.177053302526474, 

    -0.27476102113723755, 0.08654806017875671, 
    0.052450355142354965, 0.08818108588457108, 

    -0.09599937498569489, -0.07949793338775635, 
    0.06480930745601654, -0.030110888183116913, 

    0.10300294309854507, -0.07111787796020508, 
    -0.06316190212965012, 0.3564717471599579, 

        };
        static filter_t filter11 = {16, 2, weights11, 0.033436693251132965};
        filters[11]=filter11;
            
        static const float weights12[]={ 
    -0.2975804805755615, 0.14441175758838654, 
    -0.06562884896993637, 0.03569827601313591, 

    0.23173078894615173, -0.0347861610352993, 
    0.03457431495189667, -0.11433002352714539, 

    -0.27306944131851196, 0.0786520317196846, 
    0.12112162262201309, 0.01482594944536686, 

    0.11971702426671982, -0.33350905776023865, 
    -0.10674057900905609, 0.16712237894535065, 

    -0.19186049699783325, 0.021531952545046806, 
    0.0674360916018486, -0.03138471394777298, 

    -0.06249189376831055, 0.1394985318183899, 
    0.03747051954269409, -0.07027459144592285, 

    0.02368343435227871, 0.5495784878730774, 
    0.11996527016162872, 0.08913897722959518, 

    0.011196947656571865, -0.3216538429260254, 
    -0.011654824949800968, -0.10586892068386078, 

    0.22939324378967285, 0.20564383268356323, 
    0.21964649856090546, 0.012430000118911266, 

    -0.08449240028858185, 0.09023293852806091, 
    0.010709168389439583, 0.1944950371980667, 

    -0.39825236797332764, 0.03526940196752548, 
    -0.157526433467865, 0.02563752792775631, 

    0.06499332189559937, -0.18218019604682922, 
    0.08253677934408188, 0.13144300878047943, 

    -0.20078931748867035, -0.010069022886455059, 
    -0.07306668162345886, -0.27075907588005066, 

    -0.006014297250658274, -0.7931728959083557, 
    0.04525214061141014, 0.0026156387757509947, 

    0.018344692885875702, -0.14147207140922546, 
    0.02732846885919571, -0.14794136583805084, 

    0.10062971711158752, 0.24953694641590118, 
    -0.03681020811200142, -0.4416174292564392, 

        };
        static filter_t filter12 = {16, 2, weights12, 0.09063111245632172};
        filters[12]=filter12;
            
        static const float weights13[]={ 
    -0.047767411917448044, 0.025484366342425346, 
    0.06945563107728958, -0.570592999458313, 

    -0.18916593492031097, 0.00024411971389781684, 
    -0.003440884407609701, -0.0212955791503191, 

    0.1982748657464981, -0.01802099496126175, 
    0.053165074437856674, -0.04780610650777817, 

    -0.1342168152332306, 0.12938733398914337, 
    0.059700291603803635, -0.0672508105635643, 

    0.020583534613251686, 0.04171311482787132, 
    0.1441574990749359, 0.02052353508770466, 

    -0.10879820585250854, -0.3712936341762543, 
    -0.01138356514275074, 0.07359527051448822, 

    -0.20665337145328522, -0.6852840185165405, 
    -0.35076627135276794, -0.07296352833509445, 

    0.0165852177888155, -0.09251324087381363, 
    0.15586312115192413, 0.07481687515974045, 

    -0.050406575202941895, -0.21916452050209045, 
    -0.12385853379964828, 0.11641552299261093, 

    -0.04830775409936905, -0.01714775152504444, 
    0.05601884424686432, 0.03732707351446152, 

    -0.12021275609731674, -0.40817761421203613, 
    0.08012635260820389, -0.2706679105758667, 

    0.27995553612709045, -0.005926703568547964, 
    0.04023399576544762, 0.02844701148569584, 

    -0.12008119374513626, -0.20444487035274506, 
    0.04963894560933113, -0.1291685849428177, 

    0.3508014380931854, -0.03316286578774452, 
    -0.02600679360330105, 0.20509234070777893, 

    0.242836594581604, 0.03240062668919563, 
    0.06045585498213768, 0.012052606791257858, 

    -0.3851342797279358, -0.3899986147880554, 
    -0.38808149099349976, -0.05687135085463524, 

        };
        static filter_t filter13 = {16, 2, weights13, 0.06022372469305992};
        filters[13]=filter13;
            
        static const float weights14[]={ 
    -9.160881745629013e-06, 0.05115751177072525, 
    -0.7781972289085388, -0.04705509915947914, 

    -0.15377190709114075, 0.019163023680448532, 
    0.032552096992731094, -0.03468756377696991, 

    -0.005368802230805159, 0.11278282105922699, 
    -0.7194357514381409, 0.0474204495549202, 

    0.24558177590370178, 0.052675820887088776, 
    -0.07616093754768372, -0.18146570026874542, 

    0.0591137669980526, 0.06835058331489563, 
    -0.3180239498615265, -0.11741303652524948, 

    -0.2077247053384781, 0.11243104934692383, 
    0.08712127059698105, 0.1808469146490097, 

    0.14806607365608215, 0.09866845607757568, 
    -0.10535549372434616, 0.48573026061058044, 

    -0.057385869324207306, -0.07416694611310959, 
    0.10933788120746613, -0.3271470367908478, 

    0.0017080833204090595, 0.016843389719724655, 
    0.11548791825771332, 0.11178144812583923, 

    -0.12164991348981857, -0.03973732143640518, 
    -0.5080137252807617, 0.003391752950847149, 

    -0.07977502793073654, 0.12218953669071198, 
    -0.21295641362667084, 0.027733517810702324, 

    0.08163363486528397, -0.022930746898055077, 
    -0.742202877998352, 0.055811576545238495, 

    -0.1623041331768036, 0.14848633110523224, 
    0.3110785484313965, -0.17827335000038147, 

    0.04817257821559906, 0.08529621362686157, 
    -0.7984483242034912, -0.1781381219625473, 

    -0.032520633190870285, 0.0851336196064949, 
    0.020272402092814445, -0.2562611401081085, 

    0.1666303277015686, 0.14414182305335999, 
    0.2998400628566742, 0.1456916183233261, 

        };
        static filter_t filter14 = {16, 2, weights14, 0.01973900943994522};
        filters[14]=filter14;
            
        static const float weights15[]={ 
    0.025216341018676758, -0.8594828248023987, 
    -0.170467346906662, 0.23657675087451935, 

    -0.05258207768201828, 0.23495851457118988, 
    -0.09536091238260269, -0.3340228796005249, 

    -0.00417798338457942, -0.35273614525794983, 
    0.028417052701115608, -0.017981138080358505, 

    -0.22277499735355377, -0.306119829416275, 
    -0.14345498383045197, 0.40421074628829956, 

    -0.06881614029407501, 0.00952606089413166, 
    -0.16190378367900848, 0.023038802668452263, 

    -0.12814703583717346, 0.022546915337443352, 
    0.06505684554576874, 0.10947476327419281, 

    0.15252511203289032, -0.110749252140522, 
    0.3155403733253479, -0.07995373010635376, 

    -0.014623278751969337, 0.23143158853054047, 
    -0.1419597566127777, -0.2567727267742157, 

    -0.17552918195724487, 0.04154723882675171, 
    0.19747427105903625, 0.15243355929851532, 

    0.009365202859044075, -0.23785439133644104, 
    0.08737887442111969, 0.1436464637517929, 

    -0.15652091801166534, -0.22633104026317596, 
    0.0005491826450452209, -0.037309251725673676, 

    0.17078207433223724, -0.4301024377346039, 
    -0.036645837128162384, 0.16361472010612488, 

    0.01575743779540062, 0.2867608070373535, 
    0.19888977706432343, -0.2102590948343277, 

    0.164143905043602, -0.37897220253944397, 
    0.08238814771175385, 0.15468670427799225, 

    0.11809317022562027, 0.09144856035709381, 
    -0.08617802709341049, -0.04021812230348587, 

    -0.008630641736090183, 0.0601319819688797, 
    0.24115894734859467, -0.18240144848823547, 

        };
        static filter_t filter15 = {16, 2, weights15, -0.016726765781641006};
        filters[15]=filter15;
            
        static const float weights16[]={ 
    0.01782245561480522, 0.12842456996440887, 
    0.008113235235214233, 0.01248285174369812, 

    -0.061433110386133194, -0.08951586484909058, 
    -0.039362311363220215, 0.00487454142421484, 

    -0.08139440417289734, 0.09437547624111176, 
    0.017259396612644196, 0.07668081670999527, 

    0.046922363340854645, 0.04414847865700722, 
    0.2270667850971222, 0.014084920287132263, 

    -0.034640658646821976, -0.0007706025498919189, 
    -0.05169086903333664, -0.005298262927681208, 

    0.01770450919866562, -0.009740271605551243, 
    0.19375000894069672, 0.10030843317508698, 

    -0.2578016519546509, 0.36232638359069824, 
    0.25803959369659424, -0.160631462931633, 

    0.11121416836977005, -0.09068731218576431, 
    0.08927325159311295, 0.16720622777938843, 

    -0.08719732612371445, -0.0791376531124115, 
    0.24842476844787598, 0.042393896728754044, 

    0.055473633110523224, 0.010198543779551983, 
    -0.24373891949653625, -0.06771712005138397, 

    -0.017874883487820625, -0.04969657585024834, 
    0.15125946700572968, -0.023696353659033775, 

    0.065344899892807, 0.1535419523715973, 
    -0.016003906726837158, -0.10685352981090546, 

    0.2773006856441498, 0.02454816922545433, 
    -0.16974689066410065, -0.0033596374560147524, 

    0.05959939584136009, 0.20756541192531586, 
    -0.1164293885231018, -0.07613159716129303, 

    -0.08944195508956909, 0.13974151015281677, 
    0.09733400493860245, 0.20308905839920044, 

    0.37353596091270447, 0.5375546813011169, 
    -0.18668733537197113, -0.13892120122909546, 

        };
        static filter_t filter16 = {16, 2, weights16, -0.10568996518850327};
        filters[16]=filter16;
            
        static const float weights17[]={ 
    -0.07523014396429062, -0.2052890807390213, 
    -0.0003510174574330449, -0.15872299671173096, 

    -0.08966372907161713, 0.07985302805900574, 
    -0.06687011569738388, -0.06669864058494568, 

    0.11077023297548294, 0.028435897082090378, 
    0.04834992066025734, 0.19278837740421295, 

    -0.3726360499858856, -0.22914202511310577, 
    -0.050073690712451935, -0.17339515686035156, 

    -0.13230536878108978, 0.00019954596064053476, 
    0.027778051793575287, 0.20060832798480988, 

    0.0786186084151268, -0.008343720808625221, 
    -0.21308209002017975, -0.04241947829723358, 

    -0.16927602887153625, 0.09480158984661102, 
    -0.29849565029144287, -0.3043312728404999, 

    -0.11104477196931839, -0.02073592320084572, 
    0.08445820212364197, 0.035302646458148956, 

    0.18342211842536926, -0.060984302312135696, 
    -0.10030330717563629, -0.16188961267471313, 

    0.012090932577848434, -0.18764770030975342, 
    0.10230040550231934, -0.27489611506462097, 

    0.16320495307445526, 0.061014533042907715, 
    -0.08635533601045609, 0.09507390111684799, 

    -0.12663081288337708, 0.016468970105051994, 
    0.18985895812511444, -0.05433604121208191, 

    -0.17190133035182953, -0.35897547006607056, 
    -0.6316021680831909, 0.1268034726381302, 

    -0.17082113027572632, -0.13080482184886932, 
    0.1035463735461235, -0.0654381588101387, 

    0.018277669325470924, 0.14261965453624725, 
    0.07901700586080551, 0.14996062219142914, 

    -0.30795541405677795, -0.6385297775268555, 
    -0.4078172743320465, -0.11007708311080933, 

        };
        static filter_t filter17 = {16, 2, weights17, 0.08335579931735992};
        filters[17]=filter17;
            
        static const float weights18[]={ 
    -0.2664412558078766, 0.015337142162024975, 
    -0.006396574433892965, 0.07089649885892868, 

    -0.08082494139671326, -0.09906405955553055, 
    0.03258824348449707, -0.040707994252443314, 

    -0.23159386217594147, -0.07289779186248779, 
    -0.07499973475933075, 0.06253324449062347, 

    -0.008516610600054264, -0.07639380544424057, 
    -0.33740970492362976, -0.07257719337940216, 

    -0.06960361450910568, 0.010496268048882484, 
    -0.10058087110519409, 0.1493317037820816, 

    0.04013631120324135, 0.15066570043563843, 
    0.03062487579882145, 0.1789431869983673, 

    0.21549230813980103, 0.03800208494067192, 
    0.3440122902393341, 0.38018661737442017, 

    -0.21952617168426514, -0.19445392489433289, 
    0.1462189108133316, -0.1399756520986557, 

    -0.06848994642496109, 0.18837597966194153, 
    0.15097719430923462, -0.05937761813402176, 

    0.09154106676578522, -0.06750962138175964, 
    -0.03372928500175476, -0.018433529883623123, 

    -0.0395367369055748, 0.15888428688049316, 
    0.1326877474784851, 0.17284032702445984, 

    -0.1072855070233345, -0.19372142851352692, 
    -0.09613050520420074, -0.11927330493927002, 

    0.3595079779624939, 0.05535997822880745, 
    -0.2522280812263489, -0.015611197799444199, 

    -0.10286084562540054, -0.3398473560810089, 
    0.038861602544784546, -0.041948944330215454, 

    -0.15057939291000366, 0.15018171072006226, 
    -0.039111070334911346, 0.023202747106552124, 

    0.038897328078746796, 0.08445720374584198, 
    0.06600945442914963, -0.03705479949712753, 

        };
        static filter_t filter18 = {16, 2, weights18, 0.02852759324014187};
        filters[18]=filter18;
            
        static const float weights19[]={ 
    0.2667488753795624, 0.012527545914053917, 
    -0.05774920806288719, 0.07180299609899521, 

    -0.18156632781028748, -0.15962907671928406, 
    -0.24583159387111664, -0.7062473297119141, 

    0.05730336531996727, -0.021111756563186646, 
    -0.031860485672950745, 0.058996669948101044, 

    0.25721409916877747, -0.2357722669839859, 
    0.15588568150997162, 0.17586760222911835, 

    0.11078009754419327, 0.08697979152202606, 
    -0.40719306468963623, 0.06883959472179413, 

    0.16806596517562866, -0.10630668699741364, 
    -0.08235864341259003, 0.052289653569459915, 

    0.15716715157032013, 0.044072188436985016, 
    0.5096759796142578, 0.24456636607646942, 

    -0.25994935631752014, 0.04380398988723755, 
    -0.41306445002555847, -0.40406355261802673, 

    -0.12454570084810257, -0.02184423990547657, 
    0.0279257632791996, -0.1825854629278183, 

    0.06667459011077881, -0.10740473121404648, 
    0.23168864846229553, -0.026314502581954002, 

    0.03095337748527527, 0.08180215209722519, 
    0.08227676898241043, 0.07669547200202942, 

    -0.06666523963212967, -0.09040519595146179, 
    -0.020495044067502022, -0.04336535185575485, 

    0.061343517154455185, -0.19638283550739288, 
    -0.03023734875023365, 0.059248533099889755, 

    0.05221845954656601, -0.049714069813489914, 
    -0.290723592042923, 0.12695612013339996, 

    -0.043691568076610565, 0.11464165151119232, 
    -0.5741721391677856, 0.07912970334291458, 

    0.12308790534734726, -0.15516382455825806, 
    0.3487928807735443, -0.12803831696510315, 

        };
        static filter_t filter19 = {16, 2, weights19, 0.07329380512237549};
        filters[19]=filter19;
            
        static const float weights20[]={ 
    0.12439626455307007, 0.0005007653962820768, 
    -0.9453698992729187, 0.08273877203464508, 

    -0.07912653684616089, -0.014269042760133743, 
    0.1868109405040741, 0.03208155557513237, 

    0.04439447447657585, 0.0002626823843456805, 
    -0.10494223982095718, 0.08041005581617355, 

    0.19423893094062805, 0.18731871247291565, 
    -0.27723151445388794, -0.05763963609933853, 

    -0.017052525654435158, 0.004769247490912676, 
    -0.058502309024333954, -0.21839585900306702, 

    -0.2415343075990677, -0.047218289226293564, 
    -0.048608843237161636, -0.04147648438811302, 

    -0.3304103910923004, -0.1793833076953888, 
    0.15787683427333832, 0.6768398284912109, 

    0.05457782745361328, 0.016512276604771614, 
    0.1767352670431137, -0.27048152685165405, 

    0.00319307716563344, -0.33870530128479004, 
    0.03093315102159977, 0.114399254322052, 

    0.004307648167014122, -0.2824631333351135, 
    0.08428805321455002, -0.05609036982059479, 

    -0.04264519363641739, 0.1646251380443573, 
    -0.44506874680519104, 0.08122458308935165, 

    -0.0047948104329407215, -0.10137233883142471, 
    0.13961337506771088, -0.013562017120420933, 

    -0.26882150769233704, 0.2614518105983734, 
    -0.18432782590389252, -0.0021217740140855312, 

    0.09615472704172134, -0.03306245431303978, 
    -0.019755110144615173, -0.2631324529647827, 

    -0.07223263382911682, 0.008082931861281395, 
    0.011701000854372978, -0.16724705696105957, 

    -0.32585564255714417, -0.014069166034460068, 
    -0.02743077464401722, 0.2838004231452942, 

        };
        static filter_t filter20 = {16, 2, weights20, 0.17323192954063416};
        filters[20]=filter20;
            
        static const float weights21[]={ 
    -0.04378820210695267, -0.003727697767317295, 
    -0.07400843501091003, 0.25140026211738586, 

    -0.03772963955998421, -0.29740455746650696, 
    0.051022280007600784, 0.11188526451587677, 

    0.010015047155320644, 0.07297477126121521, 
    0.0636068806052208, -0.0038627139292657375, 

    0.013009092770516872, -0.2546817362308502, 
    0.01924719847738743, -0.07209393382072449, 

    -0.03466988727450371, -0.01744263432919979, 
    0.07169229537248611, -0.1446855217218399, 

    -0.19316565990447998, 0.032184261828660965, 
    -0.039751362055540085, 0.013705642893910408, 

    -0.9813172221183777, 0.3226796090602875, 
    -0.15133734047412872, -0.05302111431956291, 

    0.07513618469238281, -0.31334149837493896, 
    0.03653242066502571, -0.02212008461356163, 

    -0.10846778005361557, 0.20129214227199554, 
    -0.13914792239665985, -0.10322020947933197, 

    -0.014806536026299, 0.16624139249324799, 
    -0.1991734355688095, 6.633075827267021e-05, 

    -0.7190659046173096, 0.02166859805583954, 
    -0.16747313737869263, 0.09607125073671341, 

    0.0447549968957901, -0.07924092561006546, 
    -0.05771707370877266, 0.18468667566776276, 

    -0.3339969515800476, -0.03352053463459015, 
    0.19604940712451935, -0.10250778496265411, 

    0.08859415352344513, -0.21949762105941772, 
    0.050633396953344345, -0.06297598779201508, 

    0.061113160103559494, -0.1507653445005417, 
    0.017148775979876518, -0.13405944406986237, 

    -0.4831949770450592, -0.07264262437820435, 
    0.18849851191043854, 0.06314574927091599, 

        };
        static filter_t filter21 = {16, 2, weights21, 0.23449982702732086};
        filters[21]=filter21;
            
        static const float weights22[]={ 
    -0.5039399862289429, -0.1004420667886734, 
    0.16939052939414978, -0.4441347122192383, 

    -0.20969848334789276, -0.33696141839027405, 
    0.19257204234600067, -0.11326076835393906, 

    -0.19333124160766602, 0.046044398099184036, 
    -0.07431023567914963, 0.008958449587225914, 

    -0.49280470609664917, 0.09966287761926651, 
    0.08018028736114502, -0.37003064155578613, 

    -0.37429964542388916, 0.1256704032421112, 
    0.026385484263300896, 0.03930708020925522, 

    -0.0758420005440712, -0.07616519927978516, 
    0.09740451723337173, 0.1355985701084137, 

    0.12075065821409225, 0.1370115429162979, 
    -0.18659986555576324, 0.08880316466093063, 

    -0.13025179505348206, -0.23981043696403503, 
    0.14347012341022491, -0.05537499487400055, 

    0.058253683149814606, 0.00652396259829402, 
    -0.07966285943984985, 0.10494016855955124, 

    0.2515295743942261, 0.14455801248550415, 
    0.1291603296995163, 0.08474096655845642, 

    -0.11666993796825409, 0.02481750026345253, 
    -0.06730850785970688, 0.053100377321243286, 

    -0.036700185388326645, -0.07119119167327881, 
    -0.03660277649760246, -0.10210379958152771, 

    0.22957304120063782, -0.08593906462192535, 
    -0.16819548606872559, 0.1071387454867363, 

    -0.12591584026813507, -0.1518375128507614, 
    0.10454999655485153, -0.4123240113258362, 

    -0.17137731611728668, -0.06532888859510422, 
    0.02054433710873127, 0.19382181763648987, 

    0.16832038760185242, -0.2871169447898865, 
    0.04918235167860985, 0.14643754065036774, 

        };
        static filter_t filter22 = {16, 2, weights22, 0.1575428545475006};
        filters[22]=filter22;
            
        static const float weights23[]={ 
    -0.010005311109125614, -0.021389150992035866, 
    0.13657286763191223, 0.06967111676931381, 

    0.060234833508729935, 0.08827332407236099, 
    -0.0951705351471901, -0.335988312959671, 

    0.10618753731250763, -0.02919655665755272, 
    0.14945882558822632, 0.05937514454126358, 

    -0.28555023670196533, 0.03895144537091255, 
    0.35169532895088196, 0.040071483701467514, 

    -0.05250852182507515, 0.12874020636081696, 
    0.14103379845619202, -0.2013508826494217, 

    0.23971189558506012, 0.2167232483625412, 
    0.17749984562397003, -0.0670383870601654, 

    0.02655550092458725, -0.11180665343999863, 
    -0.045858804136514664, -0.5631070733070374, 

    -0.06269744783639908, 0.03197776898741722, 
    -0.09418117254972458, -0.11052298545837402, 

    -0.017032939940690994, 0.057861268520355225, 
    0.10054615885019302, -0.11809810250997543, 

    -0.15794391930103302, -0.13317541778087616, 
    -0.051258284598588943, 0.07964803278446198, 

    0.038655128329992294, 0.0723521038889885, 
    0.10536757111549377, 0.08533746004104614, 

    -0.1445848047733307, 0.0022475803270936012, 
    -0.10155337303876877, 0.19502627849578857, 

    0.1359344869852066, -0.09480654448270798, 
    0.25013816356658936, -0.3535342812538147, 

    -0.14429181814193726, 0.009510128758847713, 
    -0.11180024594068527, 0.23730365931987762, 

    0.06359508633613586, -0.010479558259248734, 
    0.07067013531923294, -0.03484084829688072, 

    0.04962875321507454, 0.005623853299766779, 
    0.15698149800300598, -0.5270674228668213, 

        };
        static filter_t filter23 = {16, 2, weights23, 0.007810858078300953};
        filters[23]=filter23;
            
        static const float weights24[]={ 
    -0.34850555658340454, -0.3036356270313263, 
    0.09501612186431885, -0.17205817997455597, 

    0.23486541211605072, 0.042586568742990494, 
    -0.012195821851491928, 0.1812218427658081, 

    0.10012020170688629, -0.22036267817020416, 
    0.05006752163171768, 0.09140146523714066, 

    -0.2741181552410126, -0.10626765340566635, 
    0.07533862441778183, 0.19380120933055878, 

    0.04005752131342888, -0.19282816350460052, 
    0.17492686212062836, 0.058061353862285614, 

    -0.1292327493429184, 0.06164874881505966, 
    0.008335799910128117, 0.1302889585494995, 

    -0.2699147164821625, -0.07729169726371765, 
    -0.32262760400772095, -0.055210862308740616, 

    0.15971380472183228, 0.18648776412010193, 
    -0.04649966210126877, 0.05649774149060249, 

    -0.014414167031645775, 0.11700712889432907, 
    -0.2072363942861557, -0.03422533720731735, 

    -0.12575405836105347, 0.04242429509758949, 
    -0.07001742720603943, -0.018323995172977448, 

    -0.17552965879440308, -0.18624551594257355, 
    -0.06563346087932587, 0.14153623580932617, 

    0.14078053832054138, -0.1628800630569458, 
    -0.07751916348934174, 0.11621996760368347, 

    -0.37919852137565613, 0.16887663304805756, 
    -0.054778460413217545, 0.10447052121162415, 

    -0.01714952103793621, -0.09425226598978043, 
    -0.1547642946243286, 0.09778381139039993, 

    0.0425339974462986, 0.14686408638954163, 
    0.1497487872838974, 0.13429580628871918, 

    -0.5092716217041016, -0.007646267302334309, 
    -0.4903816878795624, 0.1819438338279724, 

        };
        static filter_t filter24 = {16, 2, weights24, 0.0010319764260202646};
        filters[24]=filter24;
            
        static const float weights25[]={ 
    -0.08838074654340744, -0.1731725037097931, 
    -0.10364827513694763, -0.06191566213965416, 

    0.18355759978294373, -0.23870624601840973, 
    0.11192113161087036, -0.07871130108833313, 

    0.09617828577756882, -0.11592141538858414, 
    -0.05617336556315422, -0.1095748245716095, 

    0.27280673384666443, -0.20678028464317322, 
    0.25259244441986084, 0.03700454905629158, 

    0.3685179650783539, -0.010744156315922737, 
    -0.029902206733822823, -0.20300473272800446, 

    0.010414025746285915, -0.06786291301250458, 
    0.03802453726530075, -0.04893363639712334, 

    0.11438724398612976, 0.2481076419353485, 
    0.18366338312625885, 0.3920027017593384, 

    0.2643602192401886, -0.029246989637613297, 
    0.006049953401088715, -0.181822270154953, 

    0.011084320954978466, 0.09911397844552994, 
    -0.02903267741203308, 0.12030487507581711, 

    0.028199534863233566, 0.003916943911463022, 
    0.007176727522164583, 0.09777900576591492, 

    -0.09361300617456436, 0.0535663440823555, 
    0.013088679872453213, -0.017518218606710434, 

    0.07313336431980133, -0.347831666469574, 
    -0.06554869562387466, 0.14056050777435303, 

    -0.08005267381668091, -0.029438473284244537, 
    0.006546340882778168, -0.020591704174876213, 

    0.22933898866176605, -0.2234032303094864, 
    -0.056247562170028687, 0.1660735011100769, 

    0.16996179521083832, -0.11535527557134628, 
    -0.04300906881690025, -0.26899459958076477, 

    0.21180695295333862, 0.021544096991419792, 
    0.01790475659072399, -0.12322331964969635, 

        };
        static filter_t filter25 = {16, 2, weights25, -0.09790781885385513};
        filters[25]=filter25;
            
        static const float weights26[]={ 
    -0.081148162484169, -0.0031992648728191853, 
    -0.18711093068122864, 0.03244030103087425, 

    0.1349816769361496, -0.003524930914863944, 
    0.11014209687709808, -0.06641299277544022, 

    0.2555442452430725, -0.013766320422291756, 
    0.13352657854557037, -0.008871146477758884, 

    0.2176859825849533, 0.20391389727592468, 
    0.03224637731909752, 0.17405357956886292, 

    0.22986437380313873, 0.059326376765966415, 
    0.08610702306032181, 0.06689152866601944, 

    -0.8297133445739746, 0.02705254592001438, 
    0.172920361161232, -0.06517471373081207, 

    -0.4217418134212494, 0.037246666848659515, 
    0.30260398983955383, 0.15210697054862976, 

    0.19849367439746857, -0.0678289383649826, 
    0.0510864332318306, 0.10275354236364365, 

    -0.7587167024612427, -0.11047045886516571, 
    0.15049104392528534, 0.0498170480132103, 

    -0.0933670774102211, -0.04054299369454384, 
    0.006902645342051983, 0.18309582769870758, 

    -0.01841350831091404, 0.01930186338722706, 
    -0.07961396127939224, -0.007862972095608711, 

    0.13878220319747925, 0.13138045370578766, 
    -0.029308238998055458, 0.0483831986784935, 

    -0.9424473643302917, -0.19316090643405914, 
    -0.024240756407380104, -0.13969050347805023, 

    0.19165748357772827, 0.10079357028007507, 
    0.0026655620895326138, 0.1632809340953827, 

    0.18327832221984863, -0.002132678171619773, 
    0.12263961136341095, -0.06110651046037674, 

    -1.3370985984802246, 0.15952320396900177, 
    0.12860745191574097, 0.26368090510368347, 

        };
        static filter_t filter26 = {16, 2, weights26, -0.13531658053398132};
        filters[26]=filter26;
            
        static const float weights27[]={ 
    -0.0504600964486599, -0.9543102383613586, 
    -0.17852164804935455, -0.05258040130138397, 

    -0.0548248291015625, 0.20231513679027557, 
    -0.11025821417570114, -0.16348285973072052, 

    0.012637061066925526, -0.21689178049564362, 
    0.07657896727323532, 0.09613145142793655, 

    -0.26049819588661194, -0.528821587562561, 
    0.12387053668498993, -0.08866621553897858, 

    -0.12079436331987381, -0.09059714525938034, 
    -0.023951929062604904, 0.05187823623418808, 

    0.32402849197387695, 0.1201552152633667, 
    -0.026758087798953056, 0.015630297362804413, 

    0.503498911857605, -0.8037739992141724, 
    0.1575349122285843, -0.09773572534322739, 

    -0.13229019939899445, 0.09425818920135498, 
    -0.04145583137869835, -0.031706299632787704, 

    0.19045592844486237, -0.049020782113075256, 
    0.17142543196678162, -0.16622574627399445, 

    0.06669639050960541, -0.10415812581777573, 
    0.14788644015789032, -0.15818114578723907, 

    -0.0035314762499183416, -0.3134634494781494, 
    -0.06365391612052917, 0.17400789260864258, 

    -0.14448824524879456, 0.06411248445510864, 
    -0.046125609427690506, -0.0610346682369709, 

    -0.04920976236462593, -0.10535649955272675, 
    -0.004109155386686325, 0.14264550805091858, 

    -0.32368236780166626, 0.12990494072437286, 
    0.11957136541604996, -0.08885307610034943, 

    -0.04382931441068649, 0.045727748423814774, 
    0.05459848418831825, 0.0563419833779335, 

    -0.09753268957138062, -0.16195601224899292, 
    0.25556710362434387, -0.14951540529727936, 

        };
        static filter_t filter27 = {16, 2, weights27, 0.13333861529827118};
        filters[27]=filter27;
            
        static const float weights28[]={ 
    0.049883030354976654, 0.054387353360652924, 
    -0.2701711356639862, -0.11640768498182297, 

    0.05090180039405823, -0.17334382236003876, 
    0.044071801006793976, 0.2564122676849365, 

    0.09341512620449066, -0.0309444647282362, 
    -0.07413852959871292, 0.014716489240527153, 

    0.1384957879781723, 0.0750458687543869, 
    -0.3048754036426544, -0.3828229010105133, 

    -0.1175432801246643, 0.04512617737054825, 
    0.2116466462612152, -0.21553491055965424, 

    0.0015707502607256174, -0.140837162733078, 
    0.18852683901786804, 0.05820661038160324, 

    0.5141769647598267, 0.12819191813468933, 
    0.3369467556476593, 0.12578877806663513, 

    -0.15066999197006226, -0.16982263326644897, 
    0.07284329831600189, 0.1278516948223114, 

    0.21824485063552856, 0.051532991230487823, 
    0.07072386890649796, 0.06910552084445953, 

    0.2217898666858673, -0.033484820276498795, 
    -0.3244948387145996, -0.17882320284843445, 

    -0.03416245058178902, -0.0750565156340599, 
    0.04402855411171913, 0.06511145085096359, 

    0.16673241555690765, 0.11991561204195023, 
    -0.14364829659461975, -0.0028802375309169292, 

    -0.01546796690672636, 0.10505416244268417, 
    -0.04325414448976517, -0.0990736111998558, 

    0.05712112411856651, -0.0777159184217453, 
    0.03980441763997078, -0.02165376953780651, 

    0.10190475732088089, 0.06383021920919418, 
    0.04115624725818634, 0.018879510462284088, 

    0.5146507620811462, 0.2620007395744324, 
    0.37902846932411194, 0.03196318447589874, 

        };
        static filter_t filter28 = {16, 2, weights28, -0.1145624965429306};
        filters[28]=filter28;
            
        static const float weights29[]={ 
    0.027793193235993385, 0.13355374336242676, 
    -0.22922085225582123, -0.2752062678337097, 

    -0.14070932567119598, -0.03333090618252754, 
    0.04340654984116554, 0.14462117850780487, 

    0.1629207581281662, 0.1520928144454956, 
    -0.0137479892000556, -0.10173844546079636, 

    0.17809118330478668, 0.24499104917049408, 
    -0.056504931300878525, -0.04876115918159485, 

    0.11648670583963394, 0.12226224690675735, 
    -0.15784507989883423, 0.011056586168706417, 

    0.04120967537164688, 0.05440068617463112, 
    0.029055921360850334, -0.04392677918076515, 

    0.24751301109790802, 0.024217313155531883, 
    0.27151480317115784, 0.08978073298931122, 

    -0.11226294934749603, -0.023630162701010704, 
    -0.0917707234621048, 0.16788089275360107, 

    0.19682641327381134, -0.09314603358507156, 
    0.15083758533000946, 0.03569311648607254, 

    0.2405657321214676, -0.0006043006433174014, 
    0.278184711933136, -0.15969981253147125, 

    -0.102725550532341, 0.1618034988641739, 
    0.05881616845726967, 0.025942400097846985, 

    0.057896971702575684, 0.12902988493442535, 
    -0.027515003457665443, -0.23913562297821045, 

    -0.20932739973068237, -0.32211238145828247, 
    0.13007435202598572, 0.0772528201341629, 

    0.19118766486644745, 0.0461886003613472, 
    0.16470879316329956, -0.1443784385919571, 

    -0.03977183252573013, -0.07907237857580185, 
    -0.18994387984275818, 0.015511035919189453, 

    0.39317911863327026, 0.11822470277547836, 
    0.12986236810684204, 0.03919447585940361, 

        };
        static filter_t filter29 = {16, 2, weights29, -0.10988781601190567};
        filters[29]=filter29;
            
        static const float weights30[]={ 
    0.0775565356016159, -0.08192481100559235, 
    0.04271276667714119, -0.1084199994802475, 

    0.10661404579877853, 0.11281071603298187, 
    0.03347703814506531, -0.02374059148132801, 

    0.0655515044927597, 0.1842903047800064, 
    0.1354774385690689, 0.05510617047548294, 

    0.035338521003723145, -0.1624545305967331, 
    0.056473713368177414, -0.14702266454696655, 

    0.054302461445331573, -0.029668154194951057, 
    0.0957716554403305, 0.09795115888118744, 

    -0.323379248380661, -0.009032610803842545, 
    -0.006174498237669468, 0.15972188115119934, 

    -0.2797900438308716, 0.21430401504039764, 
    0.22006963193416595, 0.07868032902479172, 

    0.216612309217453, 0.1721530556678772, 
    -0.02918081171810627, -0.07572919875383377, 

    -0.3482081890106201, -0.03439987078309059, 
    0.3770470917224884, 0.07195506244897842, 

    0.0072832657024264336, 0.036679450422525406, 
    -0.1406279355287552, 0.08907564729452133, 

    -0.0008539551636204123, 0.04879236966371536, 
    0.04947177693247795, 0.17831680178642273, 

    0.08003152906894684, -0.11526951938867569, 
    0.0015534452395513654, -0.07686338573694229, 

    -0.24167120456695557, -0.1954651027917862, 
    0.13005629181861877, -0.1149512305855751, 

    -0.1301296502351761, -0.17101335525512695, 
    0.14368104934692383, -0.1391712874174118, 

    0.10969610512256622, 0.0027581905014812946, 
    -0.005912195425480604, 0.06506622582674026, 

    -0.25230759382247925, 0.05330599844455719, 
    0.46271374821662903, 0.17129458487033844, 

        };
        static filter_t filter30 = {16, 2, weights30, -0.0795399472117424};
        filters[30]=filter30;
            
        static const float weights31[]={ 
    0.03508003428578377, 0.000971775793004781, 
    0.01907985284924507, 0.07010000944137573, 

    -0.0416899137198925, -0.13170647621154785, 
    0.043974265456199646, -0.021650923416018486, 

    0.03644511476159096, 0.19666042923927307, 
    0.028918661177158356, 0.16384291648864746, 

    -0.009295585565268993, -0.34238123893737793, 
    -0.20703987777233124, -0.12189304083585739, 

    0.23182012140750885, 0.17374758422374725, 
    -0.02675791271030903, 0.07260366529226303, 

    -0.05710612237453461, 0.016146808862686157, 
    0.15958555042743683, 0.03586981073021889, 

    0.1160704642534256, -0.13760724663734436, 
    -0.14873892068862915, 0.23268042504787445, 

    -0.07216564565896988, -0.09226392954587936, 
    -0.05933879315853119, -0.06643455475568771, 

    0.002836820436641574, -0.20814040303230286, 
    -0.17708911001682281, 0.11615417152643204, 

    0.010034891776740551, -0.008495374582707882, 
    0.07827265560626984, 0.05000686272978783, 

    -0.061230916529893875, 0.13598288595676422, 
    0.1146080493927002, 0.06488301604986191, 

    -0.09620948880910873, -0.06946179270744324, 
    -0.019229136407375336, -0.028887521475553513, 

    0.08940637856721878, -0.2267242670059204, 
    0.1487651765346527, -0.08105796575546265, 

    -0.09743951261043549, -0.048477645963430405, 
    -0.050100177526474, -0.10863425582647324, 

    0.05570918694138527, 0.10387404263019562, 
    0.0227751936763525, 0.1410094052553177, 

    -0.411866694688797, -0.28952527046203613, 
    0.10493571311235428, -0.20094914734363556, 

        };
        static filter_t filter31 = {16, 2, weights31, 0.01967664435505867};
        filters[31]=filter31;
            
        conv2d_layer_t layer = {32,filters};
        return layer;
        }
        

conv2d_layer_t init_conv2d_2_data(void){

        static filter_t filters[48];
        
        static const float weights0[]={ 
    0.031141534447669983, -0.1871526837348938, 
    0.13703815639019012, 0.15359582006931305, 

    0.15187695622444153, -0.02476228028535843, 
    -0.009554454125463963, -0.13594897091388702, 

    0.08804324269294739, 0.1425464004278183, 
    -0.12635420262813568, -0.09746329486370087, 

    -0.10136156529188156, -0.0456446073949337, 
    -0.004201603587716818, -0.2718695402145386, 

    -0.013095689006149769, -0.10659155249595642, 
    0.13006846606731415, 0.17642083764076233, 

    0.06646618992090225, -0.3818219304084778, 
    0.01316828653216362, -0.040910739451646805, 

    0.04111811891198158, -0.014681694097816944, 
    -0.05475293844938278, -0.02829524502158165, 

    0.04264373332262039, 0.06403518468141556, 
    -0.040684863924980164, 0.06528598070144653, 

    -0.007190152071416378, 0.017622724175453186, 
    -0.122501440346241, -0.06094549596309662, 

    0.019042853266000748, 0.08945249766111374, 
    0.056512586772441864, 0.2743648588657379, 

    -0.029262574389576912, 0.12135463953018188, 
    -0.0929788127541542, -0.2479390949010849, 

    -0.06878819316625595, 0.09327809512615204, 
    0.08304079622030258, -0.05141894891858101, 

    0.08414749801158905, 0.13326199352741241, 
    0.014255190268158913, -0.07788524776697159, 

    -0.12593430280685425, -0.13301606476306915, 
    -0.1789611428976059, -0.14272218942642212, 

    -0.06278615444898605, -0.05320339277386665, 
    -0.28249019384384155, 0.1535755842924118, 

    0.14877949655056, 0.20845213532447815, 
    0.06165362894535065, -0.02683335915207863, 

    0.13259421288967133, 0.012325712479650974, 
    -0.0006057670689187944, 0.09974167495965958, 

    -0.06467127799987793, 0.058205120265483856, 
    -0.004007237963378429, -0.08066080510616302, 

    0.1640053242444992, 0.1037936732172966, 
    -0.07211688905954361, -0.3152291476726532, 

    0.09747287631034851, -0.013723521493375301, 
    0.13250766694545746, 0.07720575481653214, 

    -0.05223521962761879, 0.23801718652248383, 
    -0.050980523228645325, -0.015757979825139046, 

    0.1140657365322113, -0.021982287988066673, 
    0.02556813508272171, -0.0932890921831131, 

    0.07367312163114548, -0.06435421109199524, 
    -0.018580539152026176, -0.19398735463619232, 

    0.040315087884664536, 0.05421679839491844, 
    -0.22781018912792206, 0.1288870871067047, 

    -0.018808186054229736, -0.08486710488796234, 
    -0.14345404505729675, -0.19187110662460327, 

    -0.06973156332969666, -0.10184954106807709, 
    0.03941003233194351, -0.16813652217388153, 

    -0.034058667719364166, -0.10691359639167786, 
    -0.06692780554294586, -0.07974296063184738, 

    -0.15868501365184784, 0.05785079672932625, 
    -0.11606341600418091, -0.04601110890507698, 

    -0.0014021662063896656, -0.23010602593421936, 
    -0.17708942294120789, -0.2495681494474411, 

    -0.08042257279157639, -0.1128295436501503, 
    0.13090085983276367, 0.05758701637387276, 

    0.12508943676948547, 0.040930286049842834, 
    -0.04149826243519783, -0.10734949260950089, 

    -0.016568033024668694, 0.15397396683692932, 
    -0.10040391236543655, 0.1359390914440155, 

        };
        static filter_t filter0 = {32, 2, weights0, 0.0931921899318695};
        filters[0]=filter0;
            
        static const float weights1[]={ 
    -0.07916364818811417, 0.015065601095557213, 
    0.10463259369134903, 0.02110671065747738, 

    0.05778314545750618, -0.10504758358001709, 
    -0.12085496634244919, -0.004635289311408997, 

    -0.08945159614086151, -0.10179300606250763, 
    -0.23313196003437042, -0.19524836540222168, 

    -0.18276725709438324, -0.005488088354468346, 
    0.1804957091808319, 0.11315429210662842, 

    0.226408451795578, -0.06579896062612534, 
    -0.15834908187389374, 0.05148383229970932, 

    0.058557868003845215, -0.45419424772262573, 
    -0.20969055593013763, -0.05346236750483513, 

    -0.09180455654859543, -0.10098033398389816, 
    0.04890689253807068, -0.30469515919685364, 

    0.15723572671413422, 0.03762226179242134, 
    0.05653408542275429, -0.015262387692928314, 

    -0.26622623205184937, 0.12733489274978638, 
    0.08093791455030441, 0.15235167741775513, 

    -0.15842531621456146, 0.0483415387570858, 
    -0.027997199445962906, 0.17197176814079285, 

    -0.0912090316414833, -0.09957195073366165, 
    -0.004901713225990534, -0.25178074836730957, 

    -0.11620473861694336, 0.01033792644739151, 
    0.2279747575521469, 0.2527139186859131, 

    0.1416877657175064, 0.0036612278781831264, 
    -0.0048854658380150795, -0.2471890151500702, 

    -0.1498926430940628, 0.08027394860982895, 
    0.14882546663284302, 0.04650261625647545, 

    0.022904209792613983, -0.07478518784046173, 
    -0.05187758803367615, 0.04311662167310715, 

    0.12972459197044373, 0.009036983363330364, 
    0.11728481203317642, 0.004702982027083635, 

    0.006953452713787556, 0.01067457813769579, 
    0.143047034740448, 0.115504689514637, 

    0.06967206299304962, 0.029498286545276642, 
    0.025576801970601082, -0.1663893610239029, 

    0.0016485457308590412, -0.1410067081451416, 
    0.11383199691772461, -0.1984720677137375, 

    0.24686157703399658, 0.007914621382951736, 
    -0.210893914103508, -0.06009024754166603, 

    0.09361495077610016, -0.18916966021060944, 
    0.0483243502676487, -0.026734448969364166, 

    0.13014908134937286, -0.3520163297653198, 
    -0.03217519074678421, 0.023218926042318344, 

    0.017172839492559433, -0.0555189847946167, 
    0.26566240191459656, -0.026328984647989273, 

    0.03770222142338753, 0.04572973772883415, 
    -0.24271933734416962, 0.08417496085166931, 

    0.0984635129570961, 0.08688492327928543, 
    0.07488852739334106, -0.09694379568099976, 

    0.1489245742559433, 0.02526741474866867, 
    0.06868693977594376, 0.0263014268130064, 

    0.0464136116206646, -0.007591616362333298, 
    0.026223545894026756, 0.03193455934524536, 

    0.02252041921019554, 0.19845950603485107, 
    -0.052916061133146286, -0.13869203627109528, 

    0.1743173748254776, 0.03979843854904175, 
    0.21756966412067413, 0.26894938945770264, 

    0.07931085675954819, 0.0179560836404562, 
    0.159484401345253, 0.07916775345802307, 

    0.22193458676338196, -0.11516091972589493, 
    -0.005294988863170147, 0.15981879830360413, 

    0.08765928447246552, -0.11347755789756775, 
    -0.1859627366065979, 0.004066296387463808, 

        };
        static filter_t filter1 = {32, 2, weights1, -0.10017843544483185};
        filters[1]=filter1;
            
        static const float weights2[]={ 
    -0.5764496922492981, -0.04741847887635231, 
    -0.054037295281887054, 0.04459479823708534, 

    -0.0067746276035904884, 0.07188671082258224, 
    0.02371273934841156, -0.2362847775220871, 

    -0.16889089345932007, 0.006463392172008753, 
    0.15507791936397552, -0.04952367767691612, 

    -0.3790380358695984, 0.026329293847084045, 
    -0.20923759043216705, 0.08444824069738388, 

    -0.21749985218048096, -0.046645913273096085, 
    -0.030745185911655426, 0.026445511728525162, 

    -0.11153588443994522, 0.1349598616361618, 
    -0.008411005139350891, 0.15663868188858032, 

    0.05753760412335396, -0.13634854555130005, 
    0.07042821496725082, 0.182864710688591, 

    -0.3373429477214813, -0.0015756911598145962, 
    -0.027319254353642464, -0.027281535789370537, 

    0.1490461230278015, -0.07241442054510117, 
    -0.18275058269500732, -0.049091972410678864, 

    0.16658324003219604, 0.03766591474413872, 
    0.04259197413921356, 0.10374803841114044, 

    -0.08987332135438919, -0.05293798819184303, 
    -0.02275170385837555, 0.1569146364927292, 

    0.14896941184997559, 0.03838071972131729, 
    -0.10429942607879639, 0.12941919267177582, 

    0.07251103222370148, 0.0824282243847847, 
    0.024090033024549484, -0.050434570759534836, 

    -0.345424085855484, -0.17848892509937286, 
    0.04115395247936249, -0.18794450163841248, 

    -0.030719541013240814, -0.021730825304985046, 
    -0.3658469617366791, 0.05507686734199524, 

    0.09389863908290863, -0.01890428364276886, 
    -0.0960664302110672, -0.04121480882167816, 

    -0.1830882728099823, 0.039647649973630905, 
    0.09518194198608398, -0.05200571194291115, 

    -0.053422991186380386, -0.11042294651269913, 
    0.02939711883664131, -0.08592316508293152, 

    0.1479472815990448, 0.06800515949726105, 
    -0.11226711422204971, 0.06616873294115067, 

    -0.20492853224277496, 0.052381545305252075, 
    -0.20150741934776306, -0.07658473402261734, 

    0.08964290469884872, -0.07062923908233643, 
    -0.023066191002726555, 0.20804078876972198, 

    -0.02700665034353733, -0.16793192923069, 
    0.04759196937084198, -0.011749460361897945, 

    0.04782913997769356, 0.005914253182709217, 
    0.09927697479724884, 0.16135916113853455, 

    -0.1492786556482315, 0.015244881622493267, 
    0.00503363786265254, 0.06746118515729904, 

    -0.11095274984836578, -0.16339997947216034, 
    0.07985546439886093, 0.045698441565036774, 

    -0.50978684425354, -0.3167968690395355, 
    -0.0370141975581646, -0.052967727184295654, 

    -0.5902743339538574, 0.09419728815555573, 
    -0.01913290284574032, -0.020490117371082306, 

    -0.10173923522233963, -0.11486082524061203, 
    0.1910516917705536, 0.024330701678991318, 

    -0.12289883196353912, 0.061224766075611115, 
    -0.010906204581260681, 0.023122286424040794, 

    0.041491229087114334, 0.14734938740730286, 
    -0.11647311598062515, -0.05078275129199028, 

    -0.2127709537744522, -0.003131661331281066, 
    0.03927981108427048, 0.04848632216453552, 

    0.05756775662302971, -0.05024302005767822, 
    -0.04551169276237488, 0.09954023361206055, 

        };
        static filter_t filter2 = {32, 2, weights2, 0.02770783007144928};
        filters[2]=filter2;
            
        static const float weights3[]={ 
    -0.021459221839904785, -0.17014826834201813, 
    -0.005856908392161131, -0.3305203318595886, 

    -0.06317350268363953, -0.04282122477889061, 
    -0.01800072379410267, 0.19645598530769348, 

    0.06649985909461975, -0.22520795464515686, 
    0.1432543843984604, -0.0531807579100132, 

    -0.2768227756023407, -0.08760648220777512, 
    0.027418984100222588, -0.1394542157649994, 

    -0.1328427642583847, -0.030791953206062317, 
    -0.05326998978853226, 0.046490006148815155, 

    -0.08513788878917694, -0.16777271032333374, 
    -0.08652658015489578, -0.21622011065483093, 

    0.17518261075019836, 0.07653450965881348, 
    0.06795895844697952, -0.1664796769618988, 

    -0.050468046218156815, 0.016280662268400192, 
    0.09221635013818741, -0.07267297804355621, 

    -0.03113442100584507, -0.2776733636856079, 
    0.03670955076813698, -0.20459550619125366, 

    -0.07635553181171417, 0.0783325582742691, 
    -0.021512145176529884, -0.1253385990858078, 

    -0.08232256025075912, 0.04408985748887062, 
    0.17914727330207825, -0.14312432706356049, 

    -0.13549163937568665, -0.005406046286225319, 
    0.010592644102871418, -0.39832717180252075, 

    -0.1640961766242981, 0.016474958509206772, 
    -0.06787163019180298, 0.08554110676050186, 

    -0.047641586512327194, -0.1869141012430191, 
    -0.0754646584391594, -0.03220091760158539, 

    -0.5149135589599609, 0.03671456128358841, 
    0.022697681561112404, 0.13493499159812927, 

    0.048304226249456406, 0.05061304196715355, 
    0.0411246120929718, 0.1678086370229721, 

    -0.25715774297714233, 0.0721147432923317, 
    -0.10572266578674316, 0.12987451255321503, 

    -0.0035802023485302925, -0.2145826518535614, 
    0.019806385040283203, -0.07422444224357605, 

    -0.1709510236978531, 0.05687946826219559, 
    0.18479031324386597, 0.232217475771904, 

    0.13839291036128998, -0.06694292277097702, 
    -0.06346949189901352, 0.09557192027568817, 

    -0.47732117772102356, -0.00035476061748340726, 
    0.13776643574237823, 0.04930496588349342, 

    0.06964711844921112, 0.08623924106359482, 
    -0.06756959110498428, 0.15880005061626434, 

    -0.011324753053486347, 0.022285236045718193, 
    0.0813124030828476, -0.28247302770614624, 

    -0.12611977756023407, -0.29760342836380005, 
    -0.24390481412410736, 0.08783310651779175, 

    0.05451422184705734, -0.1132964938879013, 
    0.07066690176725388, 0.019504381343722343, 

    0.19248494505882263, 0.01817082054913044, 
    -0.17394386231899261, -0.06830514222383499, 

    -0.10000709444284439, -0.08626684546470642, 
    0.09306727349758148, 0.07122602313756943, 

    0.2588920593261719, -0.21833562850952148, 
    0.031746335327625275, -0.10360928624868393, 

    -0.4876818060874939, -0.0015905408654361963, 
    -0.07005013525485992, -0.1403796225786209, 

    0.07342398166656494, 0.10532692074775696, 
    -0.06541511416435242, -0.5624015927314758, 

    -0.18010708689689636, 0.013055678457021713, 
    -0.15349793434143066, -0.053853489458560944, 

    -0.3176267743110657, -0.06889084726572037, 
    -0.01220447663217783, 0.05288071557879448, 

        };
        static filter_t filter3 = {32, 2, weights3, 0.05243108049035072};
        filters[3]=filter3;
            
        static const float weights4[]={ 
    0.12097479403018951, 0.20819628238677979, 
    -0.04396408051252365, -0.13099171221256256, 

    -0.5006155967712402, 0.058267269283533096, 
    0.1297166496515274, -0.024312511086463928, 

    0.013782556168735027, 0.11489319056272507, 
    -0.16320589184761047, 0.05183301493525505, 

    -0.0414455272257328, 0.16875308752059937, 
    -0.013448560610413551, -0.03434452414512634, 

    0.15176606178283691, -0.07201502472162247, 
    0.060013722628355026, -0.0606529526412487, 

    -0.004637609235942364, -0.3520997166633606, 
    -0.10747694969177246, 0.04849197715520859, 

    -0.07791079580783844, 0.09221097826957703, 
    -0.1614653766155243, -0.012052049860358238, 

    0.05502908676862717, -0.052089840173721313, 
    -0.026405679062008858, 0.07758597284555435, 

    0.13718003034591675, -0.01004861481487751, 
    0.07614782452583313, -0.1710415780544281, 

    0.034317534416913986, -0.055594682693481445, 
    0.1442699283361435, -0.23925572633743286, 

    -0.0006112795672379434, 0.03608822450041771, 
    0.011983475647866726, -0.26508134603500366, 

    -0.16604562103748322, 0.017555702477693558, 
    -0.0037241769023239613, -0.19883927702903748, 

    0.00048456533113494515, -0.06253860145807266, 
    0.076661616563797, 0.14120234549045563, 

    0.081797756254673, 0.10752632468938828, 
    0.13843342661857605, -0.2420143038034439, 

    -0.046045586466789246, -0.01582835428416729, 
    0.2847236096858978, -0.05281299725174904, 

    0.0179391298443079, 0.003905974328517914, 
    0.0902380719780922, 0.13619552552700043, 

    0.02491820603609085, 0.06023967266082764, 
    -0.03392698988318443, 0.09738700091838837, 

    -0.061382465064525604, -0.26420554518699646, 
    -0.47255921363830566, -0.034609802067279816, 

    -0.10862953960895538, 0.12016230821609497, 
    0.061672620475292206, -0.14571885764598846, 

    0.014338749460875988, -0.14687250554561615, 
    -0.1974456012248993, 0.12485429644584656, 

    0.0927325189113617, 0.07963099330663681, 
    0.007941801100969315, 0.08985106647014618, 

    0.045785270631313324, 0.03469882160425186, 
    0.09083042293787003, 0.03676300495862961, 

    0.04490957781672478, -0.09455179423093796, 
    -0.12948980927467346, -0.08555483818054199, 

    -0.1528605818748474, 0.04163718596100807, 
    0.09214507788419724, -1.07104133348912e-05, 

    -0.007384902331978083, 0.10613671690225601, 
    0.05411084368824959, -0.1251908242702484, 

    0.009467583149671555, -0.07737207412719727, 
    0.10011071711778641, 0.09864229708909988, 

    0.15987369418144226, -0.04769952595233917, 
    0.04848930612206459, 0.0031460679601877928, 

    -0.035649631172418594, -0.2798519730567932, 
    -0.12223757803440094, 0.04899792745709419, 

    -0.03864722698926926, 0.09604064375162125, 
    -0.018860436975955963, -0.04376450926065445, 

    0.019968420267105103, -0.21718215942382812, 
    -0.09142360836267471, 0.08193721622228622, 

    0.09082641452550888, -0.026372011750936508, 
    -0.005524374078959227, -0.03997229039669037, 

    0.011424152180552483, -0.20171195268630981, 
    0.05489083006978035, -0.05674107000231743, 

        };
        static filter_t filter4 = {32, 2, weights4, 0.0198393352329731};
        filters[4]=filter4;
            
        static const float weights5[]={ 
    -0.059932295233011246, 0.21551336348056793, 
    -0.21982219815254211, 0.03396156430244446, 

    -0.07740117609500885, -0.2645789086818695, 
    0.1720956712961197, 0.18779197335243225, 

    -0.09955622255802155, 0.06374675780534744, 
    -0.082062266767025, -0.0038478439673781395, 

    -0.08031946420669556, -0.0323941633105278, 
    -0.09520687162876129, 0.003608728526160121, 

    0.11674484610557556, -0.13573527336120605, 
    0.012321790680289268, 0.03186274692416191, 

    0.15594211220741272, -0.47367116808891296, 
    0.0016264567384496331, 0.0993000790476799, 

    -0.09936803579330444, -0.19911441206932068, 
    0.01438750047236681, 0.027257446199655533, 

    -0.0908317044377327, -0.023700814694166183, 
    -0.048162881284952164, -0.03778219223022461, 

    -0.04774793982505798, 0.18079379200935364, 
    0.17175592482089996, 0.14435622096061707, 

    0.07416412234306335, 0.05123382806777954, 
    0.09017737209796906, -0.03633449599146843, 

    0.04350270330905914, -0.00983795989304781, 
    0.04521862417459488, -0.2186875194311142, 

    -0.059436578303575516, 0.05951837822794914, 
    -0.05843120068311691, -0.07281956076622009, 

    0.04964974522590637, -0.17875389754772186, 
    -0.1784052550792694, -0.2755921185016632, 

    -0.14706827700138092, -0.12286649644374847, 
    0.0909707173705101, -0.028594542294740677, 

    -0.269294410943985, -0.158230260014534, 
    -0.052992500364780426, 0.022308459505438805, 

    0.09043899178504944, -0.005669867619872093, 
    0.02948830835521221, 0.16621457040309906, 

    -0.07550112158060074, -0.10446718335151672, 
    -0.05160500854253769, -0.010126535780727863, 

    0.05439592897891998, 0.07570718228816986, 
    -0.0815257877111435, 0.11092529445886612, 

    -0.06601323932409286, -0.0931083932518959, 
    0.009723024442791939, -0.06858985126018524, 

    -0.04861874878406525, -0.07947101444005966, 
    -0.131241112947464, 0.15490154922008514, 

    -0.07973825186491013, -0.4370748698711395, 
    0.08151309192180634, 0.017450658604502678, 

    0.14464029669761658, -0.03220389038324356, 
    0.1279401034116745, -0.10979791730642319, 

    -0.08351102471351624, -0.07246110588312149, 
    0.08312742412090302, -0.19962552189826965, 

    0.059368498623371124, -0.03876090422272682, 
    -0.061335235834121704, 0.038558315485715866, 

    0.0719534233212471, 0.06569016724824905, 
    -0.06579332053661346, -0.051264237612485886, 

    0.13027404248714447, -0.4266357123851776, 
    -0.02073635347187519, -0.20233319699764252, 

    -0.05904531106352806, -0.144865483045578, 
    0.04365956410765648, 0.04759201779961586, 

    -0.019247928634285927, 0.11878712475299835, 
    0.057033564895391464, -0.0604180172085762, 

    -0.1663295477628708, 0.05318799987435341, 
    0.07569988816976547, -0.23049680888652802, 

    -0.1609819084405899, -0.14326021075248718, 
    0.03144585341215134, -0.12751762568950653, 

    0.03796030208468437, -0.15283381938934326, 
    0.0006565155927091837, -0.1142052710056305, 

    -0.13906700909137726, -0.0728386640548706, 
    0.021031329408288002, 0.08676555007696152, 

        };
        static filter_t filter5 = {32, 2, weights5, 0.13852974772453308};
        filters[5]=filter5;
            
        static const float weights6[]={ 
    0.019370250403881073, -0.08921871334314346, 
    0.08031635731458664, -0.035020794719457626, 

    0.06173821911215782, -0.22827251255512238, 
    -0.1059124618768692, 0.09362201392650604, 

    -0.2023838460445404, 0.004672251176089048, 
    -0.139791339635849, -0.049074411392211914, 

    0.20396873354911804, 0.0591704398393631, 
    0.2213004231452942, 0.23544065654277802, 

    -0.3803468942642212, 0.06104230135679245, 
    0.07596555352210999, 0.08126895874738693, 

    -0.1581478714942932, 0.08522403985261917, 
    0.08060938864946365, -0.1488717794418335, 

    0.19299016892910004, -0.08901267498731613, 
    -0.044767409563064575, -0.1750655472278595, 

    -0.07111430913209915, 0.007074535824358463, 
    0.1086805909872055, -0.19235722720623016, 

    0.010939748026430607, 0.1437479704618454, 
    0.16234873235225677, 0.1415793001651764, 

    0.06335023790597916, -0.11251111328601837, 
    0.0820624828338623, 0.09336445480585098, 

    -0.24727176129817963, -0.11210662871599197, 
    0.1484290361404419, 0.03241492807865143, 

    0.18766996264457703, -0.007161957211792469, 
    -0.02901768498122692, -0.06043553352355957, 

    0.054871320724487305, -0.32374876737594604, 
    0.023754430934786797, 0.12016767263412476, 

    0.09824497252702713, 0.003649843391031027, 
    -0.029208386316895485, -0.29870525002479553, 

    -0.014724972657859325, -0.027220115065574646, 
    0.08347713202238083, -0.006014144513756037, 

    -0.1766459047794342, -0.2931208908557892, 
    0.011949365958571434, -0.06910408288240433, 

    0.06780118495225906, 0.03983372449874878, 
    -0.024781906977295876, 0.0925854966044426, 

    -0.055283792316913605, 0.0907977893948555, 
    0.06294523924589157, 0.10762037336826324, 

    0.19772833585739136, -0.1884922981262207, 
    -0.03297622874379158, -0.012522343546152115, 

    -0.13162831962108612, -0.06742968410253525, 
    -0.09043260663747787, -0.07251274585723877, 

    0.009334993548691273, 0.08874309062957764, 
    -0.04861264303326607, -0.0050249528139829636, 

    -0.22233286499977112, -0.1337081342935562, 
    0.052033938467502594, -0.04974903166294098, 

    0.16084158420562744, -0.05977565795183182, 
    -0.056541282683610916, -0.13862931728363037, 

    -0.00013781466986984015, -0.2235230952501297, 
    0.029865050688385963, 0.04296177625656128, 

    -0.20513415336608887, -0.23790811002254486, 
    0.016380732879042625, -0.07256051152944565, 

    -0.13089624047279358, -0.013842342421412468, 
    0.1120344027876854, -0.10588795691728592, 

    0.07484722882509232, 0.012077625840902328, 
    -0.014864519238471985, -0.270888090133667, 

    -0.13538257777690887, -0.050918884575366974, 
    0.0016698716208338737, 0.19330385327339172, 

    0.20654146373271942, -0.06543655693531036, 
    0.1615825742483139, 0.11693225800991058, 

    0.10776525735855103, 0.11644100397825241, 
    0.13009710609912872, -0.19708484411239624, 

    -0.1393272578716278, -0.03642256185412407, 
    0.1737501621246338, 0.11826487630605698, 

    0.008902325294911861, -0.13792084157466888, 
    -0.02800828032195568, -0.05317763611674309, 

        };
        static filter_t filter6 = {32, 2, weights6, -0.015045380219817162};
        filters[6]=filter6;
            
        static const float weights7[]={ 
    0.10718328505754471, -0.062227100133895874, 
    -0.10772653669118881, -0.12479846179485321, 

    -0.13353964686393738, 0.25022026896476746, 
    -0.047897204756736755, -0.28303760290145874, 

    -0.009855151176452637, -0.640614926815033, 
    0.027569962665438652, 0.0864025205373764, 

    0.1221402958035469, 0.2452164739370346, 
    -0.023940932005643845, -0.0023725819773972034, 

    0.1253870725631714, -0.014034071005880833, 
    -0.09366548806428909, 0.0027317681815475225, 

    0.19613711535930634, 0.23103243112564087, 
    0.0807216688990593, -0.022225234657526016, 

    -0.18252995610237122, -0.06389691680669785, 
    0.03364488482475281, 0.19627785682678223, 

    0.06795339286327362, -0.2489529401063919, 
    -0.24339008331298828, -0.04010803997516632, 

    -0.11360548436641693, -0.03689669445157051, 
    -0.11276286095380783, -0.3003939688205719, 

    -0.027281051501631737, -0.013659710064530373, 
    -0.03190382570028305, 0.006946694105863571, 

    0.022840868681669235, 0.036140359938144684, 
    -0.020469963550567627, -0.054334256798028946, 

    -0.2755788266658783, -0.007636728696525097, 
    0.03557474911212921, -0.09775015711784363, 

    0.004898350685834885, -0.09231413900852203, 
    0.03428822010755539, 0.12287837266921997, 

    0.08459058403968811, 0.05610263720154762, 
    0.01631505973637104, -0.20385931432247162, 

    0.19181768596172333, 0.0650811642408371, 
    -0.07302603870630264, -0.3966912627220154, 

    -0.29090607166290283, -0.15378111600875854, 
    0.04831189289689064, 0.041172388941049576, 

    0.07678644359111786, -0.09107392281293869, 
    -0.06264941394329071, 0.06204092130064964, 

    -0.546403706073761, -0.36362701654434204, 
    0.06668426096439362, -0.02738841064274311, 

    -0.1694260835647583, 0.15490670502185822, 
    -0.12899038195610046, 0.12067551165819168, 

    0.07436303794384003, -0.14053033292293549, 
    0.11110749840736389, 0.07191244512796402, 

    -0.02940106764435768, 0.0658806785941124, 
    0.09732711315155029, -0.29139095544815063, 

    0.02869885042309761, -0.06042620167136192, 
    -0.04831447824835777, 0.017663076519966125, 

    -0.06140822544693947, 0.02366809919476509, 
    -0.027638843283057213, -0.07082658261060715, 

    -0.4255788028240204, -0.31922996044158936, 
    -0.0013074490707367659, 0.013406784273684025, 

    0.010117159225046635, -0.23269405961036682, 
    0.03187865763902664, -0.000943028018809855, 

    -0.03228124603629112, -0.1358487755060196, 
    0.013228949159383774, -0.15802398324012756, 

    0.12273164838552475, 0.13939331471920013, 
    -0.012716596014797688, -0.012135254219174385, 

    -0.4965728521347046, -0.0933430939912796, 
    0.12189752608537674, -0.011733072809875011, 

    -0.018401650711894035, 0.12906278669834137, 
    0.04079741612076759, 0.015496204607188702, 

    -0.006019688211381435, 0.02569148875772953, 
    -0.3231228291988373, -0.22413370013237, 

    -0.06476249545812607, -0.11552596837282181, 
    -0.07872140407562256, -0.09991545975208282, 

    -0.06682118773460388, -0.09046851843595505, 
    -0.2958214581012726, -0.014514646492898464, 

        };
        static filter_t filter7 = {32, 2, weights7, 0.12355007231235504};
        filters[7]=filter7;
            
        static const float weights8[]={ 
    -0.15771010518074036, -0.19559882581233978, 
    -0.00878679659217596, -0.08329256623983383, 

    -0.2241370528936386, -0.10375466197729111, 
    -0.2292562574148178, -0.047344107180833817, 

    -0.517265796661377, 0.019969714805483818, 
    0.028166640549898148, -0.19727788865566254, 

    0.02585238218307495, -0.15218675136566162, 
    0.11894378066062927, 0.05064614489674568, 

    -0.04112552851438522, 0.09633754193782806, 
    0.006730793975293636, 0.1659902185201645, 

    0.02614416740834713, -0.13144755363464355, 
    -0.1663520634174347, 0.2158716917037964, 

    0.035084690898656845, -0.14716830849647522, 
    -0.09294914454221725, -0.07738585770130157, 

    -0.12691810727119446, 0.03285803645849228, 
    -0.06774595379829407, 0.07077092677354813, 

    0.0271319393068552, -0.14476320147514343, 
    -0.06855817139148712, -0.03295274078845978, 

    0.12222989648580551, 0.04222805052995682, 
    0.08183499425649643, -0.15689492225646973, 

    -0.05185271427035332, 0.026885610073804855, 
    0.16329507529735565, -0.06997813284397125, 

    0.10258129984140396, 0.028619451448321342, 
    -0.10128966718912125, 0.017253104597330093, 

    0.022443125024437904, -0.008399803191423416, 
    0.019633084535598755, 0.08888519555330276, 

    -0.1637154221534729, -0.16101951897144318, 
    0.058583833277225494, -0.0775008499622345, 

    0.016127819195389748, -0.09034693241119385, 
    0.13842140138149261, 0.15355360507965088, 

    0.023753762245178223, 0.14424709975719452, 
    -0.0759214386343956, -0.07371717691421509, 

    -0.11518822610378265, 0.08644391596317291, 
    -0.05418273061513901, 0.10425014793872833, 

    -0.027658041566610336, 0.1643461287021637, 
    -0.1833498477935791, -0.10256476700305939, 

    0.035558562725782394, 0.09897065162658691, 
    -0.06302598863840103, 0.1598060131072998, 

    0.10595797002315521, 0.014590457081794739, 
    -0.5365784764289856, 0.26402145624160767, 

    0.07535457611083984, -0.016010049730539322, 
    0.002269279444590211, 0.07790668308734894, 

    0.05487644299864769, -0.12154508382081985, 
    0.06977160274982452, 0.15498070418834686, 

    -0.04042603820562363, -0.20467540621757507, 
    0.10501542687416077, 0.006982716266065836, 

    0.03731489181518555, 0.02576546184718609, 
    -0.09296633303165436, -0.036171138286590576, 

    -0.028326185420155525, 0.057168614119291306, 
    -0.03410110995173454, -0.3790099024772644, 

    -0.08457987010478973, -0.13595843315124512, 
    -0.07374580949544907, -0.3506436049938202, 

    0.06556762754917145, -0.025835417211055756, 
    0.0960419550538063, -0.0025251051411032677, 

    -0.02055136114358902, 0.09131684899330139, 
    -0.296490877866745, 0.1634051352739334, 

    -0.02024153620004654, -0.09405063837766647, 
    0.11868957430124283, 0.04253563657402992, 

    0.0041155158542096615, -0.36502164602279663, 
    -0.016164403408765793, 0.08036838471889496, 

    -0.008146950975060463, 0.07933729887008667, 
    0.08342212438583374, 0.07351876050233841, 

    -0.13257844746112823, 0.037081845104694366, 
    0.14247611165046692, 0.2276698499917984, 

        };
        static filter_t filter8 = {32, 2, weights8, -0.02691856399178505};
        filters[8]=filter8;
            
        static const float weights9[]={ 
    0.041311971843242645, -0.09240932017564774, 
    0.013431567698717117, -0.16934314370155334, 

    0.043762195855379105, -0.16015119850635529, 
    0.0385146327316761, -0.11295907199382782, 

    -0.6991013884544373, 0.10538735240697861, 
    0.14716076850891113, -0.3048170804977417, 

    0.29654428362846375, -0.004141752142459154, 
    0.12447438389062881, 0.09642166644334793, 

    -0.06578993052244186, -0.04816034808754921, 
    -0.03862842544913292, -0.0013421674957498908, 

    -0.06184165179729462, -0.09595660865306854, 
    -0.04446469619870186, -0.09002544730901718, 

    0.06299678981304169, -0.5556623935699463, 
    -0.01994185335934162, 0.08121956139802933, 

    -0.4527372419834137, -0.006512778345495462, 
    -0.17434921860694885, -0.2735832631587982, 

    0.1464124470949173, -0.25537487864494324, 
    -0.18858470022678375, 0.04559146240353584, 

    -0.016663512215018272, -0.423933207988739, 
    0.08565051853656769, 0.20903553068637848, 

    -0.06775147467851639, 0.004830893594771624, 
    -0.14413787424564362, -0.025902623310685158, 

    0.06777694076299667, -0.1453382968902588, 
    -0.1559182107448578, 0.0320410430431366, 

    0.05011071264743805, 0.056644901633262634, 
    -0.001494718249887228, -0.019954677671194077, 

    -0.04437895864248276, -0.20642226934432983, 
    -0.01090522576123476, -0.05153084173798561, 

    0.09508784115314484, 0.017857741564512253, 
    -0.17196200788021088, 0.23685669898986816, 

    0.09444721788167953, -0.2532804012298584, 
    0.023930320516228676, 0.05376467853784561, 

    -0.4592512845993042, 0.05868351086974144, 
    0.06946007907390594, -0.15857212245464325, 

    0.03495575115084648, -0.05093161016702652, 
    0.002795265754684806, -0.07308816909790039, 

    0.1323256641626358, 0.069909006357193, 
    0.10190115869045258, 0.01927519589662552, 

    0.08092724531888962, -0.052088987082242966, 
    0.162334606051445, -0.09290634095668793, 

    -0.010861435905098915, -0.5164533853530884, 
    -0.0057244738563895226, 0.06935815513134003, 

    -0.1921631395816803, -0.017791900783777237, 
    0.07626252621412277, -0.08472298830747604, 

    0.11518912762403488, 0.1209515929222107, 
    0.06986282765865326, 0.023366760462522507, 

    -0.028815237805247307, 0.05328530818223953, 
    -0.0239376462996006, 0.07698643207550049, 

    0.022467922419309616, -0.055927228182554245, 
    0.05133455619215965, 0.04414445161819458, 

    0.17325299978256226, -0.024083150550723076, 
    0.05628513917326927, -0.06994980573654175, 

    -0.07124749571084976, -0.1721595972776413, 
    -0.0025923955254256725, -0.1262657642364502, 

    0.1890191286802292, -0.06088251248002052, 
    0.004793945699930191, 0.1565581113100052, 

    0.21727803349494934, -0.07072554528713226, 
    -0.07777685672044754, -0.091873399913311, 

    -0.14250947535037994, 0.08368660509586334, 
    0.042104508727788925, -0.05657203122973442, 

    -0.11283282190561295, -0.006826974451541901, 
    -0.004844530951231718, -0.2218901664018631, 

    -0.1314169019460678, 0.058512937277555466, 
    -0.2560630142688751, -0.05011943355202675, 

        };
        static filter_t filter9 = {32, 2, weights9, -0.04646379128098488};
        filters[9]=filter9;
            
        static const float weights10[]={ 
    0.13212111592292786, 0.0781116709113121, 
    0.14193063974380493, -0.010398095473647118, 

    -0.07521617412567139, -0.1511574685573578, 
    0.07498743385076523, 0.2608006000518799, 

    0.10883674025535583, -0.12153816223144531, 
    0.059149906039237976, 0.1425776183605194, 

    -0.32354140281677246, 0.32071444392204285, 
    -0.02687050960958004, -0.08095350116491318, 

    -0.404728502035141, -0.19738513231277466, 
    -0.003927554003894329, -0.07038648426532745, 

    0.0044006407260894775, 0.06074672192335129, 
    0.04549875110387802, 0.01898304931819439, 

    -0.06772070378065109, 0.1312224566936493, 
    -0.04380013793706894, 0.2724462151527405, 

    0.1041024699807167, -0.19795361161231995, 
    0.10536087304353714, 0.00827830284833908, 

    0.0027316061314195395, -0.012124028988182545, 
    0.06040390580892563, 0.11439422518014908, 

    0.2286260724067688, -0.1143394485116005, 
    0.03922967240214348, 0.03799071162939072, 

    0.012060783803462982, 0.1037972941994667, 
    0.03183514252305031, -0.18112926185131073, 

    0.050659243017435074, 0.15142598748207092, 
    0.0680331140756607, 0.13073107600212097, 

    0.007673600222915411, 0.14567585289478302, 
    -0.11125645041465759, 0.06694598495960236, 

    -0.036476731300354004, 0.009409252554178238, 
    0.047093797475099564, 0.034863781183958054, 

    -0.09162313491106033, -0.020235111936926842, 
    0.12506408989429474, 0.12790320813655853, 

    0.029906364157795906, 0.05214843526482582, 
    0.09460470825433731, -0.0920950174331665, 

    -0.02983970195055008, 0.032097820192575455, 
    0.14004594087600708, 0.08471328765153885, 

    -0.10998620092868805, -0.038430821150541306, 
    -0.042195506393909454, -0.18705521523952484, 

    -0.18003571033477783, -0.0025217400398105383, 
    0.04367073252797127, -0.1707511842250824, 

    -0.3547956049442291, -0.13257485628128052, 
    -0.007519535254687071, -0.09700891375541687, 

    0.025591352954506874, 0.010467580519616604, 
    0.10384765267372131, 0.09958065301179886, 

    0.1754409521818161, 0.09427128732204437, 
    0.1437007039785385, 0.14497345685958862, 

    -0.26045989990234375, 0.22356665134429932, 
    0.09420432895421982, -0.1291390359401703, 

    0.056979574263095856, -0.01040219608694315, 
    -0.031180325895547867, -0.018770579248666763, 

    0.10791423171758652, -0.04535846784710884, 
    0.07086639106273651, 0.028638379648327827, 

    -0.03540333732962608, 0.23202726244926453, 
    -0.04448450356721878, 0.12405338138341904, 

    0.26666945219039917, 0.1014569103717804, 
    0.07367737591266632, 0.04619141295552254, 

    0.034867387264966965, -0.1991501897573471, 
    -0.008461901918053627, -0.222297802567482, 

    -0.05395839363336563, 0.02780674397945404, 
    0.2325909584760666, 0.13577817380428314, 

    -0.06988193094730377, 0.1458320915699005, 
    0.009875815361738205, -0.11300250142812729, 

    0.24220748245716095, 0.018639376387000084, 
    0.14282599091529846, 0.06298127770423889, 

    -0.15773220360279083, 0.031186873093247414, 
    0.04536553472280502, -0.032873667776584625, 

        };
        static filter_t filter10 = {32, 2, weights10, 0.0691838264465332};
        filters[10]=filter10;
            
        static const float weights11[]={ 
    -0.011716002598404884, -0.16466493904590607, 
    -0.1480863094329834, -0.17236022651195526, 

    -0.03684467822313309, -0.09871084988117218, 
    0.18286709487438202, 0.025890547782182693, 

    0.14004674553871155, -0.12389610707759857, 
    -0.5643538236618042, 0.03240566700696945, 

    0.09274189919233322, 0.01926826685667038, 
    0.012489832006394863, -0.5810198187828064, 

    -0.17740760743618011, 0.14045654237270355, 
    0.01142201665788889, 0.06723731756210327, 

    0.024976341053843498, -0.0858689472079277, 
    -0.03585987910628319, -0.039063286036252975, 

    -0.1819595992565155, 0.06846027076244354, 
    -0.029405705630779266, -0.3894878625869751, 

    -0.03795493394136429, -0.03912707418203354, 
