#include "model_0325_21_49_model.h"

// Prototipos inicialización
conv2d_layer_t init_conv2d_data(void);
conv2d_layer_t init_conv2d_1_data(void);
conv2d_layer_t init_conv2d_2_data(void);
dense_layer_t init_dense_data(void);
dense_layer_t init_dense_1_data(void);
dense_layer_t init_dense_2_data(void);


// Variables Globales
conv2d_layer_t conv2d_data;
conv2d_layer_t conv2d_1_data;
conv2d_layer_t conv2d_2_data;
dense_layer_t dense_data;
dense_layer_t dense_1_data;
dense_layer_t dense_2_data;


void model_init(){
    conv2d_data = init_conv2d_data();
    conv2d_1_data = init_conv2d_1_data();
    conv2d_2_data = init_conv2d_2_data();
    dense_data = init_dense_data();
    dense_1_data = init_dense_1_data();
    dense_2_data = init_dense_2_data();

}

void model_predict(data3d_t input, data1d_t * output){
  
    
    //*************** LAYER 0 **************//
    // Layer name: conv2d
    data3d_t output0;
        // convert image for first EmbedIA Conv2d layer
        image_adapt_layer(input, &output0);
        input = output0;
    
     conv2d_layer(conv2d_data, input, &output0);
    // Activation layer for conv2d
    relu_activation(output0.data, 576);
    
    //*************** LAYER 1 **************//
    // Layer name: dropout
    input = output0;
    
    
    //*************** LAYER 2 **************//
    // Layer name: conv2d_1
    input = output0;
    conv2d_layer(conv2d_1_data, input, &output0);
    // Activation layer for conv2d_1
    relu_activation(output0.data, 800);
    
    //*************** LAYER 3 **************//
    // Layer name: dropout_1
    input = output0;
    
    
    //*************** LAYER 4 **************//
    // Layer name: conv2d_2
    input = output0;
    conv2d_layer(conv2d_2_data, input, &output0);
    // Activation layer for conv2d_2
    relu_activation(output0.data, 768);
    
    //*************** LAYER 5 **************//
    // Layer name: dropout_2
    input = output0;
    
    
    //*************** LAYER 6 **************//
    // Layer name: max_pooling2d
    input = output0;
    static const pooling2d_layer_t max_pooling2d_data = { 2, 2 };
    max_pooling2d_layer(max_pooling2d_data, input, &output0);
    
    //*************** LAYER 7 **************//
    // Layer name: flatten
    input = output0;
    data1d_t output1;
    flatten3d_layer(input, &output1);
    
    //*************** LAYER 8 **************//
    // Layer name: dense
    data1d_t input1;
    input1 = output1;
    dense_layer(dense_data, input1, &output1);
    
    // Activation layer for dense
    relu_activation(output1.data, 128);
    
    //*************** LAYER 9 **************//
    // Layer name: dropout_3
    input1 = output1;
    
    
    //*************** LAYER 10 **************//
    // Layer name: dense_1
    input1 = output1;
    dense_layer(dense_1_data, input1, &output1);
    
    // Activation layer for dense_1
    tanh_activation(output1.data, 128);
    
    //*************** LAYER 11 **************//
    // Layer name: dense_2
    input1 = output1;
    dense_layer(dense_2_data, input1, &output1);
    
    // Activation layer for dense_2
    softmax_activation(output1.data, 21);
    

    *output = output1;

}

int model_predict_class(data3d_t input, data1d_t * results){
  
   
    model_predict(input, results);
    
    return argmax(*results);
    //return argmax(data1d_t);

}

// Implementación de funciones de inicialización



conv2d_layer_t init_conv2d_data(void){

        static filter_t filters[16];
        
        static const float weights0[]={ 
    -0.2650296986103058, -0.17653107643127441, 
    -0.1817232370376587, -0.0778980702161789, 

        };
        static filter_t filter0 = {1, 2, weights0, 0.0};
        filters[0]=filter0;
            
        static const float weights1[]={ 
    -0.6159158945083618, -0.01235277857631445, 
    0.005963189993053675, 0.01070004515349865, 

        };
        static filter_t filter1 = {1, 2, weights1, 0.25699079036712646};
        filters[1]=filter1;
            
        static const float weights2[]={ 
    -0.15723027288913727, -7.935858726501465, 
    -0.09703214466571808, 0.0016435799188911915, 

        };
        static filter_t filter2 = {1, 2, weights2, 0.16026851534843445};
        filters[2]=filter2;
            
        static const float weights3[]={ 
    0.037393517792224884, 0.26028141379356384, 
    -0.24826672673225403, 0.002219833666458726, 

        };
        static filter_t filter3 = {1, 2, weights3, 0.006195002235472202};
        filters[3]=filter3;
            
        static const float weights4[]={ 
    0.22343170642852783, 0.005867186468094587, 
    0.0009657118935137987, -0.13027915358543396, 

        };
        static filter_t filter4 = {1, 2, weights4, -0.005718021187931299};
        filters[4]=filter4;
            
        static const float weights5[]={ 
    0.11945532262325287, 0.00047909762361086905, 
    0.10025319457054138, 0.002441214397549629, 

        };
        static filter_t filter5 = {1, 2, weights5, -0.0324159637093544};
        filters[5]=filter5;
            
        static const float weights6[]={ 
    -0.0014075717190280557, 0.021063171327114105, 
    0.008207907900214195, -0.6114631295204163, 

        };
        static filter_t filter6 = {1, 2, weights6, 0.3020268678665161};
        filters[6]=filter6;
            
        static const float weights7[]={ 
    0.000482613337226212, -0.026847893372178078, 
    -0.009848147630691528, 0.2017224133014679, 

        };
        static filter_t filter7 = {1, 2, weights7, 0.00015686010010540485};
        filters[7]=filter7;
            
        static const float weights8[]={ 
    0.1477484256029129, 0.09685757756233215, 
    -0.013054712675511837, -0.07208523154258728, 

        };
        static filter_t filter8 = {1, 2, weights8, 0.0021205744706094265};
        filters[8]=filter8;
            
        static const float weights9[]={ 
    0.001471319585107267, -2.3234055042266846, 
    0.06788522750139236, 0.025248747318983078, 

        };
        static filter_t filter9 = {1, 2, weights9, 0.17936992645263672};
        filters[9]=filter9;
            
        static const float weights10[]={ 
    -3.842756748199463, -10.613479614257812, 
    0.012853688560426235, -0.003447708673775196, 

        };
        static filter_t filter10 = {1, 2, weights10, 0.09617747366428375};
        filters[10]=filter10;
            
        static const float weights11[]={ 
    -4.0005621910095215, -0.4160270690917969, 
    0.004888083785772324, 0.025982217863202095, 

        };
        static filter_t filter11 = {1, 2, weights11, 0.21304209530353546};
        filters[11]=filter11;
            
        static const float weights12[]={ 
    -0.0842951238155365, 0.020205549895763397, 
    0.15469439327716827, -0.004010243806988001, 

        };
        static filter_t filter12 = {1, 2, weights12, 0.001627354184165597};
        filters[12]=filter12;
            
        static const float weights13[]={ 
    0.01014677807688713, -2.2984068393707275, 
    -1.640697717666626, -0.0017532330239191651, 

        };
        static filter_t filter13 = {1, 2, weights13, 0.29759275913238525};
        filters[13]=filter13;
            
        static const float weights14[]={ 
    -0.03890883922576904, -0.04058992862701416, 
    -0.06339636445045471, -0.21190589666366577, 

        };
        static filter_t filter14 = {1, 2, weights14, 0.0};
        filters[14]=filter14;
            
        static const float weights15[]={ 
    0.0044365497305989265, 0.14991283416748047, 
    -0.44621196389198303, 0.19339315593242645, 

        };
        static filter_t filter15 = {1, 2, weights15, 0.05890550836920738};
        filters[15]=filter15;
            
        conv2d_layer_t layer = {16,filters};
        return layer;
        }
        

conv2d_layer_t init_conv2d_1_data(void){

        static filter_t filters[32];
        
        static const float weights0[]={ 
    0.04320216178894043, 0.14166562259197235, 
    0.130879208445549, -0.1423230767250061, 

    -0.01045684702694416, -0.17171436548233032, 
    0.055594682693481445, -0.05373816937208176, 

    -3.018918752670288, 0.10006511956453323, 
    -0.30514243245124817, 0.07695235311985016, 

    0.01069590263068676, -0.01092536561191082, 
    -0.09840741753578186, 0.012949665077030659, 

    -0.004551914986222982, -0.0255726370960474, 
    -0.3419544994831085, -0.4095022976398468, 

    -0.005765810143202543, -0.013032960705459118, 
    0.005594879854470491, -0.4256857931613922, 

    -0.09245625883340836, -0.004574422258883715, 
    -0.0006072084070183337, -0.05341656506061554, 

    -0.3721752464771271, -0.0002336854813620448, 
    -0.3565102219581604, 0.054701998829841614, 

    0.004911085590720177, -0.022176792845129967, 
    -0.48973608016967773, -0.009341136552393436, 

    -1.167382836341858, 0.15457767248153687, 
    -0.0013224243884906173, -0.26381662487983704, 

    -1.8877438306808472, -2.6037256717681885, 
    0.08942054957151413, -1.106496810913086, 

    -0.06471119821071625, -0.8476821780204773, 
    -0.13641425967216492, -0.1941165328025818, 

    -0.22865928709506989, -0.9323182702064514, 
    0.007454677484929562, -0.22422246634960175, 

    -0.06980323046445847, 0.06299088150262833, 
    -0.0566428080201149, 0.07859403640031815, 

    0.07704149186611176, 0.10994772613048553, 
    0.0017063170671463013, -0.011290207505226135, 

    0.02433444745838642, -0.03684519976377487, 
    -0.10457677394151688, -0.02742491476237774, 

        };
        static filter_t filter0 = {16, 2, weights0, 0.4256259500980377};
        filters[0]=filter0;
            
        static const float weights1[]={ 
    0.0648491233587265, 0.050944581627845764, 
    0.1646837443113327, 0.03883489966392517, 

    -0.1853397786617279, 0.021025924012064934, 
    0.062267087399959564, 0.026334280148148537, 

    0.40694910287857056, -0.05844475328922272, 
    0.1554919183254242, 0.25994616746902466, 

    -0.8139225244522095, 0.020290646702051163, 
    -0.4611838459968567, -0.1824524849653244, 

    -0.03289182484149933, -1.0830044746398926, 
    -0.1428384929895401, -1.3683844804763794, 

    -0.12354116886854172, -3.33746337890625, 
    0.02169792167842388, 0.012373491190373898, 

    -0.004754292778670788, 0.036302365362644196, 
    -0.11329002678394318, -0.10829909145832062, 

    -1.228950023651123, 0.025618618354201317, 
    -0.011592567898333073, -0.00015938119031488895, 

    -0.12109073251485825, -0.02051624283194542, 
    -0.21490643918514252, -0.5423365235328674, 

    0.29869115352630615, -0.07189048826694489, 
    -0.06564944237470627, 0.019891072064638138, 

    1.0771877765655518, 0.09760788083076477, 
    0.23780736327171326, 0.04396966099739075, 

    0.026361843571066856, 0.1663450002670288, 
    -0.11063218861818314, 0.12497701495885849, 

    -0.21763119101524353, -0.15379883348941803, 
    0.02256021462380886, 0.003261557314544916, 

    0.08871345967054367, 0.11687743663787842, 
    -0.05037561058998108, -0.009481044486165047, 

    -0.07684849947690964, 0.018443256616592407, 
    -0.0901215523481369, 0.1294458955526352, 

    -0.34380966424942017, 0.0479891411960125, 
    -0.00398589251562953, -0.037721216678619385, 

        };
        static filter_t filter1 = {16, 2, weights1, 0.2267245650291443};
        filters[1]=filter1;
            
        static const float weights2[]={ 
    0.0963820368051529, 0.007725849747657776, 
    -0.10122159868478775, 0.0877169519662857, 

    0.02375016361474991, 0.011349698528647423, 
    0.006821959279477596, -0.06488816440105438, 

    0.14205722510814667, 0.019822826609015465, 
    -0.4977867305278778, 0.8238537907600403, 

    0.08929980546236038, 0.10774622857570648, 
    -0.5029749274253845, -0.15431267023086548, 

    0.00691710552200675, 0.052025385200977325, 
    -0.05297979339957237, -0.5502345561981201, 

    0.014548744075000286, 0.167986199259758, 
    0.002955314703285694, -0.8927029967308044, 

    -0.007177962455898523, 0.022972403094172478, 
    0.11495285481214523, -0.20465083420276642, 

    -0.48737823963165283, -0.400977224111557, 
    -0.45074567198753357, -0.007975033484399319, 

    0.017858130857348442, 0.12519747018814087, 
    -0.13348083198070526, -0.9352273344993591, 

    0.0950949490070343, -0.3064939081668854, 
    0.0925416573882103, 0.21573694050312042, 

    -0.15864869952201843, -0.29963579773902893, 
    0.18264824151992798, 0.9843474626541138, 

    0.04597325995564461, -0.03607572987675667, 
    -0.18984141945838928, 0.09256357699632645, 

    -0.09770195931196213, 0.2046937495470047, 
    -0.02800874412059784, -0.7370362877845764, 

    0.09229918569326401, -0.3001001477241516, 
    -0.30501630902290344, 0.25968965888023376, 

    0.12334741652011871, 0.09353233873844147, 
    0.17379213869571686, -0.011639013886451721, 

    0.1935431957244873, 0.09488223493099213, 
    -0.679582417011261, 0.049467045813798904, 

        };
        static filter_t filter2 = {16, 2, weights2, 0.17449545860290527};
        filters[2]=filter2;
            
        static const float weights3[]={ 
    -0.07049068808555603, -0.0340043306350708, 
    -0.11269102245569229, 0.08153508603572845, 

    -0.07176627218723297, 0.06288827955722809, 
    -0.16640983521938324, -0.23457181453704834, 

    -0.5750145316123962, 0.5905172228813171, 
    -1.7282958030700684, 0.9422869682312012, 

    -0.09643866866827011, -0.9194690585136414, 
    -0.014795363880693913, -0.13863913714885712, 

    -0.006553079932928085, 0.15617506206035614, 
    0.005818680860102177, 0.008979597128927708, 

    0.008022619411349297, 0.00829144474118948, 
    0.02309323474764824, 0.03573936969041824, 

    -0.2927129864692688, 0.3279188275337219, 
    0.11175885051488876, 0.04506504535675049, 

    0.015839962288737297, -0.4704967439174652, 
    0.06481991708278656, -0.20645898580551147, 

    0.0013604563428089023, -0.04464168846607208, 
    0.02151504158973694, 0.022773243486881256, 

    -0.041898634284734726, -0.040919024497270584, 
    -0.01520809717476368, 0.390705406665802, 

    -0.7756607532501221, 0.7404949069023132, 
    -2.723222494125366, -3.7711355686187744, 

    -0.1483839452266693, 0.039075642824172974, 
    0.08629176020622253, -1.4173171520233154, 

    0.0042058913968503475, -0.01861918531358242, 
    -0.02272232063114643, -0.019512232393026352, 

    0.03540376201272011, -0.1460648626089096, 
    -0.04268473759293556, 0.13646291196346283, 

    0.10543261468410492, -0.14618423581123352, 
    -0.1384992152452469, 0.1287299245595932, 

    -0.0589001439511776, -1.902350902557373, 
    -0.005203386768698692, -0.18600459396839142, 

        };
        static filter_t filter3 = {16, 2, weights3, 0.23315969109535217};
        filters[3]=filter3;
            
        static const float weights4[]={ 
    -0.10872183740139008, 0.1461823731660843, 
    -0.06426876038312912, -0.1671745926141739, 

    -0.35149821639060974, -0.08277144283056259, 
    0.13351774215698242, 0.001584286568686366, 

    0.1955702006816864, 0.401057630777359, 
    -0.19194503128528595, -0.1205097958445549, 

    0.043002672493457794, -1.1290388107299805, 
    -0.062297046184539795, -0.1603272408246994, 

    0.021088868379592896, -1.5236486196517944, 
    0.0019789368379861116, -0.08723477274179459, 

    0.09507689625024796, -0.3546687960624695, 
    0.03073878400027752, -0.09678535163402557, 

    0.10036470741033554, -0.013328886590898037, 
    -0.007233817130327225, -0.01045465748757124, 

    0.032184798270463943, -0.009701349772512913, 
    -0.073115274310112, 0.013021863996982574, 

    0.030037755146622658, -1.540337085723877, 
    0.0017265910282731056, -0.18805286288261414, 

    -0.12244763225317001, 0.17500469088554382, 
    -0.03615135699510574, 0.017668360844254494, 

    0.49169498682022095, 1.7627363204956055, 
    0.5661994218826294, 0.22422966361045837, 

    -0.1480107307434082, 0.07092611491680145, 
    0.15562038123607635, -0.07609739899635315, 

    0.004667096305638552, -0.047650936990976334, 
    0.012405214831233025, -0.17140521109104156, 

    0.03455725684762001, -0.02525581419467926, 
    -0.10680518299341202, -0.16447922587394714, 

    0.08551056683063507, 0.029596269130706787, 
    0.14617453515529633, -0.04600699245929718, 

    0.15245290100574493, -0.1626519113779068, 
    -0.3035828173160553, -0.011053010821342468, 

        };
        static filter_t filter4 = {16, 2, weights4, 0.14274488389492035};
        filters[4]=filter4;
            
        static const float weights5[]={ 
    -0.09757690876722336, -0.1597144603729248, 
    -0.022022396326065063, -0.10570433735847473, 

    -0.3411448001861572, 0.061621278524398804, 
    0.040745172649621964, -0.07522978633642197, 

    -0.7803492546081543, -0.2644319534301758, 
    -0.23297353088855743, 0.49242305755615234, 

    -0.06963145732879639, -0.03180494159460068, 
    -0.09706145524978638, -0.0034441726747900248, 

    0.01750485599040985, -0.07194743305444717, 
    0.01748255454003811, -0.25451356172561646, 

    -0.007646713871508837, -0.2936088442802429, 
    0.017551636323332787, -1.02066171169281, 

    -0.125314399600029, 0.08744331449270248, 
    0.0005261478945612907, 0.2181980013847351, 

    -0.25847235321998596, 0.037099532783031464, 
    -0.7527228593826294, 0.024373238906264305, 

    0.002606648486107588, -0.13335569202899933, 
    0.03291701152920723, 0.014507655054330826, 

    -0.03912023827433586, -0.09266429394483566, 
    -0.11021248996257782, 0.21798865497112274, 

    -2.4245429039001465, -0.5738680362701416, 
    -0.13832202553749084, 0.16004468500614166, 

    -0.4094792306423187, 0.15845204889774323, 
    -0.15299677848815918, 0.033139172941446304, 

    0.017261719331145287, -0.49258992075920105, 
    0.04764951765537262, -0.2673759460449219, 

    0.15266339480876923, -0.0499693900346756, 
    0.01709425449371338, 0.12406749278306961, 

    -0.026136696338653564, -0.17426735162734985, 
    -0.13283658027648926, 0.13032449781894684, 

    -0.16618993878364563, 0.008244437165558338, 
    -0.2666837275028229, 0.0071880207397043705, 

        };
        static filter_t filter5 = {16, 2, weights5, 0.2986587882041931};
        filters[5]=filter5;
            
        static const float weights6[]={ 
    0.16104282438755035, 0.05920515954494476, 
    0.17185945808887482, -0.16523604094982147, 

    -0.26106661558151245, 0.31120988726615906, 
    0.30626431107521057, -0.062498271465301514, 

    0.009824098087847233, -0.11856874823570251, 
    0.20325027406215668, -3.5185720920562744, 

    -0.024940920993685722, -0.1546081155538559, 
    -0.027330702170729637, -0.0026993784122169018, 

    0.006271411664783955, -1.0852501392364502, 
    -0.29892075061798096, -0.024200720712542534, 

    -0.012215899303555489, -0.03103453852236271, 
    0.003876384813338518, 0.010348401963710785, 

    -0.029059113934636116, -0.4590578079223633, 
    0.10873748362064362, 0.12742315232753754, 

    -0.02616966888308525, -0.03244665637612343, 
    -0.04313216358423233, -0.16580525040626526, 

    -0.02341996319591999, -0.7905616164207458, 
    -0.05853782594203949, -0.0025507984682917595, 

    0.3477078378200531, 0.1854964941740036, 
    -0.0644088163971901, -1.6480916738510132, 

    0.293674111366272, -0.08011427521705627, 
    0.12491948157548904, -5.5031538009643555, 

    -0.06360770016908646, -0.04390621930360794, 
    0.21487770974636078, -0.9792156219482422, 

    -0.7895712852478027, -0.0327080674469471, 
    0.017200227826833725, -0.0632140189409256, 

    0.6720976829528809, 9.392638457939029e-05, 
    -0.23208299279212952, -0.4306415319442749, 

    0.12946774065494537, 0.1390656679868698, 
    -0.030491426587104797, 0.06712964177131653, 

    0.046410076320171356, 0.07073245942592621, 
    0.0002531206118874252, 0.0017942062113434076, 

        };
        static filter_t filter6 = {16, 2, weights6, 0.27105480432510376};
        filters[6]=filter6;
            
        static const float weights7[]={ 
    -0.13727228343486786, 0.04271507263183594, 
    -0.018754422664642334, 0.09111659228801727, 

    0.2791388928890228, 0.09954898804426193, 
    -0.06283256411552429, -0.18984369933605194, 

    -0.9427023530006409, -0.08603572845458984, 
    -0.004975909832865, -0.09702108800411224, 

    -0.032457105815410614, 0.08592358976602554, 
    0.011367768980562687, -0.02354143187403679, 

    0.0193571038544178, 0.006337041966617107, 
    -0.2380489557981491, 0.042107220739126205, 

    0.012043374590575695, 0.007178435102105141, 
    -0.08746342360973358, 0.062310926616191864, 

    -0.17126010358333588, -0.2794751226902008, 
    -0.3943726718425751, 0.28662222623825073, 

    0.03408464416861534, 0.05816195532679558, 
    0.0771799236536026, 0.019887775182724, 

    0.0019592640455812216, 0.16182640194892883, 
    -0.08323613554239273, 0.04638459533452988, 

    0.10396649688482285, -0.17177723348140717, 
    -0.29203763604164124, -0.0052508702501654625, 

    -0.24019280076026917, -0.8478798270225525, 
    -1.696743369102478, -0.15772096812725067, 

    0.20234337449073792, 0.07460012286901474, 
    -0.8248792290687561, -0.0892668142914772, 

    -0.11655500531196594, 0.13702033460140228, 
    0.022166723385453224, -0.0021655920427292585, 

    0.05226294323801994, -0.1414613127708435, 
    0.37895673513412476, -0.9465094804763794, 

    -0.16854755580425262, -0.06641833484172821, 
    0.03159955143928528, 0.10253463685512543, 

    -0.057034119963645935, 0.19803591072559357, 
    -0.032629311084747314, -0.0763278380036354, 

        };
        static filter_t filter7 = {16, 2, weights7, 0.03424683213233948};
        filters[7]=filter7;
            
        static const float weights8[]={ 
    0.09991668164730072, 0.10425229370594025, 
    -0.13586297631263733, 0.13965155184268951, 

    -0.009715739637613297, 0.03295198082923889, 
    -0.15821214020252228, 0.08363696932792664, 

    -0.0795322060585022, 0.11455681174993515, 
    1.2673009634017944, 0.20342490077018738, 

    0.01778588630259037, -0.03884037956595421, 
    -0.15224114060401917, -0.001469210023060441, 

    -0.043332476168870926, 0.016084184870123863, 
    0.010438768193125725, -1.9042497873306274, 

    -0.031006870791316032, 0.008265271782875061, 
    -0.05456233024597168, -2.2175076007843018, 

    -0.004810594022274017, -0.3101702034473419, 
    -0.0694069042801857, -0.04622320458292961, 

    -2.553483009338379, 0.008460692130029202, 
    -0.7528116703033447, -0.01828073337674141, 

    -0.03259178251028061, -0.05207071453332901, 
    0.010465542785823345, -0.013374276459217072, 

    -0.04208771511912346, -0.20147597789764404, 
    0.3784678876399994, -0.3506316542625427, 

    1.3141891956329346, 0.7813892364501953, 
    0.5602011680603027, 1.235226035118103, 

    0.03965412452816963, 0.1131688803434372, 
    -0.26430246233940125, 0.02866685949265957, 

    0.07678587734699249, -0.9362491965293884, 
    -0.0974932387471199, -0.3332511782646179, 

    -0.31719857454299927, 0.024795768782496452, 
    0.16523799300193787, 0.09051105380058289, 

    0.15914364159107208, -0.07203402370214462, 
    0.08411885797977448, -0.03812970221042633, 

    0.009785919450223446, -0.01787693053483963, 
    -0.4740423560142517, -0.0101972920820117, 

        };
        static filter_t filter8 = {16, 2, weights8, 0.28235942125320435};
        filters[8]=filter8;
            
        static const float weights9[]={ 
    0.1613416224718094, -0.14615076780319214, 
    0.027459055185317993, 0.002863958477973938, 

    -0.3943270444869995, 0.15839549899101257, 
    -0.26194196939468384, -0.12632308900356293, 

    -0.5623176097869873, -0.134068563580513, 
    0.14295560121536255, 0.43610233068466187, 

    -0.059333402663469315, -0.3496972620487213, 
    0.051671579480171204, 0.046390190720558167, 

    0.05167291685938835, -0.35193079710006714, 
    0.010380641557276249, -0.2756447196006775, 

    0.034136269241571426, -0.2828671634197235, 
    0.0029137390665709972, 0.06495758146047592, 

    -0.1266794204711914, 0.056705038994550705, 
    -0.032848455011844635, -0.20049184560775757, 

    0.001126687042415142, -0.013333340175449848, 
    0.013056591153144836, 0.02242029272019863, 

    0.0673021525144577, -0.5900887846946716, 
    0.008907967247068882, -0.1592429280281067, 

    0.06016533076763153, -0.0621429868042469, 
    -0.09562168270349503, 0.42121422290802, 

    -0.29435744881629944, 0.7898903489112854, 
    -1.3127195835113525, 0.7046190500259399, 

    -0.46842139959335327, 0.4448953866958618, 
    -0.49560579657554626, -0.07343555986881256, 

    -0.01551083941012621, 0.0033206078223884106, 
    -0.13744321465492249, 0.09784732758998871, 

    -0.08167552947998047, 0.0011662272736430168, 
    0.0775396004319191, 0.1824292242527008, 

    -0.01978588104248047, 0.08988185226917267, 
    0.09679453074932098, -0.10508498549461365, 

    -0.3094395399093628, -0.10651293396949768, 
    0.05399452522397041, 0.004228977486491203, 

        };
        static filter_t filter9 = {16, 2, weights9, 0.21983681619167328};
        filters[9]=filter9;
            
        static const float weights10[]={ 
    -0.04363588988780975, -0.05961077660322189, 
    0.05084329843521118, 0.05558022856712341, 

    0.2454492300748825, 0.016235962510108948, 
    0.006637576036155224, -0.15930865705013275, 

    1.161332607269287, -0.06536032259464264, 
    -0.486563116312027, -0.10337616503238678, 

    -0.1683288812637329, -0.016693007200956345, 
    0.0207066610455513, -0.02136724628508091, 

    -0.8631954193115234, -0.16195343434810638, 
    -1.249273419380188, -0.024235466495156288, 

    -2.1601624488830566, 0.02657276578247547, 
    -0.07345030456781387, -0.06424906849861145, 

    -0.10193423181772232, -0.06508176773786545, 
    0.10382898896932602, -0.12024248391389847, 

    -2.19776775338687e-05, -0.004691611975431442, 
    -0.15169678628444672, 0.009344013407826424, 

    -0.9704015254974365, -0.009694035165011883, 
    0.03271663933992386, -0.02771756984293461, 

    0.03154386952519417, -0.16206802427768707, 
    0.03897201269865036, -0.24514411389827728, 

    0.8038371801376343, 0.4920407831668854, 
    1.0857003927230835, 0.4916960597038269, 

    -0.1163862943649292, 0.04333411157131195, 
    0.4235236942768097, 0.06457793712615967, 

    -1.934396743774414, -0.009302686899900436, 
    -0.04152481257915497, -0.27813324332237244, 

    0.32023805379867554, 0.013801651075482368, 
    -0.4399532079696655, -0.14834973216056824, 

    0.1361684948205948, -0.05322430282831192, 
    0.09079460799694061, 0.11091314256191254, 

    0.046627894043922424, -0.054951172322034836, 
    -0.01642628014087677, 0.06378456205129623, 

        };
        static filter_t filter10 = {16, 2, weights10, 0.29141709208488464};
        filters[10]=filter10;
            
        static const float weights11[]={ 
    0.08179248869419098, 0.046371400356292725, 
    -0.0486799031496048, 0.014417767524719238, 

    0.242343470454216, 0.06253822892904282, 
    0.06509823352098465, 0.19127550721168518, 

    -0.397841215133667, 0.09646360576152802, 
    -0.06550867855548859, -0.3104340136051178, 

    -0.14358209073543549, -0.0070645771920681, 
    -0.07844876497983932, 0.10874973237514496, 

    -0.8838512301445007, -0.16414065659046173, 
    -0.1726430356502533, 0.00577741302549839, 

    -1.141832947731018, -0.09240732342004776, 
    0.0028410034719854593, 0.0019427703227847815, 

    0.19245082139968872, 0.08293371647596359, 
    -0.02527967467904091, -0.019659405574202538, 

    -0.014886429533362389, -0.06997177004814148, 
    0.04013136029243469, 0.2409704625606537, 

    -0.9208306074142456, -0.0010403660126030445, 
    -0.11533801257610321, -0.07219406962394714, 

    -0.1875394880771637, 0.09367691725492477, 
    0.0008107679313980043, 0.11973362416028976, 

    -1.645402193069458, -0.6571477651596069, 
    -0.18442024290561676, 0.31814542412757874, 

    -0.09864633530378342, -0.08015839755535126, 
    0.18245187401771545, 0.02018391527235508, 

    -0.37740838527679443, 0.24376903474330902, 
    -0.006778232753276825, 0.027039865031838417, 

    -0.08033590018749237, 0.03989633172750473, 
    0.055294714868068695, 0.11892148107290268, 

    0.08873064815998077, 0.03756532073020935, 
    0.09005238115787506, 0.11953170597553253, 

    0.03982812166213989, 0.005751398392021656, 
    -0.05670398846268654, -0.028865016996860504, 

        };
        static filter_t filter11 = {16, 2, weights11, 0.18793614208698273};
        filters[11]=filter11;
            
        static const float weights12[]={ 
    0.1646900326013565, -0.1081228032708168, 
    0.03051002323627472, -0.020930379629135132, 

    -0.04957947880029678, 0.22795723378658295, 
    -0.11360138654708862, 0.053662437945604324, 

    -0.5009666085243225, 0.32098329067230225, 
    0.20098274946212769, -1.6695122718811035, 

    -0.02866344526410103, 0.001653178478591144, 
    -0.03866755962371826, -0.02236362174153328, 

    0.03992278873920441, -0.3395620882511139, 
    -0.04381513595581055, -0.06344339996576309, 

    0.07461337000131607, -0.09443056583404541, 
    -0.07824914902448654, -0.031632114201784134, 

    0.010281529277563095, -0.09227357804775238, 
    -0.19009433686733246, 0.024052662774920464, 

    -0.06634078174829483, 0.04707593098282814, 
    0.02732892334461212, 0.0014067611191421747, 

    0.048791732639074326, -0.060007620602846146, 
    -0.056316278874874115, -0.05521972477436066, 

    0.09253945201635361, 0.17034336924552917, 
    0.09079419821500778, -0.019299529492855072, 

    0.5898791551589966, 0.8336293697357178, 
    -0.366374671459198, 0.04222254455089569, 

    0.2549160420894623, -0.0883375033736229, 
    0.08944150805473328, -0.22780920565128326, 

    -0.021746061742305756, 0.24509494006633759, 
    -0.29469040036201477, -0.012149997986853123, 

    -0.07049992680549622, 0.18522410094738007, 
    0.4031188189983368, -0.7632505893707275, 

    -0.14790673553943634, -0.15657386183738708, 
    0.06121201813220978, -0.0260220468044281, 

    -0.035523928701877594, 0.035200513899326324, 
    0.2647816240787506, -0.05819869786500931, 

        };
        static filter_t filter12 = {16, 2, weights12, 0.050478290766477585};
        filters[12]=filter12;
            
        static const float weights13[]={ 
    -0.10903827846050262, -0.026407450437545776, 
    -0.0004737377166748047, 0.09221436083316803, 

    0.0022749463096261024, 0.045208580791950226, 
    -0.1652737408876419, -0.090385802090168, 

    -0.5057617425918579, -0.07947339117527008, 
    0.3823096752166748, 0.1369953453540802, 

    -0.14471982419490814, -0.21259114146232605, 
    0.04512232169508934, -0.4651445150375366, 

    0.00038250372745096684, -0.2162618637084961, 
    0.004006116650998592, -0.4384167194366455, 

    0.009544111788272858, -0.7834988832473755, 
    0.013729902915656567, -0.6018580198287964, 

    -0.0776304304599762, 0.06542781740427017, 
    0.04540327191352844, 0.06170835345983505, 

    -0.625529408454895, -0.3109472095966339, 
    -0.2246832698583603, -1.2380032539367676, 

    -0.009467589668929577, -0.3262249827384949, 
    0.018552564084529877, -0.464685320854187, 

    -0.06847631931304932, 0.06273290514945984, 
    -0.07304469496011734, -0.11523526161909103, 

    0.29783356189727783, 0.1515551507472992, 
    -0.686928391456604, 0.5143779516220093, 

    -0.05431527644395828, 0.07808169722557068, 
    -0.4354167580604553, 0.18911144137382507, 

    0.008856669999659061, -1.1909853219985962, 
    -0.13729530572891235, -0.49334633350372314, 

    -0.0585770457983017, 0.16188231110572815, 
    -0.08759741485118866, -0.059310149401426315, 

    -0.032227545976638794, 0.13310517370700836, 
    0.1165117472410202, 0.15050433576107025, 

    -0.6210231184959412, -0.13668622076511383, 
    -0.28893613815307617, -0.5422223210334778, 

        };
        static filter_t filter13 = {16, 2, weights13, 0.3825106918811798};
        filters[13]=filter13;
            
        static const float weights14[]={ 
    0.11052222549915314, 0.0037056803703308105, 
    -0.0005168020725250244, -0.10756558179855347, 

    -0.13160830736160278, 0.023974645882844925, 
    0.2716454863548279, -0.15112996101379395, 

    -0.3352237045764923, 0.5931860208511353, 
    -0.21060925722122192, -0.2863013744354248, 

    0.03919660300016403, -0.08019230514764786, 
    0.009298865683376789, -0.3396652042865753, 

    -0.012092281132936478, -0.0015807861927896738, 
    -1.5168299674987793, 0.04820482060313225, 

    -0.07570882886648178, 0.05118255317211151, 
    -0.02352740243077278, 0.004076760727912188, 

    -0.16177675127983093, 0.0753149464726448, 
    -0.11374984681606293, 0.08902744203805923, 

    0.04991216957569122, -0.23998461663722992, 
    0.020898474380373955, -0.4383429288864136, 

    -0.00041366202640347183, -0.004583022557199001, 
    -0.08410882204771042, 0.05700010433793068, 

    -0.05221867561340332, -0.11326716095209122, 
    -0.03653695061802864, 0.03822413086891174, 

    -0.13025081157684326, 0.9052821397781372, 
    0.3928966224193573, 0.49831050634384155, 

    0.07276790589094162, -0.42445796728134155, 
    0.3749847114086151, -0.15905927121639252, 

    -0.6179715394973755, 0.010083978064358234, 
    0.05045247822999954, 0.03022862784564495, 

    0.5869075655937195, -0.004895298276096582, 
    -0.16889861226081848, -0.0915936827659607, 

    0.03952375054359436, 0.17445005476474762, 
    0.14669935405254364, -0.0336996465921402, 

    0.03544017672538757, -0.15579190850257874, 
    0.017731254920363426, -0.9068270921707153, 

        };
        static filter_t filter14 = {16, 2, weights14, 0.28910595178604126};
        filters[14]=filter14;
            
        static const float weights15[]={ 
    0.10654352605342865, -0.17241618037223816, 
    0.02136141061782837, -0.028740406036376953, 

    0.057830747216939926, 0.014911863021552563, 
    -0.15394967794418335, 0.08562413603067398, 

    -0.22248758375644684, 0.6477421522140503, 
    -0.15103116631507874, 0.12468599528074265, 

    0.08224548399448395, 0.054876238107681274, 
    -0.08220081776380539, -0.5834878087043762, 

    -0.008645485155284405, -0.01277152355760336, 
    0.002890318166464567, 0.008830727078020573, 

    0.017858410254120827, -0.006525903008878231, 
    0.0033368871081620455, 0.04151531308889389, 

    0.005942641291767359, -0.3302612006664276, 
    -0.7995984554290771, -0.09959505498409271, 

    0.04351424425840378, 0.019200794398784637, 
    -0.015518775209784508, -0.15037091076374054, 

    -0.0031317761167883873, -0.026834536343812943, 
    -0.010186128318309784, -0.001785369822755456, 

    -0.0478014312684536, 0.005681742914021015, 
    -0.09108683466911316, -0.3431299328804016, 

    0.3290969729423523, 0.43221449851989746, 
    -0.29294461011886597, 0.8066652417182922, 

    0.5050862431526184, 0.18342489004135132, 
    0.10293009132146835, -0.08992127329111099, 

    0.016007257625460625, 0.08214883506298065, 
    -0.007458073552697897, 0.009022831916809082, 

    -0.03337184712290764, 0.1596037894487381, 
    0.26942262053489685, -2.1434435844421387, 

    0.12118108570575714, 0.1589077264070511, 
    0.1487978845834732, -0.10257665812969208, 

    -0.08542949706315994, -0.04431382566690445, 
    -0.07017103582620621, -1.3015671968460083, 

        };
        static filter_t filter15 = {16, 2, weights15, 0.22686173021793365};
        filters[15]=filter15;
            
        static const float weights16[]={ 
    0.008737340569496155, 0.07823188602924347, 
    0.03904463350772858, -0.08725682646036148, 

    0.14092428982257843, -0.05434476584196091, 
    0.205427348613739, -0.3002561628818512, 

    -0.6853134632110596, -1.8257005214691162, 
    0.7197554111480713, -0.34520167112350464, 

    -0.01763405278325081, 0.04388231039047241, 
    -0.033532507717609406, 0.01920309290289879, 

    0.023047225549817085, -0.16221369802951813, 
    -0.05960312858223915, 0.00474017858505249, 

    -0.025173604488372803, -0.0271759070456028, 
    0.007675479631870985, 0.04308205097913742, 

    -0.23572584986686707, -0.2514125108718872, 
    0.13628314435482025, 0.4104088544845581, 

    0.021991141140460968, 0.04724599048495293, 
    -0.07917019724845886, 0.07238386571407318, 

    -0.030440470203757286, -0.10325729846954346, 
    -0.0474700927734375, 0.07123083621263504, 

    -0.23436814546585083, -0.19380691647529602, 
    -0.2637004554271698, -0.3194405138492584, 

    -0.33003297448158264, -1.8026660680770874, 
    -0.30140748620033264, -1.8523204326629639, 

    0.6492549777030945, -0.4451850652694702, 
    -0.39188721776008606, -0.6523170471191406, 

    -0.04601449891924858, 0.04050542414188385, 
    0.05148068815469742, 0.06643150746822357, 

    -0.3886771500110626, -0.9749687910079956, 
    -0.7671896815299988, 0.15552973747253418, 

    -0.05324752628803253, 0.11940102279186249, 
    0.0514032244682312, 0.03153735399246216, 

    0.05152921378612518, 0.035757262259721756, 
    -0.08753988891839981, 0.05592813342809677, 

        };
        static filter_t filter16 = {16, 2, weights16, 0.18553686141967773};
        filters[16]=filter16;
            
        static const float weights17[]={ 
    0.08954642713069916, 0.09424389898777008, 
    -0.06991521269083023, 0.10328881442546844, 

    0.12718364596366882, -0.16186672449111938, 
    0.11494094133377075, 0.06745278090238571, 

    -0.006449722219258547, -0.023729946464300156, 
    -0.5394048094749451, -0.38057029247283936, 

    0.05856490507721901, 0.05628645420074463, 
    0.038493912667036057, -0.07905949652194977, 

    -0.1583607941865921, 0.23893441259860992, 
    0.008642436005175114, -0.02843547984957695, 

    -0.05931301787495613, 0.21200327575206757, 
    0.08115720748901367, 0.07649260014295578, 

    0.20845744013786316, -0.0008835310582071543, 
    -0.3034932315349579, 0.17224369943141937, 

    -0.05012160539627075, 0.02186916023492813, 
    0.19818587601184845, 0.13546998798847198, 

    -0.10046293586492538, 0.1729118973016739, 
    -0.001173822907730937, -0.03837497904896736, 

    -0.06846330314874649, 0.024647796526551247, 
    0.06307978183031082, 0.30786076188087463, 

    -0.8673378229141235, -0.5215024352073669, 
    0.4083660840988159, 0.6270416975021362, 

    -0.22869303822517395, -0.46366286277770996, 
    0.10291855782270432, -0.018241075798869133, 

    0.06756966561079025, -0.0783478394150734, 
    0.016967060044407845, 0.26080480217933655, 

    0.2100532054901123, 0.07022761553525925, 
    0.11209464073181152, -0.24798527359962463, 

    -0.011636495590209961, 0.027178645133972168, 
    0.05239450931549072, 0.13111476600170135, 

    0.17454679310321808, 0.022958239540457726, 
    0.08625664561986923, -0.08791116625070572, 

        };
        static filter_t filter17 = {16, 2, weights17, -0.12687061727046967};
        filters[17]=filter17;
            
        static const float weights18[]={ 
    0.07657922804355621, -0.012596383690834045, 
    -0.05156439542770386, -0.14587163925170898, 

    0.19502395391464233, -0.09059435874223709, 
    0.021892281249165535, 0.06466341763734818, 

    0.2445121854543686, -0.17451722919940948, 
    0.19580818712711334, -4.064622402191162, 

    0.02437506802380085, 0.019447972998023033, 
    -0.004193508066236973, 0.08731752634048462, 

    0.03209157660603523, -0.0024978970177471638, 
    -0.10669812560081482, 0.0023629602510482073, 

    0.04609226435422897, 0.02595718763768673, 
    -0.12056232243776321, 0.017921358346939087, 

    0.11983256787061691, -0.3204815685749054, 
    0.19428569078445435, 0.01431937888264656, 

    0.03899431228637695, 0.14867940545082092, 
    -0.02599751390516758, 0.045255113393068314, 

    0.05681987106800079, 0.014863652177155018, 
    -0.04264087602496147, 0.07406336069107056, 

    -0.005257957149296999, 0.14592784643173218, 
    0.2284649908542633, -1.226009488105774, 

    1.372738242149353, 0.19924728572368622, 
    1.7096751928329468, -5.619893550872803, 

    0.36737707257270813, -0.0385623499751091, 
    0.21018360555171967, -0.00501418299973011, 

    -0.09678050875663757, 0.06138551980257034, 
    -0.0744711384177208, 0.024129509925842285, 

    0.293213814496994, 0.1955028772354126, 
    0.37656840682029724, -0.5223670601844788, 

    -0.1190909743309021, 0.15993256866931915, 
    -0.13093027472496033, -0.08857379108667374, 

    -0.042779602110385895, 0.03375058248639107, 
    -0.04355710372328758, 0.04431091621518135, 

        };
        static filter_t filter18 = {16, 2, weights18, -0.024767866358160973};
        filters[18]=filter18;
            
        static const float weights19[]={ 
    0.06027691066265106, -0.10694054514169693, 
    0.07429970800876617, -0.15705500543117523, 

    0.20986239612102509, 0.0032881523948162794, 
    -0.039568908512592316, 0.011281038634479046, 

    0.2757841646671295, 0.03468694910407066, 
    -0.01882779225707054, 0.13682004809379578, 

    -0.3048767149448395, 0.028016619384288788, 
    -1.0467742681503296, -0.0023180642165243626, 

    -1.7348198890686035, 0.007153281942009926, 
    0.09243515878915787, -0.5798441767692566, 

    -1.0767526626586914, -1.8073467016220093, 
    -0.058959607034921646, -0.06788754463195801, 

    0.027968229725956917, -0.09787935018539429, 
    -0.11999358236789703, 0.03047288954257965, 

    -1.2968239784240723, 0.05840689316391945, 
    -0.04544096067547798, 0.10318486392498016, 

    -1.8257931470870972, 0.07857948541641235, 
    -0.3778301179409027, 0.06818882375955582, 

    0.1106620654463768, -0.028600990772247314, 
    0.042854126542806625, 0.08181217312812805, 

    0.810878336429596, 0.1233905479311943, 
    1.2410752773284912, 0.5675024390220642, 

    0.35954275727272034, 0.103794626891613, 
    0.569844126701355, 0.008813895285129547, 

    -0.18061380088329315, 0.027476849034428596, 
    -0.04261556267738342, -0.011643396690487862, 

    0.09990888833999634, -0.13518500328063965, 
    0.2175908237695694, -0.17001649737358093, 

    -0.15244607627391815, 0.1714089959859848, 
    -0.018817931413650513, 0.15054811537265778, 

    0.11687711626291275, 0.022050408646464348, 
    -0.0034255599603056908, 0.009722372516989708, 

        };
        static filter_t filter19 = {16, 2, weights19, 0.01403442770242691};
        filters[19]=filter19;
            
        static const float weights20[]={ 
    0.04198795557022095, 0.08442549407482147, 
    0.13593082129955292, 0.1234840601682663, 

    0.08355284482240677, -0.25510478019714355, 
    -0.18523047864437103, -0.03513869270682335, 

    -0.7993898987770081, 0.45754188299179077, 
    0.044304829090833664, -0.15694496035575867, 

    -0.009793116711080074, -0.21751120686531067, 
    -0.1925281137228012, -0.043907441198825836, 

    0.00522985402494669, -0.053300827741622925, 
    -0.00407271645963192, -0.1703788936138153, 

    0.003949777223169804, 0.017860740423202515, 
    0.004799454472959042, 0.030139543116092682, 

    -0.01274055428802967, -0.28965190052986145, 
    -0.4177462160587311, 0.2447066307067871, 

    -0.07447326928377151, 0.01877610757946968, 
    0.08263074606657028, 0.11020427942276001, 

    -0.0028604897670447826, -0.10960845649242401, 
    -0.00011705595534294844, -0.03379908204078674, 

    -0.3575298488140106, 0.26019325852394104, 
    -0.13099715113639832, -0.16646109521389008, 

    0.2188296765089035, 0.8187755346298218, 
    0.10250930488109589, 1.0517997741699219, 

    -0.3872191309928894, -0.058439578860998154, 
    0.019251585006713867, 0.009969938546419144, 

    0.03640468418598175, -0.38571837544441223, 
    0.016609307378530502, 0.023973803967237473, 

    -0.570782482624054, 0.11640758812427521, 
    -0.41071513295173645, -0.5967824459075928, 

    0.12403367459774017, -0.17214475572109222, 
    0.15827952325344086, 0.06772665679454803, 

    -0.07946249097585678, -0.02889939211308956, 
    -0.08285251259803772, -0.04667206108570099, 

        };
        static filter_t filter20 = {16, 2, weights20, 0.28356438875198364};
        filters[20]=filter20;
            
        static const float weights21[]={ 
    0.14741815626621246, 0.050012245774269104, 
    -0.1387568712234497, 0.13631103932857513, 

    -0.19087837636470795, -0.751959502696991, 
    0.05086097493767738, 0.011529617942869663, 

    -2.283623695373535, 0.07503195106983185, 
    0.2597722113132477, 0.1375148892402649, 

    -0.00818240363150835, 0.0017791737336665392, 
    0.05907966569066048, 0.010496175847947598, 

    0.04229148104786873, -0.03425412252545357, 
    -0.04342088848352432, 0.010907388292253017, 

    0.05545806139707565, -0.009771657176315784, 
    -0.09660226851701736, 0.014061610214412212, 

    -0.06056685000658035, 0.125519797205925, 
    -0.07450278848409653, 0.3495381772518158, 

    0.013451886363327503, 8.883616101229563e-05, 
    -0.02479550614953041, -0.022824926301836967, 

    0.03114256262779236, -0.01662023551762104, 
    0.03597467020153999, 0.00838377047330141, 

    -1.9235726594924927, -0.25331446528434753, 
    -0.05320487543940544, 0.29153215885162354, 

    -1.4788926839828491, -2.1317524909973145, 
    -0.1214161068201065, -0.32621675729751587, 

    -0.39061352610588074, -2.444544792175293, 
    -0.024431996047496796, 0.14124852418899536, 

    -0.10826410353183746, -0.011530628427863121, 
    -0.2448427975177765, -0.1145315170288086, 

    -1.159403920173645, 0.2320968359708786, 
    0.03594933822751045, 0.050365399569272995, 

    -0.04315963387489319, -0.13138103485107422, 
    0.17321006953716278, -0.09507191181182861, 

    0.010805073194205761, -0.018444718793034554, 
    0.05139033496379852, -0.02228136733174324, 

        };
        static filter_t filter21 = {16, 2, weights21, 0.15481528639793396};
        filters[21]=filter21;
            
        static const float weights22[]={ 
    -0.13968110084533691, -0.1544981598854065, 
    0.06512227654457092, -0.1433207392692566, 

    -0.05266673117876053, -0.42506954073905945, 
    0.07244419306516647, -0.309688538312912, 

    -1.3672345876693726, 0.10092281550168991, 
    -1.6905192136764526, 0.007689261808991432, 

    -0.054530683904886246, 0.0054721711203455925, 
    0.01791558787226677, 0.042354028671979904, 

    0.014912964776158333, 0.04551016166806221, 
    0.07578550279140472, 0.13544437289237976, 

    0.05476508289575577, 0.06052736937999725, 
    0.06787697970867157, -0.10179979354143143, 

    -0.2829735577106476, -0.01211598515510559, 
    0.3821444511413574, 0.408765971660614, 

    -0.10097334533929825, 0.09918508678674698, 
    -0.5640979409217834, -0.18851828575134277, 

    -0.03167199343442917, 0.2166016697883606, 
    0.047195594757795334, 0.07486048340797424, 

    -0.42926132678985596, 0.22368846833705902, 
    -0.12289760261774063, -0.20541080832481384, 

    -1.4233249425888062, -0.09304215013980865, 
    -0.4971841871738434, -0.3253765404224396, 

    -0.4375452399253845, -0.2952600419521332, 
    0.21968068182468414, -0.44625094532966614, 

    0.03427467867732048, -0.02542475052177906, 
    0.023708084598183632, -0.5042973160743713, 

    -0.5486004948616028, 0.5515230298042297, 
    0.09068663418292999, -0.10648930817842484, 

    0.14355818927288055, 0.08203859627246857, 
    -0.11469510197639465, 0.0733160525560379, 

    -0.11323009431362152, 0.033485185354948044, 
    0.01435961201786995, 0.00425447802990675, 

        };
        static filter_t filter22 = {16, 2, weights22, 0.1445644497871399};
        filters[22]=filter22;
            
        static const float weights23[]={ 
    0.1597522646188736, 0.008266478776931763, 
    0.07062657177448273, 0.005432561039924622, 

    0.030248744413256645, 0.010219806805253029, 
    -0.1715705543756485, -0.15986932814121246, 

    -0.018598701804876328, 0.585658609867096, 
    -0.02059343457221985, -0.12884294986724854, 

    -0.6392819285392761, -1.4098843336105347, 
    -0.043677594512701035, -0.012463096529245377, 

    -0.564271867275238, -3.348159074783325, 
    -0.007637403439730406, -0.04021437466144562, 

    -0.06713704019784927, -0.07306089997291565, 
    0.028801824897527695, -0.048860158771276474, 

    -0.15501204133033752, -0.26451998949050903, 
    0.086866594851017, -0.07201632112264633, 

    -0.0020722548943012953, -0.001602523261681199, 
    -0.023086098954081535, -0.002569094067439437, 

    -0.9896420836448669, -3.0669286251068115, 
    -0.007992294616997242, 0.03542366996407509, 

    0.00711055239662528, 0.35516491532325745, 
    -0.039742741733789444, -0.22963574528694153, 

    0.5942941308021545, 1.3805664777755737, 
    -0.11022757738828659, 0.027407605201005936, 

    -0.11447501927614212, 0.3443203568458557, 
    -0.4725768566131592, 0.08152713626623154, 

    0.004388167057186365, 0.010543926618993282, 
    0.024945935234427452, -0.03453570976853371, 

    -0.10518310219049454, 0.0034602999221533537, 
    -0.04207207262516022, 0.04196174070239067, 

    -0.16204780340194702, -0.05633356422185898, 
    0.16747741401195526, 0.138612762093544, 

    -0.09380625188350677, -0.00916380900889635, 
    -0.07991810142993927, -0.010316671803593636, 

        };
        static filter_t filter23 = {16, 2, weights23, 0.33649858832359314};
        filters[23]=filter23;
            
        static const float weights24[]={ 
    0.1524798721075058, 0.05114738643169403, 
    0.14746873080730438, -0.028457894921302795, 

    -0.061812758445739746, -0.6488966941833496, 
    -0.30943313241004944, 0.267520934343338, 

    -1.32548189163208, -0.5163204073905945, 
    0.09301406890153885, 0.5086270570755005, 

    -0.06202668696641922, 0.10229691863059998, 
    0.04268018901348114, 0.01767931692302227, 

    -0.06502008438110352, 0.007654584012925625, 
    0.06275668740272522, -1.2473653554916382, 

    0.015667976811528206, -0.06499211490154266, 
    -0.014175825752317905, -0.05186477676033974, 

    0.10663441568613052, -0.25006404519081116, 
    0.02694886177778244, -0.25717678666114807, 

    -0.8968770503997803, -0.005726389586925507, 
    0.014745854772627354, 0.05680527538061142, 

    -0.07505974173545837, 0.05931076779961586, 
    0.04005063325166702, -0.12425710260868073, 

    -0.2798289358615875, 0.2775634229183197, 
    0.26455938816070557, -0.1325552761554718, 

    0.09379006177186966, -1.5469447374343872, 
    -0.7052701115608215, 1.4668653011322021, 

    -0.04825451597571373, -1.1458897590637207, 
    -0.174704909324646, 0.36214619874954224, 

    0.0034522314090281725, -0.5070873498916626, 
    -0.6314992904663086, 0.09082790464162827, 

    -0.7715094685554504, 0.27439799904823303, 
    0.6565008759498596, 0.02980010397732258, 

    0.10044874250888824, 0.11109815537929535, 
    0.05390051007270813, 0.15700586140155792, 

    -0.10056500136852264, 0.060715727508068085, 
    0.15647289156913757, 0.020744459703564644, 

        };
        static filter_t filter24 = {16, 2, weights24, 0.2119024246931076};
        filters[24]=filter24;
            
        static const float weights25[]={ 
    -0.058349572122097015, -0.1365131288766861, 
    0.10385669767856598, 0.05995208024978638, 

    -0.11735014617443085, -0.06863230466842651, 
    0.10131563246250153, -0.09731676429510117, 

    0.1951514184474945, 0.03468318283557892, 
    0.6773620843887329, -0.058018554002046585, 

    -0.009522838518023491, 0.04831637442111969, 
    -1.0514389276504517, -0.07675135880708694, 

    -0.26272064447402954, 0.03523724526166916, 
    -0.506389319896698, -1.0318090915679932, 

    -0.8107653260231018, 0.05225646123290062, 
    -0.5434742569923401, -0.04282707720994949, 

    -0.049998313188552856, -0.02874697558581829, 
    0.035939376801252365, 0.0010437725577503443, 

    -2.203200101852417, -0.09867212921380997, 
    -0.013315634801983833, -0.022349528968334198, 

    -0.04940197616815567, 0.06527825444936752, 
    -1.0998846292495728, -0.2429790049791336, 

    -0.2677530348300934, 0.1622145026922226, 
    0.05823732912540436, -0.03933944180607796, 

    -0.10864832997322083, -0.7037451267242432, 
    1.367493748664856, -0.18352796137332916, 

    -0.2899418771266937, -0.15690693259239197, 
    0.15432682633399963, -0.12586520612239838, 

    0.10036852210760117, 0.2931094467639923, 
    -0.2606602907180786, -0.010204071179032326, 

    0.008582011796534061, 0.05364489555358887, 
    0.08257646858692169, 0.00541328452527523, 

    0.11635561287403107, 0.057402193546295166, 
    0.022201865911483765, -0.08567868173122406, 

    -0.0238370131701231, 0.04480861499905586, 
    -0.03417109698057175, 0.025222303345799446, 

        };
        static filter_t filter25 = {16, 2, weights25, 0.20813477039337158};
        filters[25]=filter25;
            
        static const float weights26[]={ 
    -0.07330513000488281, -0.010550528764724731, 
    -0.0591784343123436, 0.017368465662002563, 

    -0.05206567049026489, -0.133687362074852, 
    0.011172539554536343, -0.09085706621408463, 

    -0.3236875832080841, -0.36943650245666504, 
    -0.6151816844940186, 0.49130845069885254, 

    -0.0481431744992733, 0.0002989689528476447, 
    -0.32960179448127747, -1.1972452402114868, 

    0.013728952966630459, 0.025459937751293182, 
    -0.5852630734443665, -0.11362210661172867, 

    0.01838776282966137, 0.02737516164779663, 
    0.008303717710077763, 0.11180953681468964, 

    -0.014011369086802006, 0.06282632052898407, 
    -0.17231206595897675, -0.09261813014745712, 

    -0.026056896895170212, -0.2752079367637634, 
    -0.007590966299176216, 0.16387735307216644, 

    -0.008762274868786335, 0.043503083288669586, 
    -0.62330561876297, -0.21003828942775726, 

    -0.19686156511306763, -0.3638192117214203, 
    -0.045711226761341095, 0.01667007990181446, 

    -0.9152500033378601, -0.8011181354522705, 
    -0.13938699662685394, -0.30415037274360657, 

    -0.2727469205856323, -0.4441063404083252, 
    0.1838204711675644, -0.06300020962953568, 

    -0.11622238159179688, -0.04076546058058739, 
    0.034282758831977844, 0.05675371736288071, 

    0.15757334232330322, -0.20861616730690002, 
    -0.2950463891029358, 0.005784738343209028, 

    -0.1305171102285385, -0.11602222174406052, 
    0.09116072952747345, 0.04172609746456146, 

    -0.05375615879893303, -0.005255475640296936, 
    0.0019642417319118977, -0.05149923264980316, 

        };
        static filter_t filter26 = {16, 2, weights26, 0.35151660442352295};
        filters[26]=filter26;
            
        static const float weights27[]={ 
    -0.11319088190793991, 0.02424539625644684, 
    0.013971179723739624, 0.11090926826000214, 

    -0.1215108335018158, -0.22680896520614624, 
    0.23670069873332977, -0.7375524044036865, 

    -0.08539791405200958, 0.12350554019212723, 
    0.2780618965625763, 0.5246515870094299, 

    -0.025488901883363724, 0.19407670199871063, 
    -0.01471027173101902, -0.16844917833805084, 

    0.007470431737601757, -0.02190430648624897, 
    0.013249939307570457, -0.050538524985313416, 

    -0.0028020956087857485, -0.022401342168450356, 
    -0.01909364014863968, -0.022803589701652527, 

    -0.39738374948501587, 0.10451109707355499, 
    0.11236948519945145, -0.36800655722618103, 

    -0.016410011798143387, -0.3321911692619324, 
    -0.13094019889831543, -0.01900051347911358, 

    0.015346139669418335, 0.18255221843719482, 
    0.027655253186821938, -0.04504621401429176, 

    0.011006884276866913, 0.01337506715208292, 
    -1.113284707069397, 0.12214268743991852, 

    0.00850964430719614, -0.2198391854763031, 
    -0.7887428402900696, -1.3227802515029907, 

    -0.0445675291121006, -0.4078961908817291, 
    -0.9881038069725037, -1.190809965133667, 

    0.0018400752451270819, 0.13599911332130432, 
    -0.10719121247529984, -0.19189098477363586, 

    -0.04312299191951752, -1.851828694343567, 
    -0.2014743536710739, 0.36404547095298767, 

    -0.15477105975151062, 0.12180052697658539, 
    -0.1330449879169464, 0.14040420949459076, 

    -0.04163147509098053, -0.012363085523247719, 
    -0.04782595857977867, -0.006996871903538704, 

        };
        static filter_t filter27 = {16, 2, weights27, 0.27694669365882874};
        filters[27]=filter27;
            
        static const float weights28[]={ 
    -0.010337397456169128, 0.04934637248516083, 
    -0.11365171521902084, 0.09254951775074005, 

    -0.1869475543498993, -0.20210278034210205, 
    0.14241239428520203, 0.004688499961048365, 

    -1.7967770099639893, 0.34164708852767944, 
    0.3768519163131714, -0.6507515907287598, 

    0.08814386278390884, -0.14747360348701477, 
    0.04263791814446449, -0.04486251622438431, 

    0.0059061311185359955, 0.044531457126140594, 
    -0.704041600227356, 0.014273406006395817, 

    -0.04047011584043503, 0.057423703372478485, 
    -0.2888873517513275, 0.03678177297115326, 

    0.033203527331352234, -0.04340490698814392, 
    0.24690619111061096, 0.030401254072785378, 

    0.02084737829864025, -0.09768670052289963, 
    0.036417458206415176, -0.01849731244146824, 

    0.028535328805446625, 0.013931783847510815, 
    -0.08997919410467148, -0.03730086609721184, 

    -0.5445801615715027, 0.365947425365448, 
    -0.1397515833377838, -0.345322847366333, 

    -3.013294219970703, -0.6787422895431519, 
    1.0344882011413574, -0.7162304520606995, 

    -0.143427312374115, -0.040643271058797836, 
    0.3522181510925293, -0.025583283975720406, 

    -0.5910279154777527, -0.0517580546438694, 
    0.02059759758412838, 0.11944500356912613, 

    -0.25994962453842163, 0.29284536838531494, 
    0.29358920454978943, -0.19513937830924988, 

    0.1040579229593277, -0.04026520252227783, 
    -0.0696769580245018, -0.011150792241096497, 

    0.051172103732824326, -0.09519020467996597, 
    0.03940289095044136, 0.24326197803020477, 

        };
        static filter_t filter28 = {16, 2, weights28, 0.14383189380168915};
        filters[28]=filter28;
            
        static const float weights29[]={ 
    -0.16442859172821045, -0.027669116854667664, 
    -0.14463980495929718, -0.06759224832057953, 

    -0.12100999057292938, -0.22629410028457642, 
    -0.069597989320755, -0.018491320312023163, 

    -0.700769305229187, -0.21246865391731262, 
    0.7744556665420532, 0.24252371490001678, 

    -0.06556820124387741, -0.06231540068984032, 
    -0.1521652340888977, -0.10812979936599731, 

    0.0045531620271503925, -0.04766589775681496, 
    0.045299630612134933, -0.8696237802505493, 

    0.0024608701933175325, -0.08901365101337433, 
    -0.17312148213386536, -0.0370028093457222, 

    -0.010522534139454365, 0.03303181752562523, 
    -0.02313235029578209, -0.0299547016620636, 

    -0.6517743468284607, -0.09023509919643402, 
    -0.009094750508666039, -0.013222409412264824, 

    0.0005106613389216363, -0.07686250656843185, 
    -0.0036405064165592194, -0.5136706233024597, 

    -0.3430376350879669, -0.30666884779930115, 
    0.29622161388397217, 0.1646387130022049, 

    -0.8010982871055603, -1.3762832880020142, 
    2.3548007011413574, 0.7973890900611877, 

    -0.2503376007080078, -0.4712550640106201, 
    0.12839801609516144, 0.277101993560791, 

    -0.03840278089046478, -1.3241368532180786, 
    -0.46796175837516785, 0.027210578322410583, 

    0.16346591711044312, -0.012096749618649483, 
    0.272344172000885, 0.06235654652118683, 

    -0.1391908973455429, -0.05030040442943573, 
    -0.03801228106021881, -0.16808752715587616, 

    -0.09623156487941742, -0.02216750755906105, 
    -0.08442661166191101, -0.05753113701939583, 

        };
        static filter_t filter29 = {16, 2, weights29, 0.36912548542022705};
        filters[29]=filter29;
            
        static const float weights30[]={ 
    0.024023696780204773, 0.05077013373374939, 
    -0.09306260198354721, 0.17019157111644745, 

    0.07410214841365814, 0.12200163304805756, 
    -0.2015068382024765, 0.0036859188694506884, 

    -0.5754151940345764, 0.08409582823514938, 
    -0.27707546949386597, 0.8411797881126404, 

    -0.01959438994526863, 0.026664186269044876, 
    -0.2159615159034729, -1.5604772567749023, 

    -0.002299065003171563, 0.032199401408433914, 
    0.023728229105472565, 0.09798197448253632, 

    0.04871149733662605, -0.03281213343143463, 
    0.08298879861831665, 0.06034420430660248, 

    0.0762333869934082, 0.1399201899766922, 
    -0.10340584814548492, 0.15753880143165588, 

    -0.015354725532233715, -1.0488982200622559, 
    0.08167863637208939, 0.003183073829859495, 

    -0.002707080915570259, 0.029268605634570122, 
    0.04149541258811951, -0.28375014662742615, 

    -0.09098462015390396, 0.5367056727409363, 
    -0.17044295370578766, 0.3969942033290863, 

    -0.03236490115523338, 0.23072563111782074, 
    -0.7960091233253479, 0.7531113624572754, 

    0.020098911598324776, 0.2455543428659439, 
    -0.5313440561294556, -0.08517908304929733, 

    0.06680549681186676, 0.09638509899377823, 
    -0.01397681888192892, 0.013773269020020962, 

    -0.08853716403245926, 0.19735273718833923, 
    -0.26830753684043884, 0.081448994576931, 

    0.13599936664104462, 0.15520717203617096, 
    -0.026954010128974915, -0.17247940599918365, 

    -0.044789981096982956, -0.008963875472545624, 
    -0.14269213378429413, -0.11764583736658096, 

        };
        static filter_t filter30 = {16, 2, weights30, 0.13300397992134094};
        filters[30]=filter30;
            
        static const float weights31[]={ 
    -0.02254924178123474, 0.09080804884433746, 
    0.1359088271856308, -0.15541161596775055, 

    0.24128182232379913, 0.09983266144990921, 
    -0.12151951342821121, 0.023093625903129578, 

    0.902568519115448, 0.28037869930267334, 
    0.07528197765350342, -0.5247294306755066, 

    -0.8872424364089966, -0.05939685180783272, 
    0.005505782086402178, 0.045075830072164536, 

    -0.26912105083465576, -0.5806914567947388, 
    -0.0012315708445385098, 0.04759851470589638, 

    -0.02536427043378353, -0.029268207028508186, 
    0.014554969035089016, 0.039732977747917175, 

    0.009716816246509552, 0.1735338568687439, 
    -0.4113525450229645, 0.08917484432458878, 

    0.06054002791643143, 0.03773863613605499, 
    0.1090770810842514, 0.007895123213529587, 

    -0.3792980909347534, -0.24922046065330505, 
    0.011015573516488075, 0.0797649547457695, 

    0.10792003571987152, 0.31618574261665344, 
    0.05530060827732086, 0.09977269172668457, 

    1.3269195556640625, 0.5104242563247681, 
    -1.0052642822265625, -0.8064972162246704, 

    0.3676638603210449, 0.30285096168518066, 
    -0.12063329666852951, -0.16401994228363037, 

    -0.002881688764318824, -0.01412589568644762, 
    -0.0038974422495812178, 0.18120652437210083, 

    -0.09658084809780121, -0.08471675962209702, 
    -0.0417042151093483, -0.616021454334259, 

    -0.03423216938972473, -0.08398184925317764, 
    0.0304785817861557, -0.06515148282051086, 

    -0.09311997890472412, 0.01667199283838272, 
    -0.04899023100733757, 0.015906276181340218, 

        };
        static filter_t filter31 = {16, 2, weights31, 0.08937223255634308};
        filters[31]=filter31;
            
        conv2d_layer_t layer = {32,filters};
        return layer;
        }
        

conv2d_layer_t init_conv2d_2_data(void){

        static filter_t filters[48];
        
        static const float weights0[]={ 
    0.11756329983472824, 0.15597400069236755, 
    -0.12232445925474167, 0.12510772049427032, 

    0.16554094851016998, 0.1465146690607071, 
    -0.12693804502487183, 0.044082675129175186, 

    0.045211903750896454, -0.09390412271022797, 
    0.0972767323255539, -0.46101289987564087, 

    0.08634316176176071, 0.09742193669080734, 
    0.03191356360912323, -0.1262395977973938, 

    0.0009372680797241628, -0.09129003435373306, 
    -0.0486380010843277, -0.3296433091163635, 

    0.01660606637597084, -0.030413558706641197, 
    0.04974449425935745, 0.1347317099571228, 

    -0.09699288010597229, 0.06898640096187592, 
    -0.11054805666208267, 0.0039962888695299625, 

    -0.139025017619133, -0.2102586030960083, 
    -0.15704724192619324, -0.09757481515407562, 

    -0.19235368072986603, -0.09243832528591156, 
    -0.04221947863698006, 0.026656290516257286, 

    -0.027511432766914368, 0.12903986871242523, 
    0.04301300644874573, -0.2084059864282608, 

    -0.19768890738487244, -0.09801947325468063, 
    -0.09888359904289246, 0.07621701061725616, 

    -0.06445515155792236, 0.03816504776477814, 
    0.21360136568546295, 0.09982745349407196, 

    -0.2064470797777176, 0.07096034288406372, 
    -0.038463253527879715, -0.05145682767033577, 

    0.042281217873096466, 0.10220661759376526, 
    0.2938111424446106, 0.17520108819007874, 

    0.040807683020830154, -0.007342023309320211, 
    0.05723627284169197, -0.05084365978837013, 

    -0.02008328028023243, -0.12646228075027466, 
    -0.27068424224853516, -0.3486958146095276, 

    -0.1959349364042282, -0.24379843473434448, 
    0.07347563654184341, 0.03467405587434769, 

    -0.021982505917549133, -0.04093557223677635, 
    -0.24176645278930664, -0.0903499647974968, 

    -0.2511413097381592, -0.09105677902698517, 
    0.003357181791216135, 0.009824423119425774, 

    0.24383491277694702, -0.012365023605525494, 
    0.08952642232179642, 0.006129286717623472, 

    0.1555156409740448, 0.02084740810096264, 
    0.058734357357025146, -0.06962677091360092, 

    -0.0711599811911583, -0.1589455008506775, 
    0.047360941767692566, -0.0060264491476118565, 

    0.007004498969763517, 0.1040097177028656, 
    0.030023524537682533, 0.14847248792648315, 

    0.054637715220451355, -0.008110534399747849, 
    -0.13606874644756317, 0.04909874498844147, 

    -0.03660992905497551, 0.007503083441406488, 
    0.009143455885350704, -0.10963055491447449, 

    -0.05554772913455963, -0.12297804653644562, 
    -0.0757398009300232, 0.16344192624092102, 

    0.07081466168165207, -0.11177612841129303, 
    -0.08179232478141785, -0.4845432937145233, 

    -0.015538107603788376, -0.06999587267637253, 
    -0.1316141039133072, -0.2734256684780121, 

    0.002868801821023226, 0.168728768825531, 
    0.048503510653972626, 0.1302216500043869, 

    -0.06813391298055649, -0.04474937543272972, 
    0.04577288776636124, -0.03156380355358124, 

    0.02529233507812023, 0.05703309178352356, 
    -0.05656779184937477, -0.2881614565849304, 

    -0.003526826621964574, 0.07660426199436188, 
    -0.09287378937005997, -0.017286166548728943, 

        };
        static filter_t filter0 = {32, 2, weights0, 0.026127317920327187};
        filters[0]=filter0;
            
        static const float weights1[]={ 
    0.03416375070810318, 0.1890641748905182, 
    0.01698542945086956, -0.02068084105849266, 

    -0.5378997325897217, 0.1122530847787857, 
    -0.1041027083992958, -0.1829269826412201, 

    -0.058564405888319016, 0.04538438096642494, 
    -0.08625411987304688, -0.4589296579360962, 

    -0.05676555261015892, 0.011198749765753746, 
    0.02849201299250126, -0.06261983513832092, 

    -0.14670848846435547, 0.027349106967449188, 
    0.12251225113868713, 0.02829255536198616, 

    -0.04661683738231659, -0.0006565948715433478, 
    0.051090385764837265, 0.04292108863592148, 

    -0.3016599714756012, -0.02881206013262272, 
    -0.06729432940483093, 0.024663781747221947, 

    -0.06523030996322632, 0.02557467110455036, 
    -0.16868813335895538, -0.030558865517377853, 

    0.032941997051239014, 0.03859354183077812, 
    -0.10173611342906952, 0.07200988382101059, 

    -0.10126993805170059, -0.05994198098778725, 
    0.007357466500252485, 0.0039037857204675674, 

    -0.008682815358042717, 0.06128481402993202, 
    0.0479465052485466, -0.037377581000328064, 

    0.024653231725096703, -0.032277461141347885, 
    0.06623910367488861, 0.03835303336381912, 

    0.06840790808200836, -0.33370834589004517, 
    0.04383356496691704, 0.0034962857607752085, 

    0.34235507249832153, -0.7764573693275452, 
    0.26093822717666626, -0.5088945031166077, 

    -0.06079745665192604, -0.16989924013614655, 
    0.01419135369360447, 0.006275073159486055, 

    0.05482059344649315, 0.08351178467273712, 
    -0.0457560196518898, -0.19982923567295074, 

    0.07455560564994812, -0.15358789265155792, 
    -0.0028381654992699623, 0.07286549359560013, 

    -0.07470175623893738, 0.032395437359809875, 
    -0.03958028554916382, -0.04266597330570221, 

    -0.019505826756358147, -0.10224790126085281, 
    -0.04016458988189697, 0.03243913874030113, 

    0.2274884134531021, -0.4127148687839508, 
    -0.14173763990402222, -0.08659077435731888, 

    0.05820449814200401, 0.010173751041293144, 
    0.16304387152194977, 0.15575356781482697, 

    0.24228599667549133, 0.16415148973464966, 
    0.03967144712805748, -0.028613349422812462, 

    0.025118280202150345, -0.0698799192905426, 
    0.04576274752616882, 0.024153072386980057, 

    -0.4273785948753357, 0.16636186838150024, 
    -0.1900871992111206, -0.08476081490516663, 

    0.03862963989377022, 0.03514306619763374, 
    0.05919831618666649, 0.0037641124799847603, 

    -0.040401771664619446, 0.004443723242729902, 
    -0.049448151141405106, 0.08739793300628662, 

    0.012979746796190739, 0.0666852816939354, 
    0.042104050517082214, -0.32615721225738525, 

    0.03446789085865021, 0.08240293711423874, 
    0.002466832287609577, 0.059348542243242264, 

    -0.045536644756793976, 0.025853293016552925, 
    -0.04313818737864494, -0.023651761934161186, 

    0.05149488523602486, 0.020083189010620117, 
    0.02293093502521515, 0.09378249198198318, 

    0.07381991297006607, -0.059072524309158325, 
    0.00786492507904768, -1.0926294326782227, 

    0.03651638701558113, -0.14495348930358887, 
    -0.11146607249975204, -0.0035518216900527477, 

        };
        static filter_t filter1 = {32, 2, weights1, -0.0785866379737854};
        filters[1]=filter1;
            
        static const float weights2[]={ 
    -0.6772664189338684, -0.023537462577223778, 
    0.14313969016075134, 0.07752136141061783, 

    0.0042455364018678665, 0.006844536866992712, 
    -0.16147220134735107, 0.003561528632417321, 

    0.03812127560377121, -0.01995166391134262, 
    -0.11174416542053223, 0.08097860217094421, 

    0.061044659465551376, -0.058155037462711334, 
    0.05251564458012581, -0.1351466029882431, 

    -0.22089269757270813, 0.22452282905578613, 
    0.09752620756626129, -0.02861674875020981, 

    -0.07074045389890671, 0.12590467929840088, 
    0.04100020229816437, -0.07012190669775009, 

    -0.043263066560029984, 0.03223656117916107, 
    0.012496314011514187, -0.05104173347353935, 

    -0.0748438835144043, -0.14018411934375763, 
    -0.04677726328372955, -0.09028683602809906, 

    0.043937209993600845, -0.04349704831838608, 
    -0.17568744719028473, 0.047180529683828354, 

    -0.07227789610624313, 0.033886171877384186, 
    -0.04670919477939606, -0.060547180473804474, 

    -0.12466641515493393, 0.05258475989103317, 
    0.024336116388440132, 0.0306080374866724, 

    -0.1560874879360199, 0.08215592056512833, 
    -0.23423124849796295, 0.0459073968231678, 

    0.06544798612594604, 0.05829353630542755, 
    -0.1558695286512375, -0.0348825566470623, 

    0.044603634625673294, 0.20259249210357666, 
    0.12349800020456314, 0.1470748484134674, 

    -0.2717963457107544, -0.044040825217962265, 
    -0.0009570116526447237, -0.037852637469768524, 

    -0.0004805825592484325, 0.0666855126619339, 
    0.06134992092847824, 0.11671645194292068, 

    -0.19010508060455322, 0.0008629040094092488, 
    0.051880739629268646, -0.1052284762263298, 

    0.031005121767520905, -0.016649309545755386, 
    -0.434673935174942, 0.00928072165697813, 

    0.04716213047504425, 0.036606114357709885, 
    -0.013933245092630386, 0.05860619619488716, 

    -0.09791985154151917, -0.16024480760097504, 
    -1.6184208393096924, -0.012673099525272846, 

    0.007068549282848835, 0.021019790321588516, 
    0.20661360025405884, -0.11349208652973175, 

    -0.03754749894142151, -0.03854472190141678, 
    -0.08062701672315598, 0.03185916319489479, 

    0.025395212695002556, -0.09260357916355133, 
    0.1164618581533432, -0.039156485348939896, 

    0.0012287989957258105, -0.0930815264582634, 
    0.09396513551473618, -0.19359955191612244, 

    0.008412390947341919, -0.10175642371177673, 
    -0.907145619392395, 0.0729757696390152, 

    -1.3278714418411255, -0.07109447568655014, 
    -0.18260279297828674, 0.022776644676923752, 

    -0.5390080809593201, 0.012407717294991016, 
    -0.05115145817399025, -0.07094480097293854, 

    0.07095552235841751, 0.014254868030548096, 
    0.16214527189731598, -0.16067996621131897, 

    -0.12064293026924133, -0.14169424772262573, 
    -0.002788712503388524, -0.008424380794167519, 

    0.14961577951908112, -0.12462081760168076, 
    -0.08160606026649475, 0.11223682761192322, 

    0.021302441135048866, -0.011377538554370403, 
    0.0013997602509334683, -0.00862012431025505, 

    -0.005021216347813606, 0.021281450986862183, 
    -1.026354193687439, -0.025113055482506752, 

        };
        static filter_t filter2 = {32, 2, weights2, 0.05503978207707405};
        filters[2]=filter2;
            
        static const float weights3[]={ 
    0.12146307528018951, 0.25798311829566956, 
    -0.10275670886039734, -0.004093702416867018, 

    0.05768657848238945, -0.07456516474485397, 
    -0.039563316851854324, -1.0209019184112549, 

    0.04446199908852577, 0.053350914269685745, 
    -1.3904139995574951, 0.014912150800228119, 

    -0.05577138066291809, 0.06446729600429535, 
    0.07676666229963303, 0.04679861292243004, 

    -0.45418936014175415, -0.3551860451698303, 
    -0.13269054889678955, -0.3549596071243286, 

    -0.22223439812660217, 0.004713046830147505, 
    -0.06240183860063553, 0.11667558550834656, 

    0.10992936789989471, -1.381831169128418, 
    -0.022771591320633888, 0.025831859558820724, 

    -0.013242391869425774, 0.05672081559896469, 
    0.06548158824443817, -0.049832627177238464, 

    0.05998693406581879, -0.11470774561166763, 
    -0.1491301953792572, -0.14516456425189972, 

    -0.1212463229894638, 0.02524740807712078, 
    -0.07578296959400177, 0.016298748552799225, 

    -0.04137332737445831, -0.2858898341655731, 
    -0.19814661145210266, -0.06360572576522827, 

    -0.017776701599359512, 0.1148245632648468, 
    0.016108090057969093, 0.017083806917071342, 

    0.02456279844045639, 0.10805420577526093, 
    0.09881570190191269, 0.02346864715218544, 

    -0.09896626323461533, -0.2505687475204468, 
    -0.5241338014602661, 0.010271512903273106, 

    0.021129079163074493, 0.06322426348924637, 
    -0.08348630368709564, -0.05919654294848442, 

    0.041763368993997574, 0.06783299893140793, 
    0.009278406389057636, -0.1323695182800293, 

    -0.058142997324466705, 0.044550277292728424, 
    0.020014265552163124, 0.03171369060873985, 

    0.004137980751693249, 0.026815617457032204, 
    -0.06408187747001648, -0.023266464471817017, 

    -0.03471654653549194, -0.10540047287940979, 
    -0.02285701036453247, -0.11493468284606934, 

    0.0887286365032196, 0.24979239702224731, 
    -0.2550942599773407, -0.5047953128814697, 

    -0.06698411703109741, 0.11896748840808868, 
    -0.09693042188882828, -0.04778694733977318, 

    -0.15823233127593994, 0.09990555793046951, 
    0.10445145517587662, -0.06000003218650818, 

    -0.011797209270298481, -0.015065851621329784, 
    0.02153758890926838, 0.06257666647434235, 

    -0.09521409124135971, -0.21843305230140686, 
    0.038314297795295715, 0.04145790636539459, 

    -0.032719988375902176, 0.03921867907047272, 
    0.014448304660618305, -0.03470524400472641, 

    0.012083233334124088, 0.0021628316026180983, 
    0.08392342925071716, -1.999617338180542, 

    0.16887828707695007, 0.17843393981456757, 
    0.08305469900369644, -0.18244332075119019, 

    -0.008077969774603844, -0.007739309687167406, 
    -0.2155497521162033, 0.008282438851892948, 

    -0.020209429785609245, -0.007913111709058285, 
    0.06613543629646301, -0.08222709596157074, 

    -0.1958906054496765, 0.10758693516254425, 
    0.124269999563694, 0.01721668802201748, 

    0.015799783170223236, 0.08769194036722183, 
    -0.09537515789270401, 0.07719429582357407, 

    0.0297849103808403, -0.07521259784698486, 
    -0.03699536994099617, -0.03259018063545227, 

        };
        static filter_t filter3 = {32, 2, weights3, -0.08397693186998367};
        filters[3]=filter3;
            
        static const float weights4[]={ 
    0.16540825366973877, 0.14857225120067596, 
    -0.0851219967007637, 0.10566703230142593, 

    0.08506949990987778, -0.05016595125198364, 
    0.10558751225471497, -0.3860732316970825, 

    -0.007572308648377657, 0.011716265231370926, 
    -0.1743548959493637, -0.3971458077430725, 

    -0.3778965473175049, 0.06500574201345444, 
    -0.28123050928115845, -0.05517873540520668, 

    0.021652352064847946, -0.09204103797674179, 
    -0.08588464558124542, -0.209844172000885, 

    -0.017217468470335007, -0.14938658475875854, 
    -0.13506408035755157, -0.15067178010940552, 

    0.08597900718450546, -0.03284844011068344, 
    0.010835554450750351, 0.05012894049286842, 

    -0.02581147477030754, -0.12196251004934311, 
    -0.054071519523859024, 0.0897662341594696, 

    -0.012343211099505424, 0.13237358629703522, 
    0.025043396279215813, -0.302526593208313, 

    -0.22384925186634064, -0.05675521865487099, 
    -0.010916993021965027, 0.28052759170532227, 

    0.077265664935112, 0.08518607169389725, 
    0.05247366800904274, 0.11976595968008041, 

    0.0870075598359108, 0.07255581021308899, 
    0.16672633588314056, 0.06921499222517014, 

    0.024889785796403885, -0.06687036156654358, 
    0.009204564616084099, 0.008769610896706581, 

    0.4576517939567566, -0.24022875726222992, 
    0.4170587360858917, -0.4849628210067749, 

    0.010108795948326588, -0.08561710268259048, 
    0.010935756377875805, -0.014700035564601421, 

    0.0019324797904118896, -0.12614129483699799, 
    -0.060197893530130386, 0.08537536859512329, 

    0.021619616076350212, 0.13758710026741028, 
    0.024985723197460175, 0.10719215124845505, 

    -0.009888445027172565, -0.0031864054035395384, 
    -0.03334715962409973, -0.07874446362257004, 

    0.07810172438621521, 0.010505413636565208, 
    0.0325523279607296, -0.004272368736565113, 

    -0.05706636235117912, -0.021771758794784546, 
    0.020744681358337402, -0.1626226156949997, 

    -0.06885632872581482, 0.16170282661914825, 
    0.009216460399329662, 0.00044360870379023254, 

    -0.030506746843457222, 0.023854251950979233, 
    -0.2796190083026886, -0.1399785578250885, 

    -0.22570158541202545, -0.20329219102859497, 
    -0.16409073770046234, 0.0243854783475399, 

    -0.10019145160913467, -0.036221943795681, 
    0.03873981162905693, -0.12947878241539001, 

    -0.0386989563703537, -0.1441442370414734, 
    0.17125204205513, 0.10869849473237991, 

    0.27664220333099365, 0.012727598659694195, 
    -0.12387243658304214, -0.20335467159748077, 

    0.04911574348807335, 0.08092889934778214, 
    -0.042456526309251785, -0.4449583888053894, 

    0.08045922964811325, 0.00600485410541296, 
    0.03473086282610893, -0.1036224514245987, 

    0.01883498765528202, -0.0009095363202504814, 
    -0.21688441932201385, 0.09198570996522903, 

    0.017521867528557777, -0.0254367608577013, 
    -0.059906236827373505, -0.4990903437137604, 

    -0.033010561019182205, -0.036337971687316895, 
    -0.28340351581573486, -0.17084628343582153, 

    0.06531770527362823, -0.0234343521296978, 
    0.022534478455781937, -0.03202925622463226, 

        };
        static filter_t filter4 = {32, 2, weights4, -0.03838435932993889};
        filters[4]=filter4;
            
        static const float weights5[]={ 
    -0.47688305377960205, 0.03916336968541145, 
    -0.29777905344963074, -0.019956041127443314, 

    -0.05438503995537758, -0.09738435596227646, 
    0.1319865584373474, 0.11970303952693939, 

    -1.0329279899597168, 0.0015739602968096733, 
    -0.05609769746661186, -0.08948901295661926, 

    0.13101226091384888, -0.33108821511268616, 
    -0.061325572431087494, -0.15645603835582733, 

    -0.33182719349861145, 0.2636730968952179, 
    -0.3957848846912384, 0.4331592619419098, 

    -0.7773472666740417, 0.2521320581436157, 
    -0.6764358878135681, 0.012459642253816128, 

    -0.051937028765678406, -0.03168190270662308, 
    -0.05855689197778702, -0.013629062101244926, 

    -0.14253388345241547, 0.02244153805077076, 
    -0.33927610516548157, 0.10082259029150009, 

    0.1396140605211258, 0.22696152329444885, 
    -0.28608959913253784, -0.2669810652732849, 

    0.24779610335826874, 0.06468581408262253, 
    -0.38587042689323425, 0.16704092919826508, 

    -0.07975547760725021, 0.10588289052248001, 
    -0.06899679452180862, -0.12600623071193695, 

    0.2882665693759918, -0.029166635125875473, 
    -0.07379209250211716, 0.021971961483359337, 

    0.1152011975646019, -0.21929413080215454, 
    0.27268683910369873, 0.20737601816654205, 

    -0.5000556707382202, 0.24497245252132416, 
    -0.8882381319999695, 0.3286198675632477, 

    0.07589606940746307, -0.22098584473133087, 
    0.01103217713534832, 0.1755969524383545, 

    -0.05066458135843277, -0.018733492121100426, 
    -0.12144266813993454, 0.10748478025197983, 

    -0.01744004897773266, -0.17785951495170593, 
    -0.21200765669345856, -0.01723298244178295, 

    0.06309416145086288, -0.15742400288581848, 
    -0.009759988635778427, -0.012896044179797173, 

    -0.0863155871629715, -0.006480061914771795, 
    -0.09474140405654907, 0.03340674564242363, 

    -0.06819840520620346, 0.08620245009660721, 
    -0.17597539722919464, -0.25307759642601013, 

    -0.3233375549316406, -0.13081714510917664, 
    0.06999148428440094, 0.14341387152671814, 

    -0.21429318189620972, -0.31173837184906006, 
    0.1387510746717453, 0.11746767908334732, 

    -0.2368498146533966, -4.9441550800111145e-05, 
    -0.06909235566854477, -0.1515258252620697, 

    0.14263702929019928, -0.07830889523029327, 
    -0.05790930986404419, -0.1862080991268158, 

    0.057773612439632416, 0.08192826807498932, 
    -0.030739083886146545, 0.026854705065488815, 

    -0.15283308923244476, 0.014793365262448788, 
    0.13156923651695251, -0.3784096837043762, 

    -0.38755443692207336, -0.27975329756736755, 
    -0.33965280652046204, -0.3444357216358185, 

    -0.04834827408194542, 0.07676422595977783, 
    0.14612285792827606, -0.21214649081230164, 

    -0.01011302787810564, -0.34097447991371155, 
    0.18045802414417267, 0.12055208534002304, 

    0.35601916909217834, -0.06964744627475739, 
    0.0323953740298748, -0.2334510236978531, 

    -0.10948100686073303, 0.02444257214665413, 
    -0.0353914350271225, 0.16580235958099365, 

    0.15339544415473938, -0.14581577479839325, 
    0.020390644669532776, 0.07697363197803497, 

        };
        static filter_t filter5 = {32, 2, weights5, 0.3432326912879944};
        filters[5]=filter5;
            
        static const float weights6[]={ 
    0.10374263674020767, 0.168667733669281, 
    -0.2536720633506775, 0.05149271339178085, 

    0.14073117077350616, -0.24181854724884033, 
    -0.0698821097612381, -0.1294013261795044, 

    0.08103779703378677, -0.013041828759014606, 
    -0.22756768763065338, 0.11472250521183014, 

    -0.030267992988228798, -0.0865919217467308, 
    -0.050215382128953934, -0.07596686482429504, 

    0.13433629274368286, -0.4467122554779053, 
    -0.04805387184023857, 0.009130969643592834, 

    0.13894441723823547, -0.006746876053512096, 
    -0.08641046285629272, 0.026259129866957664, 

    -0.09398327767848969, -0.08556488156318665, 
    -0.06978852301836014, 0.02155999280512333, 

    0.044468529522418976, 0.07631076127290726, 
    -0.02759334072470665, 0.006243578158318996, 

    0.1293942928314209, 0.0366160087287426, 
    -0.0724126473069191, 0.07755979150533676, 

    0.30702483654022217, 0.09125783294439316, 
    0.01634986698627472, -0.05343448370695114, 

    0.03039681538939476, -0.186822310090065, 
    -0.2824171781539917, 0.026507684960961342, 

    -0.15017175674438477, 0.04216461256146431, 
    -0.09559939056634903, 0.09640339761972427, 

    -0.19632576406002045, -0.42435315251350403, 
    0.05958791822195053, -0.0677499771118164, 

    0.26093506813049316, 0.14893312752246857, 
    0.10392331331968307, 0.0014188309432938695, 

    -0.021014729514718056, 0.016054801642894745, 
    -0.11164744198322296, -0.003198487451300025, 

    -0.0982964038848877, -0.2532574534416199, 
    0.08675120770931244, -0.058398257941007614, 

    0.033535540103912354, 0.08074285089969635, 
    0.014846895821392536, 0.09826473146677017, 

    0.004552311263978481, -0.03813203051686287, 
    -0.006121564190834761, -0.009367013350129128, 

    0.042708251625299454, -0.07911510765552521, 
    -0.4459525942802429, 0.00914311408996582, 

    0.0961293876171112, 0.01065830234438181, 
    -0.1535567194223404, 0.01044883206486702, 

    0.048513710498809814, 0.12274908274412155, 
    0.03351198509335518, -0.010930432938039303, 

    -0.06730234622955322, 0.22792242467403412, 
    -0.016264375299215317, -0.011664362624287605, 

    -0.02717510052025318, 0.03911270946264267, 
    0.03238644450902939, 0.009156184270977974, 

    -0.014179874211549759, -1.0336198806762695, 
    0.031616419553756714, 0.1431664675474167, 

    -0.27651098370552063, 0.011763235554099083, 
    0.04086225479841232, -0.02773238904774189, 

    -0.3047947883605957, 0.10859633982181549, 
    0.24553433060646057, -0.05637602508068085, 

    0.13007326424121857, -0.023152975365519524, 
    -0.0590902641415596, 0.0174096766859293, 

    -0.02286425419151783, 0.0991806760430336, 
    0.010930237360298634, -0.07846402376890182, 

    -0.06758574396371841, 0.06586837023496628, 
    -0.2667907476425171, -0.009243917651474476, 

    0.0027884982991963625, -0.01959453523159027, 
    -0.02212359569966793, -0.04279056191444397, 

    -0.05463549122214317, 0.053736768662929535, 
    0.015065873041749, 0.016280747950077057, 

    -0.02697031758725643, -0.30915531516075134, 
    0.044116534292697906, 0.032142993062734604, 

        };
        static filter_t filter6 = {32, 2, weights6, -0.08854992687702179};
        filters[6]=filter6;
            
        static const float weights7[]={ 
    -0.012270612642168999, 0.2026701718568802, 
    0.18097971379756927, -0.16463801264762878, 

    0.12754234671592712, -0.10266124457120895, 
    0.03854038566350937, 0.08487653732299805, 

    -0.09809631109237671, 0.04635905101895332, 
    0.03515639901161194, -0.0589587576687336, 

    -0.2602948248386383, -0.017816774547100067, 
    -0.004258754197508097, 0.06830430030822754, 

    0.3486489951610565, -0.2639208436012268, 
    0.08624047040939331, -0.08842102438211441, 

    0.0373605377972126, 0.004139991942793131, 
    0.0932963564991951, -0.03839698061347008, 

    0.00664203055202961, 0.008278477936983109, 
    0.08347579091787338, -0.2863302230834961, 

    0.08658277988433838, 0.017004631459712982, 
    0.04042162746191025, -0.05255008116364479, 

    -0.12913727760314941, -0.011367857456207275, 
    -0.34904399514198303, -0.1317915916442871, 

    0.04059163108468056, -0.11858959496021271, 
    -0.0401727519929409, 0.09769918769598007, 

    -0.12848958373069763, -0.01031201146543026, 
    0.06382134556770325, -0.1949164867401123, 

    -0.0432438887655735, 0.09938089549541473, 
    0.08572433888912201, -0.04754527658224106, 

    0.010156267322599888, 0.010614863596856594, 
    -0.07630302757024765, 0.08378627151250839, 

    -0.16594016551971436, 0.8156254291534424, 
    -0.06075814738869667, 0.139365091919899, 

    0.0016542503144592047, 0.09150471538305283, 
    -0.011549648828804493, -0.11321430653333664, 

    0.08058124035596848, -0.021348580718040466, 
    -0.3003096878528595, 0.13794435560703278, 

    -0.19308270514011383, -0.08801879733800888, 
    -0.010631878860294819, 0.02918246202170849, 

    -0.023010607808828354, 0.03172718361020088, 
    -0.060677703469991684, -0.006177179049700499, 

    0.009176178835332394, -0.09754406660795212, 
    -0.03989511728286743, -0.2735402584075928, 

    -0.05259212106466293, 0.09717702865600586, 
    -0.14107689261436462, -0.12004337459802628, 

    0.03206969425082207, -0.2622338533401489, 
    -0.43851643800735474, 0.11566688120365143, 

    0.016961390152573586, -0.05693165585398674, 
    -0.2559540569782257, -0.058054082095623016, 

    -0.06373368203639984, 0.044714584946632385, 
    0.004755864851176739, 0.0016923954244703054, 

    -0.09371775388717651, -0.046295832842588425, 
    0.012652654200792313, -0.1402227282524109, 

    0.00532046053558588, -0.11027882993221283, 
    -0.13781173527240753, -0.0773153081536293, 

    -0.09963880479335785, 0.08321403712034225, 
    0.21311801671981812, -0.27789512276649475, 

    0.07770200818777084, 0.1947409063577652, 
    -0.18880170583724976, 0.08827909827232361, 

    -0.003043011762201786, 0.0010266134049743414, 
    -0.18215030431747437, 0.03280306234955788, 

    -0.0279487706720829, 0.06700500100851059, 
    -0.05849568545818329, -0.05831022560596466, 

    -0.043924521654844284, -0.08653035014867783, 
    0.02787366323173046, -0.014088097959756851, 

    -0.0016049662372097373, 0.049611400812864304, 
    -0.3331989049911499, -0.011360155418515205, 

    -0.03913431987166405, 0.032338812947273254, 
    0.0031132870353758335, 0.04782562330365181, 

        };
        static filter_t filter7 = {32, 2, weights7, 0.009420474991202354};
        filters[7]=filter7;
            
        static const float weights8[]={ 
    0.04746153950691223, 0.043457839637994766, 
    0.3019406795501709, -0.2363656610250473, 

    0.06593724340200424, 0.13165029883384705, 
    -0.049577564001083374, 0.17525486648082733, 

    -0.097931869328022, 0.008335897698998451, 
    0.03503812104463577, 0.02562689408659935, 

    -0.0057258629240095615, -0.04827214777469635, 
    0.15646831691265106, 0.08981679379940033, 

    -0.1352858692407608, 0.07638081908226013, 
    0.03264772519469261, -0.19837459921836853, 

    0.054311007261276245, -0.016779961064457893, 
    0.07614430785179138, -0.05218663066625595, 

    -0.04388125613331795, -0.04290030151605606, 
    0.035217173397541046, -0.041561421006917953, 

    0.04804495349526405, -0.15475809574127197, 
    -0.10382148623466492, -0.04902726411819458, 

    -0.07244185358285904, 0.1881234496831894, 
    -0.06240685656666756, 0.18136076629161835, 

    0.1210692748427391, -0.05295683071017265, 
    -0.031911835074424744, 0.06629032641649246, 

    -0.15226320922374725, 0.045220524072647095, 
    0.01273280754685402, 0.05598476156592369, 

    -0.08240223675966263, 0.052452344447374344, 
    0.16494300961494446, -0.004876875784248114, 

    -0.00571608729660511, 0.0932416319847107, 
    -0.04222467914223671, 0.175916850566864, 

    -0.061766885221004486, 0.054180435836315155, 
    -0.08601722121238708, 0.17705945670604706, 

    0.020417723804712296, -0.028831131756305695, 
    -0.0027284561656415462, 0.04791424423456192, 

    0.026589883491396904, 0.08731144666671753, 
    0.06556612998247147, 0.14990954101085663, 

    -0.1412316858768463, -0.014650102704763412, 
    -0.1965995877981186, -0.113883838057518, 

    -0.041272930800914764, -0.013548859395086765, 
    -0.13230113685131073, -0.05251292139291763, 

    -0.13461041450500488, 0.10400319844484329, 
    -0.01247904822230339, 0.0945560410618782, 

    0.03811948373913765, 0.00839861761778593, 
    0.01321422215551138, 0.03363173082470894, 

    0.22420987486839294, 0.20584066212177277, 
    -0.037069715559482574, 0.16972728073596954, 

    -0.07881327718496323, 0.14631152153015137, 
    0.04625634849071503, -0.11796774715185165, 

    -0.05190300941467285, 0.040446002036333084, 
    -0.04113544896245003, -0.41790661215782166, 

    0.07656271010637283, 0.0801665410399437, 
    0.028615498915314674, -0.04542292281985283, 

    -0.007223114836961031, -0.07284622639417648, 
    -0.053882986307144165, 0.008706735447049141, 

    -0.05542348697781563, 0.14558154344558716, 
    -0.22635366022586823, 0.07540298998355865, 

    -0.10371475666761398, -0.025177638977766037, 
    0.0361018069088459, -0.030294060707092285, 

    0.13078612089157104, -0.13638076186180115, 
    0.021486356854438782, -0.02990834042429924, 

    -0.07043309509754181, 0.010643442161381245, 
    -0.06237929314374924, -0.28158625960350037, 

    -0.0076512908563017845, -0.07767203450202942, 
    -0.03070686198771, 0.04448363557457924, 

    0.07354143261909485, -0.068119578063488, 
    0.07901331782341003, 0.11892864853143692, 

    -0.03937610238790512, -0.045971330255270004, 
    -0.07453639805316925, 0.020832611247897148, 

        };
        static filter_t filter8 = {32, 2, weights8, -0.1370488405227661};
        filters[8]=filter8;
            
        static const float weights9[]={ 
    0.048652999103069305, -0.1364951729774475, 
    0.09074601531028748, -0.02024647407233715, 

    0.02918958105146885, -0.6458423137664795, 
    0.10540550202131271, -0.17891058325767517, 

    0.031321149319410324, -0.005514595191925764, 
    -0.003879082854837179, -0.08210981637239456, 

    0.011689204722642899, -0.039692431688308716, 
    -0.8081212043762207, -0.03580204397439957, 

    -0.02526671066880226, -0.16168789565563202, 
    -0.027796609327197075, -0.5501223206520081, 

    -0.1265663057565689, -0.27443185448646545, 
    -0.07467286288738251, 0.005357377231121063, 

    -0.0018145841313526034, 0.034520819783210754, 
    -0.02075626142323017, -0.06800836324691772, 

    -0.004262981005012989, 0.06709412485361099, 
    -0.040691789239645004, 0.12751628458499908, 

    0.0645097941160202, -0.05980757996439934, 
    -0.1305602788925171, -0.5847626328468323, 

    -0.1695525199174881, 0.059141606092453, 
    -0.036249563097953796, -0.07481804490089417, 

    0.0959010198712349, -0.2508084177970886, 
    0.1438920944929123, -0.18268711864948273, 

    0.009196498431265354, 0.13785557448863983, 
    -0.07422847300767899, 0.10348032414913177, 

    -0.04017190635204315, 0.05487591773271561, 
    -0.004923227708786726, 0.07389861345291138, 

    0.14858712255954742, -0.06738884001970291, 
    0.09707276523113251, 0.4738530218601227, 

    0.051944345235824585, 0.03032267466187477, 
    0.04705235734581947, -0.03949436545372009, 

    -0.1228552758693695, 0.13206744194030762, 
    0.07590549439191818, 0.05206746235489845, 

    -0.03828781843185425, 0.12434657663106918, 
    0.029171515256166458, 0.015769533812999725, 

    -0.025293760001659393, -0.007748995907604694, 
    -0.0017948306631296873, -0.0022917729802429676, 

    0.0016616331413388252, -0.06229294463992119, 
    0.0697794258594513, 0.051749520003795624, 

    0.4423271119594574, -0.5424548983573914, 
    -0.0588664673268795, 0.23986852169036865, 

    0.28145721554756165, 0.2008986473083496, 
    0.12212410569190979, 0.03118487261235714, 

    -0.10864514857530594, 0.02610250748693943, 
    0.11971978843212128, 0.1060561016201973, 

    0.020747561007738113, 0.045558203011751175, 
    -0.052544090896844864, -0.07311521470546722, 

    -0.1544189751148224, 0.04809824749827385, 
    -0.10562968254089355, -0.3549383580684662, 

    0.045213617384433746, -0.09128504246473312, 
    -0.17793402075767517, -0.022492501884698868, 

    -0.11155270785093307, -0.16081780195236206, 
    0.08740990608930588, -0.485289603471756, 

    -0.15393908321857452, 0.08392780274152756, 
    0.04799734055995941, -0.04970504343509674, 

    0.025874510407447815, 0.008083057589828968, 
    -0.05356711149215698, 0.007737230509519577, 

    0.054909516125917435, 0.06773383915424347, 
    0.10394225269556046, 0.14898233115673065, 

    0.1367443948984146, -0.5011870265007019, 
    0.061944104731082916, -0.13759063184261322, 

    0.01093954499810934, -0.2449416071176529, 
    -0.23958134651184082, -0.12351199984550476, 

    -0.07409671694040298, -0.03140736371278763, 
    -0.05075724795460701, -0.13594631850719452, 

        };
        static filter_t filter9 = {32, 2, weights9, -0.05750776082277298};
        filters[9]=filter9;
            
        static const float weights10[]={ 
    -0.16317176818847656, 0.004843295551836491, 
    -0.10008861869573593, -0.09227810800075531, 

    0.1189933717250824, -0.011922796256840229, 
    -0.33020445704460144, 0.05367087945342064, 

    0.12888430058956146, 0.021013112738728523, 
    -0.05399787798523903, -0.04015010595321655, 

    0.1607874482870102, 0.08178669959306717, 
    0.11030419915914536, 0.04695648327469826, 

    0.013553876429796219, 0.11759340763092041, 
    0.07533221691846848, -0.019026700407266617, 

    0.03338146582245827, -0.03429703786969185, 
    0.058927614241838455, -0.07354108989238739, 

    0.032232556492090225, -0.06888408213853836, 
    -0.04401303082704544, -0.4128091335296631, 

    -0.08143126219511032, 0.11618108302354813, 
    -0.054965030401945114, 0.12164531648159027, 

    0.0308749508112669, 0.022068975493311882, 
    -0.01293881330639124, 0.08314915001392365, 

    -0.2505756914615631, -0.15502892434597015, 
    0.05740257352590561, -0.04022667929530144, 

    -0.08018602430820465, 0.03950265794992447, 
    -0.2895669937133789, -0.10227538645267487, 

    -0.1199968233704567, 0.12568776309490204, 
    -0.22377115488052368, 0.09058649837970734, 

    -0.10272660106420517, -0.0600280687212944, 
    0.12490908056497574, -0.30473995208740234, 

    -0.001989224925637245, -0.10159678012132645, 
    0.0727781355381012, 0.13095735013484955, 

    -0.10342521965503693, 0.0398433618247509, 
    -0.3805842995643616, 0.3400382101535797, 

    0.009877843782305717, 0.11939356476068497, 
    -0.17924128472805023, 0.16099520027637482, 

    -0.0005996801191940904, 0.0027824456337839365, 
    -0.2066931575536728, -0.10320998728275299, 

    -0.10885970294475555, 0.03325069695711136, 
    -0.08167190104722977, 0.02591842971742153, 

    -0.07392406463623047, -0.011726045049726963, 
    -0.09468528628349304, -0.40538373589515686, 

    -0.1556648313999176, 0.0059888469986617565, 
    -0.14956384897232056, 0.1195254772901535, 

    0.19776394963264465, 0.12227024883031845, 
    -0.25846680998802185, 0.08774393796920776, 

    -0.23936957120895386, 0.058619819581508636, 
    0.0852314904332161, 0.11261799186468124, 

    -0.007419950794428587, 0.006317044608294964, 
    0.0002962109574582428, -0.02710324339568615, 

    -0.0015746613498777151, -0.07203497737646103, 
    0.2603286802768707, 0.058927036821842194, 

    -0.04007367044687271, -0.09159833192825317, 
    0.0525340661406517, 0.02142930217087269, 

    -0.4317702651023865, -0.07177747786045074, 
    0.1272629350423813, 0.17735294997692108, 

    -0.008855348452925682, -0.07489514350891113, 
    -0.28894487023353577, -0.07339157164096832, 

    0.010216820053756237, 0.08155377954244614, 
    0.16159245371818542, -0.13258184492588043, 

    -0.3318532109260559, -0.012782043777406216, 
    -0.0923871397972107, 0.017731105908751488, 

    0.0431489422917366, -0.19350631535053253, 
    -0.012552564032375813, 0.07190915197134018, 

    0.036443497985601425, -0.10602571070194244, 
    0.062124256044626236, -0.0005129415076225996, 

    0.001425054739229381, -0.015865925699472427, 
    0.08211716264486313, -0.26030105352401733, 

        };
        static filter_t filter10 = {32, 2, weights10, 0.014404583722352982};
        filters[10]=filter10;
            
        static const float weights11[]={ 
    -0.16394609212875366, -0.0896296575665474, 
    -0.21292753517627716, -0.20921681821346283, 

    -0.1256587952375412, -0.03868453577160835, 
    0.008056344464421272, 0.15001864731311798, 

    -0.11152110248804092, -0.016163714230060577, 
    -0.04049355164170265, 0.026544654741883278, 

    0.14082159101963043, 0.23914384841918945, 
    0.03363411873579025, 0.09676497429609299, 

    0.037262968719005585, 0.16327153146266937, 
    -0.0921550840139389, -0.0490439273416996, 

    0.0017326398519799113, 0.023436473682522774, 
    -0.010823499411344528, 0.0023216968402266502, 

