#include "flow10model.h"

// Prototipos inicialización
conv2d_layer_t init_conv2d_data(void);
conv2d_layer_t init_conv2d_1_data(void);
dense_layer_t init_dense_data(void);
dense_layer_t init_dense_1_data(void);


// Variables Globales
conv2d_layer_t conv2d_data;
conv2d_layer_t conv2d_1_data;
dense_layer_t dense_data;
dense_layer_t dense_1_data;


void model_init(){
    conv2d_data = init_conv2d_data();
    conv2d_1_data = init_conv2d_1_data();
    dense_data = init_dense_data();
    dense_1_data = init_dense_1_data();

}

void model_predict(data3d_t input, data1d_t * output){
  
    
    //*************** LAYER 0 **************//
    // Layer name: conv2d
    data3d_t output0;
        // convert image for first EmbedIA Conv2d layer
        image_adapt_layer(input, &output0);
        input = output0;
    
     conv2d_layer(conv2d_data, input, &output0);
    // Activation layer for conv2d
    relu_activation(output0.data, 800);
    
    //*************** LAYER 1 **************//
    // Layer name: conv2d_1
    input = output0;
    conv2d_layer(conv2d_1_data, input, &output0);
    // Activation layer for conv2d_1
    relu_activation(output0.data, 1024);
    
    //*************** LAYER 2 **************//
    // Layer name: max_pooling2d
    input = output0;
    static const pooling2d_layer_t max_pooling2d_data = { 2, 2 };
    max_pooling2d_layer(max_pooling2d_data, input, &output0);
    
    //*************** LAYER 3 **************//
    // Layer name: flatten
    input = output0;
    data1d_t output1;
    flatten3d_layer(input, &output1);
    
    //*************** LAYER 4 **************//
    // Layer name: dense
    data1d_t input1;
    input1 = output1;
    dense_layer(dense_data, input1, &output1);
    
    // Activation layer for dense
    relu_activation(output1.data, 128);
    
    //*************** LAYER 5 **************//
    // Layer name: dense_1
    input1 = output1;
    dense_layer(dense_1_data, input1, &output1);
    
    // Activation layer for dense_1
    softmax_activation(output1.data, 11);
    

    *output = output1;

}

int model_predict_class(data3d_t input, data1d_t * results){
  
   
    model_predict(input, results);
    
    return argmax(*results);
    //return argmax(data1d_t);

}

// Implementación de funciones de inicialización



conv2d_layer_t init_conv2d_data(void){

        static filter_t filters[32];
        
        static const float weights0[]={ 
    -4.205325240036473e-05, -0.8062748908996582, 
    0.18199656903743744, 0.043714847415685654, 

        };
        static filter_t filter0 = {1, 2, weights0, 0.53849858045578};
        filters[0]=filter0;
            
        static const float weights1[]={ 
    0.016899051144719124, -4.577908515930176, 
    0.12249063700437546, -0.07039585709571838, 

        };
        static filter_t filter1 = {1, 2, weights1, 0.48346102237701416};
        filters[1]=filter1;
            
        static const float weights2[]={ 
    0.012626608833670616, -0.07243389636278152, 
    -1.337673544883728, 0.3564724922180176, 

        };
        static filter_t filter2 = {1, 2, weights2, 0.44696804881095886};
        filters[2]=filter2;
            
        static const float weights3[]={ 
    -0.1365947276353836, -0.1503646969795227, 
    0.37500762939453125, 0.39231207966804504, 

        };
        static filter_t filter3 = {1, 2, weights3, 0.19294315576553345};
        filters[3]=filter3;
            
        static const float weights4[]={ 
    -0.8034459948539734, -0.022233430296182632, 
    0.27691274881362915, -0.17527931928634644, 

        };
        static filter_t filter4 = {1, 2, weights4, 0.5468316674232483};
        filters[4]=filter4;
            
        static const float weights5[]={ 
    0.018469849601387978, -1.4170944690704346, 
    0.016567181795835495, 0.020074425265192986, 

        };
        static filter_t filter5 = {1, 2, weights5, 0.5576707720756531};
        filters[5]=filter5;
            
        static const float weights6[]={ 
    -0.10604538768529892, -0.064690500497818, 
    -0.18068920075893402, -0.17994122207164764, 

        };
        static filter_t filter6 = {1, 2, weights6, 0.0};
        filters[6]=filter6;
            
        static const float weights7[]={ 
    0.020993655547499657, 0.007856078445911407, 
    0.0707692801952362, -5.374818801879883, 

        };
        static filter_t filter7 = {1, 2, weights7, 0.41832733154296875};
        filters[7]=filter7;
            
        static const float weights8[]={ 
    -0.26908278465270996, 0.12544968724250793, 
    0.3048470616340637, 0.322492778301239, 

        };
        static filter_t filter8 = {1, 2, weights8, 0.058978911489248276};
        filters[8]=filter8;
            
        static const float weights9[]={ 
    0.17812702059745789, 0.21772025525569916, 
    0.18732385337352753, 0.17555342614650726, 

        };
        static filter_t filter9 = {1, 2, weights9, -0.0060800472274422646};
        filters[9]=filter9;
            
        static const float weights10[]={ 
    -0.26607292890548706, 0.13390861451625824, 
    0.092890165746212, 0.5602355003356934, 

        };
        static filter_t filter10 = {1, 2, weights10, 0.20387251675128937};
        filters[10]=filter10;
            
        static const float weights11[]={ 
    0.04909154772758484, 0.2556207478046417, 
    -0.35750967264175415, -0.25727468729019165, 

        };
        static filter_t filter11 = {1, 2, weights11, 0.26137396693229675};
        filters[11]=filter11;
            
        static const float weights12[]={ 
    -0.11657112091779709, 0.09410154074430466, 
    -0.029551226645708084, -1.1626954078674316, 

        };
        static filter_t filter12 = {1, 2, weights12, 0.7141196727752686};
        filters[12]=filter12;
            
        static const float weights13[]={ 
    -0.1502961665391922, -1.3772629499435425, 
    0.09873561561107635, -0.03677743673324585, 

        };
        static filter_t filter13 = {1, 2, weights13, 0.6421781182289124};
        filters[13]=filter13;
            
        static const float weights14[]={ 
    0.00913542415946722, -1.6284677982330322, 
    0.07328341901302338, 0.4364149570465088, 

        };
        static filter_t filter14 = {1, 2, weights14, 0.23511770367622375};
        filters[14]=filter14;
            
        static const float weights15[]={ 
    -1.1671147346496582, 0.2260989099740982, 
    -0.019048817455768585, 0.24542157351970673, 

        };
        static filter_t filter15 = {1, 2, weights15, 0.5757112503051758};
        filters[15]=filter15;
            
        static const float weights16[]={ 
    -0.020837392657995224, -0.8436879515647888, 
    0.3015363812446594, -1.0221590995788574, 

        };
        static filter_t filter16 = {1, 2, weights16, 0.531152606010437};
        filters[16]=filter16;
            
        static const float weights17[]={ 
    0.10666253417730331, -1.160945177078247, 
    -0.05716027691960335, -1.493886947631836, 

        };
        static filter_t filter17 = {1, 2, weights17, 0.4373486042022705};
        filters[17]=filter17;
            
        static const float weights18[]={ 
    -0.7381502985954285, 0.061820246279239655, 
    0.1905553936958313, -0.40680110454559326, 

        };
        static filter_t filter18 = {1, 2, weights18, 0.4194059669971466};
        filters[18]=filter18;
            
        static const float weights19[]={ 
    -0.15790091454982758, 0.060567457228899, 
    -0.4218940734863281, 0.43521103262901306, 

        };
        static filter_t filter19 = {1, 2, weights19, 0.142351433634758};
        filters[19]=filter19;
            
        static const float weights20[]={ 
    -1.786271095275879, -2.2339062690734863, 
    0.11792179197072983, 0.06950412690639496, 

        };
        static filter_t filter20 = {1, 2, weights20, 0.5595702528953552};
        filters[20]=filter20;
            
        static const float weights21[]={ 
    -0.27614274621009827, 0.02423902601003647, 
    0.2614349126815796, 0.19299839437007904, 

        };
        static filter_t filter21 = {1, 2, weights21, 0.06785239279270172};
        filters[21]=filter21;
            
        static const float weights22[]={ 
    0.16159583628177643, 0.001147511531598866, 
    -2.4083340167999268, -0.48788362741470337, 

        };
        static filter_t filter22 = {1, 2, weights22, 0.45844829082489014};
        filters[22]=filter22;
            
        static const float weights23[]={ 
    -1.0673072338104248, -0.02293328382074833, 
    -1.108072280883789, 0.018566075712442398, 

        };
        static filter_t filter23 = {1, 2, weights23, 0.5739933848381042};
        filters[23]=filter23;
            
        static const float weights24[]={ 
    -0.035244762897491455, 0.22158801555633545, 
    0.3159094750881195, -0.3529101014137268, 

        };
        static filter_t filter24 = {1, 2, weights24, 0.0820089653134346};
        filters[24]=filter24;
            
        static const float weights25[]={ 
    0.0018212624127045274, -5.064051151275635, 
    -0.0557861328125, 0.1789126992225647, 

        };
        static filter_t filter25 = {1, 2, weights25, 0.3702259659767151};
        filters[25]=filter25;
            
        static const float weights26[]={ 
    0.11021004617214203, -0.2745603322982788, 
    -0.7233540415763855, 0.3025897145271301, 

        };
        static filter_t filter26 = {1, 2, weights26, 0.5468237400054932};
        filters[26]=filter26;
            
        static const float weights27[]={ 
    0.07607128471136093, 0.09538305550813675, 
    -1.9395033121109009, 0.12731462717056274, 

        };
        static filter_t filter27 = {1, 2, weights27, 0.2937661111354828};
        filters[27]=filter27;
            
        static const float weights28[]={ 
    -0.10661830753087997, 0.24429720640182495, 
    0.3927043676376343, 0.4249188005924225, 

        };
        static filter_t filter28 = {1, 2, weights28, 0.14689341187477112};
        filters[28]=filter28;
            
        static const float weights29[]={ 
    0.21608364582061768, 0.06188514456152916, 
    0.30543121695518494, -1.1062209606170654, 

        };
        static filter_t filter29 = {1, 2, weights29, 0.4341900050640106};
        filters[29]=filter29;
            
        static const float weights30[]={ 
    0.23788504302501678, 0.042874619364738464, 
    0.16781193017959595, 0.23090629279613495, 

        };
        static filter_t filter30 = {1, 2, weights30, -0.001614184700883925};
        filters[30]=filter30;
            
        static const float weights31[]={ 
    0.16742248833179474, 0.13533875346183777, 
    0.2938802242279053, -0.6018555760383606, 

        };
        static filter_t filter31 = {1, 2, weights31, 0.322208970785141};
        filters[31]=filter31;
            
        conv2d_layer_t layer = {32,filters};
        return layer;
        }
        

conv2d_layer_t init_conv2d_1_data(void){

        static filter_t filters[64];
        
        static const float weights0[]={ 
    0.07512612640857697, -0.03072243183851242, 
    -0.2523963451385498, 0.1371748149394989, 

    -0.20671509206295013, 0.07462143898010254, 
    -0.015047991648316383, 0.28876474499702454, 

    -0.1623428761959076, 0.08320233970880508, 
    0.15494732558727264, -0.030434804037213326, 

    0.15177656710147858, -0.07727021723985672, 
    -0.28054916858673096, -0.02695934660732746, 

    0.12814395129680634, 0.211385115981102, 
    -0.23851166665554047, -0.009369105100631714, 

    -0.06116710603237152, 0.07221169769763947, 
    -0.09500333666801453, 0.07508783787488937, 

    -0.11084577441215515, -0.05692747235298157, 
    -0.0983400046825409, -0.08081606030464172, 

    0.03565949946641922, 0.02279510907828808, 
    0.0017662954051047564, 0.5087164640426636, 

    0.11500649154186249, 0.008936568163335323, 
    -0.20210084319114685, -0.18140307068824768, 

    0.018175281584262848, -0.11801496893167496, 
    0.0518169142305851, -0.08220138400793076, 

    -0.09054502099752426, -0.13831758499145508, 
    -0.02817738801240921, -0.3016466200351715, 

    -0.12338107079267502, -0.11167801916599274, 
    -0.0958031713962555, 0.17263875901699066, 

    0.14215880632400513, 0.13801530003547668, 
    0.06607584655284882, 0.1884562075138092, 

    0.025820115581154823, -0.06026177480816841, 
    -0.06022638455033302, -0.010776416398584843, 

    0.05548669397830963, -0.046917714178562164, 
    -0.11738621443510056, 0.15992112457752228, 

    0.09201064705848694, -0.24570684134960175, 
    -0.16588789224624634, -0.12717853486537933, 

    0.05099203437566757, 0.24804924428462982, 
    0.14164970815181732, 0.3693784773349762, 

    -0.09415476024150848, -0.03481577709317207, 
    -0.017433512955904007, 0.3265165388584137, 

    -0.014583471231162548, 0.16035664081573486, 
    -0.16028712689876556, -0.060389433056116104, 

    0.08070497214794159, -0.23618975281715393, 
    -0.012616307474672794, -0.2398362010717392, 

    0.08528878539800644, 0.03562065586447716, 
    -0.19321544468402863, 0.05677691102027893, 

    0.013345731422305107, -0.04355717822909355, 
    -0.36438366770744324, -0.1582816243171692, 

    0.013913597911596298, -0.006834962405264378, 
    0.06754566729068756, 0.22044141590595245, 

    0.2244575321674347, 0.08109542727470398, 
    0.09104225784540176, -0.015678761526942253, 

    0.034553561359643936, -0.04810481145977974, 
    -0.17752774059772491, 0.0010788453510031104, 

    0.0600065216422081, -0.27552488446235657, 
    -0.07264863699674606, 0.09868106245994568, 

    -0.003822844009846449, -0.025022877380251884, 
    0.0841863676905632, 0.04626702144742012, 

    0.04192018881440163, 0.028337374329566956, 
    0.04138275980949402, -0.010801117867231369, 

    -0.00939907506108284, -0.09231062233448029, 
    -0.043155159801244736, -0.22728301584720612, 

    0.07131662219762802, 0.09859848022460938, 
    -0.07400359958410263, 0.23370277881622314, 

    0.034111279994249344, -0.03585866093635559, 
    0.05021242797374725, -0.033283453434705734, 

    -0.0024869355838745832, -0.0037095400039106607, 
    -0.04354773089289665, 0.16817514598369598, 

        };
        static filter_t filter0 = {32, 2, weights0, 0.06937015801668167};
        filters[0]=filter0;
            
        static const float weights1[]={ 
    0.048718180507421494, 0.2465679943561554, 
    -0.1426469385623932, 0.09103479981422424, 

    -0.3799212872982025, 0.0041235992684960365, 
    -0.5666522979736328, -0.1050056666135788, 

    0.12999391555786133, -0.07064070552587509, 
    0.19339433312416077, -0.12436636537313461, 

    -0.12090421468019485, -0.03698486089706421, 
    -0.05902513116598129, 0.02441769279539585, 

    0.07438269257545471, 0.19035670161247253, 
    0.09235569089651108, 0.062465932220220566, 

    0.3118967115879059, 0.12082842737436295, 
    0.057207729667425156, -0.20534974336624146, 

    0.045112431049346924, 0.06669601798057556, 
    -0.005505859851837158, 0.11936360597610474, 

    -0.1050686165690422, -0.19225172698497772, 
    -0.18378598988056183, 0.3617584705352783, 

    0.03021799959242344, -0.10362262278795242, 
    0.17465709149837494, -0.09239242225885391, 

    -0.055822212249040604, 0.008715873584151268, 
    -0.004367095418274403, -0.07101056724786758, 

    0.016096260398626328, 0.10008395463228226, 
    -0.06510881334543228, 0.0430617555975914, 

    0.0876079648733139, -0.07536245882511139, 
    -0.16156858205795288, -0.0935898870229721, 

    -0.15135574340820312, 0.09006558358669281, 
    -0.07970906794071198, 0.27596426010131836, 

    0.3187680244445801, 0.3041946291923523, 
    0.11514483392238617, -0.06394907087087631, 

    0.24837902188301086, 0.07245542109012604, 
    -0.12679296731948853, -0.42049989104270935, 

    0.11730139702558517, 0.0406554639339447, 
    0.026572976261377335, -0.10106098651885986, 

    -0.2058030068874359, 0.10803722590208054, 
    -0.02716733142733574, 0.31117159128189087, 

    -0.30629241466522217, 0.10973887145519257, 
    0.10750999301671982, 0.21706095337867737, 

    -0.06597587466239929, 0.13920582830905914, 
    0.10776760429143906, 0.057279299944639206, 

    -0.05559279024600983, -0.10420291125774384, 
    0.044515106827020645, 0.000512085622176528, 

    0.14565986394882202, 0.26814866065979004, 
    -0.020143117755651474, -0.19714751839637756, 

    -0.030318384990096092, 0.08742744475603104, 
    0.22136439383029938, 0.01688346080482006, 

    0.03348970785737038, 0.05457744374871254, 
    -0.14306141436100006, 0.1474168449640274, 

    0.19139431416988373, -0.12599994242191315, 
    0.4015970528125763, 0.07138487696647644, 

    0.026626132428646088, 0.02464418113231659, 
    0.1587643325328827, -0.04128453880548477, 

    -0.02692737616598606, 0.1886892169713974, 
    -0.3034464120864868, -0.1142706573009491, 

    0.023162610828876495, -0.02825053595006466, 
    0.01981550082564354, -0.38823607563972473, 

    0.1319902390241623, 0.08915752172470093, 
    0.0019934908486902714, 0.07179440557956696, 

    -0.11111366748809814, -0.09809435904026031, 
    0.13160265982151031, -0.06474528461694717, 

    -0.0353332944214344, -0.05143987387418747, 
    0.053851570934057236, 0.21712954342365265, 

    -0.005364890210330486, -0.04112279415130615, 
    -0.18878264725208282, -0.041746627539396286, 

    0.04965529218316078, 0.026212600991129875, 
    -0.010518326424062252, 0.056379444897174835, 

        };
        static filter_t filter1 = {32, 2, weights1, -0.001818302203901112};
        filters[1]=filter1;
            
        static const float weights2[]={ 
    -0.15322525799274445, -0.17002059519290924, 
    -0.11408038437366486, -0.053007736802101135, 

    -0.18457777798175812, -0.11437392234802246, 
    -0.25560232996940613, 0.038392338901758194, 

    0.17535185813903809, -0.0021369147580116987, 
    -0.0761033147573471, 0.03642061725258827, 

    -0.12932135164737701, 0.07748576253652573, 
    0.023447001352906227, 0.12962743639945984, 

    -0.1465931385755539, 0.00839265901595354, 
    0.17458012700080872, -0.04597362130880356, 

    -0.2261594533920288, -0.033326972275972366, 
    -0.017090408131480217, -0.08628342300653458, 

    0.09108901023864746, -0.08282271027565002, 
    -0.012670129537582397, 0.01317492127418518, 

    -0.03799297660589218, -0.07621393352746964, 
    0.1354140341281891, 0.01910843513906002, 

    -0.11470045894384384, -0.08332362771034241, 
    0.13751010596752167, -0.07840802520513535, 

    -0.0007853739080019295, 0.08824189007282257, 
    -0.05478820577263832, 0.09468916058540344, 

    0.08815615624189377, 0.004016909748315811, 
    0.013440152630209923, -0.03618435189127922, 

    0.00958908349275589, -0.13745220005512238, 
    0.029243875294923782, -0.11088714748620987, 

    0.0006305730203166604, 0.09940909594297409, 
    -0.04966768994927406, -0.25136277079582214, 

    -0.28421008586883545, -0.005617300048470497, 
    0.09885358810424805, -0.08419816195964813, 

    -0.18570542335510254, 0.026464249938726425, 
    0.01742272824048996, -0.020637670531868935, 

    0.059826597571372986, -0.04264103248715401, 
    0.35159191489219666, -0.07412277907133102, 

    0.1486481875181198, 0.0872102677822113, 
    -0.15383325517177582, 0.15045671164989471, 

    0.08702529966831207, -0.057913657277822495, 
    0.3227168917655945, 0.15311969816684723, 

    -0.09623342007398605, 0.07800004631280899, 
    -0.01962675154209137, 0.045461926609277725, 

    -0.0013257930986583233, 0.02382972091436386, 
    0.06956011056900024, -0.2538924515247345, 

    -0.31586089730262756, -0.5535475611686707, 
    0.1661364734172821, 0.12316448986530304, 

    -0.13771913945674896, 0.028290169313549995, 
    -0.011414355598390102, 0.062412962317466736, 

    -0.04866756126284599, 0.0693134143948555, 
    -0.24686023592948914, 0.1927570253610611, 

    0.017322098836302757, 0.2842255234718323, 
    0.13326698541641235, 0.2847547233104706, 

    0.03765217214822769, -0.02450583130121231, 
    0.18966449797153473, 0.08476376533508301, 

    -0.344079852104187, -0.08909757435321808, 
    0.046315114945173264, -0.21175788342952728, 

    0.27707621455192566, 0.11408138275146484, 
    -0.07405037432909012, 0.030279984697699547, 

    0.00020268757361918688, 0.005525896325707436, 
    0.17798423767089844, -0.044134363532066345, 

    -0.12060082703828812, 0.092178575694561, 
    -0.06655122339725494, -0.04587557539343834, 

    -0.01974068582057953, -0.029094869270920753, 
    -0.1295592188835144, 0.06886272877454758, 

    -0.03441593423485756, 0.049934886395931244, 
    -0.14872537553310394, 0.07698133587837219, 

    -0.12195546925067902, 0.00599822960793972, 
    0.057027507573366165, 0.10693555325269699, 

        };
        static filter_t filter2 = {32, 2, weights2, 0.1125323548913002};
        filters[2]=filter2;
            
        static const float weights3[]={ 
    -0.16182345151901245, 0.052743446081876755, 
    -0.32301557064056396, -0.2276402711868286, 

    -0.07771250605583191, 0.1378445327281952, 
    0.008816096000373363, 0.04996677488088608, 

    0.1474243849515915, -0.10255411267280579, 
    0.0646481141448021, -0.03113008476793766, 

    -0.0029496620409190655, -0.0478753000497818, 
    -0.02968992106616497, -0.17702995240688324, 

    -0.07527314126491547, -0.2125387340784073, 
    -0.0708041787147522, -0.08282628655433655, 

    -0.0013286406174302101, 0.025152793154120445, 
    0.0658288300037384, 0.06445866078138351, 

    -0.004992246627807617, -0.03133893013000488, 
    0.05329445004463196, 0.051458388566970825, 

    -0.10660827904939651, 0.08397365361452103, 
    -0.08643647283315659, 0.27472084760665894, 

    0.073313407599926, 0.036942966282367706, 
    0.027901379391551018, 0.013952035456895828, 

    0.12249065935611725, 0.06573951244354248, 
    -0.04561574012041092, 0.08473947644233704, 

    -0.05495241656899452, -0.02512448839843273, 
    0.031610723584890366, 0.013222413137555122, 

    0.1317487508058548, 0.054630719125270844, 
    -0.14715708792209625, 0.03246799111366272, 

    0.07893188297748566, 0.0563143715262413, 
    -0.3902500867843628, 0.01497158594429493, 

    -0.08269385248422623, 0.30469292402267456, 
    -0.1744868904352188, 0.02335124835371971, 

    -0.201765239238739, 0.012009372003376484, 
    -0.1929561197757721, -0.2150636911392212, 

    0.0015580725157633424, -0.1302700787782669, 
    0.16027984023094177, -0.050693329423666, 

    -0.13855351507663727, -0.19993996620178223, 
    0.10297183692455292, -0.06439246237277985, 

    -0.17813879251480103, 0.1158977672457695, 
    0.19316819310188293, 0.1610701084136963, 

    -0.10113561153411865, -0.39850106835365295, 
    0.00025573853054083884, 0.07618595659732819, 

    0.08829759061336517, 0.10018274188041687, 
    -0.02857542596757412, 0.03319812938570976, 

    -0.10017750412225723, 0.22618849575519562, 
    -0.00961044430732727, -0.06853798031806946, 

    0.0026923518162220716, -0.11584912240505219, 
    0.12227664887905121, -0.061073243618011475, 

    -0.09741862863302231, 0.12887036800384521, 
    0.3077471852302551, -0.19426603615283966, 

    0.355851948261261, -0.17462363839149475, 
    0.27327054738998413, 0.16687236726284027, 

    0.10656619817018509, -0.03868382051587105, 
    -0.19365327060222626, 0.06355449557304382, 

    -0.07243083417415619, 0.25652214884757996, 
    -0.3080340623855591, -0.057143863290548325, 

    0.0024932462256401777, -0.05599592998623848, 
    0.24437513947486877, -0.08397505432367325, 

    0.06944785267114639, -0.11072057485580444, 
    0.1430377960205078, -0.20797063410282135, 

    0.09279590100049973, 0.05798531323671341, 
    -0.013613343238830566, 0.0731503963470459, 

    0.1290154606103897, -0.05619994178414345, 
    -0.18945159018039703, 0.0672936663031578, 

    0.10757841914892197, 0.02480694092810154, 
    0.08377695828676224, -0.08526149392127991, 

    -0.09728575497865677, -0.11399788409471512, 
    -0.12769225239753723, 0.12732303142547607, 

        };
        static filter_t filter3 = {32, 2, weights3, 0.12019652873277664};
        filters[3]=filter3;
            
        static const float weights4[]={ 
    0.2574165463447571, 0.17123398184776306, 
    -0.13380074501037598, -0.2789686322212219, 

    0.5251668095588684, -0.1653059422969818, 
    -0.1484321504831314, -0.15262055397033691, 

    0.02657785825431347, 0.08617772907018661, 
    -0.1731434464454651, -0.15450547635555267, 

    0.10366202145814896, 0.1851683408021927, 
    -0.06452742218971252, 0.06668908894062042, 

    0.06069458648562431, 0.030325939878821373, 
    0.13464197516441345, 0.03580894321203232, 

    0.4783004820346832, 0.07829940319061279, 
    -0.12427246570587158, -0.13796818256378174, 

    0.017693907022476196, 0.0780344009399414, 
    -0.036388903856277466, -0.09805414080619812, 

    -0.27068978548049927, -0.051896948367357254, 
    -0.02208000235259533, 0.16611100733280182, 

    -0.04671871289610863, 0.04771042242646217, 
    0.07495870441198349, 0.037730295211076736, 

    0.054524943232536316, 0.044550977647304535, 
    0.1261584311723709, 0.2858157157897949, 

    0.03228389844298363, -0.05535449460148811, 
    0.20919102430343628, 0.1412278413772583, 

    0.015458399429917336, 0.11846684664487839, 
    -0.020014073699712753, 0.10211563110351562, 

    -0.15339863300323486, -0.14399026334285736, 
    0.11951404064893723, 0.19764763116836548, 

    0.46037203073501587, -0.06841469556093216, 
    -0.036907535046339035, 0.06539998203516006, 

    0.3331793546676636, 0.19163869321346283, 
    -0.07301788777112961, -0.12201328575611115, 

    0.11797727644443512, -0.08805752545595169, 
    0.13736970722675323, -0.14439941942691803, 

    0.14237700402736664, -0.3153136670589447, 
    -0.11540282517671585, -0.03493686765432358, 

    0.000979311764240265, -0.2511679530143738, 
    0.07886552810668945, -0.07673469930887222, 

    0.015159600414335728, 0.14265333116054535, 
    0.09079916030168533, 0.02448488026857376, 

    0.04184768721461296, -0.0669298842549324, 
    -0.17755459249019623, -0.09446181356906891, 

    0.40263286232948303, -0.02577129937708378, 
    -0.05894314497709274, -0.3687216341495514, 

    -0.1178010031580925, -0.11482522636651993, 
    0.07502061873674393, -0.15616407990455627, 

    -0.045286208391189575, -0.01560894399881363, 
    -0.5033553838729858, 0.05004362389445305, 

    -0.09346175938844681, 0.07494007796049118, 
    -0.33438533544540405, -0.15341922640800476, 

    0.21744373440742493, 0.08777222037315369, 
    0.0286231841892004, 0.021785041317343712, 

    0.3750179708003998, -0.10519278794527054, 
    -0.05989538133144379, -0.11194805800914764, 

    0.1984822154045105, 0.029951728880405426, 
    -0.07761526852846146, -0.16464544832706451, 

    0.12285462766885757, -0.023427976295351982, 
    -0.2999382019042969, 0.1574900895357132, 

    -0.03835958614945412, 0.07803482562303543, 
    0.17515183985233307, 0.30350950360298157, 

    -0.2805861234664917, 0.08292338997125626, 
    0.0005700706969946623, -0.03668750450015068, 

    -0.07385127246379852, 0.10526655614376068, 
    0.08378536999225616, 0.025583766400814056, 

    -0.2547999918460846, -0.011005762033164501, 
    0.032810311764478683, 0.06513265520334244, 

        };
        static filter_t filter4 = {32, 2, weights4, 0.11998607218265533};
        filters[4]=filter4;
            
        static const float weights5[]={ 
    0.057623203843832016, 0.16592758893966675, 
    -0.0456383153796196, 0.14296968281269073, 

    0.3611029386520386, 0.021456141024827957, 
    -0.23482081294059753, 0.050628479570150375, 

    -0.1932639181613922, -0.11351993680000305, 
    -0.004610931500792503, 0.23564612865447998, 

    -0.25754037499427795, -0.037993043661117554, 
    0.05957714468240738, -0.10546902567148209, 

    -0.22055606544017792, 0.06383495777845383, 
    -0.007316666655242443, 0.18547746539115906, 

    0.10323625057935715, 0.007582938764244318, 
    -0.21179735660552979, -0.09593399614095688, 

    -0.015587389469146729, 0.11880284547805786, 
    0.004751533269882202, 0.06150349974632263, 

    -0.1709522008895874, -0.05373220890760422, 
    0.4447510540485382, -0.15208017826080322, 

    -0.19854436814785004, 0.14833535254001617, 
    0.08996035158634186, -0.034416574984788895, 

    0.008039018139243126, -0.09878161549568176, 
    -0.13020645081996918, 0.020081689581274986, 

    -0.23146435618400574, 0.03515789285302162, 
    0.08416948467493057, 0.05076688900589943, 

    -0.27501380443573, -0.00758052384480834, 
    0.02582366205751896, 0.0677608922123909, 

    -0.13400526344776154, 0.11424621194601059, 
    0.19078969955444336, 0.05477971211075783, 

    0.3182971477508545, 0.011483201757073402, 
    -0.03233001381158829, 0.055015094578266144, 

    0.23507753014564514, 0.07960643619298935, 
    -0.14496482908725739, -0.20262838900089264, 

    -0.427288293838501, 0.14951935410499573, 
    -0.22940024733543396, -0.059081196784973145, 

    0.1710081696510315, 0.09186277538537979, 
    0.1237102746963501, -0.04330743849277496, 

    -0.011991147883236408, 0.19391731917858124, 
    -0.06592830270528793, -0.06515497714281082, 

    -0.22242504358291626, 0.0981382504105568, 
    -0.10102824866771698, 0.12824733555316925, 

    -0.35564982891082764, 0.04782304912805557, 
    0.18428568542003632, 0.10343862324953079, 

    0.25443601608276367, 0.07514067739248276, 
    -0.20315589010715485, -0.06907570362091064, 

    -0.23933233320713043, -0.09284179657697678, 
    -0.04225626215338707, -0.12432162463665009, 

    -0.1690995991230011, -0.12755125761032104, 
    -0.029117640107870102, 0.175894096493721, 

    -0.14927420020103455, -0.05279219523072243, 
    0.034052517265081406, -0.12941180169582367, 

    -0.24687707424163818, 0.11270666867494583, 
    -0.04789474979043007, 0.11995109170675278, 

    0.36034953594207764, -0.08965973556041718, 
    -0.46037757396698, 0.04446422681212425, 

    0.11441835761070251, -0.15250733494758606, 
    -0.0035345726646482944, 0.01834976300597191, 

    -0.3131934702396393, 0.12518039345741272, 
    -0.026969362050294876, 0.32736438512802124, 

    -0.22149434685707092, 0.07464838027954102, 
    0.02177601493895054, 0.06538310647010803, 

    -0.06608067452907562, -0.09165659546852112, 
    0.1454497128725052, -0.07558484375476837, 

    0.15608163177967072, -0.015565005131065845, 
    -0.18156975507736206, -0.04531141743063927, 

    0.07870342582464218, 0.11187535524368286, 
    -0.05566350743174553, -0.04390547797083855, 

        };
        static filter_t filter5 = {32, 2, weights5, 0.16137123107910156};
        filters[5]=filter5;
            
        static const float weights6[]={ 
    0.13217812776565552, -0.04184354096651077, 
    0.2898614704608917, 0.17669472098350525, 

    -0.252975195646286, 0.06056681275367737, 
    0.14487969875335693, -0.013585886918008327, 

    0.24579906463623047, 0.04074575752019882, 
    -0.23828330636024475, 0.050408631563186646, 

    -0.017491847276687622, 0.019581522792577744, 
    0.29492369294166565, -0.03517600893974304, 

    -0.1619865596294403, 0.05869019776582718, 
    0.13224005699157715, 0.14843060076236725, 

    -0.0691264420747757, 0.1075349897146225, 
    0.17886018753051758, -0.009986757300794125, 

    0.00848376750946045, 0.12226378917694092, 
    0.008226394653320312, -0.06211593747138977, 

    0.06953349709510803, 0.00961226038634777, 
    0.10118025541305542, -0.3947591483592987, 

    0.015353458933532238, -0.11770689487457275, 
    0.09983951598405838, -0.04598388075828552, 

    0.010042605921626091, 0.04785265773534775, 
    -0.00982633139938116, 0.08237119019031525, 

    -0.015650209039449692, 0.09580907970666885, 
    0.01820170134305954, -0.06855562329292297, 

    -0.12858392298221588, -0.048892825841903687, 
    0.023970646783709526, -0.09179604798555374, 

    0.1179225817322731, -0.05250061675906181, 
    -0.10890182107686996, -0.07320691645145416, 

    -0.0770498663187027, -0.08941926062107086, 
    0.17823006212711334, 0.1430220603942871, 

    -0.09960073232650757, 0.10951542854309082, 
    0.16087155044078827, 0.09317275881767273, 

    -0.04611753672361374, -0.03984495624899864, 
    0.06586987525224686, -0.00992238987237215, 

    0.11170710623264313, -0.17464011907577515, 
    0.2828962802886963, -0.320534884929657, 

    -0.1446363925933838, 0.009358442388474941, 
    -0.1640331894159317, -0.03165319189429283, 

    -0.13313160836696625, -0.10690079629421234, 
    0.1311335414648056, -0.004302473738789558, 

    0.18434672057628632, -0.08448958396911621, 
    -0.007143298164010048, -0.15968485176563263, 

    -0.3968534469604492, 0.1913832277059555, 
    -0.003462089691311121, -0.1841513216495514, 

    -0.13029585778713226, -0.018204249441623688, 
    0.1856900453567505, 0.16708116233348846, 

    0.0007323589525185525, -0.21312442421913147, 
    -0.38132011890411377, -0.02425425685942173, 

    0.14493829011917114, 0.002953688381239772, 
    -0.004453349858522415, 0.02025262452661991, 

    0.05708377808332443, 0.028236303478479385, 
    0.1147942990064621, -0.02678680047392845, 

    -0.14149059355258942, 0.27649179100990295, 
    -0.040370192378759384, -0.10667820274829865, 

    0.03503844514489174, 0.0503728874027729, 
    -0.4580068290233612, -0.1761043667793274, 

    0.13017860054969788, 0.005097898188978434, 
    -0.31087854504585266, 0.11335933208465576, 

    -0.02953428216278553, 0.027994826436042786, 
    0.0709017962217331, 0.009149367921054363, 

    0.11182238161563873, 0.0924391821026802, 
    0.22012858092784882, -0.3881818354129791, 

    -0.046573489904403687, -0.13936986029148102, 
    0.06353986263275146, -0.04870343580842018, 

    -0.024864571169018745, 0.11136987060308456, 
    0.3069421947002411, -0.19349046051502228, 

        };
        static filter_t filter6 = {32, 2, weights6, 0.12240096926689148};
        filters[6]=filter6;
            
        static const float weights7[]={ 
    -0.10116006433963776, 0.042120736092329025, 
    0.33966976404190063, -0.09253536909818649, 

    -0.12745311856269836, -0.43158984184265137, 
    -0.20585423707962036, 0.28007087111473083, 

    0.03286408632993698, -0.24107064306735992, 
    -0.08944596350193024, -0.22842420637607574, 

    0.10524264723062515, 0.031265173107385635, 
    0.23640215396881104, 0.034204911440610886, 

    0.05887699872255325, -0.09207037836313248, 
    0.1255674511194229, 0.26824143528938293, 

    0.1640617847442627, 0.04661184921860695, 
    0.02357611246407032, 0.08210531622171402, 

    0.12413182854652405, -0.08927428722381592, 
    -0.014798849821090698, -0.08698025345802307, 

    -0.48584187030792236, 0.10043001919984818, 
    -0.2227989286184311, -0.2591839134693146, 

    -0.02486373856663704, -0.07073898613452911, 
    0.18448948860168457, 0.05195179209113121, 

    -0.15196794271469116, 0.07554756850004196, 
    0.08164197951555252, -0.025269625708460808, 

    -0.09190211445093155, -0.006880188826471567, 
    0.1067640632390976, -0.22273550927639008, 

    0.0113249896094203, 0.06155106797814369, 
    -0.39187920093536377, -0.26112088561058044, 

    0.0026952065527439117, -0.015047302469611168, 
    -0.49900633096694946, 0.2655411958694458, 

    -0.05332525819540024, 0.03756977990269661, 
    0.16235217452049255, 0.011417999863624573, 

    -0.22594237327575684, -0.07371942698955536, 
    0.15722543001174927, -0.13707484304904938, 

    -0.07600845396518707, 0.06675023585557938, 
    0.0915711522102356, -0.16928493976593018, 

    -0.06604443490505219, -0.25189217925071716, 
    0.257962703704834, 0.22132359445095062, 

    -0.008066677488386631, 0.2928411662578583, 
    -0.09025928378105164, 0.10952237993478775, 

    0.24709445238113403, 0.0425167977809906, 
    0.16024447977542877, 0.08073990046977997, 

    -0.0878998264670372, 0.0583566389977932, 
    0.06803051382303238, -0.8808598518371582, 

    0.12375704944133759, -0.44848424196243286, 
    0.24320602416992188, 0.04724276065826416, 

    -0.06362013518810272, -0.08304519206285477, 
    -0.00367847946472466, 0.017060836777091026, 

    0.13378632068634033, 0.13440734148025513, 
    0.19638319313526154, -0.22329382598400116, 

    -0.2511921226978302, -0.06004004552960396, 
    0.22421446442604065, -0.10900065302848816, 

    -0.0020788549445569515, 0.08875198662281036, 
    0.08489267528057098, 0.05688870698213577, 

    -0.24833767116069794, -0.27139928936958313, 
    -0.17323830723762512, 0.08591469377279282, 

    0.03468034788966179, 0.008720931597054005, 
    -0.016781985759735107, -0.26340028643608093, 

    -0.05573984235525131, -0.033022698014974594, 
    0.09607308357954025, -0.04799941927194595, 

    -0.07309625297784805, 0.02274581789970398, 
    0.15355496108531952, -0.09237971901893616, 

    0.056495606899261475, -0.014937150292098522, 
    -0.033244870603084564, 0.09154979139566422, 

    -0.14301903545856476, -0.0867028683423996, 
    -0.05671264976263046, -0.23457926511764526, 

    -0.013539067469537258, -0.06506442278623581, 
    0.24186363816261292, 0.15203486382961273, 

        };
        static filter_t filter7 = {32, 2, weights7, 0.22297193109989166};
        filters[7]=filter7;
            
        static const float weights8[]={ 
    0.15360188484191895, -0.04940124973654747, 
    -0.009899827651679516, -0.1453033834695816, 

    -0.3448517620563507, -0.1651337742805481, 
    -0.10864794254302979, 0.20924240350723267, 

    0.05807888135313988, 0.15560553967952728, 
    -0.1020369827747345, -0.08639957010746002, 

    0.125901460647583, 0.013701174408197403, 
    0.14051400125026703, 0.03287256881594658, 

    0.06418553739786148, 0.15103881061077118, 
    0.11282479763031006, 0.04624959081411362, 

    -0.18844477832317352, -0.09070585668087006, 
    -0.06503921002149582, -0.2100682258605957, 

    -0.10403382778167725, -0.041701674461364746, 
    0.030029982328414917, 0.001346886157989502, 

    -0.0945357233285904, 0.0211943406611681, 
    0.020148828625679016, 0.47982028126716614, 

    0.12870223820209503, -0.04891399294137955, 
    -0.026787955313920975, 0.07867224514484406, 

    -0.1399509161710739, 0.03737030550837517, 
    0.038105517625808716, 0.11216935515403748, 

    -0.04737940803170204, 0.019311994314193726, 
    0.1452368050813675, -0.1804250180721283, 

    -0.1708911657333374, 0.02211996354162693, 
    -0.0304300207644701, 0.026207059621810913, 

    -0.20431795716285706, -0.10106965154409409, 
    -0.06516920775175095, 0.3945251703262329, 

    -0.03381763771176338, -0.006944368593394756, 
    -0.12706118822097778, -0.3148645758628845, 

    -0.0012260358780622482, 0.07809706777334213, 
    -0.10182757675647736, -0.04158588871359825, 

    0.15925072133541107, 0.10189613699913025, 
    0.13337825238704681, -0.12068767100572586, 

    -0.14943550527095795, -0.004249568097293377, 
    0.09406470507383347, 0.08096235990524292, 

    0.03080369159579277, -0.18181614577770233, 
    -0.13959427177906036, 0.3416493833065033, 

    -0.008927575312554836, -0.08488526195287704, 
    -0.12165089696645737, -0.11576253175735474, 

    -0.14743643999099731, 0.058131054043769836, 
    0.01862289384007454, -0.001829623244702816, 

    -0.07269447296857834, 0.30649635195732117, 
    -0.2950308620929718, -0.35182827711105347, 

    0.1850738525390625, -0.03670216724276543, 
    0.10216885060071945, -0.06110796332359314, 

    -0.14860183000564575, 0.04806699603796005, 
    -0.025461342185735703, -0.1282801628112793, 

    0.36698344349861145, 0.07990465313196182, 
    -0.012323972769081593, -0.15667666494846344, 

    0.046131305396556854, -0.05704974755644798, 
    -0.042996082454919815, -0.0017058018129318953, 

    -0.3581323027610779, 0.06904801726341248, 
    -0.1235605925321579, -0.2380204200744629, 

    -0.08613318204879761, -0.07740394026041031, 
    -0.02835932932794094, -0.61025470495224, 

    -0.13965724408626556, 0.002201145514845848, 
    -0.021229246631264687, -0.07624980062246323, 

    0.12652632594108582, 0.06181863322854042, 
    0.16186852753162384, -0.03288841247558594, 

    0.027925170958042145, -0.11343955248594284, 
    -0.1446593999862671, 0.2546209692955017, 

    -0.07877881079912186, 0.07318099588155746, 
    -0.006188353057950735, -0.08434799313545227, 

    0.09851691126823425, 0.011063042096793652, 
    0.09425075352191925, 0.21731168031692505, 

        };
        static filter_t filter8 = {32, 2, weights8, 0.2515713572502136};
        filters[8]=filter8;
            
        static const float weights9[]={ 
    -0.08682828396558762, 0.07086039334535599, 
    -0.29647064208984375, -0.0843845084309578, 

    -0.13783416152000427, 0.10381723195314407, 
    0.14197473227977753, -0.03369169309735298, 

    -0.1920846402645111, 0.003039389615878463, 
    0.03955157846212387, 0.25211575627326965, 

    0.006792458705604076, 0.08484712243080139, 
    -0.3672475218772888, 0.06544394046068192, 

    -0.020431621000170708, -0.05585264787077904, 
    -0.2433803528547287, -0.2698083817958832, 

    0.023544874042272568, 0.013881142251193523, 
    0.016257645562291145, -0.019726060330867767, 

    0.09279987215995789, -0.03361806273460388, 
    -0.11535963416099548, -0.0723339319229126, 

    -0.031331174075603485, 0.047396183013916016, 
    0.44542422890663147, 0.08226317912340164, 

    0.09937635809183121, -0.09653817117214203, 
    -0.2809235155582428, -0.16930656135082245, 

    0.12444338947534561, -0.0831960067152977, 
    -0.15080609917640686, -0.05852356553077698, 

    -0.003730040043592453, -0.009636446833610535, 
    0.034945759922266006, 0.08689633011817932, 

    0.11146815121173859, 0.04565298929810524, 
    0.0566561333835125, 0.05499444901943207, 

    0.058507807552814484, 0.005329486448317766, 
    0.29424574971199036, 0.08120421320199966, 

    -0.16805802285671234, -0.032106079161167145, 
    -0.04243895411491394, -0.09450807422399521, 

    0.12902984023094177, -0.10145362466573715, 
    0.056047286838293076, 0.02027391456067562, 

    -0.09349888563156128, 0.06752051413059235, 
    -0.15581165254116058, -0.15738019347190857, 

    -0.30164700746536255, 0.05740250274538994, 
    -0.19119441509246826, 0.011253715492784977, 

    -0.05499366670846939, 0.11419226229190826, 
    0.01539978664368391, -0.019043447449803352, 

    0.040118370205163956, -0.08377087116241455, 
    -0.12174073606729507, 0.012995152734220028, 

    -0.08050335198640823, -0.12935544550418854, 
    0.2267685830593109, 0.13597719371318817, 

    -0.05605500191450119, 0.016286911442875862, 
    0.17954324185848236, 0.22082029283046722, 

    0.032025352120399475, 0.008093733340501785, 
    -0.3703126311302185, -0.38619908690452576, 

    -0.061068907380104065, 0.10647298395633698, 
    0.2270466685295105, 0.1360495537519455, 

    -0.4944370687007904, -0.27927500009536743, 
    0.022552834823727608, 0.25599247217178345, 

    -0.12210823595523834, -0.03107922151684761, 
    -0.0478866845369339, -0.04152612388134003, 

    0.03530106320977211, 0.1738911271095276, 
    0.1990298330783844, -0.04125827178359032, 

    0.18741488456726074, -0.07140891253948212, 
    -0.07974638044834137, 0.05024006962776184, 

    -0.08810315281152725, -0.0431041456758976, 
    0.007857371121644974, 0.35193151235580444, 

    0.07295269519090652, 0.07331707328557968, 
    -0.20322926342487335, -0.023642264306545258, 

    -0.03886961191892624, -0.01796606555581093, 
    0.14651113748550415, 0.0029743961058557034, 

    0.016660859808325768, 0.12612499296665192, 
    -0.23958207666873932, 0.1093045026063919, 

    0.006595080718398094, 0.017755258828401566, 
    -0.020917754620313644, -0.0190924983471632, 

        };
        static filter_t filter9 = {32, 2, weights9, 0.16058406233787537};
        filters[9]=filter9;
            
        static const float weights10[]={ 
    -0.08234725892543793, 0.23038214445114136, 
    0.02157694473862648, -0.05742461979389191, 

    0.10375604778528214, -0.08118492364883423, 
    -0.13225266337394714, -0.008592139929533005, 

    0.07324804365634918, -0.03921191021800041, 
    -0.12756916880607605, -0.15291114151477814, 

    0.2056131511926651, 0.14480085670948029, 
    -0.03851769492030144, -0.05655430629849434, 

    0.16630589962005615, -0.14383134245872498, 
    0.07860676944255829, 0.24098698794841766, 

    -0.0352306105196476, 0.03312799334526062, 
    0.13797599077224731, 0.002796882763504982, 

    0.018896043300628662, 0.029956400394439697, 
    -0.09764957427978516, 0.1074661910533905, 

    -0.10297581553459167, 0.06651587784290314, 
    0.04505066201090813, 0.025140423327684402, 

    -0.11038783192634583, 0.049343790858983994, 
    -0.16367654502391815, 0.0653446614742279, 

    -0.03508494049310684, -0.01722523383796215, 
    0.06929555535316467, -0.05886557325720787, 

    0.0525691956281662, -0.008630030788481236, 
    0.023219039663672447, -0.009526116773486137, 

    -0.04851065203547478, -0.09377212822437286, 
    0.1206965446472168, -0.13857167959213257, 

    0.1495552361011505, 0.020300788804888725, 
    -0.01333211362361908, -0.02065361477434635, 

    -0.06083666533231735, 0.255169540643692, 
    0.19235846400260925, 0.09225741773843765, 

    0.11808604001998901, 0.034387510269880295, 
    0.03188711777329445, 0.012530431151390076, 

    0.10100221633911133, -0.014574769884347916, 
    0.044169869273900986, -0.501387894153595, 

    -0.2159145027399063, 0.1808200180530548, 
    -0.3461834490299225, -0.2209199219942093, 

    -0.08202698826789856, 0.05322268605232239, 
    -0.04872246831655502, 0.013064597733318806, 

    0.13152208924293518, -0.11262976378202438, 
    0.10002641379833221, 0.20709998905658722, 

    0.010456271469593048, -0.12488297373056412, 
    -0.3133315443992615, 0.006169471424072981, 

    -0.22798903286457062, -0.21582940220832825, 
    0.05206168070435524, 0.24340510368347168, 

    -0.08107636123895645, 0.010550795122981071, 
    -0.14344722032546997, -0.15454146265983582, 

    0.009845741093158722, 0.12860316038131714, 
    -0.27783775329589844, 0.2137524038553238, 

    -0.07414408773183823, -0.05141439661383629, 
    0.08406102657318115, 0.20560599863529205, 

    0.002844566246494651, -0.04288413003087044, 
    0.19533875584602356, -0.12937666475772858, 

    -0.024933969601988792, 0.11779506504535675, 
    -0.22709983587265015, 0.377153217792511, 

    0.1399873048067093, -0.03309252858161926, 
    -0.5919032096862793, -0.016529718413949013, 

    0.05770410597324371, -0.0531800203025341, 
    -0.11928059160709381, 0.1015281081199646, 

    -0.03775953873991966, -0.04322095215320587, 
    0.13112875819206238, -0.017816277220845222, 

    -0.05127410963177681, -0.051362864673137665, 
    -0.05104769021272659, 0.11021743714809418, 

    0.06688166409730911, 0.03283848240971565, 
    0.056406233459711075, 0.020665185526013374, 

    -0.13327187299728394, 0.0696999654173851, 
    0.08823258429765701, 0.0022186879068613052, 

        };
        static filter_t filter10 = {32, 2, weights10, 0.008240622468292713};
        filters[10]=filter10;
            
        static const float weights11[]={ 
    -0.1579262763261795, 0.20623645186424255, 
    0.07134473323822021, 0.14090366661548615, 

    0.03741523623466492, -0.0006533122505061328, 
    0.3340683877468109, 0.03166097775101662, 

    -0.03233738988637924, 0.2346617728471756, 
    -0.09269581735134125, 0.06007228419184685, 

    -0.052779365330934525, -0.034649740904569626, 
    0.029367610812187195, -0.14578777551651, 

    -0.12636013329029083, -0.03402804955840111, 
    -0.055062875151634216, 0.18602393567562103, 

    0.11649025976657867, 0.0023191915825009346, 
    0.2808457911014557, 0.12878187000751495, 

    0.07048976421356201, -0.020511507987976074, 
    -0.0026283860206604004, -0.10300049185752869, 

    0.1070418581366539, -0.07618768513202667, 
    0.22309961915016174, -0.49039921164512634, 

    -0.03888886794447899, -0.03369215130805969, 
    0.025012172758579254, 0.0003276187344454229, 

    0.03729991987347603, -0.014914452098309994, 
    0.04741291329264641, -0.05600941181182861, 

    -0.028606267645955086, -0.00342835602350533, 
    0.020585892722010612, -0.08189889788627625, 

    -0.0023868062999099493, 0.018657337874174118, 
    -0.2834462523460388, -0.12106369435787201, 

    0.2203868329524994, 0.05661384388804436, 
    -0.10164133459329605, 0.017829522490501404, 

    -0.16570726037025452, 0.2158603072166443, 
    0.26589494943618774, 0.12376828491687775, 

    -0.07564996927976608, -0.025649674236774445, 
    0.23637688159942627, 0.001279852818697691, 

    0.0343257412314415, -0.055813658982515335, 
    -0.05826884135603905, -0.06512451171875, 

    -0.07133053243160248, 0.02179884910583496, 
    0.037082888185977936, 0.060823954641819, 

    0.006754963658750057, 0.0395563542842865, 
    0.2574640214443207, 0.0018876749090850353, 

    -0.011143774725496769, -0.2534439265727997, 
    -0.14067745208740234, -0.08295752108097076, 

    0.015931373462080956, 0.07577095180749893, 
    -0.11741819977760315, -0.16323381662368774, 

    -0.06874653697013855, 0.0870448648929596, 
    -0.19590584933757782, 0.37582871317863464, 

    -0.08144837617874146, -0.14748810231685638, 
    0.1207338348031044, -0.0785854235291481, 

    0.047488823533058167, 0.25565874576568604, 
    0.290095716714859, -0.12576831877231598, 

    -0.13460351526737213, 0.10868456959724426, 
    0.11707505583763123, 0.19854231178760529, 

    0.07865089923143387, -0.14209823310375214, 
    -0.12683457136154175, -0.07105144113302231, 

    -0.17095671594142914, 0.14245977997779846, 
    0.48896512389183044, -0.052633073180913925, 

    0.018926896154880524, 0.0015618877951055765, 
    -0.29031938314437866, -0.07165349274873734, 

    0.059475891292095184, 0.12091924995183945, 
    -0.14045767486095428, -0.14352978765964508, 

    -0.12632498145103455, -0.1912791132926941, 
    -0.08586893230676651, -0.15262943506240845, 

    0.03528669849038124, -0.015362665988504887, 
    -0.023738525807857513, -0.1540515124797821, 

    0.06842950731515884, 0.017239384353160858, 
    0.10501924157142639, -0.35094472765922546, 

    0.1298341304063797, -0.15544931590557098, 
    0.12076465785503387, -0.1543477177619934, 

        };
        static filter_t filter11 = {32, 2, weights11, 0.07549675554037094};
        filters[11]=filter11;
            
        static const float weights12[]={ 
    0.21413522958755493, -0.1502562165260315, 
    0.000494481239002198, 0.035972751677036285, 

    -0.024721460416913033, -0.06482620537281036, 
    0.10174036771059036, 0.098814956843853, 

    -0.11894283443689346, -0.09312518686056137, 
    -0.3899781107902527, 0.03095422312617302, 

    0.06724445521831512, -0.05732593685388565, 
    0.09750665724277496, 0.1467253863811493, 

    0.072569839656353, -0.04211815074086189, 
    0.10658346116542816, 0.016376033425331116, 

    0.08325247466564178, -0.09170840680599213, 
    -0.05858593061566353, 0.08577308803796768, 

    0.09284764528274536, -0.006091326475143433, 
    0.012327373027801514, -0.08637446165084839, 

    -0.04376332834362984, 0.11081723868846893, 
    -0.2908277213573456, 0.07965914905071259, 

    -0.019153330475091934, 0.0834168940782547, 
    0.10090945661067963, -0.07421622425317764, 

    -0.12147510051727295, -0.05408249795436859, 
    0.13905581831932068, -0.1326446384191513, 

    0.09514130651950836, -0.04431295767426491, 
    0.04577108472585678, -0.1014241948723793, 

    0.0039943065494298935, 0.0707925409078598, 
    -0.45434942841529846, -0.0885792151093483, 

    0.01947668381035328, -0.07067936658859253, 
    -0.03177163377404213, -0.052711375057697296, 

    -0.07635824382305145, -0.15469221770763397, 
    0.1703101396560669, 0.12775106728076935, 

    0.0259983092546463, -0.028649134561419487, 
    0.03881382569670677, 0.19055770337581635, 

    -0.06418905407190323, 0.15095427632331848, 
    -0.127027690410614, -0.15931202471256256, 

    -0.10915309935808182, -0.04010101780295372, 
    -0.27385395765304565, 0.19621992111206055, 

    -0.07488570362329483, 0.033170703798532486, 
    -0.2579696774482727, -0.05501849949359894, 

    0.09077193588018417, 0.07406289130449295, 
    0.09902263432741165, 0.009156659245491028, 

    0.0008820320363156497, -0.04512135684490204, 
    -0.3989645838737488, -0.10466930270195007, 

    -0.11890145391225815, -0.2128145396709442, 
    -0.08301719278097153, 0.18963636457920074, 

    0.06561937183141708, -0.07955392450094223, 
    0.08935167640447617, 0.012863804586231709, 

    -0.03456339240074158, 0.12915697693824768, 
    -0.7014794945716858, -0.04804062843322754, 

    0.05363469198346138, -0.26588770747184753, 
    0.2673347294330597, 0.028045983985066414, 

    0.06989628076553345, 0.03293979912996292, 
    0.005187890492379665, 0.2074650228023529, 

    0.02415582537651062, -0.2670915722846985, 
    -0.01884789578616619, 0.29748767614364624, 

    0.11396567523479462, -0.014089162461459637, 
    -0.22189229726791382, -0.009819857776165009, 

    0.03924742713570595, 0.10566868633031845, 
    -0.4516027569770813, -0.2021457850933075, 

    0.06791164726018906, 0.10718144476413727, 
    0.1543055921792984, -0.10402325540781021, 

    -0.10796204954385757, 0.06559626758098602, 
    -0.0741347223520279, 0.19093945622444153, 

    -0.07205678522586823, 0.03692442551255226, 
    0.12800203263759613, -0.07139360904693604, 

    0.11760636419057846, 0.0695425420999527, 
    0.1095932349562645, 0.16239750385284424, 

        };
        static filter_t filter12 = {32, 2, weights12, 0.1536007970571518};
        filters[12]=filter12;
            
        static const float weights13[]={ 
    -0.08771934360265732, -0.05464460700750351, 
    -0.17826510965824127, -0.11836479604244232, 

    -0.05329820141196251, -0.1696777194738388, 
    0.1781981736421585, -0.04847708344459534, 

    0.022496048361063004, 0.07203291356563568, 
    0.29198214411735535, -0.02675907500088215, 

    -0.03975548967719078, 0.025791974738240242, 
    0.007766589988023043, -0.36117300391197205, 

    -0.5697691440582275, -0.013143952935934067, 
    0.14493392407894135, 0.029614051803946495, 

    0.12348275631666183, -0.11830941587686539, 
    0.10222167521715164, -0.06504392623901367, 

    0.02171492576599121, -0.12480881810188293, 
    0.08787572383880615, 0.09008133411407471, 

    0.008648457005620003, 0.18252962827682495, 
    0.15132886171340942, -0.42465290427207947, 

    -0.07055624574422836, 0.028933078050613403, 
    0.13432759046554565, -0.1993412971496582, 

    0.08981115370988846, -0.059416864067316055, 
    0.05268994718790054, 0.0007768323994241655, 

    0.11673296242952347, -0.052541568875312805, 
    -0.11078667640686035, 0.027599189430475235, 

    0.0022246334701776505, 0.01467018574476242, 
    -0.14175792038440704, 0.016543537378311157, 

    0.12811274826526642, 0.08960309624671936, 
    -0.06745872646570206, 0.07475150376558304, 

    0.09849567711353302, -0.18202972412109375, 
    0.016529234126210213, -0.03969816491007805, 

    0.062168218195438385, -0.025038758292794228, 
    0.022233719006180763, -0.03717205673456192, 

    -0.05369604751467705, 0.15966413915157318, 
    0.20460660755634308, -0.3065335154533386, 

    -0.1607363224029541, 0.004677317570894957, 
    -0.2917310893535614, -0.24188515543937683, 

    -0.0917176827788353, -0.1045176163315773, 
    -0.18056438863277435, -0.35230281949043274, 

    -0.19921258091926575, 0.018372174352407455, 
    0.29360324144363403, 0.02271631546318531, 

    0.14728710055351257, 0.032508835196495056, 
    -0.0257667675614357, 0.01379789412021637, 

    0.0011933508794754744, -0.2073608934879303, 
    0.36477744579315186, -0.08385597914457321, 

    -0.10290864109992981, -0.0761248990893364, 
    0.09074848145246506, -0.4289259612560272, 

    0.08020072430372238, 0.07061456143856049, 
    0.1125466376543045, -0.020443907007575035, 

    -0.37146905064582825, 0.06331664323806763, 
    0.8648953437805176, -0.07976315915584564, 

    0.0011769940610975027, -0.10304433107376099, 
    0.14413076639175415, 0.17445480823516846, 

    0.21276333928108215, -0.032593417912721634, 
    0.15750792622566223, 0.12826594710350037, 

    0.08576510101556778, -0.011418581008911133, 
    0.17414812743663788, 0.07390424609184265, 

    0.1390884965658188, -0.005196613725274801, 
    0.21516001224517822, 0.19325309991836548, 

    -0.06849414110183716, -0.0005556135438382626, 
    0.062077898532152176, 0.04922106862068176, 

    0.062073346227407455, -0.07785431295633316, 
    -0.15557119250297546, -0.05187110975384712, 

    -0.10194464027881622, 0.1286756992340088, 
    -0.38549819588661194, -0.10251149535179138, 

    -0.07162291556596756, -0.007068889681249857, 
    -0.09117992222309113, 0.046031732112169266, 

        };
        static filter_t filter13 = {32, 2, weights13, 0.04743792116641998};
        filters[13]=filter13;
            
        static const float weights14[]={ 
    0.10621986538171768, 0.050828736275434494, 
    0.07969292998313904, -0.4034750461578369, 

    0.13707345724105835, 0.07506992667913437, 
    -0.6006903052330017, -0.009356520138680935, 

    -0.02275559864938259, 0.07357996702194214, 
    0.20054084062576294, 0.20053383708000183, 

    0.14981402456760406, 0.1389537900686264, 
    -0.2516109347343445, -0.22826063632965088, 

    0.15554244816303253, -0.04005424678325653, 
    -0.08484087884426117, 0.07305939495563507, 

    -0.03867524117231369, 0.039947692304849625, 
    -0.15099497139453888, 0.011250436305999756, 

    -0.06008848547935486, -0.09056392312049866, 
    -0.1029057502746582, -0.05540695786476135, 

    -0.30495524406433105, -0.025477474555373192, 
    0.27379122376441956, 0.005713743157684803, 

    0.05193997174501419, 0.12254879623651505, 
    -0.05637521296739578, 0.15528233349323273, 

    -0.056097857654094696, 0.04773365706205368, 
    -0.049924708902835846, 0.13119478523731232, 

    -0.03346008434891701, 0.1423739492893219, 
    -0.03988161310553551, 0.01513614784926176, 

    0.09946539252996445, 0.13494768738746643, 
    -0.02243807539343834, 0.30802249908447266, 

    0.11369536817073822, 0.07626412808895111, 
    0.35434284806251526, 0.3824588358402252, 

    0.0005385155091062188, 0.019479647278785706, 
    -0.21607662737369537, -0.326219767332077, 

    0.12926162779331207, -0.010044551454484463, 
    -0.3339245915412903, 0.004409428220242262, 

    0.05733291432261467, -0.019549498334527016, 
    -0.006345932837575674, 0.053524795919656754, 

    -0.0941305011510849, -0.20502670109272003, 
    0.2017117142677307, -0.36267369985580444, 

    -0.3610699474811554, -0.112923264503479, 
    0.042680151760578156, -0.07353545725345612, 

    -0.07297950237989426, -0.10985339432954788, 
    -0.031677015125751495, -0.05854544788599014, 

    0.09253159165382385, 0.046415384858846664, 
    0.0744967982172966, -0.10250085592269897, 

    0.2238311916589737, -0.0009702293900772929, 
    -0.5652929544448853, 0.16768354177474976, 

    -0.05048391968011856, 0.12748166918754578, 
    -0.12174549698829651, 0.03861454129219055, 

    -0.22162500023841858, 0.1087932214140892, 
    0.3966020345687866, 0.14203007519245148, 

    0.12397928535938263, -0.10970695316791534, 
    -0.24568164348602295, 0.024918556213378906, 

    -0.10761673003435135, -0.00023819043417461216, 
    0.030221013352274895, 0.24411509931087494, 

    0.14199066162109375, -0.028968283906579018, 
    -0.44241446256637573, -0.192283496260643, 

    -0.00348373269662261, -0.007720916531980038, 
    0.11800636351108551, -0.015194134786725044, 

    0.08215514570474625, 0.04861686751246452, 
    0.2393103986978531, -0.021005474030971527, 

    -0.07696612924337387, 0.05855672061443329, 
    -0.07550138235092163, 0.09515015780925751, 

    0.010172335430979729, 0.03099950961768627, 
    0.21313098073005676, 0.23002299666404724, 

    -0.14760112762451172, -0.0531344972550869, 
    -0.13476867973804474, -0.06050433963537216, 

    -0.005610459018498659, 0.05970524623990059, 
    6.420820136554539e-05, 0.19946198165416718, 

        };
        static filter_t filter14 = {32, 2, weights14, 0.23061102628707886};
        filters[14]=filter14;
            
        static const float weights15[]={ 
    0.06318757683038712, 0.06208013743162155, 
    0.004886952694505453, -0.003552269423380494, 

    -0.06772048026323318, 0.07164699584245682, 
    0.1082293912768364, 0.44072261452674866, 

    0.017912164330482483, 0.19857843220233917, 
    -0.30574941635131836, 0.24694348871707916, 

    0.02437751181423664, 0.01111705880612135, 
    -0.005678275134414434, -0.0013707515317946672, 

    0.08922474086284637, -0.02707737311720848, 
    -0.3114875853061676, -0.10549178719520569, 

    -0.09890736639499664, 0.0674712136387825, 
    0.18454889953136444, 0.2115306705236435, 

    0.06087404489517212, -0.12391585111618042, 
    0.06077489256858826, -0.11332792043685913, 

    0.12910257279872894, -0.028394997119903564, 
    0.4245477616786957, -0.04556891322135925, 

    0.025847461074590683, -0.08999623358249664, 
    -0.4422478973865509, -0.14898681640625, 

    0.10607655346393585, -0.05722925066947937, 
    -0.002788964891806245, -0.22606481611728668, 

    -0.06361522525548935, -0.01649336889386177, 
    -0.13671347498893738, -0.04800071939826012, 

    -0.050852660089731216, -0.11584244668483734, 
    -0.03466502204537392, 0.11219223588705063, 

    0.010720846243202686, 0.09340434521436691, 
    0.3223862648010254, -0.1110328733921051, 

    -0.20989692211151123, 0.00310549046844244, 
    0.26194992661476135, 0.16404248774051666, 

    -0.12272386252880096, -0.08857937902212143, 
    0.026339206844568253, 0.031740084290504456, 

    -0.26999926567077637, 0.09206432849168777, 
    -0.1271643489599228, 0.00984977837651968, 

    0.014273807406425476, 0.4229636788368225, 
    0.01093344297260046, -0.20191612839698792, 

    -0.08708886057138443, -0.0431818887591362, 
    0.01477731578052044, -0.048152875155210495, 

    -0.11089402437210083, 0.13733252882957458, 
    -0.3231515884399414, -0.12191364914178848, 

    -0.0699935331940651, -0.10335712134838104, 
    -0.33874067664146423, -0.062069546431303024, 

    -0.04696926102042198, 0.14241792261600494, 
    -0.10206495970487595, 0.24953684210777283, 

    0.08733392506837845, -0.07128982990980148, 
    -0.2987125515937805, -0.07725822925567627, 

    -0.0790514275431633, 0.07360915839672089, 
    -0.03681444749236107, 0.23518162965774536, 

    -0.5134680867195129, -0.1759926974773407, 
    0.2949962317943573, 0.283265084028244, 

    0.1356007158756256, 0.035156432539224625, 
    -0.11981972306966782, -0.30614322423934937, 

    -0.1744977980852127, -0.1501544713973999, 
    0.1545407772064209, 0.17705634236335754, 

    -0.028501473367214203, 0.06442445516586304, 
    -0.021817248314619064, 0.2070770412683487, 

    0.05722447484731674, 0.06274894624948502, 
    -0.21653899550437927, 0.09306509792804718, 

    0.08940531313419342, 0.06400424242019653, 
    -0.08662720769643784, -0.07669304311275482, 

    -0.042332932353019714, 0.06571979820728302, 
    0.1887117326259613, -0.4521815776824951, 

    0.1124449372291565, 0.007963929325342178, 
    -0.025744382292032242, 0.0006272948812693357, 

    0.06553179025650024, 0.05159107595682144, 
    0.20694772899150848, -0.09074310213327408, 

        };
        static filter_t filter15 = {32, 2, weights15, 0.1495634764432907};
        filters[15]=filter15;
            
        static const float weights16[]={ 
    0.008592265658080578, -0.007373686879873276, 
    0.27561190724372864, 0.22613650560379028, 

    -0.058477066457271576, -0.1044914573431015, 
    0.33072179555892944, -0.1253654807806015, 

    0.240306556224823, 0.27117857336997986, 
    0.07142708450555801, -0.02146345004439354, 

    0.06097095087170601, 0.12487465143203735, 
    -0.00035811489215120673, 0.07732655107975006, 

    0.147248774766922, -0.04427188262343407, 
    0.11568711698055267, -0.1792626827955246, 

    -0.01981183886528015, 0.007779925595968962, 
    0.2647203505039215, 0.03583572432398796, 

    -0.019845664501190186, -0.10875484347343445, 
    0.009066641330718994, -0.11247944831848145, 

    0.3601798117160797, -0.1720200479030609, 
    -0.1416986733675003, -0.3038349151611328, 

    -0.1948251575231552, 0.07297997176647186, 
    -0.09787224978208542, 0.1666683405637741, 

    -0.11311229318380356, 0.09225877374410629, 
    -0.0901385173201561, -0.025823727250099182, 

    -0.17970064282417297, 0.16946926712989807, 
    -0.098322294652462, 0.1235755905508995, 

    -0.08595973253250122, -0.12366478145122528, 
    -0.15653470158576965, 0.21672645211219788, 

    0.267456591129303, 0.020820042118430138, 
    0.010237200185656548, -0.166371151804924, 

    0.002241464564576745, -0.19902651011943817, 
    0.3153510093688965, 0.07519493252038956, 

    -0.132578045129776, -0.1543925553560257, 
    0.2576724588871002, 0.02530219778418541, 

    0.04515587538480759, -0.07210511714220047, 
    -0.13342449069023132, 0.1609402745962143, 

    0.109194815158844, -0.09116388857364655, 
    0.14135421812534332, -0.6527166962623596, 

    0.027354445308446884, -0.23535211384296417, 
    0.09826597571372986, -0.24512559175491333, 

    0.08376715332269669, -0.0044446075335145, 
    0.07238703966140747, -0.2647044360637665, 

    -0.10250117629766464, -0.05269257724285126, 
    0.08207778632640839, 0.15233764052391052, 

    0.1833091378211975, -0.15534871816635132, 
    0.23579978942871094, 0.08891705423593521, 

    -0.03979676961898804, -0.10168949514627457, 
    -0.1414911299943924, 0.14748211205005646, 

    0.02056002803146839, 0.014193866401910782, 
    -0.06479046493768692, -0.44243067502975464, 

    0.7937215566635132, 0.21717523038387299, 
    0.23511353135108948, 0.21574212610721588, 

    -0.058672867715358734, 0.09257874637842178, 
    -0.022079532966017723, -0.09118165820837021, 

    0.029123323038220406, -0.04475541040301323, 
    0.29739734530448914, -0.12681229412555695, 

    -0.06279228627681732, 0.14352120459079742, 
    0.10634375363588333, 0.06430677324533463, 

    0.02232508547604084, 0.08673449605703354, 
    -0.014417512342333794, -0.006772504188120365, 

    -0.10393941402435303, 0.022223642095923424, 
    -0.10354632139205933, 0.1861240118741989, 

    0.10281026363372803, -0.06471683084964752, 
    0.0030109300278127193, -0.6443378329277039, 

    -0.052800536155700684, -0.08991862088441849, 
    0.11012841016054153, -0.06089261546730995, 

    -0.06627193093299866, -0.024871982634067535, 
    -0.10420310497283936, -0.3371376097202301, 

        };
        static filter_t filter16 = {32, 2, weights16, 0.10298558324575424};
        filters[16]=filter16;
            
        static const float weights17[]={ 
    0.03973272815346718, 0.14828193187713623, 
    0.08193904906511307, -0.03338960185647011, 

    0.0038786539807915688, 0.09257660806179047, 
    0.06083013489842415, -0.08166045695543289, 

    -0.13024528324604034, -0.02519858628511429, 
    -0.26843807101249695, 0.09790074825286865, 

    0.028322160243988037, 0.10855616629123688, 
    0.3212933838367462, 0.0837780311703682, 

    0.1779795140028, -0.04105301946401596, 
    -0.1282375603914261, -0.1123705580830574, 

    -0.026348238810896873, -0.03342391923069954, 
    -0.09197802096605301, 0.21975569427013397, 

    0.09635776281356812, -0.10535106062889099, 
    0.049623191356658936, 0.0574474036693573, 

    0.09079696238040924, 0.2023717612028122, 
    0.050187449902296066, -0.09591735154390335, 

    0.041920147836208344, -0.061846330761909485, 
    0.08026611059904099, -0.021466229110956192, 

    -0.04126381501555443, -0.1015731617808342, 
    0.0956643670797348, -0.11822652816772461, 

    0.008878232911229134, 0.046418894082307816, 
    -0.01738484762609005, -0.03209090232849121, 

    -0.036704547703266144, -0.27365314960479736, 
    0.045327428728342056, -0.04475673660635948, 

    -0.1674918234348297, -0.07768885046243668, 
    -0.024317242205142975, -0.30676570534706116, 

    0.1754833459854126, 0.12233541905879974, 
    0.08772005140781403, -0.022588638588786125, 

    -0.02685387060046196, -0.04344359040260315, 
    0.07321545481681824, 0.1891995370388031, 

    -0.09421297907829285, -0.045038897544145584, 
    -0.08259491622447968, -0.11784408241510391, 

    0.10284613072872162, -0.07412885129451752, 
    0.021472575142979622, -0.05563469976186752, 

    0.06160673871636391, -0.18783321976661682, 
    0.07234180718660355, -0.13876664638519287, 

    0.12442664057016373, 0.00024833742645569146, 
    -0.44935888051986694, -0.16021668910980225, 

    -0.005294409114867449, -0.0726446807384491, 
    -0.3919532001018524, 0.0018341452814638615, 

    0.23538272082805634, -0.005442338529974222, 
    -0.42571598291397095, 0.1436997503042221, 

    0.10332075506448746, 0.12902335822582245, 
    0.16786880791187286, 0.036760516464710236, 

    0.07731844484806061, 0.009141731075942516, 
    0.13875079154968262, -0.1403845101594925, 

    -0.30343544483184814, 0.2802242338657379, 
    -0.4157538414001465, -0.058759868144989014, 

    -0.15346552431583405, -0.009624776430428028, 
    -0.04907834902405739, -0.06772343814373016, 

    0.2595829367637634, 0.10521839559078217, 
    0.11057034879922867, 0.19987055659294128, 

    0.009743056260049343, -0.02658720500767231, 
    0.0026486897841095924, 0.18204259872436523, 

    0.05314932391047478, -0.09917417913675308, 
    -0.10478059947490692, -0.09621784090995789, 

    0.06507138162851334, 0.0006291427998803556, 
    0.12142244726419449, 0.12165208160877228, 

    -0.041482165455818176, -0.06305239349603653, 
    -0.06657343357801437, -0.23083390295505524, 

    -0.022899258881807327, -0.2258007526397705, 
    -0.0629517212510109, -0.012231477536261082, 

    0.09583164751529694, -0.11070685088634491, 
    0.09875595569610596, -0.13397367298603058, 

        };
        static filter_t filter17 = {32, 2, weights17, 0.08596931397914886};
        filters[17]=filter17;
            
        static const float weights18[]={ 
    0.0765027403831482, 0.2154376357793808, 
    0.15870541334152222, 0.1347486972808838, 

    0.01336595881730318, 0.13082383573055267, 
    -0.12272094935178757, -0.14833742380142212, 

    0.025054939091205597, -0.026766465976834297, 
    -0.04396526888012886, 0.12307213991880417, 

    -0.1471063643693924, -0.08586899191141129, 
    0.01980818808078766, 0.06590702384710312, 

    0.03954645246267319, 0.05449425056576729, 
    0.35545921325683594, 0.018724320456385612, 

    -0.07287939637899399, 0.061365414410829544, 
    0.07165268063545227, 0.10825984179973602, 

    -0.11744537949562073, 0.11765357851982117, 
    -0.0086517333984375, -0.07845848798751831, 

    -0.1261717826128006, -0.17252977192401886, 
    -0.23775166273117065, -0.059258293360471725, 

    -0.22321423888206482, -0.15702293813228607, 
    0.07883383333683014, -0.0064068385399878025, 

    0.037943340837955475, -0.00804132129997015, 
    -0.181411013007164, 0.04862055554986, 

    0.01748320460319519, -0.14749237895011902, 
    0.12674875557422638, 0.17095737159252167, 

    -0.0884646624326706, -0.061701126396656036, 
    -0.9105778336524963, 0.09139073640108109, 

    0.19576160609722137, 0.0969531461596489, 
    0.1005222499370575, -0.008000479079782963, 

    0.12004213780164719, -0.033961135894060135, 
    0.19531303644180298, 0.015064330771565437, 

    -0.07899588346481323, -0.06266260892152786, 
    -0.01936323195695877, 0.17618706822395325, 

    -0.25281602144241333, 0.007683286909013987, 
    0.10700365155935287, 0.08804339915513992, 

    -0.21807777881622314, 0.15244431793689728, 
    -0.09585410356521606, -0.10523193329572678, 

    -0.1110989972949028, -0.08984215557575226, 
    -0.3480952978134155, -0.12538622319698334, 

    -0.08619339764118195, -0.07280471175909042, 
    0.18820597231388092, -0.053940992802381516, 

    0.14543014764785767, 0.018071036785840988, 
    -0.1608891487121582, 0.04265943169593811, 

    0.02224784716963768, -0.027493808418512344, 
    0.1649184674024582, 0.1202796995639801, 

    -0.5222548842430115, 0.05267687141895294, 
    0.1204681545495987, 0.07789228856563568, 

    0.07733193039894104, -0.00012837925169151276, 
    -0.37807345390319824, -0.29850125312805176, 

    -0.139600470662117, -0.026418371126055717, 
    0.07694391906261444, -0.0729975476861, 

    -0.20062804222106934, -0.15424902737140656, 
    -0.00673521775752306, -0.11147429794073105, 

    0.19823746383190155, 0.07421286404132843, 
    -0.18967317044734955, 0.008057878352701664, 

    -0.02198837697505951, 0.16463671624660492, 
    -0.13277070224285126, -0.0358087420463562, 

    0.08286276459693909, -0.14752674102783203, 
    -0.05457337945699692, 0.037595175206661224, 

    -0.08193204551935196, -0.03203233331441879, 
    0.11886280030012131, 0.0583280511200428, 

    -0.03079456463456154, 0.015809331089258194, 
    0.0235428623855114, -0.073293536901474, 

    -0.04620218649506569, -0.14879365265369415, 
    -0.020840710029006004, -0.03544975072145462, 

    0.10226329416036606, -0.03924018517136574, 
    -0.027097834274172783, -0.23634475469589233, 

        };
        static filter_t filter18 = {32, 2, weights18, 0.15764982998371124};
        filters[18]=filter18;
            
        static const float weights19[]={ 
    0.1493312269449234, -0.23710116744041443, 
    0.07142236828804016, -0.04992792010307312, 

    0.024247199296951294, -0.12087088078260422, 
    0.056451644748449326, -0.019731340929865837, 

    0.23519673943519592, 0.20425325632095337, 
    -0.0985596776008606, -0.041200991719961166, 

    0.12753118574619293, 0.12926249206066132, 
    0.1322709172964096, 0.1552443504333496, 

    0.15071603655815125, 0.12535512447357178, 
    -0.1276387870311737, 0.1503753364086151, 

    0.06432651728391647, -0.20308420062065125, 
    0.13891732692718506, 0.048245448619127274, 

    0.08557644486427307, -0.1154102087020874, 
    -0.08113199472427368, -0.05107247829437256, 

    -0.15859882533550262, -0.03450971841812134, 
    -0.04907927289605141, -0.3090609014034271, 

    0.08977455645799637, 0.17887082695960999, 
    0.12655699253082275, 0.16162070631980896, 

    0.013963225297629833, 0.053898707032203674, 
    0.06648807227611542, 0.022606374695897102, 

    0.01804238371551037, 0.16903267800807953, 
    0.07987906783819199, 0.15561260282993317, 

    -0.38846898078918457, 0.0019253825303167105, 
    -0.03727428987622261, -0.1539669781923294, 

    -0.1865333467721939, 0.0002649733214639127, 
    0.04153984785079956, -0.29355916380882263, 

    0.12181176990270615, -0.17500336468219757, 
    0.17811772227287292, 0.07109957188367844, 

    -0.08755601942539215, -0.3084993362426758, 
    -0.06168567016720772, -0.1426527500152588, 

    0.18397067487239838, -0.027876684442162514, 
    -0.07911624759435654, -0.047788240015506744, 

    -0.04451408237218857, -0.08462952822446823, 
    -0.09145231544971466, 0.09527497738599777, 

    -0.14864550530910492, -0.13569632172584534, 
    0.17724110186100006, 0.08476875722408295, 

    -0.1113634929060936, 0.0909833163022995, 
    0.028453214094042778, 0.07223071902990341, 

    -0.05445464700460434, -0.06412529945373535, 
    -0.2371571958065033, -0.2058573067188263, 

    0.12283225357532501, 0.054810576140880585, 
    0.11350119858980179, -0.0424070879817009, 

    0.19987542927265167, 0.16710282862186432, 
    0.11645888537168503, 0.03661186993122101, 

    -0.09576109796762466, -0.01720799319446087, 
    -0.07149891555309296, -0.3539687693119049, 

    0.07716880738735199, 0.11263717710971832, 
    -0.16728079319000244, 0.08662837743759155, 

    0.09958896040916443, 0.018523845821619034, 
    -0.10769151151180267, 0.000268088944721967, 

    -0.22680269181728363, -0.32642439007759094, 
    -0.054964542388916016, -0.15827010571956635, 

    -0.00708797387778759, -0.20071378350257874, 
    0.07221774756908417, -0.07514814287424088, 

    0.011425568722188473, -0.08555163443088531, 
    0.021012598648667336, -0.019132599234580994, 

    0.17628134787082672, 0.06061786413192749, 
    0.26618728041648865, 0.16502529382705688, 

    0.049346331506967545, -0.03640873730182648, 
    0.0986015573143959, -0.3032456636428833, 

    0.13052158057689667, 0.033695071935653687, 
    0.11648987978696823, 0.21173708140850067, 

    0.07936786860227585, 0.0013146717101335526, 
    0.09802214801311493, -0.07053714245557785, 

        };
        static filter_t filter19 = {32, 2, weights19, 0.17813056707382202};
        filters[19]=filter19;
            
        static const float weights20[]={ 
    -0.020726922899484634, 0.06452532112598419, 
    0.11543700098991394, 0.16694402694702148, 

    -0.07240301370620728, 0.12580302357673645, 
    -0.16853755712509155, 0.15472257137298584, 

    -0.20228075981140137, -0.19053852558135986, 
    -0.25002193450927734, -0.1380787044763565, 

    -0.1304750293493271, -0.12957197427749634, 
    0.20331688225269318, -0.06989781558513641, 

    -0.12233246862888336, 0.007428940385580063, 
    0.14164286851882935, 0.1034129410982132, 

    0.02601967379450798, 0.17186343669891357, 
    -0.198428675532341, 0.16670966148376465, 

    -0.0302676260471344, -0.04414862394332886, 
    -0.042331963777542114, 0.07318177819252014, 

    -0.3066036105155945, 0.09064122289419174, 
    -0.20607279241085052, -0.10761544108390808, 

    0.0989001989364624, 0.06826099008321762, 
    0.045140255242586136, 0.15448406338691711, 

    -0.05025892332196236, 0.029249446466565132, 
    0.07123386859893799, -0.012904265895485878, 

    -0.09138435870409012, 0.117322638630867, 
    0.06216900050640106, -0.027790525928139687, 

    0.17385350167751312, -0.21467962861061096, 
    -0.039253510534763336, 0.07955651730298996, 

    0.0732371062040329, 0.1203593909740448, 
    0.06079888716340065, -0.15109506249427795, 

    -0.10031047463417053, 0.06925667822360992, 
    -0.15719357132911682, 0.09576821327209473, 

    -0.0037585070822387934, -0.028082096949219704, 
    -0.05498397350311279, -0.09035895764827728, 

    0.0006375141092576087, -0.09308812022209167, 
    0.08347529917955399, 0.001727023278363049, 

    -0.03037881664931774, 0.2887766361236572, 
    -0.08319447934627533, 0.004379807040095329, 

    -0.3136346936225891, 0.09811990708112717, 
    0.00969340093433857, -0.009957843460142612, 

    -0.06289202719926834, 0.19300515949726105, 
    0.06271941214799881, 0.14449052512645721, 

    -0.12399562448263168, 0.12235257774591446, 
    -0.13316428661346436, -0.024111432954669, 

    0.29459986090660095, 0.2416602075099945, 
    -0.29273542761802673, -0.13845419883728027, 

    -0.05193882808089256, -0.08733084797859192, 
    0.15325427055358887, 0.006659235339611769, 

    -0.23531734943389893, -0.08502495288848877, 
    0.0314638614654541, 0.06801117956638336, 

    -0.18744122982025146, 0.01832013763487339, 
    -0.0899936631321907, 0.048083920031785965, 

    -0.037538450211286545, -0.13346824049949646, 
    -0.08993638306856155, -0.0035924753174185753, 

    -0.11167014390230179, 0.3453114926815033, 
    -0.10503455251455307, 0.12223780155181885, 

    0.03265896812081337, 0.10627760738134384, 
    -0.030932024121284485, 0.24737943708896637, 

    0.08825754374265671, -0.21428623795509338, 
    -0.23842717707157135, -0.2450389713048935, 

    -0.03012813813984394, 0.020334862172603607, 
    0.140536367893219, -0.060040708631277084, 

    -0.20682135224342346, 0.007860247045755386, 
    -0.06975232809782028, 0.09236583858728409, 

    -0.10545922815799713, 0.08616483956575394, 
    0.05835704877972603, -0.07952237129211426, 

    -0.12165778130292892, 0.09304744005203247, 
    0.15417709946632385, -0.07942719757556915, 

        };
        static filter_t filter20 = {32, 2, weights20, 0.13751861453056335};
        filters[20]=filter20;
            
        static const float weights21[]={ 
    0.27639341354370117, 0.06565406173467636, 
    0.020594272762537003, 0.003671817947179079, 

    0.3035859167575836, 0.11001547425985336, 
    0.05576176568865776, -0.3226454257965088, 

    -0.07681643962860107, 0.044198572635650635, 
    0.1751682609319687, -0.17069104313850403, 

    -0.04093033820390701, 0.06970670074224472, 
    0.062268659472465515, 0.0443182997405529, 

    0.038611676543951035, 0.2702133059501648, 
    0.04048099368810654, 0.08804836124181747, 

    0.20735576748847961, 0.0673413872718811, 
    0.05228888988494873, -0.21247698366641998, 

    0.10066735744476318, -0.04243561625480652, 
    0.04396665096282959, -0.09714266657829285, 

    -0.052451979368925095, -0.8589781522750854, 
    -0.33007892966270447, -0.26118162274360657, 

    -0.15484721958637238, 0.04688064381480217, 
    -0.03187181055545807, 0.08551620692014694, 

    -0.05672609433531761, -0.16281920671463013, 
    -0.00031825865153223276, -0.03659224137663841, 

    -0.1722472906112671, 0.1497924029827118, 
    0.012567487545311451, 0.09511268883943558, 

    -0.31328651309013367, 0.039140958338975906, 
    -0.15985192358493805, 0.0669984370470047, 

    -0.0056479377672076225, -0.3263688087463379, 
    -0.009847131557762623, 0.02804054133594036, 

    0.5508617758750916, 0.1126818135380745, 
    0.22945855557918549, -0.2380014955997467, 

    0.26428768038749695, 0.06839682161808014, 
    -0.18127545714378357, -0.21723364293575287, 

    -0.2989717721939087, 0.29826855659484863, 
    0.10853935033082962, 0.01228155754506588, 

    5.311281711328775e-05, -0.4738737940788269, 
    -0.16289743781089783, -0.29633745551109314, 

    0.06215894594788551, -0.7538596987724304, 
    -0.23689554631710052, -0.7505420446395874, 

    -0.05212567746639252, 0.32853075861930847, 
    -0.020331190899014473, -0.06442062556743622, 

    -0.030118610709905624, 0.020305054262280464, 
    0.02468619868159294, -0.006733742542564869, 

    0.14609701931476593, 0.23183248937129974, 
    -0.17889755964279175, -0.13638192415237427, 

    -0.12966956198215485, 0.08322767168283463, 
    0.00200699083507061, -0.0600031279027462, 

    -0.2505577802658081, -0.3742595613002777, 
    0.028234384953975677, -0.17897580564022064, 

    0.05817857384681702, 0.1133006289601326, 
    0.15875744819641113, -0.1370072215795517, 

    0.09005428850650787, -0.16834589838981628, 
    0.07204645872116089, -0.02366410382091999, 

    0.5247743725776672, -0.006411417853087187, 
    0.0010537864873185754, -0.3880559802055359, 

    0.027601171284914017, 0.036960750818252563, 
    -0.10970769077539444, -0.03283314034342766, 

    0.13988275825977325, 0.05892987549304962, 
    -0.0578695610165596, 0.012832239270210266, 

    -0.009180334396660328, -0.04450099542737007, 
    -0.07596775889396667, 0.06048548221588135, 

    -0.13664986193180084, -0.39061886072158813, 
    0.051767073571681976, 0.13784581422805786, 

    -0.05725941061973572, -0.12309069186449051, 
    -0.021427487954497337, -0.035558439791202545, 

    0.055607300251722336, -0.07840796560049057, 
    0.02101059816777706, -0.06457307189702988, 

        };
        static filter_t filter21 = {32, 2, weights21, 0.30701011419296265};
        filters[21]=filter21;
            
        static const float weights22[]={ 
    -0.07997714728116989, -0.1956871747970581, 
    0.04430700093507767, -0.026760371401906013, 

    0.08479829132556915, -0.04809537157416344, 
    0.055098578333854675, 0.05730142816901207, 

    0.02456791140139103, -0.10195966064929962, 
    0.1326064169406891, 0.20005729794502258, 

    -0.3011218309402466, -0.225529283285141, 
    -0.21184135973453522, -0.1128266453742981, 

    0.007664592005312443, -0.12954972684383392, 
    0.007394520100206137, -0.16968756914138794, 

    0.008493275381624699, -0.08070620149374008, 
    -0.13091342151165009, 0.12352576106786728, 

    -0.05510193109512329, 0.04243379831314087, 
    -0.051546305418014526, -0.04469329118728638, 

    -0.03303265944123268, 0.08403784036636353, 
    0.022780075669288635, -0.23591238260269165, 

    0.06975626200437546, 0.08512450009584427, 
    -0.20260895788669586, -0.09512704610824585, 

    -0.032884810119867325, 0.02753358893096447, 
    -0.502008318901062, -0.30370834469795227, 

    0.04535437747836113, -0.09678133577108383, 
    -0.2639278173446655, -0.09039326757192612, 

    0.08510365337133408, 0.057724710553884506, 
    -0.002679619239643216, -0.04226690158247948, 

    -0.06185713782906532, 0.02912745624780655, 
    0.17237621545791626, 0.15318328142166138, 

    0.14649698138237, -0.12164303660392761, 
    0.11708027869462967, 0.23620977997779846, 

    0.05822104215621948, 0.07753289490938187, 
    -0.09488911181688309, 0.02582685463130474, 

    0.004688308108597994, 0.01048191636800766, 
    -0.013207798823714256, 0.017023243010044098, 

    -0.04703851044178009, 0.16408778727054596, 
    0.20192284882068634, 0.2560734450817108, 

    0.1403275430202484, 0.00023464509285986423, 
    0.1744481772184372, 0.17702792584896088, 

    0.07128807157278061, -0.004374592565000057, 
    -0.06995981931686401, -0.2154015600681305, 

    -0.08693217486143112, -0.06817423552274704, 
    0.027314839884638786, -0.01297998521476984, 

    0.22111715376377106, 0.27049416303634644, 
    0.129344642162323, 0.2866791784763336, 

    0.03933174908161163, 0.06798472255468369, 
    -0.3795446455478668, -0.06445161998271942, 

    -0.03265240043401718, 0.04986891523003578, 
    0.20131514966487885, 0.11728012561798096, 

    0.1889156699180603, -0.02162724733352661, 
    0.37433576583862305, 0.14369326829910278, 

    0.10591107606887817, 0.08502460271120071, 
    -0.20367802679538727, -0.588045597076416, 

    0.35111549496650696, -0.11830906569957733, 
    0.03398776799440384, 0.13258439302444458, 

    -0.08705852925777435, 0.12644846737384796, 
    -0.09794986993074417, 0.20500056445598602, 

    -0.04177650064229965, 0.085832878947258, 
    0.18163040280342102, -0.0236209686845541, 

    0.009000063873827457, -0.02149742841720581, 
    -0.34146496653556824, -0.018414586782455444, 

    -0.08639541268348694, 0.05898769199848175, 
    -0.14802536368370056, -0.019319426268339157, 

    -0.08140715956687927, -0.02488371916115284, 
    -0.5670912861824036, 0.06139613315463066, 

    -0.008736860938370228, -0.10555901378393173, 
    -0.22932161390781403, -0.11396801471710205, 

        };
        static filter_t filter22 = {32, 2, weights22, -0.012169595807790756};
        filters[22]=filter22;
            
        static const float weights23[]={ 
    0.04249463230371475, -0.1595301777124405, 
    0.19873912632465363, 0.0018609827384352684, 

    0.0067596216686069965, -0.5969221591949463, 
    0.4899209439754486, 0.0751187801361084, 

    0.08604944497346878, 0.3970670998096466, 
    -0.045203112065792084, -0.1521303951740265, 

    -0.19470623135566711, -0.05056728795170784, 
    0.053759776055812836, 0.01368479523807764, 

    0.13163037598133087, -0.08375997096300125, 
    0.169729545712471, -0.010114157572388649, 

    0.08747842907905579, -0.17603400349617004, 
    0.06490657478570938, -0.1254119873046875, 

    -0.06329238414764404, 0.09121045470237732, 
    -0.00824737548828125, -0.12057438492774963, 

    0.15734271705150604, 0.1336335390806198, 
    -0.12431599199771881, 0.07941431552171707, 

    -0.5112519264221191, 0.007350154221057892, 
    0.1161578893661499, 0.03144228085875511, 

    -0.024315206333994865, 0.06436764448881149, 
    -0.021481197327375412, -0.09734487533569336, 

    -0.5886508822441101, -0.04497075080871582, 
    0.009366050362586975, 0.058275748044252396, 

    0.10863737016916275, 0.08261789381504059, 
    -0.08688347786664963, 0.2733815014362335, 

    0.12001621723175049, -0.07157517969608307, 
    -0.17305190861225128, -0.15885566174983978, 

    0.19188493490219116, -0.13184674084186554, 
    0.3133128583431244, 0.13351483643054962, 

    0.010225431993603706, -0.0831231027841568, 
    0.2325010448694229, 0.18008695542812347, 

    -0.4128054678440094, -0.11445526778697968, 
    0.12149880826473236, 0.16679680347442627, 

    0.2956658601760864, -0.17028836905956268, 
    0.019164124503731728, -0.1762780100107193, 

    0.1194080114364624, -0.2593362629413605, 
    0.12239263951778412, 0.16983631253242493, 

    0.036624617874622345, -0.00021713873138651252, 
    0.00285483174957335, 0.03337828069925308, 

    -0.5872052311897278, 0.060848820954561234, 
    -0.042259130626916885, 0.05497337132692337, 

    -0.1586238592863083, -0.41210460662841797, 
    0.2870732247829437, 0.25419530272483826, 

    -0.3484807312488556, 0.007957828231155872, 
    0.14419499039649963, -0.03210165724158287, 

    0.07736101001501083, -0.06805621832609177, 
    0.06989555060863495, 0.04091053083539009, 

    0.16629652678966522, 0.23198962211608887, 
    0.5325875282287598, 0.0016246119048446417, 

    -0.06040726974606514, 0.012854835018515587, 
    -0.06320111453533173, 0.06242072582244873, 

    -0.14975035190582275, -0.27005600929260254, 
    0.4503001570701599, 0.050884850323200226, 

    0.13076089322566986, -0.024963557720184326, 
    -0.13755570352077484, -0.17588584125041962, 

    -0.11043553054332733, 0.014969713054597378, 
    -0.16523213684558868, -0.03874392807483673, 

    -0.29665490984916687, -0.08874679356813431, 
    -0.06399525701999664, 0.06754573434591293, 

    0.11912328749895096, -0.15300649404525757, 
    -0.27668169140815735, -0.15987536311149597, 

    -0.07062555104494095, 0.09813790768384933, 
    -0.14446726441383362, -0.10472837090492249, 

    0.10229647904634476, -0.14722084999084473, 
    -0.1731613427400589, -0.15127141773700714, 

        };
        static filter_t filter23 = {32, 2, weights23, -0.044082801789045334};
        filters[23]=filter23;
            
        static const float weights24[]={ 
    0.12202479690313339, 0.21401198208332062, 
    0.04719744995236397, 0.11842258274555206, 

    0.16215986013412476, 0.37511226534843445, 
    0.20399032533168793, -0.2702237367630005, 

    -0.15409934520721436, 0.0030016095843166113, 
    0.009320475161075592, -0.06694000214338303, 

    0.08540086448192596, -0.03076605126261711, 
    -0.05248551815748215, 0.16698825359344482, 

    -0.22475022077560425, -0.16725176572799683, 
    0.051048167049884796, -0.01384134590625763, 

    -0.07345390319824219, 0.1773832142353058, 
    0.1765926033258438, -0.21103791892528534, 

    -0.05682536959648132, 0.019089818000793457, 
    0.1156001091003418, 0.04184222221374512, 

    0.05491265654563904, -0.008776129223406315, 
    -0.06035086140036583, 0.20078513026237488, 

    0.09922455251216888, 0.019493304193019867, 
    0.07687937468290329, -0.008124972693622112, 

    0.0782327950000763, -0.07797028869390488, 
    -0.04227215051651001, 0.1019619032740593, 

    0.060491714626550674, 0.07826172560453415, 
    -0.04561993107199669, -0.09701217710971832, 

    -0.03481626138091087, 0.02834632806479931, 
    0.10014910995960236, 0.19579951465129852, 

    0.150938481092453, 0.06241847202181816, 
    -0.035050321370363235, -0.009328348562121391, 

    0.09978533536195755, 0.2602393925189972, 
    0.19069664180278778, -0.279286652803421, 

    0.07240571081638336, 0.23843780159950256, 
    0.10483691096305847, -0.06179140880703926, 

    -0.3154824376106262, -0.10891584306955338, 
    -0.030939923599362373, 0.07095647603273392, 

    0.27254828810691833, 0.04181018844246864, 
    -0.10740917921066284, -0.1567617952823639, 

    0.1215180829167366, -0.19764067232608795, 
    -0.23722371459007263, 0.0257608313113451, 

    -0.22762958705425262, -0.05485399067401886, 
    -0.3164658844470978, -0.2238301783800125, 

    0.06588491797447205, -0.020407453179359436, 
    0.01193932257592678, -0.0869983360171318, 

    -0.5892680883407593, 0.4597659409046173, 
    -0.025303464382886887, -0.014686083421111107, 

    -0.11229924857616425, -0.08928311616182327, 
    0.05820312723517418, -0.04604727774858475, 

    -0.11956670135259628, 0.16903181374073029, 
    0.12233054637908936, -0.14758062362670898, 

    -0.5700609087944031, 0.2021273374557495, 
    -0.3619430661201477, -0.06311441957950592, 

    -0.22544531524181366, 0.06307505071163177, 
    -0.1691446453332901, -0.07923858612775803, 

    0.14297577738761902, 0.3759661018848419, 
    0.13453823328018188, -0.0002675609430298209, 

    0.0038473387248814106, 0.06885544955730438, 
    0.16115711629390717, -0.1369110345840454, 

    -0.0012438201811164618, -0.031541064381599426, 
    -0.16500937938690186, -0.05739528685808182, 

    -0.03577471151947975, 0.04868612810969353, 
    -0.14682993292808533, -0.009982973337173462, 

    0.09065239876508713, -0.08106279373168945, 
    0.030248939990997314, -0.08466193825006485, 

    0.09126054495573044, 0.063447967171669, 
    0.04108449071645737, -0.11932265758514404, 

    -0.11574311554431915, -0.05212405323982239, 
    -0.14901728928089142, 0.03931323066353798, 

        };
        static filter_t filter24 = {32, 2, weights24, 0.1031525507569313};
        filters[24]=filter24;
            
        static const float weights25[]={ 
    0.04522572457790375, 0.1387389451265335, 
    0.018638567999005318, 0.14083541929721832, 

    -0.09723483771085739, 0.09145355224609375, 
    0.361492395401001, 0.2636867165565491, 

    -0.05788054317235947, -0.02029971405863762, 
    -0.1225077286362648, -0.12633320689201355, 

    -0.06204275041818619, 0.05310659855604172, 
    0.009823929518461227, 0.14237931370735168, 

    -0.2019977867603302, -0.06962095946073532, 
    -0.09255392104387283, 0.08833923190832138, 

    -0.14552292227745056, 0.06954768300056458, 
    0.034460000693798065, 0.18934279680252075, 

    0.06637808680534363, -0.1246747076511383, 
    -0.04256272315979004, 0.1237337589263916, 

    0.20836205780506134, 0.0993323028087616, 
    -0.16279321908950806, -0.07527226954698563, 

    0.024955324828624725, -0.09898315370082855, 
    0.0721026062965393, -0.046804945915937424, 

    -0.07941266149282455, -0.18557430803775787, 
    0.017937706783413887, 0.10456386208534241, 

    0.07944991439580917, -0.03496003523468971, 
    -0.014008047990500927, 0.10429161787033081, 

    -0.07616372406482697, -0.21374276280403137, 
    0.08727381378412247, -0.2900278568267822, 

    -0.14716416597366333, 0.22388425469398499, 
    -0.36301252245903015, 0.001482345163822174, 

    0.0242502111941576, 0.13984952867031097, 
    -0.030661029741168022, 0.18644089996814728, 

    0.03434769809246063, 0.02396141178905964, 
    -0.017083892598748207, 0.18006259202957153, 

    -0.024775244295597076, -0.09023380279541016, 
    -0.18097545206546783, -0.011223379522562027, 

    -0.0073731704615056515, 0.3080897331237793, 
    0.09774437546730042, -0.010167805477976799, 

    0.06476020812988281, -0.01938684470951557, 
    0.07128036022186279, 0.1561213731765747, 

    -0.1253419667482376, -0.20088423788547516, 
    -0.4596934914588928, 0.030110985040664673, 

    -0.13941256701946259, 0.22820857167243958, 
    0.07017497718334198, -0.16864009201526642, 

    -0.4839819669723511, 0.0628274455666542, 
    -0.11705222725868225, 0.2544199526309967, 

    0.007790062110871077, 0.04463258385658264, 
    -0.06548388302326202, 0.010418578051030636, 

    -0.14617282152175903, 0.054876502603292465, 
    -0.46514245867729187, -0.067998006939888, 

    -0.33881494402885437, 0.24007754027843475, 
    0.3201116621494293, 0.05062299221754074, 

    -0.12463344633579254, -0.3052443861961365, 
    -0.014757092110812664, -0.09208828210830688, 

    -0.1958196759223938, 0.11521720141172409, 
    0.263566792011261, 0.3535498082637787, 

    -0.25192126631736755, 0.06124085932970047, 
    0.15099291503429413, -0.25889524817466736, 

    -0.07917860150337219, 0.10288067162036896, 
    -0.19638782739639282, -0.13138620555400848, 

    0.06878934055566788, -0.039425332099199295, 
    -0.014901429414749146, -0.04573561251163483, 

    -0.08009703457355499, 0.1291884481906891, 
    -0.20825791358947754, 0.11833381652832031, 

    0.01060466468334198, -0.07718650251626968, 
    0.05600440502166748, -0.11871492862701416, 

    0.009356457740068436, 0.003870012704282999, 
    0.013302245177328587, 0.18846003711223602, 

        };
        static filter_t filter25 = {32, 2, weights25, 0.26018428802490234};
        filters[25]=filter25;
            
        static const float weights26[]={ 
    0.10373859852552414, -0.05122428014874458, 
    -0.11362076550722122, 0.19533316791057587, 

    0.2033218890428543, -0.0027378613594919443, 
    -0.1333121806383133, 0.20983681082725525, 

    -0.06793979555368423, 0.020807066932320595, 
    0.1071300208568573, -0.12326483428478241, 

    -0.013766291551291943, -0.16438226401805878, 
    0.09799231588840485, 0.10836269706487656, 

    -0.019532261416316032, -0.06030719727277756, 
    0.03765907883644104, -0.08763138949871063, 

    0.0343102365732193, -0.10802341252565384, 
    0.04866041988134384, 0.13105708360671997, 

    -0.0705866813659668, 0.11198976635932922, 
    -0.04352051019668579, -0.067413330078125, 

    -0.06201362982392311, 0.016587724909186363, 
    -0.19982782006263733, -0.1696321815252304, 

    -0.09755944460630417, -0.024960804730653763, 
    0.1631649136543274, -0.12130475789308548, 

    0.03324770927429199, -0.026868270710110664, 
    0.1045897901058197, -0.006528300233185291, 

    0.04011249169707298, 0.12691819667816162, 
    0.17868418991565704, -0.15898431837558746, 

    0.024012943729758263, 0.028241492807865143, 
    -0.22006899118423462, -0.3001023828983307, 

    -0.04381117597222328, 0.11968862265348434, 
    -0.3164996802806854, -0.005685645155608654, 

    0.21728813648223877, 0.12590402364730835, 
    0.12484461069107056, 0.07735270261764526, 

    0.08892295509576797, -0.10320302098989487, 
    0.022108547389507294, 0.10555888712406158, 

    -0.05401235073804855, 0.13870856165885925, 
    0.10599108040332794, -0.2543908953666687, 

    0.13744767010211945, 0.23894146084785461, 
    -0.32390496134757996, -0.020517636090517044, 

    0.1060844138264656, 0.048424750566482544, 
    -0.07138033211231232, 0.05804480239748955, 

    -0.03763454779982567, -0.012330997735261917, 
    0.06348496675491333, 0.13505080342292786, 

    0.1331779807806015, -0.12268127501010895, 
    0.02642735466361046, -0.22896374762058258, 

    0.37104716897010803, -0.027956562116742134, 
    0.19158218801021576, 0.16610154509544373, 

    0.15400713682174683, 0.0025640411768108606, 
    -0.008158919401466846, 0.07829220592975616, 

    -0.0015278125647455454, -0.019966881722211838, 
    -0.7828325033187866, -0.11288296431303024, 

    0.17112794518470764, 0.24569760262966156, 
    -0.23658648133277893, -0.18942129611968994, 

    -0.08202093094587326, 0.10218200087547302, 
    -0.020591557025909424, -0.18542242050170898, 

    0.35634490847587585, 0.019422367215156555, 
    -0.05792877450585365, 0.34263288974761963, 

    0.07908305525779724, -0.13399021327495575, 
    -0.16003577411174774, 0.12540492415428162, 

    -0.013780844397842884, 0.1365078091621399, 
    -0.01839558035135269, -0.1636955440044403, 

    0.05247757211327553, -0.03324207291007042, 
    0.1320146769285202, 0.05892672762274742, 

    -0.06792014837265015, 0.017747225239872932, 
    0.00782043393701315, 0.05027522146701813, 

    -0.039275579154491425, -0.13199079036712646, 
    -0.050835274159908295, -0.02887585200369358, 

    -0.15050342679023743, 0.03142017871141434, 
    0.017470018938183784, -0.16366814076900482, 

        };
        static filter_t filter26 = {32, 2, weights26, -0.0757732167840004};
        filters[26]=filter26;
            
        static const float weights27[]={ 
    -0.15968094766139984, 0.22893670201301575, 
    -0.1483890414237976, 0.03096012957394123, 

    -0.23688052594661713, 0.07061611115932465, 
    0.07064520567655563, 0.24964934587478638, 

    -0.058834630995988846, 0.07713044434785843, 
    0.40382224321365356, -0.04979553073644638, 

    -0.14498893916606903, -0.04210272431373596, 
    -0.21079866588115692, 0.08002825826406479, 

    -0.32158175110816956, 0.01760687120258808, 
    -0.10275144129991531, -0.12211714684963226, 

