#include "flow10model.h"

// Prototipos inicialización
conv2d_layer_t init_conv2d_data(void);
conv2d_layer_t init_conv2d_1_data(void);
dense_layer_t init_dense_data(void);
dense_layer_t init_dense_1_data(void);


// Variables Globales
conv2d_layer_t conv2d_data;
conv2d_layer_t conv2d_1_data;
dense_layer_t dense_data;
dense_layer_t dense_1_data;


void model_init(){
    conv2d_data = init_conv2d_data();
    conv2d_1_data = init_conv2d_1_data();
    dense_data = init_dense_data();
    dense_1_data = init_dense_1_data();

}

void model_predict(data3d_t input, data1d_t * output){
  
    
    //*************** LAYER 0 **************//
    // Layer name: conv2d
    data3d_t output0;
        // convert image for first EmbedIA Conv2d layer
        image_adapt_layer(input, &output0);
        input = output0;
    
     conv2d_layer(conv2d_data, input, &output0);
    // Activation layer for conv2d
    relu_activation(output0.data, 1152);
    
    //*************** LAYER 1 **************//
    // Layer name: conv2d_1
    input = output0;
    conv2d_layer(conv2d_1_data, input, &output0);
    // Activation layer for conv2d_1
    relu_activation(output0.data, 1600);
    
    //*************** LAYER 2 **************//
    // Layer name: max_pooling2d
    input = output0;
    static const pooling2d_layer_t max_pooling2d_data = { 2, 2 };
    max_pooling2d_layer(max_pooling2d_data, input, &output0);
    
    //*************** LAYER 3 **************//
    // Layer name: flatten
    input = output0;
    data1d_t output1;
    flatten3d_layer(input, &output1);
    
    //*************** LAYER 4 **************//
    // Layer name: dense
    data1d_t input1;
    input1 = output1;
    dense_layer(dense_data, input1, &output1);
    
    // Activation layer for dense
    relu_activation(output1.data, 128);
    
    //*************** LAYER 5 **************//
    // Layer name: dense_1
    input1 = output1;
    dense_layer(dense_1_data, input1, &output1);
    
    // Activation layer for dense_1
    softmax_activation(output1.data, 11);
    

    *output = output1;

}

int model_predict_class(data3d_t input, data1d_t * results){
  
   
    model_predict(input, results);
    
    return argmax(*results);
    //return argmax(data1d_t);

}

// Implementación de funciones de inicialización



conv2d_layer_t init_conv2d_data(void){

        static filter_t filters[32];
        
        static const float weights0[]={ 
    -0.4881189465522766, 0.05697362869977951, 
    -1.588220477104187, 0.255189448595047, 

        };
        static filter_t filter0 = {1, 2, weights0, 0.5405321717262268};
        filters[0]=filter0;
            
        static const float weights1[]={ 
    0.13518519699573517, 0.026568489149212837, 
    -0.011179734021425247, 0.3956471085548401, 

        };
        static filter_t filter1 = {1, 2, weights1, 0.07515998184680939};
        filters[1]=filter1;
            
        static const float weights2[]={ 
    0.000803071481641382, -0.1677144467830658, 
    0.37040597200393677, -0.7250950336456299, 

        };
        static filter_t filter2 = {1, 2, weights2, 0.44574815034866333};
        filters[2]=filter2;
            
        static const float weights3[]={ 
    0.11401671171188354, -0.044913727790117264, 
    -0.0846315547823906, -4.064237594604492, 

        };
        static filter_t filter3 = {1, 2, weights3, 0.48786723613739014};
        filters[3]=filter3;
            
        static const float weights4[]={ 
    -0.4516916871070862, 0.15317346155643463, 
    0.28716903924942017, 0.4190916419029236, 

        };
        static filter_t filter4 = {1, 2, weights4, 0.20396892726421356};
        filters[4]=filter4;
            
        static const float weights5[]={ 
    0.13298247754573822, -1.778505802154541, 
    -0.007407749071717262, 0.1853003352880478, 

        };
        static filter_t filter5 = {1, 2, weights5, 0.4479348361492157};
        filters[5]=filter5;
            
        static const float weights6[]={ 
    0.13684409856796265, 0.06119086220860481, 
    -1.4445371627807617, 0.060002218931913376, 

        };
        static filter_t filter6 = {1, 2, weights6, 0.580402135848999};
        filters[6]=filter6;
            
        static const float weights7[]={ 
    0.08358593285083771, -0.590023398399353, 
    0.016961421817541122, 0.16624554991722107, 

        };
        static filter_t filter7 = {1, 2, weights7, 0.4816269874572754};
        filters[7]=filter7;
            
        static const float weights8[]={ 
    -4.110347270965576, 0.045050185173749924, 
    0.030235690996050835, -0.004102537874132395, 

        };
        static filter_t filter8 = {1, 2, weights8, 0.5779988169670105};
        filters[8]=filter8;
            
        static const float weights9[]={ 
    -0.0038235748652368784, -1.4841006994247437, 
    -0.004879197105765343, -0.07575375586748123, 

        };
        static filter_t filter9 = {1, 2, weights9, 0.75904780626297};
        filters[9]=filter9;
            
        static const float weights10[]={ 
    -0.3649665117263794, 0.21491344273090363, 
    0.2929733395576477, 0.04576488956809044, 

        };
        static filter_t filter10 = {1, 2, weights10, 0.21540464460849762};
        filters[10]=filter10;
            
        static const float weights11[]={ 
    0.17472262680530548, 0.07197460532188416, 
    0.24483416974544525, -0.7166790962219238, 

        };
        static filter_t filter11 = {1, 2, weights11, 0.19766195118427277};
        filters[11]=filter11;
            
        static const float weights12[]={ 
    0.09845674782991409, 0.07745906710624695, 
    -1.958347201347351, -4.7630462646484375, 

        };
        static filter_t filter12 = {1, 2, weights12, 0.31273576617240906};
        filters[12]=filter12;
            
        static const float weights13[]={ 
    -0.09915422648191452, -0.06569166481494904, 
    -0.06614263355731964, -0.0621943324804306, 

        };
        static filter_t filter13 = {1, 2, weights13, 0.0};
        filters[13]=filter13;
            
        static const float weights14[]={ 
    0.17630065977573395, 0.09095775336027145, 
    -0.6568824052810669, 0.4245283603668213, 

        };
        static filter_t filter14 = {1, 2, weights14, 0.07601574063301086};
        filters[14]=filter14;
            
        static const float weights15[]={ 
    0.10879258066415787, 0.06424517929553986, 
    0.17949756979942322, -0.8002908825874329, 

        };
        static filter_t filter15 = {1, 2, weights15, 0.4347057640552521};
        filters[15]=filter15;
            
        static const float weights16[]={ 
    -1.4448155164718628, 0.09083928167819977, 
    0.2930237352848053, 0.17113852500915527, 

        };
        static filter_t filter16 = {1, 2, weights16, 0.33424049615859985};
        filters[16]=filter16;
            
        static const float weights17[]={ 
    0.07959103584289551, 0.13686685264110565, 
    0.25875210762023926, -0.3358510732650757, 

        };
        static filter_t filter17 = {1, 2, weights17, 0.14249442517757416};
        filters[17]=filter17;
            
        static const float weights18[]={ 
    -0.8302981853485107, 0.1599501371383667, 
    0.09480071812868118, 0.044317714869976044, 

        };
        static filter_t filter18 = {1, 2, weights18, 0.48402705788612366};
        filters[18]=filter18;
            
        static const float weights19[]={ 
    -0.1297842413187027, -0.3898158371448517, 
    0.26005542278289795, -0.19101694226264954, 

        };
        static filter_t filter19 = {1, 2, weights19, 0.45423734188079834};
        filters[19]=filter19;
            
        static const float weights20[]={ 
    -0.025167906656861305, -0.2641488313674927, 
    -0.8562747836112976, 0.47912096977233887, 

        };
        static filter_t filter20 = {1, 2, weights20, 0.31855183839797974};
        filters[20]=filter20;
            
        static const float weights21[]={ 
    -1.6907278299331665, -0.11653722822666168, 
    0.044008806347846985, 0.20144163072109222, 

        };
        static filter_t filter21 = {1, 2, weights21, 0.8039113283157349};
        filters[21]=filter21;
            
        static const float weights22[]={ 
    0.06159085035324097, 0.010422294959425926, 
    -5.968907833099365, -0.04443725198507309, 

        };
        static filter_t filter22 = {1, 2, weights22, 0.4214916527271271};
        filters[22]=filter22;
            
        static const float weights23[]={ 
    0.03343885764479637, 0.2161513715982437, 
    0.1151755228638649, 0.11791832745075226, 

        };
        static filter_t filter23 = {1, 2, weights23, 0.17344103753566742};
        filters[23]=filter23;
            
        static const float weights24[]={ 
    -0.037588633596897125, 0.013355809263885021, 
    -1.0280038118362427, -1.311602234840393, 

        };
        static filter_t filter24 = {1, 2, weights24, 0.6803833246231079};
        filters[24]=filter24;
            
        static const float weights25[]={ 
    0.1588657647371292, -0.1716630756855011, 
    0.27360373735427856, 0.5353092551231384, 

        };
        static filter_t filter25 = {1, 2, weights25, 0.042436547577381134};
        filters[25]=filter25;
            
        static const float weights26[]={ 
    -0.014386802911758423, -0.1817644238471985, 
    -0.09506639838218689, -0.08278176188468933, 

        };
        static filter_t filter26 = {1, 2, weights26, 0.0};
        filters[26]=filter26;
            
        static const float weights27[]={ 
    -0.8534275889396667, -0.8383566737174988, 
    0.1453285813331604, 0.33517616987228394, 

        };
        static filter_t filter27 = {1, 2, weights27, 0.5651413202285767};
        filters[27]=filter27;
            
        static const float weights28[]={ 
    -0.11869882047176361, 0.20805472135543823, 
    -0.48159003257751465, 0.3792082667350769, 

        };
        static filter_t filter28 = {1, 2, weights28, 0.31193482875823975};
        filters[28]=filter28;
            
        static const float weights29[]={ 
    0.052386630326509476, 0.08548972755670547, 
    -0.60346919298172, 0.299533486366272, 

        };
        static filter_t filter29 = {1, 2, weights29, 0.28586962819099426};
        filters[29]=filter29;
            
        static const float weights30[]={ 
    -0.40818390250205994, 0.19054484367370605, 
    0.2027312070131302, -0.1535758078098297, 

        };
        static filter_t filter30 = {1, 2, weights30, 0.4543831944465637};
        filters[30]=filter30;
            
        static const float weights31[]={ 
    0.19982905685901642, 0.16894327104091644, 
    -0.02562091313302517, -0.45051729679107666, 

        };
        static filter_t filter31 = {1, 2, weights31, 0.3646215498447418};
        filters[31]=filter31;
            
        conv2d_layer_t layer = {32,filters};
        return layer;
        }
        

conv2d_layer_t init_conv2d_1_data(void){

        static filter_t filters[64];
        
        static const float weights0[]={ 
    -0.07654033601284027, 0.02027725614607334, 
    0.005506264977157116, 0.3825203776359558, 

    -0.11188014596700668, 0.08609142899513245, 
    -0.013228599913418293, -0.03453001007437706, 

    -0.11164166033267975, -0.03469846770167351, 
    0.0855703130364418, -0.26323702931404114, 

    0.08201401680707932, -0.04490162059664726, 
    0.1852559596300125, 0.08122225850820541, 

    0.08406511694192886, 0.09262561798095703, 
    -0.1954210102558136, -0.006077975500375032, 

    0.03699513524770737, 0.11875350028276443, 
    0.14785060286521912, -0.137413889169693, 

    -0.06661605834960938, -0.05921996757388115, 
    -0.15254154801368713, 0.12214405089616776, 

    -0.08609253168106079, -0.13629043102264404, 
    -0.05331983417272568, -0.11734137684106827, 

    0.08003628998994827, 0.03156594932079315, 
    0.24806292355060577, 0.13789527118206024, 

    0.10893489420413971, 0.2048252671957016, 
    0.2326383888721466, 0.225568488240242, 

    0.05795404687523842, -0.08329426497220993, 
    -0.13328741490840912, 0.08462062478065491, 

    0.05741194263100624, 0.05155555158853531, 
    0.12046198546886444, -0.0366189070045948, 

    -0.0262881089001894, -0.05979110673069954, 
    0.13011519610881805, 0.18749630451202393, 

    0.071015864610672, -0.06043592095375061, 
    -0.0782431960105896, -0.03510129451751709, 

    0.04025748744606972, 0.014588331803679466, 
    -0.14322510361671448, -0.0043805488385260105, 

    -0.14838555455207825, -0.10230233520269394, 
    -0.04020955041050911, -0.039865732192993164, 

    0.0839180275797844, 0.11784107238054276, 
    -0.05980636179447174, 0.004835816565901041, 

    0.08575484901666641, 0.08331339806318283, 
    -0.11613713949918747, 0.12267201393842697, 

    -0.0849204808473587, 0.1066502183675766, 
    -0.04680288955569267, 0.015326837077736855, 

    0.021724727004766464, -0.22146931290626526, 
    0.19145844876766205, -0.2165665328502655, 

    -0.1103266179561615, 0.02090553566813469, 
    -0.2665104269981384, 0.0880664810538292, 

    -0.18948645889759064, -0.005463586188852787, 
    -0.12564736604690552, 0.1843111515045166, 

    -0.11815378069877625, 0.06578408926725388, 
    -0.006527806166559458, 0.291286438703537, 

    0.055352214723825455, 0.02986203320324421, 
    -0.10832854360342026, -0.055363770574331284, 

    0.0015594122232869267, 0.016591913998126984, 
    0.15729399025440216, 0.056365638971328735, 

    0.05955057218670845, -0.04859905689954758, 
    -0.08580081909894943, -0.48360326886177063, 

    0.051148414611816406, 0.0347876250743866, 
    0.09413057565689087, 0.046202123165130615, 

    -0.2170843929052353, -0.06672403216362, 
    -0.03110636956989765, -0.09492459893226624, 

    -0.1696721762418747, -0.007844093255698681, 
    -0.3402245342731476, 0.030583452433347702, 

    0.006908849347382784, 0.10756582766771317, 
    -0.24647319316864014, -0.03948872908949852, 

    -0.017557691782712936, 0.05912362039089203, 
    0.007533338386565447, 0.1923988163471222, 

    0.05056482180953026, 0.012636606581509113, 
    -0.036894746124744415, -0.04239480197429657, 

        };
        static filter_t filter0 = {32, 2, weights0, 0.08090928941965103};
        filters[0]=filter0;
            
        static const float weights1[]={ 
    -0.03849104046821594, 0.016744520515203476, 
    -0.5046469569206238, 0.09251251071691513, 

    -0.030475974082946777, 0.09502537548542023, 
    0.00827006995677948, -0.18607789278030396, 

    0.027890468016266823, -0.00585541408509016, 
    0.12708140909671783, 0.30444833636283875, 

    -0.022427815943956375, -0.042866140604019165, 
    -0.09999269992113113, 0.5894839763641357, 

    -0.02554434910416603, -0.033332597464323044, 
    0.002011437900364399, -0.2001233994960785, 

    0.05973147600889206, 0.07453503459692001, 
    -0.002710847882553935, -0.07760493457317352, 

    -0.05958003178238869, 0.10787647217512131, 
    0.003649077145382762, 0.11849093437194824, 

    0.0871940553188324, 0.07161577045917511, 
    0.11288164556026459, -0.059187158942222595, 

    -0.09147749096155167, 0.1407218873500824, 
    -0.37382185459136963, -0.09098736941814423, 

    -0.06728637963533401, -0.09470022469758987, 
    0.14645621180534363, 0.16356520354747772, 

    0.057734403759241104, 0.0782412737607956, 
    0.025851545855402946, -0.0055957031436264515, 

    -0.11149167269468307, -0.05290883406996727, 
    0.10584201663732529, 0.29722318053245544, 

    0.05431671813130379, 0.11418524384498596, 
    -0.12351004779338837, 0.46394407749176025, 

    -0.022857606410980225, 0.006797462701797485, 
    0.013242483139038086, -0.08067077398300171, 

    -0.08243639767169952, -0.07105010002851486, 
    0.20320096611976624, -0.1793030947446823, 

    0.06878874450922012, -0.0941949263215065, 
    0.11524058133363724, 0.23708972334861755, 

    0.1018512025475502, -0.14943763613700867, 
    -0.10956734418869019, -0.21507836878299713, 

    0.05544962361454964, 0.09376781433820724, 
    0.0024443839211016893, 0.0009618359035812318, 

    0.0796302855014801, 0.07935873419046402, 
    0.005897569004446268, -0.00927108246833086, 

    0.0005866022547706962, -0.15116184949874878, 
    0.12955740094184875, -0.027351098135113716, 

    -0.06073844060301781, -4.154552152613178e-05, 
    0.07161714881658554, -0.19996367394924164, 

    -0.12133529037237167, 0.012479056604206562, 
    -0.46343904733657837, -0.23256075382232666, 

    0.03128824010491371, -0.04166325554251671, 
    -0.20685535669326782, 0.014757034368813038, 

    0.1400512158870697, 0.10625285655260086, 
    0.045741721987724304, -0.10164138674736023, 

    -0.09229493886232376, 0.13540156185626984, 
    -0.3243509531021118, 0.5112062692642212, 

    0.035340871661901474, 0.06750941276550293, 
    0.01089076604694128, -0.2024565488100052, 

    0.02937716245651245, 0.028301715850830078, 
    0.10331606864929199, 0.05806413292884827, 

    0.02425995096564293, 0.07737962156534195, 
    -0.166431725025177, 0.08429551869630814, 

    -0.09245406836271286, -0.08114966750144958, 
    -0.08560582250356674, -0.15645134449005127, 

    -0.020416222512722015, -0.03178435191512108, 
    0.12656636536121368, -0.02645479142665863, 

    -0.08930683881044388, -0.0033077900297939777, 
    -0.0016191629692912102, -0.062051475048065186, 

    0.023021258413791656, -0.07521810382604599, 
    -0.009425349533557892, 0.07423347234725952, 

        };
        static filter_t filter1 = {32, 2, weights1, 0.12880221009254456};
        filters[1]=filter1;
            
        static const float weights2[]={ 
    0.06094459444284439, -0.22522307932376862, 
    0.2266264259815216, 0.17354056239128113, 

    -0.06385806202888489, 0.1770329624414444, 
    0.10087764263153076, 0.01684347726404667, 

    -0.1285867840051651, 0.0037251596804708242, 
    0.08673875033855438, -0.6383512020111084, 

    -0.02457248419523239, 0.053304050117731094, 
    0.21633775532245636, -0.48426806926727295, 

    0.011894016526639462, 0.08006130158901215, 
    -0.12319836765527725, -0.05276322737336159, 

    -0.0017345405649393797, -0.1789727807044983, 
    -0.020976366475224495, -0.18668456375598907, 

    0.09855348616838455, -0.0642721876502037, 
    -0.014511064626276493, 0.32076531648635864, 

    0.06254568696022034, 0.04257103428244591, 
    0.13627120852470398, -0.021475421264767647, 

    0.039649687707424164, -0.2290450483560562, 
    -0.32031697034835815, -0.4392728805541992, 

    -0.0739956945180893, -0.15284059941768646, 
    0.23735177516937256, -0.18000727891921997, 

    -0.141756072640419, 0.007470772136002779, 
    0.04412545636296272, 0.05463988706469536, 

    0.08090627938508987, 0.07483448088169098, 
    0.02924414910376072, -0.30887269973754883, 

    0.07928897440433502, -0.03516772389411926, 
    0.20977023243904114, -0.46223995089530945, 

    -0.10774040222167969, -0.031219124794006348, 
    -0.10515138506889343, -0.1038353443145752, 

    -0.008850056678056717, -0.01150460820645094, 
    -0.01596667990088463, 0.08653924614191055, 

    -0.013932405970990658, 0.11557211726903915, 
    -0.03135021775960922, -0.3027958869934082, 

    -0.0022102356888353825, -0.039583634585142136, 
    -0.06572133302688599, -0.30545473098754883, 

    0.10745836794376373, -0.02279702201485634, 
    0.05274690315127373, -0.09710041433572769, 

    -0.09217171370983124, 0.021572008728981018, 
    -0.06677781045436859, -0.06426273286342621, 

    -0.006160961929708719, 0.10370945930480957, 
    0.10937190800905228, -0.331662118434906, 

    -0.07567649334669113, -0.03796504810452461, 
    0.28483131527900696, 0.12957516312599182, 

    -0.18176724016666412, 0.052874740213155746, 
    -0.2015944868326187, -0.08501896262168884, 

    -0.13888031244277954, -0.20847375690937042, 
    0.3553227484226227, 0.5504658222198486, 

    -0.04952501878142357, 0.04599295184016228, 
    -0.11024367064237595, 0.07205624133348465, 

    -0.1801927387714386, 0.017423197627067566, 
    0.2003042846918106, -0.2134145349264145, 

    0.026673417538404465, -0.030139558017253876, 
    -0.17900681495666504, 0.03812472149729729, 

    0.10175958275794983, -0.0844186544418335, 
    -0.09302222728729248, 0.07179957628250122, 

    -0.07018278539180756, -0.030880032107234, 
    -0.14728471636772156, -0.05852389335632324, 

    -0.02882077544927597, -0.08761230856180191, 
    0.00615960406139493, 0.060398127883672714, 

    -0.03874939680099487, 0.018275154754519463, 
    0.08146098256111145, 0.20580551028251648, 

    0.04659131541848183, 0.06283405423164368, 
    0.10429451614618301, 0.11045123636722565, 

    -0.0873803123831749, 0.036718692630529404, 
    0.13841129839420319, 0.14738082885742188, 

        };
        static filter_t filter2 = {32, 2, weights2, 0.27243003249168396};
        filters[2]=filter2;
            
        static const float weights3[]={ 
    -0.1325949877500534, -0.13357512652873993, 
    0.12119387835264206, -0.1706608086824417, 

    0.11656202375888824, -0.03915807232260704, 
    -0.05676727369427681, -0.04614373296499252, 

    0.01665138639509678, 0.1548692137002945, 
    -0.18290704488754272, 0.18271280825138092, 

    -0.036926399916410446, 0.011789209209382534, 
    -0.11840110272169113, 0.35990267992019653, 

    0.002987674670293927, 0.04306745156645775, 
    0.03472158685326576, -0.19595693051815033, 

    0.13590188324451447, -0.19147147238254547, 
    0.03603203222155571, 0.11274278908967972, 

    0.10269498825073242, -0.02047254703938961, 
    0.16831961274147034, -0.10756095498800278, 

    -0.05778619274497032, -0.2703387141227722, 
    0.08345991373062134, 0.09239735454320908, 

    -0.3276866674423218, 0.13439160585403442, 
    -0.2850322723388672, -0.16374638676643372, 

    0.2232435941696167, -0.23407907783985138, 
    0.12227847427129745, -0.07585728168487549, 

    -0.036038655787706375, 0.08604393154382706, 
    -0.04296284168958664, -0.031118329614400864, 

    0.042786289006471634, -0.07877164334058762, 
    -0.046289313584566116, 0.0018995008431375027, 

    -0.07251658290624619, -0.13606534898281097, 
    0.13305525481700897, 0.14676214754581451, 

    -0.1240013837814331, 0.039946019649505615, 
    -0.005822509527206421, -0.11822307109832764, 

    0.00504319928586483, -0.09672344475984573, 
    -0.022605329751968384, -0.09077227860689163, 

    0.10275449603796005, 0.13465343415737152, 
    0.07440732419490814, 0.020851410925388336, 

    -0.25323042273521423, 0.05662749335169792, 
    0.01633775420486927, 0.008086828514933586, 

    0.06871876120567322, -0.022783467546105385, 
    0.12581178545951843, -0.10897966474294662, 

    -0.09369409084320068, 0.006421658676117659, 
    -0.198110893368721, -0.028607863932847977, 

    0.10463126003742218, 0.045307088643312454, 
    0.008399136364459991, 0.15863679349422455, 

    0.07319188117980957, 0.08305229246616364, 
    -0.07734297960996628, -0.16869767010211945, 

    -0.03308868408203125, 0.15626466274261475, 
    -0.10637429356575012, -0.20491887629032135, 

    -0.0037491517141461372, -0.026609312742948532, 
    0.1161465272307396, -0.1383625566959381, 

    0.027316773310303688, -0.1079304963350296, 
    0.03385086730122566, 0.00946621410548687, 

    -0.21459168195724487, 0.021706925705075264, 
    0.09201124310493469, 0.14147940278053284, 

    -0.06462877243757248, -0.19739902019500732, 
    0.10169597715139389, 0.1776847094297409, 

    0.03247553110122681, 0.017778992652893066, 
    0.010201871395111084, -0.038390666246414185, 

    0.12411577254533768, -0.001291067455895245, 
    -0.020713089033961296, -0.37263351678848267, 

    -0.19032035768032074, 0.07387624680995941, 
    0.06422952562570572, -0.0999433696269989, 

    -0.02725553698837757, 0.047846436500549316, 
    -0.04125317558646202, -0.12668415904045105, 

    -0.07970835268497467, 0.046985726803541183, 
    0.0882931500673294, 0.060181841254234314, 

    0.10826675593852997, 0.044568296521902084, 
    0.07243100553750992, 0.10682442784309387, 

        };
        static filter_t filter3 = {32, 2, weights3, 0.09463556855916977};
        filters[3]=filter3;
            
        static const float weights4[]={ 
    0.10743367671966553, -0.3681246340274811, 
    0.16765521466732025, 0.012839180417358875, 

    -0.11720415204763412, -0.0850721001625061, 
    0.11225563287734985, 0.02068866789340973, 

    0.09027969837188721, -0.16507835686206818, 
    0.005888152401894331, -0.06008216738700867, 

    -0.3485696613788605, -0.00280516454949975, 
    -0.1931363344192505, -0.053113874047994614, 

    0.021255414932966232, 0.16085277497768402, 
    0.050515156239271164, -0.11949724704027176, 

    0.005322962999343872, 0.10640810430049896, 
    -0.4680176377296448, 0.015394295565783978, 

    -0.03498637303709984, -0.12535902857780457, 
    0.28476089239120483, -0.37862083315849304, 

    0.038587622344493866, -0.10739053785800934, 
    0.029444463551044464, 0.010901808738708496, 

    -0.18765617907047272, 0.04729405418038368, 
    0.26305216550827026, -0.4638741910457611, 

    0.27463680505752563, 0.1235068142414093, 
    -0.5670376420021057, 0.08631910383701324, 

    -0.1325448751449585, 0.10570811480283737, 
    0.04262195900082588, 0.1255091279745102, 

    0.17712073028087616, -0.07637874037027359, 
    -0.04871807247400284, -0.008942621760070324, 

    -0.13779664039611816, 0.08328626304864883, 
    0.04891417548060417, -0.18118222057819366, 

    -0.12474271655082703, -0.03300672769546509, 
    0.046300530433654785, -0.12055277824401855, 

    0.04519108310341835, 0.02990097552537918, 
    0.14674493670463562, -0.09553693979978561, 

    -0.08230406045913696, 0.11344902217388153, 
    -0.12169074267148972, -0.020960895344614983, 

    -0.13693422079086304, 0.0970182791352272, 
    0.24255692958831787, -0.27540460228919983, 

    -0.0891168937087059, 0.05891844257712364, 
    0.040528152137994766, -0.014622700400650501, 

    -0.018156612291932106, -0.03046446479856968, 
    -0.0002090601046802476, -0.07266789674758911, 

    0.06536415964365005, -0.16244110465049744, 
    -0.050708260387182236, 0.12499139457941055, 

    0.13549664616584778, -0.022274695336818695, 
    -0.11989409476518631, -0.04134412482380867, 

    -0.29259127378463745, 0.24484319984912872, 
    0.11629831790924072, -0.36781010031700134, 

    -0.02798496186733246, -0.11608397960662842, 
    0.2014009803533554, -0.21641972661018372, 

    0.04514963924884796, 0.08100353926420212, 
    -0.06467188149690628, 0.1482958197593689, 

    -0.149545818567276, -0.09249010682106018, 
    -0.04649689048528671, -0.08475922793149948, 

    -0.04916655644774437, 0.026967575773596764, 
    0.04262850433588028, 0.06933729350566864, 

    0.057830810546875, -0.06687518954277039, 
    0.02839595079421997, -0.05632376670837402, 

    -0.08854032307863235, 0.046343520283699036, 
    0.05732439085841179, 0.11981042474508286, 

    -0.06760047376155853, -0.11900381743907928, 
    -0.12677279114723206, 0.07987026870250702, 

    0.07000717520713806, -0.09890975803136826, 
    0.1973380595445633, 0.028115546330809593, 

    -0.025394458323717117, -0.061889663338661194, 
    0.05509289726614952, 0.12161149829626083, 

    -0.0017836878541857004, -0.03795615956187248, 
    0.013158850371837616, 0.03787202015519142, 

        };
        static filter_t filter4 = {32, 2, weights4, 0.1106671392917633};
        filters[4]=filter4;
            
        static const float weights5[]={ 
    0.037806764245033264, -0.09053996950387955, 
    0.22623464465141296, 0.03227948769927025, 

    0.11755658686161041, 0.042684830725193024, 
    0.17202094197273254, 0.19344079494476318, 

    0.11976432800292969, 0.049601610749959946, 
    0.1120675653219223, 0.01719452627003193, 

    0.06054229289293289, -0.09300979226827621, 
    -0.07921969890594482, 0.3914148807525635, 

    0.01347549818456173, -0.06285889446735382, 
    -0.22293172776699066, 0.13356974720954895, 

    -0.08675374835729599, -0.10428635776042938, 
    0.05561824515461922, -0.09920922666788101, 

    0.004794756416231394, -0.04099816828966141, 
    0.12781308591365814, -0.09283538907766342, 

    -0.1264045685529709, 0.06631982326507568, 
    -0.0007328388746827841, 0.11603642255067825, 

    0.09451427310705185, -0.17123015224933624, 
    -0.09103542566299438, 0.03272409737110138, 

    -0.1497725397348404, -0.025887295603752136, 
    0.0022830490488559008, 0.005068138707429171, 

    0.09349648654460907, -0.058837421238422394, 
    0.008975784294307232, -0.03627978637814522, 

    0.06627555191516876, 0.11100133508443832, 
    -0.028015734627842903, 0.0540882907807827, 

    -0.04220627248287201, 0.011142469942569733, 
    -0.032509945333004, -0.0033647133968770504, 

    -0.049894899129867554, -0.024339228868484497, 
    0.0828997790813446, 0.10300669074058533, 

    0.02989238128066063, 0.061723753809928894, 
    0.01291378028690815, -0.130891814827919, 

    0.04552582651376724, -0.01725904829800129, 
    0.13808661699295044, -0.05744965374469757, 

    0.0769210234284401, 0.0181351937353611, 
    -0.15025492012500763, -0.21617674827575684, 

    0.050459347665309906, -0.0034519366454333067, 
    0.0784677118062973, -0.05850078910589218, 

    0.056355442851781845, -0.06877882778644562, 
    -0.2408313751220703, 0.03903592750430107, 

    -0.06485774368047714, 0.11267731338739395, 
    -0.039496563374996185, 0.05839840695261955, 

    -0.014779497869312763, 0.10165990144014359, 
    -0.021018093451857567, -0.10938956588506699, 

    -0.1360188126564026, -0.11025191843509674, 
    -0.1542307287454605, 0.013381699100136757, 

    0.09596849977970123, -0.04932510107755661, 
    -0.12894204258918762, -0.03679337725043297, 

    -0.06194274127483368, 0.03703897446393967, 
    0.11879193037748337, 0.06613471359014511, 

    -0.05423378199338913, 0.03091534413397312, 
    0.12731514871120453, 0.3528555929660797, 

    0.0993550717830658, 0.08502428233623505, 
    0.1160615086555481, 0.12757360935211182, 

    -0.03779035806655884, -0.10291054844856262, 
    -0.11272794008255005, 0.04940125346183777, 

    0.017343714833259583, -0.13774867355823517, 
    -0.34461963176727295, 0.16442491114139557, 

    0.00890630204230547, -0.11457808315753937, 
    0.14981985092163086, -0.020665360614657402, 

    -0.053096119314432144, -0.10589364916086197, 
    -0.06354472786188126, -0.07736153155565262, 

    0.0870705395936966, -0.19626937806606293, 
    -0.06207035481929779, -0.08566906303167343, 

    0.1083843782544136, 0.01024872250854969, 
    0.1726151555776596, 0.06831803917884827, 

        };
        static filter_t filter5 = {32, 2, weights5, 0.08378340303897858};
        filters[5]=filter5;
            
        static const float weights6[]={ 
    -0.3173185884952545, -0.11269430816173553, 
    -0.2097606509923935, 0.1906537264585495, 

    -0.08799111843109131, -0.10528586804866791, 
    0.07488211989402771, 0.003934009931981564, 

    -0.013060268945991993, -0.06056086719036102, 
    -0.1142832487821579, 0.08122614771127701, 

    0.028416641056537628, -0.06433875858783722, 
    -0.021780049428343773, 0.10528212785720825, 

    0.07654304802417755, 0.03836619853973389, 
    0.25034287571907043, 0.05877434089779854, 

    0.07926295697689056, 0.24661733210086823, 
    -0.023712564259767532, -0.0030107428319752216, 

    0.10620825737714767, 0.06850683689117432, 
    0.010926828719675541, 0.00688655860722065, 

    -0.10105504840612411, 0.26308855414390564, 
    -0.06658631563186646, -0.1994123011827469, 

    0.03855044022202492, -0.18890197575092316, 
    -0.6219967007637024, -0.024190541356801987, 

    -0.11724142730236053, 0.3169751763343811, 
    -0.015399469994008541, 0.008212135173380375, 

    0.026459958404302597, 0.11211191117763519, 
    0.10035280138254166, -0.001315609784796834, 

    -0.12097829580307007, -0.29728493094444275, 
    -0.07367867231369019, 0.08588750660419464, 

    0.061011817306280136, -0.3508908152580261, 
    -0.05899140238761902, 0.15844111144542694, 

    0.030259639024734497, -0.03875476121902466, 
    -0.008086293935775757, -0.058629006147384644, 

    -0.025763563811779022, -0.2581631541252136, 
    0.0038597090169787407, -0.10469832271337509, 

    -0.06488808989524841, -0.11910807341337204, 
    -0.10314755141735077, 0.12980252504348755, 

    0.11013947427272797, 0.0052863783203065395, 
    -0.3129713833332062, -0.04310610517859459, 

    -0.008468330837786198, -0.31747785210609436, 
    0.06277908384799957, -0.0005936207599006593, 

    0.17490388453006744, 0.16341091692447662, 
    -0.03250308707356453, 0.0518040731549263, 

    -0.02612188272178173, 0.082250215113163, 
    0.1991274505853653, -0.06247894838452339, 

    -0.15628604590892792, -0.017905624583363533, 
    0.06850417703390121, -0.12714169919490814, 

    0.04627034068107605, 0.08736584335565567, 
    -0.22755591571331024, -0.03521586209535599, 

    0.07917061448097229, -0.12457629293203354, 
    -0.15341949462890625, 0.21885477006435394, 

    -0.07650766521692276, -0.17818032205104828, 
    -0.03999008610844612, 0.008592840284109116, 

    0.013913770206272602, 0.28322064876556396, 
    -0.04720934107899666, 0.2432086318731308, 

    0.08356544375419617, 0.12270479649305344, 
    -0.07949427515268326, -0.033095601946115494, 

    -0.10198003053665161, 0.0650322437286377, 
    -0.07806369662284851, 0.032582253217697144, 

    0.11189025640487671, 0.27191877365112305, 
    -0.023746630176901817, -0.008505146950483322, 

    0.011322520673274994, -0.20020321011543274, 
    0.08511954545974731, 0.010235496796667576, 

    0.09337656199932098, -0.19203495979309082, 
    -0.14021669328212738, 0.1558564454317093, 

    0.14720629155635834, 0.05436013266444206, 
    0.21979920566082, -0.005868067499250174, 

    0.08167314529418945, -0.23865830898284912, 
    0.03445116803050041, -0.01029069535434246, 

        };
        static filter_t filter6 = {32, 2, weights6, 0.17703069746494293};
        filters[6]=filter6;
            
        static const float weights7[]={ 
    -0.03163731098175049, 0.0756327286362648, 
    -0.18661242723464966, -0.29539433121681213, 

    0.011030050925910473, 0.1062534898519516, 
    0.07954174280166626, -0.04940876364707947, 

    -0.022048095241189003, 0.026680953800678253, 
    0.1568668633699417, 0.22179053723812103, 

    -0.0646892711520195, 0.05883370339870453, 
    -0.0010664750589057803, -0.14524832367897034, 

    0.029016055166721344, 0.018394246697425842, 
    -0.013420569710433483, -0.14860263466835022, 

    -0.05286726728081703, 0.10820002853870392, 
    -0.139122873544693, 0.10050938278436661, 

    0.08759935200214386, -0.03933969512581825, 
    -0.0811569020152092, -0.056813571602106094, 

    -0.11896974593400955, -0.22550001740455627, 
    0.031689513474702835, 0.19130325317382812, 

    -0.01074732281267643, -0.07721210271120071, 
    0.16961781680583954, -0.5851262211799622, 

    0.0045274533331394196, 0.02245478890836239, 
    -0.09126200526952744, 0.422730952501297, 

    -0.02058221586048603, -0.058026500046253204, 
    0.1520412266254425, -0.03446720540523529, 

    -0.055649515241384506, 0.04581023007631302, 
    0.14936144649982452, 0.09431544691324234, 

    0.0123174749314785, -0.0975293442606926, 
    0.07814288139343262, -0.048849329352378845, 

    0.08825287222862244, 0.049559086561203, 
    -0.03860613703727722, -0.00214502215385437, 

    0.055478766560554504, -0.0883573591709137, 
    -0.1600087583065033, -0.15411271154880524, 

    0.04903236776590347, -0.08664298802614212, 
    0.14077113568782806, 0.15515878796577454, 

    0.017970243468880653, -0.15312524139881134, 
    0.08945414423942566, -0.2229447215795517, 

    0.09549543261528015, -0.10348423570394516, 
    0.02871066890656948, 0.028340598568320274, 

    -0.09772409498691559, 0.013579176738858223, 
    0.1347600817680359, -0.1138337254524231, 

    0.21326133608818054, -0.3134880065917969, 
    0.0811661034822464, 0.2826440930366516, 

    -0.03339667618274689, -0.33358487486839294, 
    -0.1526702493429184, 0.10801472514867783, 

    0.017782527953386307, -0.34115809202194214, 
    0.17199227213859558, -0.15406979620456696, 

    0.08718380331993103, -0.1575823873281479, 
    -0.12063963711261749, 0.05624521151185036, 

    0.04372964799404144, 0.14489412307739258, 
    0.10821615904569626, -0.17798036336898804, 

    -0.12089091539382935, 0.0502314455807209, 
    -0.061234649270772934, -0.01493866927921772, 

    -0.14111316204071045, -0.24142800271511078, 
    -0.050104327499866486, 0.04315579682588577, 

    0.09157416224479675, 0.08591389656066895, 
    0.05274966359138489, -0.058241844177246094, 

    -0.1278204619884491, -0.24910156428813934, 
    -0.05212898552417755, 0.18857704102993011, 

    -0.0434117391705513, 0.05593166872859001, 
    0.13203544914722443, -0.02492312155663967, 

    0.06767008453607559, 0.0315299928188324, 
    0.007238062564283609, -0.14787796139717102, 

    -0.1344197392463684, 0.04023652896285057, 
    0.03222619369626045, 0.026305237784981728, 

    0.0589301697909832, 0.09631826728582382, 
    -0.013885839842259884, 0.0375019833445549, 

        };
        static filter_t filter7 = {32, 2, weights7, 0.2710917592048645};
        filters[7]=filter7;
            
        static const float weights8[]={ 
    0.1914055049419403, -0.025438731536269188, 
    0.3931884765625, 0.04663738235831261, 

    -0.1475931704044342, 0.09068363904953003, 
    0.021949557587504387, -0.06686817109584808, 

    -0.14069849252700806, -0.16334646940231323, 
    -0.048430945724248886, -0.37803956866264343, 

    0.13051076233386993, -0.13839393854141235, 
    0.04220811650156975, -0.06003735959529877, 

    -0.06089449301362038, 0.021632151678204536, 
    -0.045714519917964935, 0.06764952093362808, 

    -0.14805224537849426, 0.03699226304888725, 
    0.17702153325080872, -0.005121746566146612, 

    -0.039487071335315704, 0.014974454417824745, 
    0.051771145313978195, -0.01674872450530529, 

    -0.168291836977005, 0.02116943895816803, 
    0.020116042345762253, -0.0013425779761746526, 

    0.06653594225645065, -0.36476749181747437, 
    0.469038724899292, -0.050791848450899124, 

    -0.19454944133758545, 0.01660880073904991, 
    0.1737397015094757, -0.0768987387418747, 

    -0.05190027132630348, -0.03326302766799927, 
    -0.08863399922847748, -0.03987589105963707, 

    -0.09651805460453033, 0.005224216263741255, 
    -0.013827892020344734, -0.52265864610672, 

    0.049889255315065384, -0.04124931991100311, 
    0.30116409063339233, -0.22605441510677338, 

    0.06980904936790466, -0.014498502016067505, 
    -0.013039499521255493, 0.012178182601928711, 

    0.12517854571342468, -0.04393531382083893, 
    0.13012413680553436, -0.08698093891143799, 

    -0.10422298312187195, 0.08506935089826584, 
    0.14252354204654694, -0.25576138496398926, 

    0.039653658866882324, -0.11811867356300354, 
    -0.018893355503678322, -0.015597269870340824, 

    0.0904843807220459, 0.023663081228733063, 
    -0.06294430047273636, -0.16534015536308289, 

    -0.12930136919021606, 0.020687852054834366, 
    -0.007501157931983471, 0.0048414962366223335, 

    -0.08447343111038208, -0.04671085253357887, 
    -0.01694141887128353, -0.0646643191576004, 

    0.07740458846092224, 0.012255439534783363, 
    0.1762104034423828, 0.10649257153272629, 

    -0.014370263554155827, -0.07714693993330002, 
    0.10960429161787033, 0.05232182517647743, 

    0.3247002363204956, 0.09333942085504532, 
    0.24695231020450592, 0.12478780746459961, 

    -0.03792767971754074, 0.10355380177497864, 
    -0.2005762904882431, -0.19116385281085968, 

    0.1501537710428238, -0.012368496507406235, 
    0.14942380785942078, 0.2922525107860565, 

    -0.18942515552043915, -0.09747099876403809, 
    -0.1393636018037796, -0.056470971554517746, 

    0.07589441537857056, -0.04488283395767212, 
    0.00969722867012024, 0.08619353175163269, 

    -0.08186571300029755, 0.013883030042052269, 
    0.13433454930782318, 0.09473517537117004, 

    0.04349846765398979, 0.04268939420580864, 
    0.11874525249004364, 0.019089555367827415, 

    -0.05330295115709305, 0.03303496167063713, 
    0.13300199806690216, 0.05441519245505333, 

    0.11499711871147156, -0.16031187772750854, 
    0.08070597797632217, -0.01694432459771633, 

    -0.09384116530418396, 0.07722937315702438, 
    0.11244857311248779, -0.12579990923404694, 

        };
        static filter_t filter8 = {32, 2, weights8, 0.0956370010972023};
        filters[8]=filter8;
            
        static const float weights9[]={ 
    -0.02142367884516716, 0.06354507058858871, 
    0.1356056034564972, -0.05124083533883095, 

    -0.06309926509857178, 0.01604554057121277, 
    0.05820412561297417, -0.003524158149957657, 

    0.036100003868341446, -0.16712641716003418, 
    -0.27658483386039734, 0.10628605633974075, 

    -0.06052916496992111, 0.1413893848657608, 
    -0.05936271697282791, -0.06876004487276077, 

    -0.056209746748209, 0.05869761481881142, 
    -0.20464426279067993, -0.046529896557331085, 

    -0.05333618074655533, 0.14273948967456818, 
    0.12458249181509018, -0.23104240000247955, 

    0.03785017877817154, -0.09470371901988983, 
    0.1630639284849167, 0.0687112808227539, 

    0.08430083841085434, -0.12558740377426147, 
    -0.0470593124628067, -0.1605646014213562, 

    0.21917638182640076, 0.15797683596611023, 
    0.022949479520320892, 0.041065819561481476, 

    0.09259041398763657, 0.24286118149757385, 
    0.10039633512496948, -0.19658702611923218, 

    -0.09740296006202698, 0.06974303722381592, 
    -0.15854744613170624, 0.12866155803203583, 

    0.08431966602802277, -0.2624753713607788, 
    -0.08075626939535141, -0.14039161801338196, 

    -0.11703094840049744, 0.170608788728714, 
    0.00917768757790327, -0.2373467981815338, 

    0.02392125129699707, 0.04965260624885559, 
    -0.0831083357334137, -0.10588985681533813, 

    0.06299110502004623, -0.1313806027173996, 
    0.09798277914524078, 0.15686345100402832, 

    0.016769420355558395, -0.1518748253583908, 
    -0.1022212877869606, 0.03598557040095329, 

    -0.013596093282103539, 0.00042177876457571983, 
    -0.10468441247940063, 0.09630261361598969, 

    -0.03466925024986267, -0.1793237328529358, 
    -0.11606254428625107, -0.11615541577339172, 

    -0.21675121784210205, -0.0630120038986206, 
    -0.33853068947792053, 0.12638972699642181, 

    0.07093323022127151, -0.14418081939220428, 
    -0.20033177733421326, 0.1714394986629486, 

    0.023394079878926277, 0.06179342418909073, 
    0.1073203906416893, 0.05458568409085274, 

    -0.2678058445453644, 0.19678276777267456, 
    -0.08681274950504303, 0.004059155937284231, 

    -0.024495700374245644, 0.18817709386348724, 
    0.5352455377578735, -0.1552504301071167, 

    0.023671187460422516, 0.11848824471235275, 
    0.057054512202739716, 0.033670034259557724, 

    -0.01904948055744171, -0.15109042823314667, 
    0.3034270703792572, -0.13608106970787048, 

    0.03990459442138672, 0.10953053086996078, 
    0.027685116976499557, 0.013478205539286137, 

    -0.11941471695899963, -0.0008418262004852295, 
    0.09603554010391235, 0.014005720615386963, 

    -0.03550640866160393, 0.026129301637411118, 
    -0.09946876764297485, -0.11294368654489517, 

    -0.11098814010620117, -0.03369319438934326, 
    -0.101666159927845, 0.1944766789674759, 

    0.004371145274490118, -0.10854413360357285, 
    -0.02295868843793869, 0.0493495874106884, 

    -0.015654126182198524, 0.10940344631671906, 
    -0.4322679340839386, 0.08591562509536743, 

    0.09582305699586868, -0.10687441378831863, 
    0.036304108798503876, 0.17133557796478271, 

        };
        static filter_t filter9 = {32, 2, weights9, 0.0767272561788559};
        filters[9]=filter9;
            
        static const float weights10[]={ 
    -0.4011958837509155, 0.052747029811143875, 
    -0.0008869491284713149, -0.17688235640525818, 

    -0.09117966890335083, 0.013087475672364235, 
    0.21184250712394714, 0.21467304229736328, 

    0.027461117133498192, 0.007151308469474316, 
    -0.2894739806652069, 0.05513789504766464, 

    -0.1432504653930664, -0.20540009438991547, 
    0.02481909841299057, -0.5097893476486206, 

    0.1050153374671936, 0.03778577223420143, 
    -0.019465528428554535, 0.2024664431810379, 

    0.1039155051112175, 0.0532224215567112, 
    0.1791362166404724, -0.05507569760084152, 

    0.05330214649438858, 0.12569481134414673, 
    0.17349334061145782, -0.034736961126327515, 

    -0.03790876641869545, 0.002420146483927965, 
    0.007806217297911644, 0.17529478669166565, 

    -0.12516488134860992, 0.00895711686462164, 
    -0.04893704876303673, 0.005710194818675518, 

    -0.11928138881921768, 0.13064119219779968, 
    -0.014997357502579689, 0.23187299072742462, 

    0.037062909454107285, 0.012778474017977715, 
    -0.41049298644065857, 0.18383421003818512, 

    0.08883549273014069, -0.04463960602879524, 
    -0.040865689516067505, -0.21021471917629242, 

    0.09940503537654877, 0.02129308320581913, 
    -0.16989406943321228, 0.18817096948623657, 

    0.1197291910648346, 0.09949624538421631, 
    -0.06826522946357727, -0.06327754259109497, 

    -0.07670983672142029, 0.10385594516992569, 
    0.18829616904258728, 0.06967591494321823, 

    0.1123800277709961, 0.046205490827560425, 
    -0.1438978910446167, -0.05481024459004402, 

    -0.04084870591759682, -0.041938286274671555, 
    -0.05866435542702675, 0.028126973658800125, 

    -0.08985132724046707, 0.001120851025916636, 
    -0.019198870286345482, -0.08482919633388519, 

    -0.08344366401433945, -0.1281149834394455, 
    -0.24282585084438324, 0.08435817807912827, 

    0.17261503636837006, 0.05588875338435173, 
    -0.461843341588974, 0.0924699604511261, 

    -0.12532562017440796, -0.09644293040037155, 
    0.14040985703468323, 0.049163371324539185, 

    -0.05840578302741051, 0.07955649495124817, 
    -0.28918731212615967, 0.05788238346576691, 

    0.005635885987430811, 0.12370659410953522, 
    0.19759219884872437, -0.4592146873474121, 

    -0.042589135468006134, -0.05083649605512619, 
    0.008413777686655521, 0.18348203599452972, 

    -0.5493564009666443, 0.4554711878299713, 
    -0.23597894608974457, -0.6620475649833679, 

    0.06939635425806046, -0.05634558945894241, 
    0.17513318359851837, 0.19856572151184082, 

    0.0013427734375, 0.11896076798439026, 
    -0.04260379076004028, 0.08461758494377136, 

    0.09342796355485916, 0.387854665517807, 
    -0.35662785172462463, 0.10624192655086517, 

    -0.34147629141807556, 0.06393355131149292, 
    0.20957545936107635, 0.06894037872552872, 

    0.11384257674217224, -0.09428238123655319, 
    0.023612476885318756, 0.04007112607359886, 

    0.1203051283955574, -0.05602196231484413, 
    -0.7663643956184387, 0.07790559530258179, 

    0.0019180749077349901, -0.05579058453440666, 
    -0.082889623939991, -0.08523216098546982, 

        };
        static filter_t filter10 = {32, 2, weights10, -0.003950733225792646};
        filters[10]=filter10;
            
        static const float weights11[]={ 
    -0.019558480009436607, -0.028545141220092773, 
    0.1393492966890335, -0.12521915137767792, 

    0.006891068536788225, 0.03355303779244423, 
    0.09332714229822159, -0.24797655642032623, 

    0.07842967659235, 0.0285512525588274, 
    -0.0686013475060463, 0.27014678716659546, 

    -0.06321268528699875, 0.06360717862844467, 
    -0.22344031929969788, 0.6282570362091064, 

    -0.01282581314444542, 0.0968819111585617, 
    0.006612675730139017, -0.1474342793226242, 

    0.060203805565834045, 0.030218584463000298, 
    0.04666966199874878, -0.06331366300582886, 

    -0.042762383818626404, 0.06898325681686401, 
    0.05981837213039398, -0.05606687441468239, 

    0.0394054539501667, -0.07888450473546982, 
    -0.08550357073545456, -0.3407321274280548, 

    -0.21530576050281525, 0.1660129576921463, 
    -0.1957230120897293, 0.007992718368768692, 

    0.0067055607214570045, 0.2804245948791504, 
    -0.11237742006778717, 0.1365942656993866, 

    0.1955563724040985, 0.1580134481191635, 
    0.033790141344070435, 0.10362830013036728, 

    -0.007723509334027767, 0.11251119524240494, 
    -0.155405655503273, 0.3449619710445404, 

    0.04491906240582466, 0.14277158677577972, 
    -0.5926948189735413, 0.3545443117618561, 

    -0.09957528114318848, -0.10991698503494263, 
    -0.07545033097267151, 0.057622671127319336, 

    -0.1111266016960144, -0.04060114920139313, 
    0.026492247357964516, -0.019532863050699234, 

    0.08219874650239944, -0.07208547741174698, 
    -0.1148594468832016, 0.2843540906906128, 

    -0.09316162019968033, 0.03074982948601246, 
    -0.07164132595062256, -0.1008676290512085, 

    0.0074933250434696674, 0.09780574589967728, 
    0.13639765977859497, 0.21611589193344116, 

    -0.12306320667266846, 0.02781061828136444, 
    0.05037049949169159, 0.0051430389285087585, 

    0.16671864688396454, -0.002050143899396062, 
    0.14732412993907928, 0.23367775976657867, 

    -0.2717550992965698, -0.012630979530513287, 
    -0.040995433926582336, -0.39308804273605347, 

    -0.29845067858695984, -0.165906623005867, 
    -0.10240071266889572, -0.17087094485759735, 

    -0.10214204341173172, 0.08003097772598267, 
    0.04050850868225098, -0.15248751640319824, 

    0.0898328498005867, 0.09248765558004379, 
    -0.05929059535264969, 0.09540429711341858, 

    0.08736623078584671, -0.007325193379074335, 
    -0.0387301929295063, 0.34811729192733765, 

    0.02539367973804474, 0.08122451603412628, 
    0.12043321132659912, 0.07814931124448776, 

    0.0893062949180603, -0.11199599504470825, 
    -0.0673007071018219, 0.04636770486831665, 

    -0.08074737340211868, -0.038295142352581024, 
    -0.0654238909482956, -0.12133055180311203, 

    -0.05187304690480232, -0.10997374355792999, 
    -0.1018412858247757, -0.20062319934368134, 

    -0.04697920382022858, 0.03897774964570999, 
    -0.03049166314303875, -0.3066025972366333, 

    0.12042820453643799, -0.05948231369256973, 
    0.12755967676639557, 0.01390235684812069, 

    0.006556709762662649, -0.06107834726572037, 
    -0.03611137345433235, 0.2237585484981537, 

        };
        static filter_t filter11 = {32, 2, weights11, 0.17859560251235962};
        filters[11]=filter11;
            
        static const float weights12[]={ 
    0.0694134384393692, 0.01592991314828396, 
    0.2975097894668579, 0.07156645506620407, 

    0.12776635587215424, 0.008169436827301979, 
    -0.10006461292505264, -0.008960895240306854, 

    0.00032016521436162293, -0.006375799886882305, 
    -0.17603668570518494, 0.016701512038707733, 

    -0.0727669820189476, -0.06050793454051018, 
    -0.3290567696094513, -0.006647692061960697, 

    0.1003885492682457, -0.2766779959201813, 
    -0.09757480025291443, 0.14009295403957367, 

    0.04797017574310303, 0.022812409326434135, 
    0.15555021166801453, -0.10286391526460648, 

    -0.05079886317253113, -0.10455121845006943, 
    0.15184438228607178, 0.2422904223203659, 

    0.12088043987751007, 0.02656935714185238, 
    -0.015687381848692894, -0.06228865683078766, 

    -0.03369833528995514, -0.04719708114862442, 
    -0.20284321904182434, 0.12899164855480194, 

    -0.184901162981987, 0.10167279839515686, 
    0.16894197463989258, -0.054487112909555435, 

    0.0010395684512332082, -0.4307580292224884, 
    -0.1706332266330719, 0.06346366554498672, 

    0.0024071717634797096, 0.08613082766532898, 
    -0.13511693477630615, -0.24696315824985504, 

    0.07755114138126373, -0.14036546647548676, 
    0.09874816238880157, -0.19126328825950623, 

    -0.026422858238220215, -0.07542756199836731, 
    0.07165151834487915, 0.004286259412765503, 

    0.048853110522031784, 0.03902041167020798, 
    0.014871976338326931, 0.1401101052761078, 

    0.06345396488904953, -0.06343468278646469, 
    -0.06764848530292511, 0.04727274179458618, 

    -0.07104457914829254, 0.06153196841478348, 
    -0.23794683814048767, 0.07907167822122574, 

    0.06995585560798645, -0.11745806783437729, 
    -0.11053239554166794, -0.07321750372648239, 

    -0.05743391066789627, -0.28199538588523865, 
    -0.27418699860572815, 0.021455923095345497, 

    0.005435749888420105, 0.22399786114692688, 
    0.006657784804701805, 0.11561345309019089, 

    -0.047801703214645386, 0.16643452644348145, 
    0.042231589555740356, -0.08457228541374207, 

    -0.4890322685241699, -0.16695284843444824, 
    -0.15352965891361237, 0.2692790627479553, 

    -0.10982546955347061, 0.10498259961605072, 
    0.2345288246870041, -0.03287459537386894, 

    0.02397138811647892, -0.0968889445066452, 
    -0.13228487968444824, 0.1822303682565689, 

    -0.06137509271502495, -0.18922416865825653, 
    0.3330147862434387, -0.014247574843466282, 

    0.05033769831061363, -0.07381436228752136, 
    -0.06073329970240593, -0.10309618711471558, 

    0.006750166416168213, 0.06658726930618286, 
    -0.01924225687980652, -0.007180273532867432, 

    -0.2601194977760315, 0.12121541053056717, 
    0.037330977618694305, 0.007365851197391748, 

    -0.016018349677324295, -0.04500707983970642, 
    0.14162588119506836, 0.09155144542455673, 

    -0.03674512356519699, -0.06876332312822342, 
    -0.0024487467017024755, 0.1880355179309845, 

    0.10639238357543945, -0.2738262116909027, 
    -0.05253966152667999, 0.16179387271404266, 

    0.04292868822813034, -0.002440936863422394, 
    0.02762860804796219, -0.011779711581766605, 

        };
        static filter_t filter12 = {32, 2, weights12, 0.17310646176338196};
        filters[12]=filter12;
            
        static const float weights13[]={ 
    0.12035062164068222, 0.05455566197633743, 
    -0.06392788887023926, 0.12283310294151306, 

    0.17525818943977356, -0.09265314042568207, 
    -0.09309063106775284, 0.16994254291057587, 

    -0.07321850955486298, -0.0791551023721695, 
    0.005955848377197981, -0.08745097368955612, 

    -0.03356027230620384, 0.0013644446153193712, 
    0.24049371480941772, 0.06539422273635864, 

    0.028773246333003044, 0.012699820101261139, 
    -0.18359927833080292, -0.025900213047862053, 

    0.2193705290555954, -0.11103860288858414, 
    0.00958921853452921, 0.015804387629032135, 

    -0.04800747334957123, 0.07889697700738907, 
    -0.14274555444717407, 0.3215554654598236, 

    -0.008755306713283062, -0.06960844993591309, 
    -0.16622845828533173, 0.17936353385448456, 

    0.04759392514824867, 0.040497902780771255, 
    0.035232700407505035, -0.1839149296283722, 

    -0.027351299300789833, -0.12610521912574768, 
    -0.008898301981389523, 0.021296778693795204, 

    -0.017047779634594917, -0.037631817162036896, 
    -0.14342617988586426, -0.35994744300842285, 

    -0.05334004387259483, -0.004752859473228455, 
    0.04313477873802185, -0.0348859578371048, 

    -0.1732138693332672, -0.09480828046798706, 
    0.019613925367593765, 0.19936150312423706, 

    -0.05265459418296814, 0.05226629972457886, 
    0.026492059230804443, -0.04749500751495361, 

    0.09255074709653854, -0.045608676970005035, 
    -0.06885877251625061, 0.13934144377708435, 

    -0.002658875659108162, 0.010664906352758408, 
    0.10483594238758087, -0.17583800852298737, 

    0.13300158083438873, 0.08641314506530762, 
    -0.002918844111263752, -0.06709693372249603, 

    -0.0777842327952385, 0.11039305478334427, 
    0.10294841974973679, -0.3416268825531006, 

    -0.06761998683214188, -0.021962178871035576, 
    0.0031169760040938854, -0.1134197935461998, 

    -0.2035302072763443, 0.04346062242984772, 
    0.10976295173168182, -0.25073695182800293, 

    0.03385341539978981, -0.12963367998600006, 
    -0.11306147277355194, 0.0025016204454004765, 

    0.3558294475078583, 0.25209006667137146, 
    0.045681778341531754, -0.023090211674571037, 

    -0.02842775546014309, 0.060666754841804504, 
    -0.16051135957241058, 0.5123609900474548, 

    -0.05891285836696625, -0.03211599960923195, 
    0.029765944927930832, -0.06434131413698196, 

    0.013101691380143166, -0.058789875358343124, 
    -0.06445871293544769, 0.5702000856399536, 

    0.0022773523814976215, 0.08825560659170151, 
    -0.11380396783351898, 0.10356812924146652, 

    -0.013503164052963257, 0.05195087194442749, 
    0.1016145646572113, 0.07599881291389465, 

    0.2293703556060791, 0.007212161552160978, 
    -0.019722895696759224, -0.20981451869010925, 

    0.16764625906944275, -0.28367120027542114, 
    0.16588112711906433, 0.008967543952167034, 

    0.12030047178268433, 0.06941178441047668, 
    -0.1343323141336441, 0.28584590554237366, 

    0.14234188199043274, 0.15433718264102936, 
    -0.09790623933076859, -0.3850364685058594, 

    -0.07814130932092667, 0.05934921279549599, 
    0.11454210430383682, -0.1853426694869995, 

        };
        static filter_t filter13 = {32, 2, weights13, 0.058093614876270294};
        filters[13]=filter13;
            
        static const float weights14[]={ 
    0.17651313543319702, -0.059759363532066345, 
    0.14939840137958527, 0.04102911427617073, 

    0.0940471813082695, 0.011018999852240086, 
    0.11584727466106415, 0.11932984739542007, 

    -0.05790391564369202, -0.07084836810827255, 
    -0.04756203666329384, 0.07773236185312271, 

    0.09643960744142532, -0.06379977613687515, 
    0.23701848089694977, -0.14095191657543182, 

    0.014771619811654091, 0.07931926101446152, 
    0.11304254829883575, 0.013856559991836548, 

    -0.0862269252538681, -1.004294753074646, 
    0.115811288356781, -0.04934344068169594, 

    0.0038032166194170713, 0.052986305207014084, 
    0.11758439987897873, -0.09733247011899948, 

    0.10608275234699249, -0.57548987865448, 
    -0.04509584605693817, 0.12425993382930756, 

    -0.19006198644638062, 0.04072101041674614, 
    -0.08319573104381561, 0.33925703167915344, 

    0.2821699380874634, -0.9394134879112244, 
    0.05296455696225166, 0.3971448540687561, 

    0.14546869695186615, -0.08819958567619324, 
    -0.13863353431224823, 0.072545126080513, 

    0.12889574468135834, -0.1329418420791626, 
    0.094441257417202, 0.15601184964179993, 

    0.04067022725939751, 0.034070003777742386, 
    0.23993131518363953, -0.4476950764656067, 

    -0.03265047073364258, -0.08109000325202942, 
    0.015088289976119995, 0.05700260400772095, 

    -0.08932337909936905, 0.0578150637447834, 
    0.11295409500598907, 0.007696771062910557, 

    0.13303543627262115, -0.07488802075386047, 
    -0.12854905426502228, 0.06413695961236954, 

    0.04943600669503212, 0.09395603835582733, 
    0.08402282744646072, -0.063808873295784, 

    0.14544516801834106, 0.050760041922330856, 
    -0.06541483849287033, 0.05718362703919411, 

    -0.039514727890491486, 0.09234990924596786, 
    -0.16860656440258026, -0.06789400428533554, 

    -0.015017526224255562, -0.0816890299320221, 
    -0.030240725725889206, 0.127855584025383, 

    0.15049339830875397, -0.46410760283470154, 
    -0.16929014027118683, 0.06632736325263977, 

    0.11902172118425369, 0.0015803405549377203, 
    -0.03548097610473633, -0.13398253917694092, 

    -0.005317338742315769, 0.10040248185396194, 
    0.1516578048467636, 0.15498444437980652, 

    -0.03720013424754143, -0.011847014538943768, 
    0.1933002471923828, 0.1801367700099945, 

    -0.13659434020519257, -0.12903553247451782, 
    0.21293500065803528, 0.03178365156054497, 

    0.14348824322223663, 0.04416341334581375, 
    0.23445913195610046, 0.21425595879554749, 

    -0.02938699722290039, 0.006667017936706543, 
    -0.10528850555419922, 0.05706506967544556, 

    0.03764050826430321, -0.39019861817359924, 
    -0.12226513773202896, -0.14991845190525055, 

    -0.05774121358990669, -0.10044214874505997, 
    0.0567009299993515, -0.16598734259605408, 

    -0.015365456230938435, -0.03720306232571602, 
    -0.039313241839408875, 0.036959122866392136, 

    0.038170021027326584, 0.06795874238014221, 
    -0.03823369741439819, 0.06959492713212967, 

    -0.048436522483825684, 0.00929521955549717, 
    -0.024305878207087517, -0.04577454924583435, 

        };
        static filter_t filter14 = {32, 2, weights14, 0.03853289783000946};
        filters[14]=filter14;
            
        static const float weights15[]={ 
    0.16178511083126068, -0.018040895462036133, 
    -0.20404081046581268, 0.037574607878923416, 

    0.020833125337958336, 0.05471160635352135, 
    -0.10116953402757645, 0.14480485022068024, 

    0.008430504240095615, -0.05358989164233208, 
    0.08909159898757935, -0.25573164224624634, 

    0.019985884428024292, 0.19869385659694672, 
    -0.0181257426738739, 0.28669050335884094, 

    0.06767046451568604, -0.04446490481495857, 
    -0.11486374586820602, 0.026296265423297882, 

    0.011339486576616764, 0.13656006753444672, 
    0.16597113013267517, 0.03678501024842262, 

    -0.08071751147508621, -0.13761959969997406, 
    -0.1398187130689621, 0.16985945403575897, 

    0.05789000540971756, 0.02181173488497734, 
    -0.06675000488758087, 0.005168085917830467, 

    -0.04650669917464256, 0.30810460448265076, 
    0.14193888008594513, -0.45869186520576477, 

    0.08471103757619858, 0.13360640406608582, 
    -0.1331188976764679, 0.22625255584716797, 

    0.08282516896724701, -0.0579998716711998, 
    0.03610490635037422, -0.16464947164058685, 

    0.06984041631221771, -0.15739621222019196, 
    0.10684366524219513, -0.08075720071792603, 

    0.016760515049099922, -0.16705180704593658, 
    0.054673224687576294, 0.19062641263008118, 

    0.03934428095817566, 0.015380561351776123, 
    -0.024265766143798828, -0.09053963422775269, 

    0.09292703121900558, -0.10835938900709152, 
    -0.08198563009500504, -0.05993512272834778, 

    -0.09777237474918365, -0.15333370864391327, 
    0.04511624202132225, -0.05020507425069809, 

    -0.06398037821054459, 0.08187106996774673, 
    0.15796472132205963, -0.27890458703041077, 

    0.04578763619065285, 0.022835060954093933, 
    -0.10795608907938004, 0.038522351533174515, 

    -0.02326943911612034, -0.066470667719841, 
    0.24865612387657166, -0.2622547447681427, 

    0.05619492381811142, 0.09308868646621704, 
    -0.08305267989635468, 0.06326495110988617, 

    0.05746039003133774, 0.06136208400130272, 
    0.1270603984594345, 0.01265732105821371, 

    -0.08518609404563904, 0.18261021375656128, 
    0.082402803003788, -0.20601749420166016, 

    -0.02641775645315647, -0.16087126731872559, 
    -0.18663281202316284, -0.06531316041946411, 

    0.04871876910328865, -0.08587657660245895, 
    0.07335831224918365, 0.08783247321844101, 

    -0.24407149851322174, -0.0158986933529377, 
    0.024351775646209717, 0.03595757856965065, 

    0.11597857624292374, 0.17235690355300903, 
    -0.011344041675329208, 0.01115766353905201, 

    0.027977943420410156, 0.10187143087387085, 
    0.10682857036590576, -0.05306944251060486, 

    0.06760367006063461, 0.06950825452804565, 
    -0.22321248054504395, -0.03760388493537903, 

    0.02296416275203228, 0.01886090822517872, 
    0.2395070642232895, 0.1536644846200943, 

    0.09351816773414612, -0.0843905583024025, 
    0.0027329963631927967, -0.043990608304739, 

    -0.10565648227930069, -0.19582147896289825, 
    -0.0029510189779102802, -0.0755460187792778, 

    -0.051668185740709305, -0.15651801228523254, 
    0.12238078564405441, 0.15709437429904938, 

        };
        static filter_t filter15 = {32, 2, weights15, 0.1308281123638153};
        filters[15]=filter15;
            
        static const float weights16[]={ 
    0.1685282289981842, 0.3092951774597168, 
    -0.1528894305229187, -0.21018274128437042, 

    0.03265310451388359, 0.054955098778009415, 
    0.08473113179206848, 0.012767629697918892, 

    -0.13128183782100677, 0.20340274274349213, 
    -0.1402004212141037, 0.1371494084596634, 

    -0.2074558287858963, -0.352430135011673, 
    0.1670958697795868, 0.0857936218380928, 

    0.23095598816871643, 0.08619308471679688, 
    0.02746680937707424, 0.13746324181556702, 

    0.04659503698348999, -0.08470318466424942, 
    -0.11262087523937225, 0.10297027975320816, 

    -0.08396461606025696, 0.09084014594554901, 
    -0.21156062185764313, -0.033523138612508774, 

    0.06994058936834335, -0.07146681845188141, 
    0.014083788730204105, 0.10575233399868011, 

    0.2607501745223999, 0.08673061430454254, 
    -0.22499695420265198, -0.08464903384447098, 

    -0.015114732086658478, 0.1927032321691513, 
    -0.014353296719491482, 0.24207143485546112, 

    0.18551068007946014, -0.11104970425367355, 
    0.13132265210151672, -0.13789266347885132, 

    -0.07366383075714111, 0.04619700089097023, 
    -0.11859272420406342, -0.04235196113586426, 

    -0.0929863378405571, -0.25030484795570374, 
    0.10445323586463928, -0.03908555954694748, 

    -0.0840420126914978, 0.02038845419883728, 
    0.07995131611824036, 0.07492426037788391, 

    -0.06671179085969925, 0.028961792588233948, 
    -0.037175267934799194, -0.1377091258764267, 

    -0.46597421169281006, 0.10029296576976776, 
    -0.03970513120293617, 0.06324565410614014, 

    0.1455213576555252, -0.06935238838195801, 
    0.08233489096164703, -0.046862199902534485, 

    -0.3927544951438904, -0.12352684885263443, 
    -0.14287126064300537, -0.03574836999177933, 

    0.09764917939901352, 0.17719082534313202, 
    0.09634870290756226, -0.18358832597732544, 

    0.056994322687387466, 0.04367757961153984, 
    -0.037994273006916046, 0.10308782011270523, 

    -0.008840427733957767, 0.002127955434843898, 
    -0.25809532403945923, 0.1903802901506424, 

    0.1734687089920044, 0.06609974801540375, 
    -0.06917491555213928, -0.03806979954242706, 

    -0.3026213049888611, -0.1851002275943756, 
    -0.3578962981700897, 0.019888952374458313, 

    -0.1371878981590271, 0.07526370137929916, 
    -0.01974346674978733, -0.027455581352114677, 

    -0.24094079434871674, -0.024737589061260223, 
    0.19829514622688293, -0.03454224765300751, 

    0.09184376895427704, 0.03176383674144745, 
    0.16763688623905182, 0.21077995002269745, 

    -0.07105791568756104, -0.052834153175354004, 
    -0.10828420519828796, 0.02606341242790222, 

    0.1591772884130478, 0.21912088990211487, 
    -0.12226511538028717, 0.18864844739437103, 

    -0.03766924515366554, -0.21287518739700317, 
    0.07739446312189102, -0.21906085312366486, 

    0.07342354208230972, 0.047876570373773575, 
    -0.001361976028420031, -0.12916414439678192, 

    0.024164333939552307, -0.039849426597356796, 
    0.08920655399560928, -0.09980855882167816, 

    -0.15485787391662598, -0.10223276168107986, 
    -0.058641403913497925, -0.02046140842139721, 

        };
        static filter_t filter16 = {32, 2, weights16, 0.08651293069124222};
        filters[16]=filter16;
            
        static const float weights17[]={ 
    0.14253194630146027, 0.05538076162338257, 
    -0.15638266503810883, 0.05343934893608093, 

    -0.166047140955925, -0.04596223309636116, 
    0.0474618636071682, -0.004394919611513615, 

    -0.037961695343256, -0.1616957038640976, 
    0.0672488883137703, -0.026393357664346695, 

    -0.010323889553546906, 0.033439796417951584, 
    -0.1535530537366867, -0.08091558516025543, 

    0.09658529609441757, -0.09072909504175186, 
    0.08206700533628464, 0.029909631237387657, 

    0.019214825704693794, -0.11915940046310425, 
    -0.050938401371240616, -0.19383679330348969, 

    0.09188812226057053, -0.04562736675143242, 
    -0.2310800999403, -0.03970882296562195, 

    -0.03908194601535797, -0.04728248715400696, 
    -0.03634488955140114, -0.050034478306770325, 

    0.37895241379737854, 0.08713291585445404, 
    0.04604285582900047, 0.05267726257443428, 

    0.07338588684797287, -0.18750272691249847, 
    0.20301976799964905, 0.1429562270641327, 

    0.12794402241706848, 0.019231678918004036, 
    0.04939594492316246, 0.10641352087259293, 

    -0.14611728489398956, 0.05132397264242172, 
    -0.030750812962651253, -0.19804951548576355, 

    -0.08067528903484344, -0.14552846550941467, 
    -0.8056020140647888, -0.3349605202674866, 

    0.039065778255462646, 0.09256905317306519, 
    -0.0725642740726471, -0.06772351264953613, 

    -0.08151622116565704, -0.1008981466293335, 
    -0.11671102792024612, -0.16573762893676758, 

    -0.03427540883421898, -0.1159437894821167, 
    -0.03594249486923218, 0.06415829807519913, 

    0.07187245041131973, -0.005231618881225586, 
    0.07923174649477005, 0.0014111868804320693, 

    -0.06652156263589859, -0.10243265330791473, 
    -0.06889631599187851, -0.13116022944450378, 

    0.19372060894966125, 0.022964216768741608, 
    -0.08906643837690353, -0.09965604543685913, 

    -0.004270343575626612, 0.205733984708786, 
    -0.055612336844205856, 0.049043942242860794, 

    0.009030799381434917, -0.041025999933481216, 
    0.10118928551673889, 0.23253695666790009, 

    0.594788670539856, 0.068669892847538, 
    0.1198040023446083, -0.08265062421560287, 

    0.2075221687555313, 0.07848095893859863, 
    -0.6805838942527771, -0.36227911710739136, 

    -0.13186919689178467, -0.026006553322076797, 
    -0.13459867238998413, 0.049482136964797974, 

    0.2565058171749115, 0.13316461443901062, 
    -0.288389652967453, 0.030570460483431816, 

    -0.1390724927186966, 0.1311446875333786, 
    0.03139069676399231, 0.013067271560430527, 

    0.03330931067466736, 0.04869547486305237, 
    -0.018170297145843506, -0.08534985780715942, 

    0.2888124883174896, -0.2133089303970337, 
    0.14186161756515503, -0.13563013076782227, 

    0.19255295395851135, 0.09204038232564926, 
    0.12035582214593887, -0.026905829086899757, 

    -0.07693665474653244, 0.11936432123184204, 
    -0.04170776903629303, -0.07958848774433136, 

    0.03197098895907402, -0.003295493545010686, 
    0.05634250491857529, 0.09464211016893387, 

    -0.05470708757638931, -0.11365104466676712, 
    0.022600354626774788, -0.055437199771404266, 

        };
        static filter_t filter17 = {32, 2, weights17, 0.13831797242164612};
        filters[17]=filter17;
            
        static const float weights18[]={ 
    -0.34420913457870483, 0.08481458574533463, 
    -0.005057749338448048, 0.059394121170043945, 

    0.08001977950334549, 0.04514032229781151, 
    -0.08982455730438232, -0.07605249434709549, 

    -0.1237836703658104, -0.12082434445619583, 
    0.13951349258422852, 0.19326643645763397, 

    -0.048883430659770966, 0.012287491001188755, 
    0.13081613183021545, 0.15930353105068207, 

    -0.3235601782798767, 0.08142522722482681, 
    0.071556955575943, -0.04258832708001137, 

    0.10777104645967484, -0.23695261776447296, 
    0.08577586710453033, -0.13964703679084778, 

    0.011387665756046772, -0.04306510463356972, 
    0.025316432118415833, 0.14495907723903656, 

    -0.03438209369778633, -0.18632805347442627, 
    0.030143992975354195, -0.13442333042621613, 

    0.08452295511960983, -0.1519329994916916, 
    -0.20034930109977722, 0.26115429401397705, 

    0.13101030886173248, -0.4276500940322876, 
    0.19678890705108643, 0.011877156794071198, 

    -0.26068544387817383, 0.025303376838564873, 
    0.062257859855890274, 0.1833282709121704, 

    -0.0226368959993124, 0.0037118415348231792, 
    -0.019619612023234367, -0.031244872137904167, 

    -0.06244276091456413, -0.056689679622650146, 
    0.07873362302780151, 0.1986730396747589, 

    -0.12025681138038635, -0.04353669285774231, 
    0.010350346565246582, 0.11550143361091614, 

    -0.032589517533779144, 0.10928027331829071, 
    -0.017397433519363403, -0.047728486359119415, 

    -0.0994238555431366, -0.07475532591342926, 
    -0.07664009183645248, 0.029463782906532288, 

    -0.21262729167938232, 0.054531462490558624, 
    0.0880775973200798, 0.163005992770195, 

    -0.06322631984949112, 0.08572003990411758, 
    0.014284712262451649, 0.08264445513486862, 

    -0.17538654804229736, -0.1159888356924057, 
    -0.0033361066598445177, -0.025204196572303772, 

    -0.13060298562049866, -0.12392740696668625, 
    0.12290460616350174, 0.12269056588411331, 

    0.030838800594210625, -0.11390046775341034, 
    0.03370010852813721, 0.02140643261373043, 

    -0.20847436785697937, 0.016120094805955887, 
    -0.08961597084999084, 0.09252984076738358, 

    -0.04547364264726639, 0.12095577269792557, 
    0.07380124181509018, 0.1147274523973465, 

    0.10039711743593216, 0.007776928134262562, 
    0.03994818776845932, -0.009500302374362946, 

    -0.1927044689655304, -0.07175518572330475, 
    -0.05307772010564804, 0.18697865307331085, 

    0.11218566447496414, 0.07558093219995499, 
    -0.06319530308246613, -0.22314588725566864, 

    -0.04074740409851074, 0.06672549247741699, 
    0.05612143874168396, -0.03994256258010864, 

    -0.17770488560199738, -0.09471599012613297, 
    -0.08852490782737732, -0.047260887920856476, 

    -0.11733278632164001, 0.06557353585958481, 
    0.027669111266732216, -0.11487321555614471, 

    -0.03684153035283089, 0.034964922815561295, 
    0.010412297211587429, -0.11703388392925262, 

    -0.07096149772405624, -0.05472283065319061, 
    0.1325870156288147, 0.1377754509449005, 

    0.07885681837797165, -0.12241721898317337, 
    -0.09272487461566925, 0.2435578852891922, 

        };
        static filter_t filter18 = {32, 2, weights18, 0.16237863898277283};
        filters[18]=filter18;
            
        static const float weights19[]={ 
    0.08792069554328918, -0.1551971137523651, 
    -0.13664406538009644, -0.06879887729883194, 

    0.06085924431681633, -0.12005209177732468, 
    0.10986371338367462, 0.04416147619485855, 

    0.03590238839387894, 0.1148722842335701, 
    -0.11364516615867615, -0.016022151336073875, 

    0.08063852787017822, -0.032892193645238876, 
    -0.13548922538757324, 0.1075676903128624, 

    -0.013419101014733315, -0.06551007181406021, 
    0.09078513830900192, -0.157806396484375, 

    0.09941624104976654, 0.0404396615922451, 
    0.023379841819405556, 0.29573991894721985, 

    -0.0707300677895546, 0.13323859870433807, 
    0.1332050859928131, -0.13767074048519135, 

    -0.04087263345718384, -0.033226728439331055, 
    0.08429338783025742, 0.17809000611305237, 

    0.030312467366456985, -0.11031023412942886, 
    -0.05331669747829437, -0.28295955061912537, 

    0.040068794041872025, 0.2900348901748657, 
    0.10247496515512466, 0.4177306890487671, 

    -0.04489419236779213, 0.026406822726130486, 
    0.047623392194509506, 0.06026548519730568, 

    0.036003775894641876, 0.011696215718984604, 
    0.08407007157802582, 0.013055947609245777, 

    -0.07927042990922928, -0.048504363745450974, 
    0.14078208804130554, -0.11923656612634659, 

    -0.03589797019958496, -0.08889046311378479, 
    -0.09864208102226257, 0.04897710680961609, 

    0.06314576417207718, -0.02153765596449375, 
    -0.014099281281232834, 0.07418135553598404, 

    0.015430262312293053, 0.09154859185218811, 
    0.027207177132368088, 0.09673714637756348, 

    -0.1212627962231636, -0.00638884212821722, 
    -0.14109592139720917, -0.182376429438591, 

    -0.10739041864871979, 0.07923747599124908, 
    0.017063356935977936, 0.06685402989387512, 

    -0.10410286486148834, -0.2040364146232605, 
    0.06760769337415695, -0.09684543311595917, 

    0.045327190309762955, 0.030596842989325523, 
    -0.1323111653327942, 0.07075991481542587, 

    -0.024055926129221916, -0.021386081352829933, 
    -0.18651293218135834, 0.13217951357364655, 

    -0.21845850348472595, 0.07937050610780716, 
    -0.05806143209338188, -0.01561828888952732, 

    -0.09574860334396362, 0.016291078180074692, 
    0.11032664775848389, -0.4066603183746338, 

    0.07900470495223999, 0.043220873922109604, 
    0.1181953176856041, -0.04380442202091217, 

    -0.03278568014502525, -0.1864510029554367, 
    0.11397469788789749, -0.23340265452861786, 

    0.09947243332862854, 0.06807930022478104, 
    0.040563277900218964, -0.0063510495238006115, 

    0.022436171770095825, 0.09408965706825256, 
    -0.005831658840179443, 0.06576994061470032, 

    0.013520564883947372, -0.18781551718711853, 
    -0.2454092800617218, 0.06031681224703789, 

    0.09826996177434921, -0.40109533071517944, 
    0.10903534293174744, -0.07449596375226974, 

    -0.06605637073516846, -0.010217010043561459, 
    -0.1870620846748352, -0.13515950739383698, 

    -0.1134263351559639, -0.20808641612529755, 
    0.11311214417219162, 0.05829820781946182, 

    -0.011277304030954838, 0.11523128300905228, 
    0.07750684022903442, 0.13261081278324127, 

        };
        static filter_t filter19 = {32, 2, weights19, 0.20808406174182892};
        filters[19]=filter19;
            
        static const float weights20[]={ 
    0.05206955224275589, -0.01614486426115036, 
    0.19143307209014893, 0.2527979612350464, 

    0.07400815933942795, -0.039520081132650375, 
    -0.16869142651557922, 0.13930241763591766, 

    0.055180903524160385, -0.022591235116124153, 
    0.05120091885328293, -0.13024307787418365, 

    0.14408744871616364, -0.1266673356294632, 
    0.31711575388908386, -0.05340569093823433, 

    -0.09124290943145752, -0.3359355330467224, 
    -0.21608473360538483, -0.08745650947093964, 

    0.03351842239499092, 0.07754030078649521, 
    -0.0031378171406686306, -0.07528921961784363, 

    -0.10561500489711761, -0.08024199306964874, 
    0.081625796854496, 0.20960913598537445, 

    -0.02187245711684227, 0.005006490740925074, 
    0.016400383785367012, 0.042366404086351395, 

    0.0781758651137352, -0.19380244612693787, 
    0.13038335740566254, 0.2951546907424927, 

    0.06133952736854553, 0.004028955940157175, 
    0.20174720883369446, -0.5290151834487915, 

    -0.016066614538431168, -0.11015018820762634, 
    -0.19589881598949432, -0.022364541888237, 

    -0.09558674693107605, -0.03465951606631279, 
    0.05682642385363579, -0.4042524993419647, 

    0.08873413503170013, -0.01769878715276718, 
    0.32923856377601624, -0.006858083885163069, 

    -0.12239468097686768, -0.0141754150390625, 
    -0.03498554229736328, -0.06804138422012329, 

    0.12483510375022888, -0.01900632306933403, 
    -0.12881618738174438, -0.1111472025513649, 

    0.027041051536798477, 0.10563184320926666, 
    0.010085716843605042, -0.033834151923656464, 

    0.010302028618752956, -0.00541753089055419, 
    0.148870587348938, -0.07133927941322327, 

    0.07756143808364868, 0.029512381181120872, 
    0.03917651250958443, -0.10063427686691284, 

    0.028933601453900337, -0.3480307459831238, 
    -0.16986089944839478, 0.10188658535480499, 

    -0.09401467442512512, -0.10340876877307892, 
    0.09366465359926224, 0.057814281433820724, 

    -0.041186876595020294, -0.028059348464012146, 
    0.014002697542309761, 0.02803267166018486, 

    -0.15139618515968323, -0.16208089888095856, 
    0.0035882648080587387, 0.13421663641929626, 

    -0.006955505348742008, 0.15252745151519775, 
    0.4111332893371582, 0.3887210488319397, 

    -0.022296128794550896, 0.019131803885102272, 
    -0.060127176344394684, 0.002977503929287195, 

    0.07002592086791992, -0.23246487975120544, 
    0.2682100236415863, 0.04557992145419121, 

    -0.06322231888771057, -0.12333444505929947, 
    -0.01583746261894703, -0.16555100679397583, 

    0.026120871305465698, 0.022440999746322632, 
    -0.10399091243743896, -0.08453810214996338, 

    -0.18551504611968994, -0.24652732908725739, 
    -0.0344887375831604, -0.05349911004304886, 

    -0.09775499999523163, -0.23712091147899628, 
    -0.08131241053342819, 0.17018325626850128, 

    3.27957677654922e-05, 0.10217985510826111, 
    0.09227719157934189, 0.0743238627910614, 

    0.09136448800563812, -0.3718433976173401, 
    0.06720161437988281, 0.2184358835220337, 

    0.054076679050922394, 0.06574032455682755, 
    -0.024113286286592484, 0.2177203744649887, 

        };
        static filter_t filter20 = {32, 2, weights20, 0.18190091848373413};
        filters[20]=filter20;
            
        static const float weights21[]={ 
    -0.13816715776920319, 0.10794701427221298, 
    0.26745566725730896, -0.11661577224731445, 

    -0.13257093727588654, 0.0754070058465004, 
    0.11769144237041473, 0.05252252146601677, 

    0.012947533279657364, 0.06954658031463623, 
    -0.29887115955352783, 0.1131163090467453, 

    0.11199035495519638, 0.15686625242233276, 
    -0.2560312747955322, -0.1391933560371399, 

    0.06315167248249054, -0.030607685446739197, 
    0.07015428692102432, 0.11227566003799438, 

    -0.007236110977828503, -0.008254173211753368, 
    -0.07258277386426926, -0.007902256213128567, 

    -0.05042950063943863, -0.031615905463695526, 
    0.24606360495090485, -0.31510746479034424, 

    0.08718203008174896, 0.021850397810339928, 
    0.011821855790913105, 0.04061928763985634, 

    0.18102118372917175, -0.06811553984880447, 
    -0.15060053765773773, 0.054842960089445114, 

    0.24625568091869354, 0.029296409338712692, 
    0.19202940165996552, 0.09654408693313599, 

    0.08597712963819504, 0.11579418182373047, 
    0.1809537261724472, 0.10582324117422104, 

    -0.2127298265695572, 0.09910675138235092, 
    0.024902360513806343, -0.07778066396713257, 

    0.025528455153107643, -0.09351906180381775, 
    -0.3198910653591156, 0.2508102357387543, 

    0.0723135769367218, 0.040781617164611816, 
    0.003475666046142578, -0.07023945450782776, 

    -0.07116662710905075, -0.05120869725942612, 
    -0.124380923807621, 0.02327580191195011, 

    0.0217586662620306, -0.04019147902727127, 
    -0.1667889505624771, -0.19920581579208374, 

    0.09360451996326447, 0.049713071435689926, 
    -0.10516645759344101, 0.16730418801307678, 

    -0.18091252446174622, 0.021817248314619064, 
    -0.03507962077856064, -0.07826713472604752, 

    0.2329017072916031, 0.05274423211812973, 
    0.003957709763199091, 0.07354532927274704, 

    0.09227021038532257, 0.0906735435128212, 
    0.017604026943445206, 0.14752793312072754, 

    0.12574012577533722, 0.007064965087920427, 
    0.045124441385269165, -0.32789134979248047, 

    0.21174725890159607, -0.0839129313826561, 
    0.17943279445171356, 0.10333534330129623, 

    -0.08084263652563095, 0.09591925144195557, 
    -0.13205347955226898, -0.31094107031822205, 

    -0.11809712648391724, -0.05041252076625824, 
    -0.0771486908197403, -0.10559502243995667, 

    0.16508273780345917, 0.06998424977064133, 
    -0.4347061216831207, -0.39827975630760193, 

    -0.21322831511497498, 0.04057689011096954, 
    0.10432754456996918, 0.0925646498799324, 

    -0.10878407955169678, -0.06529945135116577, 
    -0.030669838190078735, -0.12271538376808167, 

    0.0823916420340538, 0.011479816399514675, 
    0.226548433303833, 0.13206177949905396, 

    -0.13826265931129456, 0.04033409059047699, 
    0.10698004066944122, -0.07860753685235977, 

    -0.22903184592723846, -0.11270727962255478, 
    -0.03225879371166229, -0.13578253984451294, 

    0.18879792094230652, 0.11807471513748169, 
    0.003005858976393938, 0.07194988429546356, 

    -0.016743963584303856, 0.014319204725325108, 
    -0.062893807888031, -0.26543864607810974, 

        };
        static filter_t filter21 = {32, 2, weights21, 0.1449868083000183};
        filters[21]=filter21;
            
        static const float weights22[]={ 
    0.3530203700065613, -0.0734904557466507, 
    0.11534641683101654, 0.019126752391457558, 

    -0.04515795409679413, -0.03968241438269615, 
    0.016995834186673164, -0.13215790688991547, 

    -0.10013623535633087, -0.24052461981773376, 
    0.054825346916913986, 0.137293741106987, 

    0.0923825204372406, -0.025047529488801956, 
    -0.3908449709415436, -0.017252271994948387, 

    0.053084224462509155, 0.0007762969471514225, 
    0.008143054321408272, 0.02828509919345379, 

    0.07358422130346298, 0.059756647795438766, 
    -0.01326436921954155, 0.0399002842605114, 

    -0.060679126530885696, 0.03660512715578079, 
    -0.31781330704689026, -0.13901227712631226, 

    -0.1404023915529251, 0.049098026007413864, 
    -0.1442132443189621, 0.00963796116411686, 

    0.010720121674239635, 0.0961410254240036, 
    0.11968779563903809, -0.07021276652812958, 

    -0.015162784606218338, 0.12620656192302704, 
    -0.009323674254119396, 0.03167552500963211, 

    -0.18190538883209229, -0.002129922155290842, 
    0.05996936932206154, -0.12511473894119263, 

    0.041175976395606995, 0.08319738507270813, 
    -0.07321834564208984, 0.08757462352514267, 

    0.011938603594899178, 0.09278933703899384, 
    -0.05624329298734665, -0.1463925838470459, 

    -0.12010782957077026, -0.0005407631397247314, 
    -0.0420585572719574, -0.11181363463401794, 

    0.02648645080626011, -0.059430256485939026, 
    -0.10088956356048584, 0.004297689534723759, 

    -0.13775363564491272, -0.09989029914140701, 
    0.017710566520690918, 0.1259557604789734, 

    -0.21597467362880707, 0.09089150279760361, 
    0.1606748402118683, -0.006280072964727879, 

    0.05579337850213051, 0.034603096544742584, 
    0.08201466500759125, 0.07390513271093369, 

    -0.024588292464613914, 0.025102626532316208, 
    0.12558554112911224, 0.011904707178473473, 

    -0.29551011323928833, -0.04106954485177994, 
    -0.109747514128685, 0.050741080194711685, 

    0.11610614508390427, 0.009104467928409576, 
    -0.13711212575435638, -0.17680779099464417, 

    -0.03517468646168709, -0.11380700767040253, 
    0.22354932129383087, 0.2975749969482422, 

    0.24605487287044525, 0.10646775364875793, 
    -0.5226505398750305, -0.27535584568977356, 

    0.011124738492071629, -0.006211008410900831, 
    -0.08905757963657379, -0.016757166013121605, 

    0.2902719974517822, 0.015628883615136147, 
    0.11848586052656174, -0.04326846823096275, 

    -0.09439103305339813, 0.16489306092262268, 
    0.0540817566215992, -0.10153153538703918, 

    0.01586058735847473, 0.0742725133895874, 
    0.0912589430809021, -0.0009863674640655518, 

    -0.14740118384361267, 0.10902690142393112, 
    -0.14216473698616028, 0.09491360187530518, 

    -0.013728808611631393, 0.1256151795387268, 
    0.0866939052939415, 0.11717154085636139, 

    -0.0642911046743393, -0.09392976015806198, 
    0.02496667578816414, 0.11769009381532669, 

    -0.2370356321334839, 0.08465180546045303, 
    0.08340952545404434, -0.07102902978658676, 

    -0.02684219740331173, -0.10074708610773087, 
    -0.023928651586174965, 0.18281599879264832, 

        };
        static filter_t filter22 = {32, 2, weights22, 0.07793369889259338};
        filters[22]=filter22;
            
        static const float weights23[]={ 
    0.1269102692604065, -0.136627659201622, 
    0.11158912628889084, 0.06929522752761841, 

    -0.01572968065738678, 0.05429328605532646, 
    0.08149436116218567, 0.07847399264574051, 

    0.08244691044092178, -0.00515025807544589, 
    -0.08132292330265045, -0.016172563657164574, 

    -0.45461511611938477, -0.04277198761701584, 
    0.060682911425828934, 0.10977799445390701, 

    0.0829731747508049, -0.06330239772796631, 
    -0.161804661154747, 0.08122498542070389, 

    -0.13600607216358185, -0.15771251916885376, 
    -0.12446492165327072, 0.2301587164402008, 

    -0.1390644609928131, -0.14934678375720978, 
    0.20073042809963226, 0.3080219626426697, 

    0.024363037198781967, -0.2780250906944275, 
    0.019397255033254623, 0.2949034869670868, 

    0.17342177033424377, 0.03491407632827759, 
    0.14749591052532196, -0.4272664785385132, 

    -0.07470062375068665, -0.11010029166936874, 
    -0.044543083757162094, -0.08843988180160522, 

    -0.0753013864159584, 0.0887594148516655, 
    -0.19600044190883636, -0.2923086881637573, 

    0.06540212780237198, 0.007857437245547771, 
    -0.05936907231807709, -0.09082070738077164, 

    0.027164697647094727, 0.0050031631253659725, 
    0.2865235507488251, 0.19960010051727295, 

    0.044020384550094604, -0.021009713411331177, 
    0.11315855383872986, -0.01560509204864502, 

    -0.10453414171934128, -0.00787223782390356, 
    -0.05119660124182701, 0.08195941150188446, 

    -0.08670003712177277, 0.10972042381763458, 
    -0.07776609063148499, -0.16973665356636047, 

    0.15839959681034088, -0.0013085100799798965, 
    -0.1979026049375534, -0.03752202168107033, 

    0.027212968096137047, -0.056829746812582016, 
    0.03287765011191368, -0.1907695233821869, 

    0.06682754307985306, 0.04418473690748215, 
    -0.10790679603815079, -0.2501698434352875, 

    0.1803523749113083, 0.12767931818962097, 
    -0.21068421006202698, 0.14193616807460785, 

    0.06806687265634537, -0.40900248289108276, 
    -0.17910899221897125, 0.037475429475307465, 

    0.17494341731071472, -0.16697363555431366, 
    -0.00913418922573328, -0.08423248678445816, 

    0.18171793222427368, 0.018105527386069298, 
    0.2641635239124298, 0.13655947148799896, 

    -0.001876911148428917, 0.11718872934579849, 
    -0.1046711802482605, -0.17274831235408783, 

    -0.3231732249259949, -0.10780593007802963, 
    0.4685627818107605, 0.17492488026618958, 

    0.1644531488418579, -0.3012288510799408, 
    0.10156100988388062, 0.14298245310783386, 

    0.06235986948013306, 0.019343674182891846, 
    0.053019970655441284, 0.08750388026237488, 

    0.021809881553053856, -0.17963629961013794, 
    -0.533173143863678, 0.05870101973414421, 

    0.08134421706199646, -0.05103727802634239, 
    0.14998379349708557, -0.1659257411956787, 

    -0.027190787717700005, -0.07763049751520157, 
    0.09341391175985336, -0.03190888464450836, 

    -0.03647155687212944, 0.0773407444357872, 
    -0.08123397827148438, -0.02416757307946682, 

    -0.06237469241023064, 0.01774289831519127, 
    0.029516197741031647, 0.12863807380199432, 

        };
        static filter_t filter23 = {32, 2, weights23, 0.11209402978420258};
        filters[23]=filter23;
            
        static const float weights24[]={ 
    -0.145983025431633, -0.002898858394473791, 
    -0.10118012875318527, -0.19056947529315948, 

    -0.024120869114995003, -0.09678734093904495, 
    0.06742151081562042, 0.07795806229114532, 

    -0.15756842494010925, -0.1760726124048233, 
    -0.035774338990449905, 0.09188049286603928, 

    -0.2866438329219818, -0.4499017000198364, 
    -0.17069512605667114, -0.0756426453590393, 

    0.11117881536483765, 0.11499158293008804, 
    0.03810732066631317, 0.10970181971788406, 

    0.07784632593393326, -0.14564166963100433, 
    -0.10283586382865906, -0.3590748906135559, 

    -0.5463988184928894, -0.09106964617967606, 
    0.15177594125270844, -0.23898129165172577, 

    0.20895527303218842, 0.17794999480247498, 
    -0.033561304211616516, -0.21848051249980927, 

    0.2984474003314972, -0.013338105753064156, 
    -0.26313185691833496, -0.18523868918418884, 

    0.16665638983249664, -0.10475838929414749, 
    -0.22817233204841614, -0.3839903473854065, 

    -0.017198989167809486, 0.1059689074754715, 
    0.08698196709156036, 0.10380636900663376, 

    -0.026161199435591698, 0.07434265315532684, 
    -0.07739526778459549, 0.12214075773954391, 

    -0.8432943820953369, -0.13942107558250427, 
    0.017930302768945694, -0.16609753668308258, 

    -0.03020799160003662, -0.04967528581619263, 
    -0.01014643907546997, -0.11009463667869568, 

    -0.053703777492046356, 0.023345228284597397, 
    -0.0014798844931647182, -0.0878589078783989, 

    -0.1354559361934662, -0.11590660363435745, 
    -0.13658401370048523, 0.12744779884815216, 

    0.14245620369911194, -0.11594240367412567, 
    -0.06015842407941818, 0.040726188570261, 

    -0.10596586018800735, -0.088653065264225, 
    0.10223264247179031, 0.1760832965373993, 

    0.21299496293067932, 0.11264961957931519, 
    0.12606358528137207, 0.07445712387561798, 

    0.18399132788181305, 0.12170422077178955, 
    -0.06435630470514297, 0.028449377045035362, 

    -0.0653243213891983, -0.2195332795381546, 
    0.15882693231105804, 0.09154343605041504, 

    0.33853304386138916, 0.14139379560947418, 
    -0.18154852092266083, -0.1013387143611908, 

    -0.6796987056732178, 0.05838173255324364, 
    0.28745603561401367, -0.3849197030067444, 

    0.009364068508148193, 0.050291549414396286, 
    0.1554884910583496, 0.1971500664949417, 

    -0.28807976841926575, -0.0969356894493103, 
    0.10779229551553726, 0.026453545317053795, 

    0.1867762804031372, 0.16705264151096344, 
    0.1071152463555336, 0.1907663643360138, 

    0.07608729600906372, 0.09640222787857056, 
    -0.10100960731506348, 0.0474722683429718, 

    0.27688318490982056, 0.12296126782894135, 
    -0.0334218293428421, -0.08788047730922699, 

    -0.07175194472074509, 0.10140275955200195, 
    0.005665882956236601, 0.06259261071681976, 

    -0.19196996092796326, 0.026710916310548782, 
    0.13366283476352692, -0.1378171592950821, 

    0.07825498282909393, -0.05283719301223755, 
    0.08428053557872772, 0.16273382306098938, 

    -0.09827964752912521, 0.08067519962787628, 
    -0.002875372301787138, 0.03099955804646015, 

        };
        static filter_t filter24 = {32, 2, weights24, 0.08728013932704926};
        filters[24]=filter24;
            
        static const float weights25[]={ 
    -0.01980794221162796, -0.09589084982872009, 
    -0.11762367933988571, -0.09571517258882523, 

    0.026521556079387665, 0.052333466708660126, 
    -0.09998276084661484, 0.13278888165950775, 

    0.11810596287250519, -0.23238134384155273, 
    0.058519262820482254, -0.1362396627664566, 

    0.04046394303441048, -0.15713997185230255, 
    -0.20644409954547882, 0.21661916375160217, 

    -0.3205290138721466, 0.13916800916194916, 
    -0.08405876159667969, -0.03953171893954277, 

    -0.5765037536621094, 0.22173815965652466, 
    0.19437138736248016, 0.1735224574804306, 

    -0.1884690374135971, -0.09820882230997086, 
    -0.25292477011680603, -0.2576221823692322, 

    -0.07193963974714279, 0.2415209710597992, 
    0.10492747277021408, -0.214137464761734, 

    0.16259633004665375, 0.09441644698381424, 
    -0.0260040070861578, 0.0840735137462616, 

    -0.21517512202262878, 0.17523764073848724, 
    0.2806365191936493, 0.16056157648563385, 

    -0.17601126432418823, 0.11980226635932922, 
    0.08757724612951279, 0.10351341217756271, 

    -0.07995964586734772, -0.03665846958756447, 
    -0.13075311481952667, -0.08712376654148102, 

    0.04702085256576538, 0.1252993792295456, 
    -0.6202518939971924, -0.15629270672798157, 

    -0.12385079264640808, 0.11847472190856934, 
    0.08891120553016663, -0.11204233765602112, 

    -0.08214406669139862, 0.08224065601825714, 
    0.010380656458437443, -0.2641783654689789, 

    0.14639805257320404, -0.05566747859120369, 
    -0.02310066670179367, 0.04511837288737297, 

    -0.17234283685684204, -0.09370563179254532, 
    -0.08634151518344879, -0.029148660600185394, 

    -0.13708454370498657, 0.09600576013326645, 
    -0.019015377387404442, -0.10631649196147919, 

    -0.14777101576328278, -0.05785461887717247, 
    0.00580993527546525, 0.06881555914878845, 

    0.13442635536193848, 0.3119160234928131, 
    0.0653577446937561, -0.028670374304056168, 

    -0.11309780180454254, -0.06252243369817734, 
    0.012569474056363106, -0.11485935002565384, 

    -0.14581826329231262, -0.16564053297042847, 
    0.13943856954574585, 0.140937939286232, 

    -0.1262931376695633, 0.12720875442028046, 
    -0.1303052306175232, -0.3428114652633667, 

    0.058291446417570114, 0.07846035063266754, 
    -0.07804795354604721, 0.0080921221524477, 

    0.0711841732263565, -0.11414910852909088, 
    -0.6228140592575073, -0.1591554582118988, 

    -0.08177757263183594, 0.09327550232410431, 
    0.06800884008407593, 0.1264740377664566, 

    0.008469820022583008, -0.05397084355354309, 
    0.06410855054855347, 0.11665505170822144, 

    0.045390740036964417, 0.15259650349617004, 
    0.1064334362745285, -0.1043635904788971, 

    0.16757351160049438, 0.025279855355620384, 
    0.054432228207588196, -0.04628811031579971, 

    0.09988590329885483, 0.021312767639756203, 
    -0.03645176440477371, -0.22051408886909485, 

    -0.018824119120836258, -0.08938714116811752, 
    -0.11340319365262985, -0.041169676929712296, 

    -0.06353448331356049, -0.04261602461338043, 
    0.12131652981042862, 0.10278231650590897, 

        };
        static filter_t filter25 = {32, 2, weights25, 0.17060938477516174};
        filters[25]=filter25;
            
        static const float weights26[]={ 
    0.19262799620628357, 0.029758300632238388, 
    -0.1919807493686676, 0.4237323999404907, 

    -0.030343716964125633, 0.08404941111803055, 
    0.2126968801021576, 0.14522214233875275, 

    -0.03541722893714905, -0.103545181453228, 
    0.002467038342729211, -0.1629227101802826, 

    -0.02139987424015999, -0.348667711019516, 
    0.23257660865783691, -0.18265032768249512, 

    -0.012526074424386024, 0.05288159102201462, 
    0.14718368649482727, 0.17365117371082306, 

    0.04139968380331993, 0.040147896856069565, 
    0.01044438686221838, -0.43475961685180664, 

    0.05731668695807457, 0.13631314039230347, 
    -0.5361840128898621, 0.021245604380965233, 

    0.0693221241235733, 0.0034505403600633144, 
    0.12418801337480545, -0.2627131938934326, 

    0.09087495505809784, 0.12323681265115738, 
    0.19219201803207397, 0.03806207701563835, 

    -0.07434577494859695, 0.08026818186044693, 
    0.1667010337114334, -0.24222399294376373, 

    -0.002209522295743227, 0.1532086282968521, 
    0.05096302926540375, 0.13725696504116058, 

    -0.16393956542015076, 0.029043838381767273, 
    -0.010277041234076023, 0.06970074027776718, 

    0.0755077376961708, -0.09886455535888672, 
    -0.21505425870418549, -0.07537335157394409, 

    -0.12196296453475952, -0.07135745882987976, 
    -0.08821994066238403, -0.04162606596946716, 

    -0.052552200853824615, 0.0615505613386631, 
    -0.13385014235973358, -0.04925599694252014, 

    0.10417316854000092, -0.05861453711986542, 
    -0.048877280205488205, 0.11936979740858078, 

    0.07702809572219849, -0.05421025678515434, 
    0.18468016386032104, 0.08070807158946991, 

    0.0012537656584754586, 0.11864747107028961, 
    -0.10903063416481018, 0.04499838873744011, 

    -0.08147425949573517, 0.02595898136496544, 
    0.06321883201599121, -0.013381164520978928, 

    0.09347612410783768, -0.11350659281015396, 
    0.13237617909908295, -0.2968636453151703, 

    0.08906068652868271, 0.01350374985486269, 
    -0.40079331398010254, 0.09897461533546448, 

    0.02467736415565014, 0.1402735710144043, 
    0.09918288886547089, -0.06532502919435501, 

    -0.032678794115781784, -0.0649852529168129, 
    -0.6152967810630798, 0.03234000876545906, 

    -0.056784071028232574, -0.023456832394003868, 
    0.16794940829277039, 0.07245563715696335, 

    -0.03261909633874893, 0.03757397457957268, 
    -0.065040722489357, 0.2054591178894043, 

    -0.1652570515871048, 0.092609703540802, 
    0.14169010519981384, -0.1302279382944107, 

    -0.04849117994308472, -0.11631211638450623, 
    -0.03934386372566223, 0.0635983943939209, 

    0.17110386490821838, 0.18318986892700195, 
    0.16839325428009033, -0.4391041398048401, 

    -0.04387872293591499, -0.041860055178403854, 
    -0.0964953601360321, -0.001000195275992155, 

    -0.07836515456438065, 0.12871037423610687, 
    -0.31900346279144287, 0.15288610756397247, 

    0.07632938772439957, -0.0322168804705143, 
    0.04387360066175461, 0.11569952219724655, 

    -0.021754223853349686, 0.07403817772865295, 
    -0.045260120183229446, 0.12253855913877487, 

        };
        static filter_t filter26 = {32, 2, weights26, 0.0982302650809288};
        filters[26]=filter26;
            
        static const float weights27[]={ 
    0.4062140882015228, 0.0681777149438858, 
    0.11020056158304214, -0.14570100605487823, 

    -0.0866282731294632, -0.04168716445565224, 
    -0.01657046005129814, 0.13449308276176453, 

    0.12824276089668274, -0.4043671488761902, 
    0.16654981672763824, 0.005417387932538986, 

    0.25021061301231384, -0.2608906626701355, 
    -0.29674017429351807, -0.31750819087028503, 

    -0.2245047390460968, -0.07848948985338211, 
    0.08039198815822601, -0.03713051974773407, 

