#include "flow10model.h"

// Prototipos inicialización
conv2d_layer_t init_conv2d_data(void);
conv2d_layer_t init_conv2d_1_data(void);
dense_layer_t init_dense_data(void);
dense_layer_t init_dense_1_data(void);


// Variables Globales
conv2d_layer_t conv2d_data;
conv2d_layer_t conv2d_1_data;
dense_layer_t dense_data;
dense_layer_t dense_1_data;


void model_init(){
    conv2d_data = init_conv2d_data();
    conv2d_1_data = init_conv2d_1_data();
    dense_data = init_dense_data();
    dense_1_data = init_dense_1_data();

}

void model_predict(data3d_t input, data1d_t * output){
  
    
    //*************** LAYER 0 **************//
    // Layer name: conv2d
    data3d_t output0;
        // convert image for first EmbedIA Conv2d layer
        image_adapt_layer(input, &output0);
        input = output0;
    
     conv2d_layer(conv2d_data, input, &output0);
    // Activation layer for conv2d
    relu_activation(output0.data, 800);
    
    //*************** LAYER 1 **************//
    // Layer name: conv2d_1
    input = output0;
    conv2d_layer(conv2d_1_data, input, &output0);
    // Activation layer for conv2d_1
    relu_activation(output0.data, 1024);
    
    //*************** LAYER 2 **************//
    // Layer name: max_pooling2d
    input = output0;
    static const pooling2d_layer_t max_pooling2d_data = { 2, 2 };
    max_pooling2d_layer(max_pooling2d_data, input, &output0);
    
    //*************** LAYER 3 **************//
    // Layer name: flatten
    input = output0;
    data1d_t output1;
    flatten3d_layer(input, &output1);
    
    //*************** LAYER 4 **************//
    // Layer name: dense
    data1d_t input1;
    input1 = output1;
    dense_layer(dense_data, input1, &output1);
    
    // Activation layer for dense
    relu_activation(output1.data, 128);
    
    //*************** LAYER 5 **************//
    // Layer name: dense_1
    input1 = output1;
    dense_layer(dense_1_data, input1, &output1);
    
    // Activation layer for dense_1
    softmax_activation(output1.data, 10);
    

    *output = output1;

}

int model_predict_class(data3d_t input, data1d_t * results){
  
   
    model_predict(input, results);
    
    return argmax(*results);
    //return argmax(data1d_t);

}

// Implementación de funciones de inicialización



conv2d_layer_t init_conv2d_data(void){

        static filter_t filters[32];
        
        static const float weights0[]={ 
    0.49822449684143066, 0.6226922869682312, 
    -0.1731434166431427, 0.4738273322582245, 

        };
        static filter_t filter0 = {1, 2, weights0, 0.05822634696960449};
        filters[0]=filter0;
            
        static const float weights1[]={ 
    -1.144147515296936, -0.05762969329953194, 
    0.3187069892883301, -0.21391111612319946, 

        };
        static filter_t filter1 = {1, 2, weights1, 0.14964723587036133};
        filters[1]=filter1;
            
        static const float weights2[]={ 
    0.42559874057769775, -0.17458365857601166, 
    0.22024273872375488, -0.535519540309906, 

        };
        static filter_t filter2 = {1, 2, weights2, 0.10502605140209198};
        filters[2]=filter2;
            
        static const float weights3[]={ 
    0.30931177735328674, -0.3445698618888855, 
    -0.55523282289505, 0.5740973949432373, 

        };
        static filter_t filter3 = {1, 2, weights3, 0.07753974199295044};
        filters[3]=filter3;
            
        static const float weights4[]={ 
    0.4819334149360657, -0.011531910859048367, 
    0.28628864884376526, 0.3367883265018463, 

        };
        static filter_t filter4 = {1, 2, weights4, 0.032329849898815155};
        filters[4]=filter4;
            
        static const float weights5[]={ 
    -0.8475155234336853, -1.5038272142410278, 
    -0.21720890700817108, -0.08706678450107574, 

        };
        static filter_t filter5 = {1, 2, weights5, 0.15067537128925323};
        filters[5]=filter5;
            
        static const float weights6[]={ 
    0.6850588321685791, 0.12844884395599365, 
    -0.15679214894771576, 0.4467155337333679, 

        };
        static filter_t filter6 = {1, 2, weights6, 0.03645892068743706};
        filters[6]=filter6;
            
        static const float weights7[]={ 
    -0.7572994828224182, -0.4550168514251709, 
    0.5273343324661255, 0.40861231088638306, 

        };
        static filter_t filter7 = {1, 2, weights7, 0.16005155444145203};
        filters[7]=filter7;
            
        static const float weights8[]={ 
    0.5817263722419739, -0.1628585159778595, 
    0.5580574870109558, -0.05054590106010437, 

        };
        static filter_t filter8 = {1, 2, weights8, 0.0178616251796484};
        filters[8]=filter8;
            
        static const float weights9[]={ 
    0.2135714292526245, 0.06530217826366425, 
    0.3979335129261017, 0.3523789346218109, 

        };
        static filter_t filter9 = {1, 2, weights9, 0.02907562628388405};
        filters[9]=filter9;
            
        static const float weights10[]={ 
    -1.0302916765213013, 0.4298684597015381, 
    -0.13520319759845734, -0.4993877708911896, 

        };
        static filter_t filter10 = {1, 2, weights10, 0.16862249374389648};
        filters[10]=filter10;
            
        static const float weights11[]={ 
    0.019311627373099327, 0.1463787704706192, 
    -0.003754988545551896, 0.832735002040863, 

        };
        static filter_t filter11 = {1, 2, weights11, 0.023782256990671158};
        filters[11]=filter11;
            
        static const float weights12[]={ 
    0.6721916198730469, 0.18966631591320038, 
    0.031386956572532654, 0.6596676707267761, 

        };
        static filter_t filter12 = {1, 2, weights12, 0.04513707756996155};
        filters[12]=filter12;
            
        static const float weights13[]={ 
    0.5803585052490234, 0.4608275890350342, 
    -0.04982281103730202, -0.032974135130643845, 

        };
        static filter_t filter13 = {1, 2, weights13, 0.08336777985095978};
        filters[13]=filter13;
            
        static const float weights14[]={ 
    -0.20409667491912842, -0.18204618990421295, 
    -0.17303979396820068, -0.14982274174690247, 

        };
        static filter_t filter14 = {1, 2, weights14, 0.0};
        filters[14]=filter14;
            
        static const float weights15[]={ 
    0.7353862524032593, -0.26546716690063477, 
    -0.26054540276527405, -0.3322316110134125, 

        };
        static filter_t filter15 = {1, 2, weights15, 0.14939887821674347};
        filters[15]=filter15;
            
        static const float weights16[]={ 
    0.8070752620697021, -0.2341413050889969, 
    0.12794752418994904, -0.07674480229616165, 

        };
        static filter_t filter16 = {1, 2, weights16, 0.058606043457984924};
        filters[16]=filter16;
            
        static const float weights17[]={ 
    0.6059171557426453, 0.4363889694213867, 
    0.44284287095069885, 0.02466944232583046, 

        };
        static filter_t filter17 = {1, 2, weights17, 0.015554860234260559};
        filters[17]=filter17;
            
        static const float weights18[]={ 
    0.5275241732597351, -0.20400142669677734, 
    0.23447726666927338, -0.055551446974277496, 

        };
        static filter_t filter18 = {1, 2, weights18, 0.04287458583712578};
        filters[18]=filter18;
            
        static const float weights19[]={ 
    -0.6468575596809387, -0.2879053056240082, 
    0.47932168841362, 0.32919517159461975, 

        };
        static filter_t filter19 = {1, 2, weights19, 0.06724093109369278};
        filters[19]=filter19;
            
        static const float weights20[]={ 
    0.7407795190811157, -0.1470058113336563, 
    -0.13735760748386383, 0.09677979350090027, 

        };
        static filter_t filter20 = {1, 2, weights20, 0.09936896711587906};
        filters[20]=filter20;
            
        static const float weights21[]={ 
    -0.6663836240768433, 0.29355037212371826, 
    -0.44905373454093933, 0.09967922419309616, 

        };
        static filter_t filter21 = {1, 2, weights21, 0.16736890375614166};
        filters[21]=filter21;
            
        static const float weights22[]={ 
    -0.05602060630917549, 0.2458241581916809, 
    -0.14442765712738037, 0.5367444157600403, 

        };
        static filter_t filter22 = {1, 2, weights22, 0.05796082690358162};
        filters[22]=filter22;
            
        static const float weights23[]={ 
    0.30002278089523315, -0.15617257356643677, 
    0.745818018913269, -0.08139386028051376, 

        };
        static filter_t filter23 = {1, 2, weights23, 0.05060099810361862};
        filters[23]=filter23;
            
        static const float weights24[]={ 
    -0.28478026390075684, 0.1450635939836502, 
    0.6017486453056335, -0.020941827446222305, 

        };
        static filter_t filter24 = {1, 2, weights24, 0.03203266113996506};
        filters[24]=filter24;
            
        static const float weights25[]={ 
    0.5001311898231506, 0.6605868339538574, 
    -0.11571834981441498, -0.23195843398571014, 

        };
        static filter_t filter25 = {1, 2, weights25, 0.08957120776176453};
        filters[25]=filter25;
            
        static const float weights26[]={ 
    -0.5605059266090393, 0.18611270189285278, 
    0.3418109118938446, 0.48167744278907776, 

        };
        static filter_t filter26 = {1, 2, weights26, 0.1570771485567093};
        filters[26]=filter26;
            
        static const float weights27[]={ 
    -0.2187533676624298, 0.5197007060050964, 
    0.3433489501476288, 0.09472599625587463, 

        };
        static filter_t filter27 = {1, 2, weights27, 0.047215383499860764};
        filters[27]=filter27;
            
        static const float weights28[]={ 
    0.4891423285007477, -0.04281778633594513, 
    0.49555158615112305, 0.5482861995697021, 

        };
        static filter_t filter28 = {1, 2, weights28, 0.04192856326699257};
        filters[28]=filter28;
            
        static const float weights29[]={ 
    0.628486156463623, -0.355904757976532, 
    0.3437405228614807, -0.3812313675880432, 

        };
        static filter_t filter29 = {1, 2, weights29, 0.08974964916706085};
        filters[29]=filter29;
            
        static const float weights30[]={ 
    -0.719273567199707, 0.01614024117588997, 
    0.3759799301624298, 0.5205410718917847, 

        };
        static filter_t filter30 = {1, 2, weights30, 0.07053793221712112};
        filters[30]=filter30;
            
        static const float weights31[]={ 
    0.650059700012207, 0.22626303136348724, 
    0.00672305840998888, 0.3167223334312439, 

        };
        static filter_t filter31 = {1, 2, weights31, 0.03204581141471863};
        filters[31]=filter31;
            
        conv2d_layer_t layer = {32,filters};
        return layer;
        }
        

conv2d_layer_t init_conv2d_1_data(void){

        static filter_t filters[64];
        
        static const float weights0[]={ 
    0.19150614738464355, -0.028383752331137657, 
    0.13978572189807892, -0.0005457954248413444, 

    -0.33424246311187744, 0.12506799399852753, 
    0.02212517149746418, -0.04591561108827591, 

    -0.021803725510835648, -0.02822188101708889, 
    0.017574116587638855, -0.11894382536411285, 

    0.15822669863700867, -0.038543298840522766, 
    0.13998574018478394, 0.12583427131175995, 

    0.05734499543905258, -0.05896373093128204, 
    0.0030615488067269325, 0.0703776553273201, 

    -0.1510479599237442, 0.3654131293296814, 
    -0.340853214263916, -0.2335055023431778, 

    0.12994210422039032, 0.044498611241579056, 
    0.12867148220539093, 0.10413337498903275, 

    0.03376549109816551, 0.15271462500095367, 
    -0.11143139749765396, -0.03882254660129547, 

    0.15340915322303772, 0.014602399431169033, 
    0.06960444152355194, 0.10121335834264755, 

    0.0013977958587929606, 0.11057905852794647, 
    -0.005338327959179878, 0.008034929633140564, 

    -0.6340552568435669, -0.0016020784387364984, 
    0.020676754415035248, -0.15104739367961884, 

    0.09381049871444702, 0.14157851040363312, 
    0.12026654928922653, 0.19292499125003815, 

    0.17363926768302917, -0.0564315989613533, 
    0.02891298569738865, -0.06001722812652588, 

    0.1607665866613388, -0.14552786946296692, 
    0.011818901635706425, 0.08297084271907806, 

    0.042169809341430664, 0.021204322576522827, 
    -0.0010220706462860107, 0.10699495673179626, 

    0.21092122793197632, -0.18053823709487915, 
    0.05095047503709793, -0.07247921079397202, 

    0.14409016072750092, 0.04147237166762352, 
    -0.09242681413888931, 0.027378328144550323, 

    0.09067989140748978, -0.08588605374097824, 
    0.04331143572926521, 0.08885177224874496, 

    0.07541905343532562, -0.06304990500211716, 
    0.12491066008806229, 0.04851983115077019, 

    0.043160274624824524, -0.005746724549680948, 
    -0.021998925134539604, 0.03439049422740936, 

    0.22806057333946228, -0.18076804280281067, 
    0.09459564089775085, -0.07170339673757553, 

    -0.16603396832942963, 0.001652406295761466, 
    -0.021348627284169197, -0.005278841592371464, 

    -0.06563964486122131, 0.15209604799747467, 
    -0.02506702020764351, 0.10775534808635712, 

    0.053552478551864624, -0.05917041748762131, 
    -0.1034281924366951, 0.14486370980739594, 

    -0.16329611837863922, -0.06461246311664581, 
    -0.13428521156311035, -0.028971510007977486, 

    -0.04723682254552841, 0.022494981065392494, 
    0.11889821290969849, 0.12026604264974594, 

    -0.04774688184261322, 0.1093931570649147, 
    -0.03940757364034653, -0.0325336791574955, 

    -0.15750466287136078, -0.04871387034654617, 
    -0.003267372725531459, -0.014889693818986416, 

    0.11544448137283325, -0.046638667583465576, 
    0.04896387457847595, 0.04605676233768463, 

    0.2125646471977234, 0.0707666277885437, 
    -0.09732523560523987, -0.011576302349567413, 

    -0.03949328884482384, 0.11119211465120316, 
    0.053690116852521896, 0.028266632929444313, 

    0.02292672172188759, -0.08872656524181366, 
    0.06600169092416763, 0.15606676042079926, 

        };
        static filter_t filter0 = {32, 2, weights0, 0.027605533599853516};
        filters[0]=filter0;
            
        static const float weights1[]={ 
    0.04354636371135712, -0.024214724078774452, 
    0.2703273892402649, -0.05113346129655838, 

    -0.031387265771627426, 0.1688523292541504, 
    -0.21204353868961334, -0.2864372134208679, 

    -0.12531062960624695, 0.04650772362947464, 
    -0.07458177953958511, 0.0996483713388443, 

    0.13505323231220245, -0.10489472001791, 
    -0.21919113397598267, -0.06082294508814812, 

    0.0763053447008133, 0.000839335611090064, 
    -0.07601772993803024, 0.11699869483709335, 

    -0.17668521404266357, 0.016150757670402527, 
    -0.4377588629722595, -0.2809203565120697, 

    0.08397863805294037, 0.012763140723109245, 
    0.18809445202350616, 0.03737970441579819, 

    0.24690508842468262, 0.09770478308200836, 
    -0.1630386859178543, -0.39323344826698303, 

    0.09403009712696075, -0.006840378511697054, 
    -0.133015438914299, 0.22884346544742584, 

    0.12671498954296112, 0.13328397274017334, 
    0.06634999811649323, -0.062491025775671005, 

    -0.2633132040500641, -0.09776425361633301, 
    0.0763947069644928, -0.11705692857503891, 

    0.12455762922763824, 0.019466426223516464, 
    0.13084743916988373, -0.12277308851480484, 

    0.04251533001661301, 0.056211575865745544, 
    0.08510696887969971, 0.08205018937587738, 

    0.055518485605716705, -0.08603662997484207, 
    0.1298854649066925, 0.1172315776348114, 

    0.05773767828941345, -0.10594090819358826, 
    -0.030915796756744385, -0.07032787799835205, 

    -0.09168517589569092, 0.07256072759628296, 
    -0.04272790253162384, 0.19687145948410034, 

    -0.0698687955737114, -0.0722285583615303, 
    0.12562520802021027, 0.21937011182308197, 

    0.050699710845947266, 0.2169652134180069, 
    0.21168380975723267, 0.19395406544208527, 

    0.0987430214881897, 0.01673003099858761, 
    0.06070002168416977, 0.16800226271152496, 

    0.028598804026842117, 0.04481928423047066, 
    -0.403059184551239, -0.27995240688323975, 

    -0.02067512646317482, -0.04479900002479553, 
    -0.051152218133211136, 0.13174177706241608, 

    0.09718545526266098, -0.2459583729505539, 
    0.10861074179410934, -0.0103008933365345, 

    0.11997932195663452, -0.09881889075040817, 
    0.11380593478679657, -0.18010900914669037, 

    0.15700021386146545, 0.19185328483581543, 
    -0.17695991694927216, 0.011507761664688587, 

    0.001989084994420409, 0.0442662313580513, 
    -0.2238437384366989, 0.0029435798060148954, 

    -0.025519397109746933, -0.020900597795844078, 
    0.0354907289147377, 0.023063352331519127, 

    0.1929028183221817, 0.15529704093933105, 
    -0.09029871970415115, -0.184566468000412, 

    0.14774546027183533, 0.2688773274421692, 
    0.19490335881710052, 0.007775092963129282, 

    0.08684659749269485, 0.14896579086780548, 
    0.018442168831825256, 0.1497880220413208, 

    0.07044047862291336, -0.05778111517429352, 
    -0.11894169449806213, 0.0900411456823349, 

    0.1886659860610962, 0.09757167845964432, 
    -0.13041363656520844, -0.2848040759563446, 

    0.061635423451662064, -0.0010354801779612899, 
    -0.009566216729581356, -0.029953354969620705, 

        };
        static filter_t filter1 = {32, 2, weights1, 0.016728157177567482};
        filters[1]=filter1;
            
        static const float weights2[]={ 
    0.12410545349121094, -0.22817106544971466, 
    0.1117255762219429, -0.06753631681203842, 

    0.1557447463274002, -0.08267465233802795, 
    -0.10943359136581421, -0.06665916740894318, 

    0.11887389421463013, 0.059495795518159866, 
    0.2125089317560196, -0.004773469176143408, 

    -0.01245582289993763, 0.0366668626666069, 
    0.14792479574680328, 0.09801335632801056, 

    0.1421431452035904, -0.0038198994006961584, 
    -0.05980176106095314, 0.03177458420395851, 

    -0.19639766216278076, 0.2745404839515686, 
    0.11891262978315353, -0.06470856815576553, 

    0.10420532524585724, -0.11601628363132477, 
    0.005512797739356756, 0.1110750138759613, 

    0.1656661331653595, 0.09920813888311386, 
    -0.14418134093284607, 0.1431337147951126, 

    0.0033204378560185432, 0.08122805505990982, 
    0.14496757090091705, 0.01511815283447504, 

    -0.010281483642756939, -0.010389724746346474, 
    -0.09828431159257889, 0.052116211503744125, 

    0.03293969854712486, -0.07883162796497345, 
    -0.015982870012521744, 0.06887855380773544, 

    -0.052696239203214645, -0.0931134819984436, 
    -0.04307926073670387, 0.014939120039343834, 

    0.043365899473428726, -0.02440427616238594, 
    -0.06651989370584488, 0.03478476405143738, 

    0.059826526790857315, -0.03291582688689232, 
    -0.014126439578831196, -0.012271217070519924, 

    0.12311497330665588, 0.052727580070495605, 
    -0.1200079619884491, 0.09183871746063232, 

    -0.08387531340122223, 0.13164569437503815, 
    0.13036245107650757, 0.13560478389263153, 

    0.04142637178301811, 0.15227973461151123, 
    0.09383454918861389, 0.10774635523557663, 

    0.1647162139415741, 0.032122302800416946, 
    -0.04138713702559471, -0.023824160918593407, 

    0.11913281679153442, -0.03755234554409981, 
    0.06535471975803375, 0.06264806538820267, 

    0.017942680045962334, 0.052733927965164185, 
    0.0521882101893425, 0.06106192246079445, 

    0.13774941861629486, 0.06804375350475311, 
    -0.011411717161536217, 0.12362024933099747, 

    -0.12284689396619797, -0.03506486862897873, 
    0.05100175738334656, -0.014381966553628445, 

    0.08441971987485886, -0.18631254136562347, 
    -0.11143957078456879, 0.02057850919663906, 

    0.13682810962200165, 0.010733426548540592, 
    -0.052614662796258926, 0.049902696162462234, 

    0.18358634412288666, -0.12284399569034576, 
    -0.0965728610754013, -0.6727339625358582, 

    0.09968940913677216, -0.12851585447788239, 
    0.037471428513526917, -0.006786606274545193, 

    0.15547218918800354, -0.09436453878879547, 
    0.08912540972232819, -0.035333096981048584, 

    0.02853396348655224, 0.05410357937216759, 
    0.0901232659816742, -0.3022872507572174, 

    -0.025528859347105026, 0.022018752992153168, 
    0.019915247336030006, -0.034110698848962784, 

    0.05640334263443947, 0.18165302276611328, 
    -0.036346666514873505, 0.10513083636760712, 

    -0.06803718209266663, -0.10012395679950714, 
    -0.14165325462818146, 0.010756753385066986, 

    -0.04671157896518707, -0.07950688153505325, 
    0.046477753669023514, 0.08832284808158875, 

        };
        static filter_t filter2 = {32, 2, weights2, 0.036929525434970856};
        filters[2]=filter2;
            
        static const float weights3[]={ 
    0.014652866870164871, 0.05248301476240158, 
    -0.01740308478474617, 0.001708724768832326, 

    -0.08589474856853485, 0.226608544588089, 
    0.060573652386665344, 0.16176360845565796, 

    0.17614954710006714, -0.24928149580955505, 
    0.12556253373622894, -0.026792706921696663, 

    0.23365837335586548, 0.05265718325972557, 
    0.15515613555908203, -0.09317343682050705, 

    0.12374090403318405, -0.025147033855319023, 
    0.09267465770244598, -0.12760373950004578, 

    -0.27343520522117615, -0.06302239745855331, 
    -0.05758650600910187, -0.31661853194236755, 

    0.02900719828903675, -0.09744460135698318, 
    0.07756973057985306, 0.06974395364522934, 

    -0.1125166043639183, 0.18002493679523468, 
    -0.052529774606227875, -0.06797117739915848, 

    0.075020432472229, -0.24436785280704498, 
    -0.10773447155952454, -0.11668921262025833, 

    0.03587294742465019, -0.040779419243335724, 
    -0.17444700002670288, -0.007697275839745998, 

    -0.6478441953659058, 0.12157135456800461, 
    0.153518944978714, -0.022722840309143066, 

    -0.06711337715387344, 0.055277545005083084, 
    -0.16217675805091858, -0.015961775556206703, 

    0.1227777898311615, -0.021544471383094788, 
    -0.024427874013781548, -0.013363467529416084, 

    -0.015212362632155418, 0.0013265353627502918, 
    -0.006387059111148119, 0.05969768390059471, 

    -0.0685758888721466, -0.02351212501525879, 
    -0.08949199318885803, 0.07151278853416443, 

    0.26639819145202637, -0.09237883985042572, 
    0.15050943195819855, 0.09949810802936554, 

    0.25537556409835815, -0.24095949530601501, 
    0.10650037974119186, 0.11068098247051239, 

    -0.00952240265905857, -0.01122695580124855, 
    0.038965415209531784, -0.061248041689395905, 

    0.1891414225101471, -0.25168758630752563, 
    -0.05901201441884041, -0.017918797209858894, 

    -0.047532062977552414, 0.051565248519182205, 
    -0.07064112275838852, -0.008051715791225433, 

    0.19400209188461304, -0.16620947420597076, 
    0.11051923781633377, 0.1558273732662201, 

    -0.35583004355430603, 0.03554927930235863, 
    0.12808427214622498, -0.03766532242298126, 

    0.021912140771746635, 0.11905268579721451, 
    -0.06468231230974197, 0.04768114909529686, 

    0.19618259370326996, 0.013471318408846855, 
    0.018794206902384758, 0.04602421075105667, 

    0.09930276870727539, 0.060970574617385864, 
    -0.03926531970500946, -0.04821306839585304, 

    0.029413556680083275, 0.021947912871837616, 
    0.035343799740076065, 0.11992239952087402, 

    -0.2494283765554428, 0.0705551952123642, 
    -0.1585746705532074, -0.09595173597335815, 

    0.015221911482512951, 0.1044420450925827, 
    -0.18380816280841827, 0.040259912610054016, 

    0.2315361499786377, -0.04486364126205444, 
    -0.12558411061763763, -0.04192657768726349, 

    -0.0037012246903032064, -0.13576331734657288, 
    0.1387641876935959, 0.004973391070961952, 

    -0.07437656819820404, 0.06985101103782654, 
    -0.20253382623195648, -0.16385337710380554, 

    0.02216210775077343, -0.16862419247627258, 
    0.16087256371974945, 0.001936330576427281, 

        };
        static filter_t filter3 = {32, 2, weights3, 0.09122257679700851};
        filters[3]=filter3;
            
        static const float weights4[]={ 
    0.006797105073928833, -0.021286457777023315, 
    -0.11355763673782349, -0.12124210596084595, 

    -0.011776894330978394, 0.020874232053756714, 
    -0.10674768686294556, 0.0988202691078186, 

    -0.00817212462425232, -0.03907507658004761, 
    -0.018450558185577393, -0.018854618072509766, 

    0.054062873125076294, 0.0040167272090911865, 
    0.043789058923721313, -0.09369304776191711, 

    -0.031702518463134766, 0.01547291874885559, 
    -0.12286373972892761, -0.05223914980888367, 

    -0.04462125897407532, 0.12341561913490295, 
    -0.07791575789451599, 0.036762773990631104, 

    -0.027934610843658447, -0.11427292227745056, 
    -0.08901074528694153, 0.010151445865631104, 

    0.08517840504646301, -0.017211496829986572, 
    0.11229828000068665, -0.09213203191757202, 

    0.04164701700210571, 0.006077468395233154, 
    -0.04271396994590759, 0.01805022358894348, 

    0.0779799222946167, 0.10834568738937378, 
    0.09154289960861206, -0.11455315351486206, 

    -0.08455687761306763, 0.023663580417633057, 
    0.12411889433860779, -0.04792168736457825, 

    0.019809454679489136, 0.04809373617172241, 
    0.04150575399398804, 0.07479393482208252, 

    -0.040976375341415405, 0.04757508635520935, 
    0.11025160551071167, -0.014996618032455444, 

    -0.04904183745384216, 0.08211567997932434, 
    -0.07691767811775208, -0.01824125647544861, 

    0.014433413743972778, -0.10940206050872803, 
    -0.11452510952949524, 0.04270222783088684, 

    -0.02608063817024231, -0.057840198278427124, 
    0.09749963879585266, 0.11249452829360962, 

    -0.08959609270095825, 0.021319717168807983, 
    0.08006933331489563, 0.0804065465927124, 

    0.11034926772117615, -0.0444871187210083, 
    -0.09874227643013, 0.060773998498916626, 

    -0.01691541075706482, 0.12452849745750427, 
    -0.07374635338783264, 0.012056559324264526, 

    0.05742412805557251, 0.05623739957809448, 
    0.11117318272590637, -0.09998595714569092, 

    -0.09723904728889465, 0.06898123025894165, 
    0.1212213933467865, -0.04383951425552368, 

    -0.047577112913131714, -0.029677927494049072, 
    -0.12087538838386536, -0.12099495530128479, 

    -0.03797709941864014, -0.08558082580566406, 
    0.024958014488220215, 0.04240977764129639, 

    -0.005972146987915039, -0.06780782341957092, 
    -0.05523189902305603, -0.12414497137069702, 

    -0.10886397957801819, -0.039028674364089966, 
    -0.09021598100662231, -0.08654960989952087, 

    -0.08833184838294983, -0.07988953590393066, 
    -0.03598150610923767, -0.10472273826599121, 

    -0.06553465127944946, -0.0613170862197876, 
    -0.02197161316871643, 0.004715710878372192, 

    -0.12319087982177734, -0.018832683563232422, 
    -0.12471354007720947, -0.08432546257972717, 

    0.030720919370651245, 0.05304765701293945, 
    -0.01785227656364441, -0.0989081859588623, 

    -0.08857235312461853, 0.05272394418716431, 
    0.022179633378982544, -0.1131725013256073, 

    0.07893916964530945, -0.014822691679000854, 
    0.086812824010849, -0.10551652312278748, 

    0.02355054020881653, -0.042650967836380005, 
    0.09963718056678772, -0.05039703845977783, 

        };
        static filter_t filter4 = {32, 2, weights4, 0.0};
        filters[4]=filter4;
            
        static const float weights5[]={ 
    0.10292790085077286, 0.1049802154302597, 
    0.039993058890104294, 0.06044546142220497, 

    -0.11038687080144882, 0.08256235718727112, 
    -0.013278700411319733, 0.15018931031227112, 

    0.13293856382369995, 0.1487438827753067, 
    -0.19185951352119446, 0.2165083885192871, 

    0.13327941298484802, 0.1029725894331932, 
    0.043962638825178146, -0.031984247267246246, 

    0.08262699097394943, 0.08054907619953156, 
    -0.002055011224001646, -0.07398894429206848, 

    -0.0821353942155838, -0.20579633116722107, 
    0.15501970052719116, -0.21076275408267975, 

    0.2587698996067047, -0.05058197304606438, 
    -0.018472956493496895, 0.11210206151008606, 

    -0.008127648383378983, -0.04693641886115074, 
    0.14708878099918365, 0.08720944821834564, 

    -0.030273746699094772, 0.049582935869693756, 
    -0.22803740203380585, 0.014233842492103577, 

    -0.031179893761873245, 0.044807594269514084, 
    -0.0809948593378067, 0.021407553926110268, 

    -0.006105496548116207, -0.04176780954003334, 
    -0.017078984528779984, 0.1108364388346672, 

    -0.041279301047325134, 0.0019206847064197063, 
    0.08087345212697983, -0.05081474035978317, 

    0.26045235991477966, -0.09223692864179611, 
    0.04103231057524681, 0.021946284919977188, 

    0.06906643509864807, 0.09202935546636581, 
    0.0056485882960259914, -0.032818201929330826, 

    -0.010416090488433838, -0.11656361818313599, 
    0.09434044361114502, 0.11116725206375122, 

    0.04984944313764572, 0.031030971556901932, 
    -0.23793308436870575, 0.10365159064531326, 

    0.09424113482236862, 0.10833659023046494, 
    -0.24988532066345215, 0.16659681499004364, 

    0.0844910591840744, 0.14035893976688385, 
    -0.060681525617837906, 0.06599346548318863, 

    0.0930057242512703, 0.15738019347190857, 
    -0.20917227864265442, 0.12123726308345795, 

    -0.04753708839416504, 0.1345929652452469, 
    0.08502686023712158, -0.02973918989300728, 

    0.09285508096218109, 0.03309539332985878, 
    -0.02099861018359661, 0.1494387686252594, 

    -0.09540503472089767, 0.17794735729694366, 
    -0.01220834068953991, -0.048903945833444595, 

    0.059975750744342804, 0.1333945244550705, 
    -0.016313789412379265, -0.012715374119579792, 

    0.10184816271066666, 0.16288290917873383, 
    -0.12025351077318192, 0.13936926424503326, 

    -0.019585981965065002, 0.014916090294718742, 
    -0.1921115517616272, 0.09777510911226273, 

    0.12269538640975952, -0.07691843062639236, 
    0.1214975044131279, 0.0743940994143486, 

    -0.15714500844478607, 0.1214897409081459, 
    0.08351656794548035, 0.11769901216030121, 

    -0.24500234425067902, 0.009092348627746105, 
    0.025281932204961777, -0.07955893129110336, 

    0.10549161583185196, 0.0793791338801384, 
    -0.03741075098514557, -0.046101026237010956, 

    -0.0022669988684356213, 0.11332929879426956, 
    -0.09220017492771149, 0.014338057488203049, 

    -0.15298335254192352, 0.13058991730213165, 
    -0.024812225252389908, -0.1279291808605194, 

    0.2523782551288605, 0.04860059916973114, 
    -0.14001843333244324, 0.12102954089641571, 

        };
        static filter_t filter5 = {32, 2, weights5, 0.09119237959384918};
        filters[5]=filter5;
            
        static const float weights6[]={ 
    0.11714956909418106, -0.020200571045279503, 
    0.01693008840084076, -0.056174151599407196, 

    0.02787984535098076, 0.026273878291249275, 
    -0.009087049402296543, -0.006491450127214193, 

    -0.019627099856734276, 0.12938998639583588, 
    -0.3444298207759857, 0.08854035288095474, 

    0.2079460471868515, -0.06164827197790146, 
    0.15055526793003082, -0.027918167412281036, 

    0.1827845722436905, 0.18647749722003937, 
    -0.13293024897575378, 0.03398795798420906, 

    -0.3960033655166626, -0.4162158668041229, 
    -0.17044030129909515, -0.29007500410079956, 

    0.11028996109962463, 0.1822764128446579, 
    0.0356534905731678, -0.039426375180482864, 

    -0.18129679560661316, -0.09895482659339905, 
    0.05826719105243683, 0.06807117909193039, 

    -0.01912396214902401, 0.03936716169118881, 
    -0.08498402684926987, 0.15988469123840332, 

    0.14212338626384735, 0.13988298177719116, 
    0.10064955055713654, 0.2598543167114258, 

    0.05008785426616669, -0.2204594761133194, 
    0.13632605969905853, 0.028283514082431793, 

    0.10414505749940872, -0.0793672502040863, 
    -0.00030584033811464906, 0.12443439662456512, 

    0.19197100400924683, 0.12334677577018738, 
    0.14403338730335236, 0.1580609679222107, 

    0.24970385432243347, -0.0235313568264246, 
    0.12913167476654053, 0.05339857190847397, 

    -0.057866841554641724, 0.10890179872512817, 
    0.07643982768058777, -0.050005972385406494, 

    0.12752099335193634, 0.11613644659519196, 
    -0.26283466815948486, -0.0442732572555542, 

    0.19885686039924622, 0.07305074483156204, 
    -0.18983326852321625, -0.0009622775251045823, 

    0.18989138305187225, 0.009177322499454021, 
    -0.055624205619096756, 0.21403983235359192, 

    -0.005447393748909235, 0.19192536175251007, 
    -0.1278155893087387, 0.10799971967935562, 

    -0.02070152945816517, -0.03778933361172676, 
    0.004680261947214603, 0.08204704523086548, 

    0.30388176441192627, -0.0014430945739150047, 
    -0.08935271203517914, 0.09635861963033676, 

    -0.032615140080451965, -0.15568242967128754, 
    -0.02256091870367527, -0.18001355230808258, 

    0.12539733946323395, 0.10745036602020264, 
    0.13372652232646942, -0.022462358698248863, 

    0.07112064957618713, 0.19024930894374847, 
    -0.05861947685480118, 0.15028293430805206, 

    -0.0823964774608612, 0.1267101913690567, 
    0.06631896644830704, 0.13964895904064178, 

    0.19192808866500854, 0.04646097123622894, 
    -0.04445531591773033, 0.02689695917069912, 

    -0.0010448285611346364, 0.03886306285858154, 
    0.16779617965221405, 0.015141133219003677, 

    -0.10206042230129242, 0.07147497683763504, 
    0.08332452178001404, 0.08295941352844238, 

    0.09401462227106094, 0.17028312385082245, 
    -0.11886153370141983, 0.13309533894062042, 

    0.01906638592481613, -0.002334507182240486, 
    -0.212398499250412, 0.08800788968801498, 

    0.0745023787021637, -0.057687029242515564, 
    0.05773024260997772, -0.009604491293430328, 

    0.2983956038951874, 0.19106164574623108, 
    -0.09531296789646149, 0.20207343995571136, 

        };
        static filter_t filter6 = {32, 2, weights6, -0.02237151376903057};
        filters[6]=filter6;
            
        static const float weights7[]={ 
    0.2741238474845886, 0.10012433677911758, 
    -0.09440938383340836, -0.0598590113222599, 

    -0.2632691562175751, -0.12132459878921509, 
    -0.12386278808116913, 0.05447395145893097, 

    0.014795287512242794, -0.09275496006011963, 
    -0.054087769240140915, 0.014693411998450756, 

    0.0061463890597224236, 0.14645440876483917, 
    0.05349762365221977, -0.017300788313150406, 

    0.10239028930664062, -0.0014374884776771069, 
    0.17819397151470184, 0.14426368474960327, 

    -0.30240556597709656, 0.18073934316635132, 
    0.06736313551664352, 0.12529365718364716, 

    0.2723251283168793, 0.1733747273683548, 
    0.09809006750583649, -0.05247350409626961, 

    -0.13461822271347046, -0.12352119386196136, 
    0.09810727834701538, 0.10134436190128326, 

    0.1400999128818512, 0.22118352353572845, 
    0.1496555358171463, 0.06659197807312012, 

    0.170586958527565, -0.035728856921195984, 
    0.13671603798866272, 0.16518370807170868, 

    -0.08277357369661331, -0.15701532363891602, 
    -0.020948506891727448, -0.024915562942624092, 

    -0.09957969933748245, 0.09878996014595032, 
    0.026261696591973305, -0.03907844051718712, 

    0.23895885050296783, 0.04582557827234268, 
    0.17809756100177765, -0.09237078577280045, 

    0.1819332242012024, 0.23421522974967957, 
    0.01697741448879242, -0.06214519217610359, 

    0.12123715877532959, -0.03488302230834961, 
    0.08409816026687622, -0.06492799520492554, 

    0.04529240354895592, -0.056754663586616516, 
    -0.08096681535243988, -0.1391797661781311, 

    0.1862085461616516, 0.18242181837558746, 
    -0.0073140147142112255, -0.07010588049888611, 

    0.1353599578142166, 0.036773670464754105, 
    -0.05758831650018692, 0.1362994909286499, 

    0.23057864606380463, 0.06574742496013641, 
    0.009115133434534073, -0.002853678772225976, 

    -0.2041490077972412, -0.16446278989315033, 
    0.1764940619468689, -0.0012200160417705774, 

    0.11866862326860428, 0.04849737137556076, 
    -0.07392953336238861, -0.08306300640106201, 

    -0.06399187445640564, -0.12154238671064377, 
    0.022707056254148483, 0.02992999739944935, 

    0.16552551090717316, 0.10679031908512115, 
    -0.013744210824370384, 0.08742564916610718, 

    0.08757922798395157, 0.036341968923807144, 
    0.1264876276254654, 0.02374875731766224, 

    -0.06674826145172119, -0.4065811038017273, 
    0.12796929478645325, 0.19803167879581451, 

    0.08058211952447891, 0.05495521053671837, 
    -0.08644170314073563, -0.03147413209080696, 

    -0.11877719312906265, -0.027285275980830193, 
    -0.05476856976747513, 0.15705272555351257, 

    -0.02894984558224678, -0.025119755417108536, 
    -0.07622602581977844, -0.0329466238617897, 

    0.2194703370332718, 0.08004699647426605, 
    0.10517825186252594, 0.15639016032218933, 

    0.21342960000038147, 0.04028346389532089, 
    -0.07915277034044266, -0.09856909513473511, 

    -0.2985180616378784, -0.15530598163604736, 
    -0.018722014501690865, 0.022018933668732643, 

    0.05794992297887802, 0.05540942773222923, 
    0.011510705575346947, -0.015919657424092293, 

        };
        static filter_t filter7 = {32, 2, weights7, 0.004282545298337936};
        filters[7]=filter7;
            
        static const float weights8[]={ 
    0.0875994861125946, 0.040854308754205704, 
    -0.02297375537455082, 0.18328389525413513, 

    -0.06782911717891693, -0.06994303315877914, 
    -0.11486773192882538, -0.278470516204834, 

    -0.2683544158935547, 0.08017177879810333, 
    -0.01657235622406006, -0.06572610139846802, 

    0.13492809236049652, 0.025186637416481972, 
    0.03332200273871422, -0.06288281083106995, 

    0.193577840924263, 0.061244118958711624, 
    -0.17555373907089233, 0.15438930690288544, 

    0.35121679306030273, 0.3754096031188965, 
    -0.42199093103408813, -0.7077338099479675, 

    0.02757575362920761, -0.1424851417541504, 
    0.006884128786623478, 0.2201281040906906, 

    0.08572301268577576, 0.17257510125637054, 
    -0.24914975464344025, -0.22016187012195587, 

    0.11106693744659424, 0.039270129054784775, 
    -0.24440105259418488, 0.13134537637233734, 

    0.03994298726320267, 0.036294709891080856, 
    -0.1802988350391388, 0.022679463028907776, 

    -0.1909106820821762, -0.12031728029251099, 
    -0.04630931466817856, -0.025543715804815292, 

    0.04689804092049599, -0.027362801134586334, 
    0.05745881050825119, -0.02978304959833622, 

    0.1959100216627121, -0.05701020732522011, 
    0.006897973828017712, 0.12514254450798035, 

    -0.13347750902175903, -0.16162888705730438, 
    0.09835213422775269, 0.1818493902683258, 

    0.03317728638648987, 0.027506470680236816, 
    0.04408255219459534, 0.039396077394485474, 

    -0.002167368773370981, -0.2530324459075928, 
    -0.08965908735990524, -0.0014644339680671692, 

    0.0411405935883522, 0.06236464902758598, 
    -0.11268939822912216, 0.06425187736749649, 

    0.07433780282735825, 0.11571438610553741, 
    0.06783367693424225, 0.11433333903551102, 

    -0.035099633038043976, 0.05246276035904884, 
    -0.17949116230010986, 0.15073162317276, 

    -0.03880269452929497, 0.13443654775619507, 
    -0.1051037386059761, -0.21915586292743683, 

    0.07357636094093323, 0.045941438525915146, 
    -0.014787129126489162, 0.07405906915664673, 

    -0.10890491306781769, 0.12840726971626282, 
    -0.03699883818626404, 0.004507087636739016, 

    0.03317253291606903, 0.09630818665027618, 
    0.08927739411592484, 0.09376350790262222, 

    0.06153923273086548, 0.11106204986572266, 
    -0.2101399153470993, 0.13279332220554352, 

    0.08610380440950394, 0.09692934155464172, 
    0.09596525132656097, 0.08765019476413727, 

    -0.21003340184688568, -0.10801956802606583, 
    0.1705138385295868, 0.05186422914266586, 

    0.05738319456577301, 0.057104479521512985, 
    0.02096255123615265, -0.11187232285737991, 

    0.07870792597532272, 0.16178743541240692, 
    -0.06353434175252914, 0.17935578525066376, 

    0.05234767869114876, 0.2014870047569275, 
    -0.20588946342468262, 0.14661388099193573, 

    -0.11353633552789688, 0.005296401213854551, 
    -0.13798217475414276, 0.055038608610630035, 

    0.11255216598510742, 0.16448462009429932, 
    0.06540972739458084, -0.11505071073770523, 

    0.09230677038431168, -0.10794299095869064, 
    -0.04463795945048332, 0.11574877053499222, 

        };
        static filter_t filter8 = {32, 2, weights8, -0.02617751434445381};
        filters[8]=filter8;
            
        static const float weights9[]={ 
    -0.01261119358241558, 0.23892875015735626, 
    -0.2248290628194809, 0.2649087607860565, 

    0.11294066160917282, -0.2973571717739105, 
    0.0773920863866806, -0.04312247782945633, 

    -0.21110379695892334, 0.054766297340393066, 
    0.00411669397726655, -0.09030085057020187, 

    -0.3332115113735199, 0.10387150943279266, 
    -0.12356061488389969, 0.15198129415512085, 

    -0.23171637952327728, 0.2119310349225998, 
    0.1009950041770935, 0.012294400483369827, 

    0.39245882630348206, -0.39713990688323975, 
    -0.3097638785839081, 0.16535262763500214, 

    -0.2231278121471405, 0.1896727830171585, 
    0.023333633318543434, 0.029270419850945473, 

    0.08104043453931808, -0.06581845134496689, 
    0.1656906008720398, -0.07501405477523804, 

    -0.03756064176559448, 0.09902913868427277, 
    0.23694007098674774, -0.002608759794384241, 

    -0.19716867804527283, 0.0539885051548481, 
    0.08765964955091476, -0.002144869649782777, 

    0.19296500086784363, -0.29417794942855835, 
    -0.25311920046806335, 0.03646823391318321, 

    -0.06743239611387253, 0.1565491259098053, 
    -0.06790494173765182, 0.07523377239704132, 

    -0.10079354047775269, 0.26784369349479675, 
    0.07491409033536911, 0.000866825575940311, 

    0.0640852227807045, -0.00776974530890584, 
    -0.1977250576019287, 0.20658501982688904, 

    0.06335529685020447, 0.0914410650730133, 
    -0.06457409262657166, 0.08297222852706909, 

    -0.03342366963624954, 0.06007136404514313, 
    0.007525262422859669, -0.23448048532009125, 

    -0.2561909258365631, 0.03428742662072182, 
    -0.004761096555739641, -0.13744518160820007, 

    -0.003960209432989359, -0.06363103538751602, 
    0.18226082623004913, 0.061467867344617844, 

    -0.12934496998786926, -0.08814108371734619, 
    0.18154463171958923, -0.1252637356519699, 

    0.05114072188735008, 0.08753266930580139, 
    -0.008084426634013653, -0.17141404747962952, 

    -0.24131296575069427, 0.12468960881233215, 
    -0.03354518860578537, -0.25619223713874817, 

    0.04829070717096329, -0.08364103734493256, 
    -0.3346036374568939, 0.06899930536746979, 

    0.09412101656198502, 0.07993283867835999, 
    -0.23383991420269012, 0.09289013594388962, 

    -0.20075388252735138, -0.1775638610124588, 
    0.06548892706632614, 0.029683390632271767, 

    -0.02310897223651409, -0.3482116460800171, 
    0.13975350558757782, 0.03265092149376869, 

    0.11232496798038483, -0.16907136142253876, 
    -0.22756695747375488, 0.05284520238637924, 

    -0.0355764739215374, -0.024426322430372238, 
    -0.07702736556529999, 0.10415218025445938, 

    0.0009593985741958022, -0.10896371304988861, 
    0.10483893752098083, 0.17183858156204224, 

    -0.12387499958276749, 0.2653436064720154, 
    0.0030893548391759396, 0.0028161564841866493, 

    -0.1465262621641159, -0.010900436900556087, 
    0.06025359034538269, 0.008555504493415356, 

    0.08547472208738327, 0.21955029666423798, 
    -0.07784795016050339, 0.06118500977754593, 

    -0.032399725168943405, 0.19470399618148804, 
    0.0029307021759450436, -0.025981776416301727, 

        };
        static filter_t filter9 = {32, 2, weights9, -0.01622936502099037};
        filters[9]=filter9;
            
        static const float weights10[]={ 
    0.061735525727272034, 0.2004995346069336, 
    0.054727938026189804, -0.03901365026831627, 

    0.12409380823373795, -0.15430617332458496, 
    -0.07442457973957062, -0.07704481482505798, 

    -0.06143758073449135, 0.04239521920681, 
    0.17043399810791016, 0.05674697458744049, 

    0.10349749028682709, 0.09955094754695892, 
    -0.014463410712778568, 0.05085868760943413, 

    0.1331748068332672, 0.20721805095672607, 
    -0.04808763414621353, 0.0026693970430642366, 

    -0.2023135870695114, -0.5101289749145508, 
    -0.28692179918289185, -0.08943068981170654, 

    0.04330013319849968, 0.11352689564228058, 
    0.05416271090507507, 0.017326699569821358, 

    0.09114356338977814, -0.12942364811897278, 
    0.006146410014480352, -0.05381719768047333, 

    -0.050280045717954636, -0.004339951556175947, 
    -0.0006424229359254241, -0.0009860231075435877, 

    0.19444449245929718, 0.23131713271141052, 
    -0.07970016449689865, -0.14311794936656952, 

    -0.024639729410409927, -0.05697502940893173, 
    0.12475669384002686, 0.03523331880569458, 

    0.06136254966259003, 0.065587118268013, 
    -0.09090892225503922, -0.15270593762397766, 

    0.17753206193447113, -0.0021135415881872177, 
    0.1132744625210762, -0.11697985976934433, 

    0.03173324465751648, 0.2383771538734436, 
    0.05943663418292999, 0.02547309175133705, 

    -0.05969199538230896, 0.12293499708175659, 
    0.09685063362121582, 0.0035535991191864014, 

    -0.05675453692674637, 0.1688481569290161, 
    0.012212339788675308, 0.19131915271282196, 

    -0.06025027111172676, 0.1469157636165619, 
    -0.019568199291825294, 0.06750079244375229, 

    0.20461338758468628, 0.23660792410373688, 
    -0.01808343455195427, -0.04121513292193413, 

    -0.09618905931711197, 0.12315971404314041, 
    0.045525144785642624, 0.15313191711902618, 

    0.054738081991672516, 0.10586115717887878, 
    -0.13120479881763458, -0.1437087208032608, 

    0.01782570593059063, 0.23450389504432678, 
    0.11821404099464417, 0.12206315994262695, 

    0.2089838832616806, 0.0378720685839653, 
    0.09717650711536407, -0.028824983164668083, 

    0.10362593084573746, 0.14568528532981873, 
    -0.007999391295015812, -0.10678022354841232, 

    -0.05376319959759712, 0.059181712567806244, 
    -0.060182202607393265, 0.09144076704978943, 

    -0.032112423330545425, -0.12884695827960968, 
    -0.23776353895664215, -0.1630442887544632, 

    0.1288093626499176, 0.09055086225271225, 
    0.03042815625667572, 0.0732179656624794, 

    0.2053375393152237, 0.062464065849781036, 
    0.11000283062458038, -0.15416023135185242, 

    0.11341730505228043, 0.018971525132656097, 
    -0.05463283881545067, 0.1030338928103447, 

    0.05349091440439224, 0.2015102505683899, 
    -0.09061040729284286, -0.16177308559417725, 

    0.057584263384342194, 0.18895243108272552, 
    0.1767560839653015, -0.06653628498315811, 

    0.16410410404205322, -0.15891677141189575, 
    -0.02411322481930256, -0.14094789326190948, 

    0.0740649625658989, 0.1347828358411789, 
    0.09067772328853607, 0.026639802381396294, 

        };
        static filter_t filter10 = {32, 2, weights10, 0.0906921774148941};
        filters[10]=filter10;
            
        static const float weights11[]={ 
    0.15443378686904907, 0.02832663618028164, 
    0.05967846140265465, -0.04816892743110657, 

    0.011267184279859066, -0.05408792570233345, 
    0.12991419434547424, 0.1638845056295395, 

    0.003144651185721159, 0.16336633265018463, 
    0.0038390031550079584, 0.18064357340335846, 

    0.1470019817352295, 0.004956845659762621, 
    0.08636907488107681, -0.06754475831985474, 

    0.19889672100543976, -0.045396991074085236, 
    -0.011092090047895908, -0.06110100820660591, 

    -0.46000999212265015, 0.05077638104557991, 
    -0.16719898581504822, 0.04872710630297661, 

    0.21563546359539032, 0.12061160057783127, 
    0.045302826911211014, 0.08280117809772491, 

    -0.054769858717918396, -0.10631932318210602, 
    0.07586532831192017, 0.12908439338207245, 

    0.024258946999907494, 0.15600243210792542, 
    -0.07373989373445511, -0.011142749339342117, 

    -0.01906881295144558, -0.03660197556018829, 
    -0.08271776884794235, 0.14235307276248932, 

    0.05415499582886696, 0.13380984961986542, 
    0.060669008642435074, -0.10204162448644638, 

    0.1473715454339981, 0.04336170479655266, 
    0.06481745839118958, -0.14981068670749664, 

    0.18786998093128204, -0.02319180965423584, 
    0.15114521980285645, -0.04897157475352287, 

    0.017960434779524803, -0.03685278445482254, 
    -0.0583774670958519, -0.044276490807533264, 

    -0.12430247664451599, 0.04522675275802612, 
    -0.10764080286026001, -0.04729866981506348, 

    -0.014170984737575054, -0.0014569732593372464, 
    -0.04836612194776535, -0.05150366574525833, 

    0.22838903963565826, 0.13796119391918182, 
    0.0639679804444313, 0.16798555850982666, 

    0.0015859733102843165, -0.003296226728707552, 
    0.05043550953269005, 0.056151457130908966, 

    0.11669342964887619, 0.05953454226255417, 
    -0.12471593916416168, -0.04122161492705345, 

    -0.023811550810933113, -0.05220220983028412, 
    -0.026478435844182968, 0.06556959450244904, 

    0.1685999184846878, 0.12058202177286148, 
    0.1373525857925415, -0.042263325303792953, 

    -0.06995555758476257, -0.033251211047172546, 
    0.14780275523662567, -0.006466713733971119, 

    0.09049103409051895, 0.007997184060513973, 
    -0.03306732699275017, -0.06673172116279602, 

    -0.022188642993569374, -0.06937369704246521, 
    -0.15499305725097656, 0.0989983081817627, 

    0.09473118185997009, -0.019258175045251846, 
    0.062487196177244186, -0.002723533194512129, 

    0.1640433967113495, 0.1778063327074051, 
    0.032115451991558075, 0.018085679039359093, 

    0.0669599175453186, -0.013335942290723324, 
    0.06220342218875885, -0.025930797681212425, 

    -0.06875693798065186, -0.05230950191617012, 
    -0.06887716799974442, 0.10037724673748016, 

    -0.04834204167127609, 0.06048789620399475, 
    -0.08737612515687943, 0.007330004591494799, 

    0.16493158042430878, 0.17470328509807587, 
    -0.15936008095741272, 0.17872942984104156, 

    0.04016806557774544, -0.014521239325404167, 
    -0.04752293601632118, -0.14710380136966705, 

    0.2283489853143692, 0.12569507956504822, 
    0.0017090064939111471, 0.1125442236661911, 

        };
        static filter_t filter11 = {32, 2, weights11, 0.04154801368713379};
        filters[11]=filter11;
            
        static const float weights12[]={ 
    0.14659984409809113, -0.09637393802404404, 
    0.012657401151955128, -0.03130366653203964, 

    -0.01154447440057993, 0.050946809351444244, 
    -0.017355525866150856, -0.12338987737894058, 

    0.005598700605332851, 0.024726198986172676, 
    -0.06404314935207367, 0.18279583752155304, 

    0.19102104008197784, -0.12017954885959625, 
    0.026788324117660522, 0.1363825500011444, 

    0.11212276667356491, -0.08427944779396057, 
    0.11661459505558014, 0.11541834473609924, 

    -0.5142755508422852, 0.06632079929113388, 
    -0.40039387345314026, -0.1537759006023407, 

    0.038405679166316986, -0.19279545545578003, 
    0.15808281302452087, -0.024701064452528954, 

    0.09735839813947678, -0.02200586535036564, 
    -0.0359976626932621, -0.2358718365430832, 

    0.036074813455343246, 0.11221316456794739, 
    0.056786444038152695, 0.18307700753211975, 

    0.0035613132640719414, 0.12400510907173157, 
    0.1915675848722458, -0.013460589572787285, 

    -0.17687436938285828, -0.1373765468597412, 
    -0.08122678846120834, -0.21259145438671112, 

    0.053567126393318176, -0.01837274245917797, 
    0.1895713061094284, -0.2132675051689148, 

    0.23863084614276886, -0.03750218078494072, 
    0.022590767592191696, 0.01640818640589714, 

    0.07950123399496078, -0.04102081060409546, 
    0.17668817937374115, -0.05349737033247948, 

    -0.05817875266075134, 0.112367182970047, 
    0.05234801769256592, -0.08526751399040222, 

    0.12995608150959015, 0.11135956645011902, 
    -0.053859107196331024, 0.16125109791755676, 

    0.24483075737953186, 0.0857766717672348, 
    -0.026851026341319084, 0.2187604010105133, 

    0.13217654824256897, 0.04552285745739937, 
    0.07715906947851181, 0.01620442606508732, 

    0.12239745259284973, 0.08439932018518448, 
    -0.00019821838941425085, -0.003055834211409092, 

    -0.04643179848790169, 0.19976910948753357, 
    -0.007653752341866493, -0.22748695313930511, 

    0.010904883965849876, -0.05144140496850014, 
    0.14313766360282898, 0.0801195353269577, 

    -0.03923981636762619, -0.17171408236026764, 
    0.06636904925107956, -0.22892796993255615, 

    0.0005915943766012788, -0.17340920865535736, 
    0.02377253957092762, -0.12665019929409027, 

    0.13064070045948029, 0.2093254029750824, 
    0.12028716504573822, 0.04473896324634552, 

    0.21292082965373993, 0.12717637419700623, 
    -0.06321140378713608, -0.31923750042915344, 

    -0.04111723601818085, -0.050689391791820526, 
    0.1758592128753662, -0.04040754213929176, 

    0.13025440275669098, -0.09332271665334702, 
    -0.0017175733810290694, -0.21182900667190552, 

    -0.04463974013924599, -0.06833762675523758, 
    0.11576464027166367, -0.27304607629776, 

    0.21660950779914856, 0.06036392226815224, 
    0.12267302721738815, -0.05741926655173302, 

    -0.039560526609420776, 0.1332852691411972, 
    -0.033719126135110855, 0.13244637846946716, 

    0.15392249822616577, 0.06222955137491226, 
    0.020221536979079247, -0.14308451116085052, 

    0.05541040375828743, 0.02473410964012146, 
    0.20763586461544037, -0.01577167585492134, 

        };
        static filter_t filter12 = {32, 2, weights12, 0.03568536043167114};
        filters[12]=filter12;
            
        static const float weights13[]={ 
    -0.0211784765124321, 0.20601969957351685, 
    0.11458978056907654, 0.09323732554912567, 

    -0.09322424232959747, 0.07960771769285202, 
    0.03373265266418457, -0.1039285734295845, 

    0.10511164367198944, 0.054537899792194366, 
    -0.0524388886988163, -0.16340264678001404, 

    0.0681450217962265, 0.14300736784934998, 
    0.0669342651963234, 0.059820666909217834, 

    -0.05795741081237793, 0.1498814970254898, 
    0.10273246467113495, 0.11671952903270721, 

    0.12459694594144821, -0.37171080708503723, 
    0.0951865166425705, -0.27859026193618774, 

    0.07716457545757294, 0.12101789563894272, 
    0.12029819190502167, -0.057268355041742325, 

    -0.11379111558198929, -0.07065979391336441, 
    -0.12032623589038849, -0.04170260205864906, 

    -0.014308342710137367, -0.08606879413127899, 
    -0.014288604259490967, -0.08276844024658203, 

    -0.05565379932522774, -0.03713599219918251, 
    -0.1133788451552391, 0.1376807540655136, 

    0.1424044370651245, -0.01629360020160675, 
    -0.05496586859226227, -0.022084062919020653, 

    -0.010054566897451878, -0.005569045897573233, 
    0.02527746744453907, 0.12603752315044403, 

    -0.0091870641335845, 0.11267988383769989, 
    -0.04448607936501503, 0.20639768242835999, 

    -0.06765731424093246, -0.03379480540752411, 
    -0.048938095569610596, 0.11950874328613281, 

    -0.06671276688575745, -0.0314677357673645, 
    -0.09903642535209656, 0.10261064767837524, 

    0.06605738401412964, 0.004917351994663477, 
    0.0709865614771843, -0.0490448921918869, 

    0.07750363647937775, -0.06559084355831146, 
    -0.07110827416181564, -0.06142774596810341, 

    0.12356942892074585, 0.13238470256328583, 
    -0.18568456172943115, 0.1600298434495926, 

    0.05169561505317688, 0.059109896421432495, 
    -0.061354268342256546, 0.02858993224799633, 

    0.039439454674720764, -0.0880257859826088, 
    -0.031050443649291992, -0.026554541662335396, 

    -0.09806592017412186, -0.05440572276711464, 
    -0.05495221167802811, 0.16683253645896912, 

    -0.07052090764045715, 0.02812085673213005, 
    0.14641782641410828, 0.08696535974740982, 

    0.06925299763679504, 0.17106479406356812, 
    0.15859483182430267, 0.009066677652299404, 

    -0.020492300391197205, -0.03970152512192726, 
    -0.27683547139167786, 0.06260049343109131, 

    0.0502801239490509, 0.022949155420064926, 
    -0.25963732600212097, -0.07128828018903732, 

    0.01842574030160904, 0.12867717444896698, 
    0.11891099065542221, -0.08750467002391815, 

    0.1280604749917984, -0.034988075494766235, 
    -0.07941197603940964, 0.13647271692752838, 

    0.05422189459204674, 0.07306605577468872, 
    -0.06945633143186569, 0.12997902929782867, 

    -0.09757175296545029, 0.020401712507009506, 
    0.05931650474667549, 0.11406731605529785, 

    0.055308666080236435, 0.027711864560842514, 
    -0.022923093289136887, -0.15134601294994354, 

    0.09225514531135559, 0.11825045198202133, 
    0.08885367959737778, 0.16452842950820923, 

    0.11918945610523224, 0.06154219061136246, 
    -0.05414988845586777, 0.11928641051054001, 

        };
        static filter_t filter13 = {32, 2, weights13, 0.02818460762500763};
        filters[13]=filter13;
            
        static const float weights14[]={ 
    0.17136724293231964, 0.06829166412353516, 
    -0.07704930007457733, 0.02870761603116989, 

    -0.1930893063545227, -0.44264838099479675, 
    0.14602896571159363, 0.16600504517555237, 

    0.06187862530350685, -0.013241861946880817, 
    0.04114343225955963, 0.07535567134618759, 

    -0.03781033679842949, 0.22058576345443726, 
    0.02944355085492134, 0.06415415555238724, 

    0.05583566054701805, -0.046510402113199234, 
    0.12669260799884796, -0.1001107320189476, 

    -0.27736833691596985, -0.439960241317749, 
    0.08064265549182892, 0.2562357187271118, 

    0.16347108781337738, 0.10327497124671936, 
    -0.038331713527441025, -0.17107923328876495, 

    -0.4370696246623993, -0.11755910515785217, 
    0.0972418263554573, 0.011804613284766674, 

    0.01927802711725235, 0.10835053026676178, 
    0.20167891681194305, -0.09489589929580688, 

    -0.0015616948949173093, 0.0859694555401802, 
    -0.03826885670423508, -0.0078177684918046, 

    0.15591390430927277, -0.43171611428260803, 
    -0.2795764207839966, -0.09534092992544174, 

    -0.15332090854644775, -0.037340112030506134, 
    0.1282469630241394, -0.054601818323135376, 

    0.13146574795246124, 0.19484959542751312, 
    0.009578418917953968, 0.10288815945386887, 

    0.11852623522281647, 0.07865104079246521, 
    -0.05041861534118652, 0.0428026020526886, 

    -0.04525604844093323, 0.11427333950996399, 
    -0.11473369598388672, 0.04664316773414612, 

    -0.0008108927868306637, 0.12065478414297104, 
    -0.017845606431365013, -0.1439015120267868, 

    0.11991060525178909, 0.22553788125514984, 
    0.14471782743930817, -0.20508237183094025, 

    0.1897236406803131, -0.08835224062204361, 
    0.17616266012191772, -0.08909428864717484, 

    0.07459068298339844, -0.031395018100738525, 
    0.016012810170650482, -0.13862618803977966, 

    -0.46827489137649536, -0.17416995763778687, 
    0.009567681699991226, 0.0992904007434845, 

    0.13622528314590454, 0.1421024352312088, 
    -0.024796729907393456, -0.16365660727024078, 

    -0.08251526206731796, -0.10873853415250778, 
    -0.1898006796836853, -0.1029825210571289, 

    -0.03949334844946861, 0.10181068629026413, 
    -0.02554161474108696, 0.11584821343421936, 

    0.030797412618994713, -0.06692155450582504, 
    0.16104023158550262, 0.0793125331401825, 

    0.10611560195684433, -0.28756922483444214, 
    0.19650600850582123, 0.12250415980815887, 

    0.07856214791536331, 0.11113302409648895, 
    -0.18884357810020447, -0.11092100292444229, 

    -0.0227801576256752, -0.08307797461748123, 
    -0.051313616335392, 0.09924493730068207, 

    0.23465004563331604, -0.22072838246822357, 
    0.10201142728328705, 0.007559085264801979, 

    0.03909546509385109, 0.1603507101535797, 
    0.14432747662067413, 0.07842430472373962, 

    0.20063982903957367, 0.19833235442638397, 
    0.0860254317522049, 0.08270075917243958, 

    -0.21602092683315277, -0.041231684386730194, 
    0.05013950169086456, 0.07817354053258896, 

    0.12333385646343231, -0.04633065685629845, 
    -0.05733518302440643, -0.06902554631233215, 

        };
        static filter_t filter14 = {32, 2, weights14, 0.010300617665052414};
        filters[14]=filter14;
            
        static const float weights15[]={ 
    0.11621730774641037, 0.06298936158418655, 
    -0.00985154788941145, -0.009503859095275402, 

    0.18860729038715363, -0.0549679659307003, 
    0.06145847216248512, 0.08566788583993912, 

    0.002779977163299918, 0.11395132541656494, 
    -0.05770038068294525, -0.016863267868757248, 

    -0.05548899620771408, 0.224776491522789, 
    -0.10274159908294678, 0.13438351452350616, 

    -0.08736398816108704, 0.10683607310056686, 
    0.0022150676231831312, 0.003079497255384922, 

    0.08508163690567017, -0.024066995829343796, 
    0.19729256629943848, -0.04021376743912697, 

    0.0501122921705246, 0.2335977405309677, 
    0.04274682700634003, -0.10064303129911423, 

    0.05897585675120354, 0.00027283362578600645, 
    -0.014351112768054008, 0.016083599999547005, 

    -0.33922308683395386, 0.05276496335864067, 
    -0.13219143450260162, -0.07155478000640869, 

    0.014397920109331608, 0.024515988305211067, 
    -0.20672471821308136, -0.022337816655635834, 

    0.20571652054786682, -0.05219467356801033, 
    0.15975822508335114, 0.18559342622756958, 

    -0.028439538553357124, -0.018259726464748383, 
    -0.10460560023784637, -0.036315809935331345, 

    -0.06472135335206985, 0.06602609902620316, 
    -0.1525997519493103, -0.08006373047828674, 

    0.08235178887844086, 0.09761330485343933, 
    0.10175833851099014, -0.011630252934992313, 

    -0.1128544807434082, -0.07713046669960022, 
    0.006476163864135742, -0.03157401084899902, 

    -0.1453629434108734, 0.15272484719753265, 
    -0.061728738248348236, 0.1493276059627533, 

    -0.18006838858127594, 0.05240996181964874, 
    -0.11350976675748825, -0.04349089786410332, 

    -0.08309735357761383, 0.021322865039110184, 
    -0.04964842274785042, -0.11369041353464127, 

    -0.21000468730926514, 0.04508845508098602, 
    0.08156220614910126, -0.11959835886955261, 

    -0.042129602283239365, 0.02974960394203663, 
    0.04529482498764992, -0.0048779989592731, 

    0.035421136766672134, 0.18093128502368927, 
    0.10033091902732849, 0.09804937988519669, 

    0.13880516588687897, -0.02949548326432705, 
    0.01050192303955555, 0.12514889240264893, 

    -0.03797098621726036, 0.03069979138672352, 
    0.06411954760551453, -0.02465161681175232, 

    -0.10512630641460419, 0.14776864647865295, 
    -0.013080261647701263, -0.12265503406524658, 

    0.06352672725915909, -0.14767001569271088, 
    -0.14521153271198273, -0.07125034183263779, 

    0.0821380764245987, 0.1407627910375595, 
    0.11903765052556992, 0.0825582817196846, 

    0.016503721475601196, 0.002369829686358571, 
    -0.013859296217560768, 0.18124724924564362, 

    0.20791032910346985, -0.08348090201616287, 
    0.004156648647040129, 0.15205331146717072, 

    -0.12371520698070526, 0.16376052796840668, 
    -0.05656428635120392, -0.06563933938741684, 

    -0.13132086396217346, -0.040990669280290604, 
    -0.030350012704730034, 0.0852203443646431, 

    0.09753051400184631, -0.14100275933742523, 
    -0.16793063282966614, -0.0828130766749382, 

    -0.138695627450943, 0.03698085993528366, 
    -0.09492935240268707, -0.03225063905119896, 

        };
        static filter_t filter15 = {32, 2, weights15, 0.05596719682216644};
        filters[15]=filter15;
            
        static const float weights16[]={ 
    0.08646474778652191, 0.004803772084414959, 
    0.1421549767255783, 0.042544834315776825, 

    0.03419739007949829, -0.04036300256848335, 
    0.012116091325879097, -0.10742449015378952, 

    -0.010576610453426838, -0.06659538298845291, 
    -0.21995723247528076, 0.06269216537475586, 

    0.07812314480543137, -0.4154842495918274, 
    0.008127564564347267, 0.13780547678470612, 

    -0.01909460313618183, 0.05607009679079056, 
    -0.1728447675704956, 0.03666156530380249, 

    0.31694772839546204, -0.477177232503891, 
    -0.29254263639450073, -0.21768821775913239, 

    0.11919542402029037, -0.2035514861345291, 
    -0.03440820798277855, 0.16382509469985962, 

    0.028567537665367126, 0.03380635008215904, 
    -0.17514342069625854, 0.105015829205513, 

    -0.03965560346841812, 0.11003817617893219, 
    -0.13545441627502441, 0.01969461888074875, 

    0.14632219076156616, -0.06217951327562332, 
    -0.1648426204919815, -0.07739736884832382, 

    -0.17967338860034943, 0.13994263112545013, 
    0.16549521684646606, -0.25161319971084595, 

    -0.008357668295502663, -0.04661618173122406, 
    0.041467078030109406, -0.08310728520154953, 

    0.09744773805141449, 0.0001615422370377928, 
    0.13076747953891754, -0.01424278225749731, 

    -0.04902958497405052, 0.09749718010425568, 
    0.1383293867111206, -0.10054309666156769, 

    -0.016146034002304077, -0.051290303468704224, 
    0.007407665252685547, -0.1111278235912323, 

    -0.13481733202934265, -0.027689920738339424, 
    -0.019840970635414124, 0.0447358600795269, 

    -0.043345723301172256, 0.06756920367479324, 
    -0.1960824877023697, 0.12839406728744507, 

    -0.03886329010128975, 0.13944251835346222, 
    -0.016995633020997047, -0.0713094100356102, 

    -0.017309730872511864, 0.02913183905184269, 
    -0.09311608970165253, 0.18072961270809174, 

    -0.009476731531322002, 0.055577512830495834, 
    -0.12840873003005981, -0.02329373173415661, 

    -0.011756048537790775, -0.11904776096343994, 
    -0.04044212028384209, 0.1454898566007614, 

    -0.04968692362308502, 0.21763639152050018, 
    0.18279051780700684, -0.18308717012405396, 

    0.037065185606479645, -0.042355094105005264, 
    0.02638861909508705, -0.14598509669303894, 

    -0.08086929470300674, -0.06696999073028564, 
    -0.262951135635376, 0.11004560440778732, 

    -0.21102626621723175, 0.09539501368999481, 
    -0.18791361153125763, -0.028511008247733116, 

    -0.15219201147556305, 0.18289989233016968, 
    0.015750067308545113, 0.12444637715816498, 

    0.0640343502163887, 0.07179293781518936, 
    -0.02228548191487789, 0.10536222159862518, 

    -0.11555231362581253, 0.14459505677223206, 
    0.07030504941940308, -0.18427005410194397, 

    0.016829825937747955, -0.11052869260311127, 
    -0.2129005789756775, 0.0413326770067215, 

    -0.040157437324523926, -0.059108931571245193, 
    -0.18702749907970428, 0.07382485270500183, 

    0.008835372515022755, 0.1133013665676117, 
    -0.07203517854213715, 0.029929939657449722, 

    -0.07876744121313095, -0.08925746381282806, 
    0.0881992056965828, -0.0808829590678215, 

        };
        static filter_t filter16 = {32, 2, weights16, 0.03654136881232262};
        filters[16]=filter16;
            
        static const float weights17[]={ 
    0.30851995944976807, 0.08697913587093353, 
    0.0799437165260315, 0.1730586588382721, 

    -0.6458981037139893, 0.009403359144926071, 
    -0.005391207989305258, -0.1563904881477356, 

    0.07438290864229202, -0.19400140643119812, 
    -0.09486889094114304, 0.008669248782098293, 

    0.029318274930119514, 0.17680764198303223, 
    0.043110303580760956, 0.10117604583501816, 

    0.259899377822876, 0.17244361340999603, 
    -0.13023273646831512, 0.04579700157046318, 

    -0.5896242260932922, -0.4971056282520294, 
    -0.11140833795070648, 0.06759490817785263, 

    0.32036691904067993, 0.08656318485736847, 
    -0.032621461898088455, 0.04318389669060707, 

    -0.3362187445163727, 0.10428079962730408, 
    -0.06857633590698242, 0.028016312047839165, 

    0.15712206065654755, -0.06726617366075516, 
    -0.023879656568169594, -0.07172733545303345, 

    -0.044137340039014816, -0.04166121035814285, 
    0.08760213851928711, 0.1719476282596588, 

    -0.48363322019577026, -0.042957305908203125, 
    0.04687068238854408, -0.03642696142196655, 

    0.01778922975063324, 0.1917571723461151, 
    0.035729069262742996, 0.18359559774398804, 

    0.30771079659461975, 0.16739825904369354, 
    0.00361255812458694, 0.14714586734771729, 

    0.21210476756095886, 0.07278081774711609, 
    0.0766880139708519, 0.03263280913233757, 

    0.05564871430397034, 0.0960586667060852, 
    -0.0539303719997406, -0.033925384283065796, 

    0.16188101470470428, -0.07728302478790283, 
    -0.052822016179561615, -0.012815888039767742, 

    0.27953681349754333, 0.09259801357984543, 
    -0.12087954580783844, -0.11191331595182419, 

    0.2621271014213562, 0.03641524538397789, 
    0.002437370363622904, 0.09448064118623734, 

    0.16154755651950836, 0.06651242077350616, 
    -0.07912788540124893, -0.16619810461997986, 

    -0.39656901359558105, -0.05151497945189476, 
    -0.0758315846323967, 0.1307765692472458, 

    0.2495972216129303, 0.0016495869494974613, 
    -0.018078532069921494, 0.012546760961413383, 

    -0.16118589043617249, -0.10680563002824783, 
    0.15333755314350128, 0.05013488233089447, 

    -0.0056031919084489346, 0.07993260771036148, 
    0.13182784616947174, 0.2746187746524811, 

    0.21532891690731049, -0.11571124941110611, 
    0.05204952880740166, -0.055233560502529144, 

    -0.41269466280937195, -0.17988717555999756, 
    0.054793573915958405, 0.04867199435830116, 

    0.25784698128700256, -0.12267088890075684, 
    -0.10542768985033035, -0.07847661525011063, 

    -0.2511804699897766, -0.050129543989896774, 
    0.06399957835674286, 0.20754657685756683, 

    -0.1945551484823227, 0.1498146951198578, 
    -0.1282769739627838, 0.14580689370632172, 

    0.15802180767059326, 0.12940548360347748, 
    0.058219898492097855, 0.07216175645589828, 

    0.2642500698566437, -0.1710251122713089, 
    -0.05554617941379547, -0.19027143716812134, 

    -0.5378032326698303, 0.12724360823631287, 
    -0.08239369839429855, 0.05393240600824356, 

    0.11523517966270447, 0.09380697458982468, 
    0.01923883706331253, -0.021660784259438515, 

        };
        static filter_t filter17 = {32, 2, weights17, 0.023542437702417374};
        filters[17]=filter17;
            
        static const float weights18[]={ 
    -0.0416414849460125, 0.1255750209093094, 
    -0.026977134868502617, -0.1620689034461975, 

    0.06219077110290527, -0.11141186952590942, 
    -0.019360315054655075, 0.1789328157901764, 

    -0.008293194696307182, 0.03127554804086685, 
    -0.18303915858268738, 0.08739863336086273, 

    0.14819000661373138, -0.11391068994998932, 
    0.13027343153953552, -0.24963195621967316, 

    0.15095163881778717, 0.09724417328834534, 
    0.04136538505554199, 0.13255394995212555, 

    -0.5126448273658752, -0.5517680048942566, 
    0.05182686448097229, -0.07595827430486679, 

    -0.063026562333107, -0.04236070066690445, 
    0.18486635386943817, -0.17421238124370575, 

    -0.03574853017926216, -0.01900521293282509, 
    0.1597684621810913, 0.14164692163467407, 

    -0.022444913163781166, -0.03710539638996124, 
    -0.12042300403118134, 0.028416575863957405, 

    -0.10690287500619888, -0.026788312941789627, 
    0.03955717012286186, 0.054713502526283264, 

    0.08814237266778946, 0.15460045635700226, 
    -0.210268035531044, -0.010430274531245232, 

    -0.10642033070325851, -0.008381391875445843, 
    0.1299239546060562, -0.17004770040512085, 

    -0.025569217279553413, 0.08513117581605911, 
    0.1954084038734436, -0.07540051639080048, 

    0.029314236715435982, -0.012851606123149395, 
    -0.15860354900360107, 0.09172693639993668, 

    0.006764322519302368, 0.034451186656951904, 
    0.051684558391571045, -0.09638607501983643, 

    0.17184166610240936, 0.09491132944822311, 
    -0.10339295864105225, -0.2915593087673187, 

    0.002763829892501235, 0.12103572487831116, 
    0.08047273755073547, 0.07148358225822449, 

    0.11878876388072968, -0.03333009406924248, 
    0.014906652271747589, 0.06297958642244339, 

    0.043033529072999954, 0.07393751293420792, 
    0.09819541126489639, 0.04510406032204628, 

    -0.10350432991981506, -0.21938000619411469, 
    0.11862258613109589, 0.19066497683525085, 

    0.044494692236185074, -0.0636691078543663, 
    0.19048728048801422, -0.06000933423638344, 

    -0.10947610437870026, 0.1266874372959137, 
    -0.06901589781045914, 0.0021023876033723354, 

    -0.02746640332043171, 0.14893586933612823, 
    0.06540551036596298, -0.16726329922676086, 

    0.12201012670993805, -0.10103696584701538, 
    -0.05552526190876961, 0.06332224607467651, 

    -0.034061964601278305, -0.16983960568904877, 
    -0.004770186729729176, 0.15233252942562103, 

    0.09237253665924072, 0.12152162194252014, 
    -0.16306892037391663, -0.08051905035972595, 

    -0.15854787826538086, 0.1730576753616333, 
    0.08392034471035004, 0.00834231823682785, 

    -0.1035585105419159, 0.19682663679122925, 
    -0.06949306279420853, -0.018502986058592796, 

    -0.07267607748508453, 0.03927946835756302, 
    -0.00024049991043284535, -0.06924205273389816, 

    0.1510522961616516, 0.14683347940444946, 
    0.023995084688067436, 0.14835697412490845, 

    -0.11261288076639175, -0.0348009429872036, 
    0.0714104026556015, 0.13719260692596436, 

    -0.01717069372534752, 0.1648174524307251, 
    -0.008053768426179886, -0.19140730798244476, 

        };
        static filter_t filter18 = {32, 2, weights18, 0.024902040138840675};
        filters[18]=filter18;
            
        static const float weights19[]={ 
    -0.050294190645217896, 0.07464098930358887, 
    0.11973147839307785, -0.009201068431138992, 

    0.05002881586551666, -0.15451130270957947, 
    -0.06856849789619446, -0.004026080947369337, 

    0.09137793630361557, -0.15186956524848938, 
    -0.008734185248613358, -0.015888668596744537, 

    -0.12080615013837814, -0.08025749772787094, 
    -0.02929386869072914, -0.055157847702503204, 

    -0.04254576191306114, -0.009496008045971394, 
    -0.040555913001298904, 0.07384993880987167, 

    -0.01165162492543459, 0.4023464322090149, 
    -0.31519588828086853, -0.09862761199474335, 

    0.07414717227220535, 0.13345269858837128, 
    0.11208688467741013, 0.01791573502123356, 

    0.15842032432556152, -0.031218262389302254, 
    -0.04094517603516579, -0.22162608802318573, 

    0.09241386502981186, 0.07077865302562714, 
    0.09586236625909805, 0.020831430330872536, 

    -0.024948231875896454, 0.15743333101272583, 
    0.10322241485118866, 0.019703207537531853, 

    -0.2775160074234009, 0.07198110967874527, 
    0.03806715086102486, -0.03159722313284874, 

    -0.03858979418873787, 0.04992467910051346, 
    -0.08458596467971802, -0.06288783997297287, 

    -0.12885408103466034, 0.17903278768062592, 
    0.079312764108181, -0.02312356047332287, 

    -0.13632605969905853, 0.1604616492986679, 
    0.1579694151878357, 0.10841179639101028, 

    0.03142461180686951, 0.0174369215965271, 
    0.040182024240493774, -0.04513385891914368, 

    0.04506779462099075, -0.20376801490783691, 
    -0.061485569924116135, 0.07364773005247116, 

    -0.12110250443220139, -0.030071210116147995, 
    0.05153788626194, 0.02300974354147911, 

    0.004653394687920809, 0.11035466194152832, 
    0.07081205397844315, 0.16591179370880127, 

    -0.006808931473642588, 0.00823986530303955, 
    -0.05525574833154678, -0.03230154141783714, 

    0.05240672081708908, 0.08446353673934937, 
    -0.2591598331928253, -0.25658267736434937, 

    -0.015641536563634872, -0.13313160836696625, 
    0.013790159486234188, -0.00020097449305467308, 

    -0.055717263370752335, 0.03168114647269249, 
    -0.017878159880638123, 0.04206918925046921, 

    -0.13304492831230164, -0.010835048742592335, 
    -0.10146090388298035, 0.0816342681646347, 

    0.11103932559490204, 0.05187132582068443, 
    -0.09518736600875854, -0.1260613352060318, 

    0.14641070365905762, -0.06762917339801788, 
    -0.0632857158780098, 0.05423657223582268, 

    -0.2306649386882782, 0.0880386158823967, 
    -0.007195083890110254, 0.16127091646194458, 

    0.07556553184986115, 0.10958424210548401, 
    -0.00889390055090189, -0.02623910829424858, 

    0.13017873466014862, 0.06630966812372208, 
    -0.0490342453122139, -0.0199773907661438, 

    -0.004801393020898104, -0.05158311873674393, 
    -0.03643377497792244, -0.17753133177757263, 

    0.008963914588093758, -0.013144310563802719, 
    0.16001561284065247, 0.11973118782043457, 

    0.14885659515857697, 0.15869583189487457, 
    -0.09824438393115997, -0.03429587930440903, 

    -0.15054550766944885, 0.0916779562830925, 
    0.02862594462931156, -0.10060594975948334, 

        };
        static filter_t filter19 = {32, 2, weights19, 0.013517019338905811};
        filters[19]=filter19;
            
        static const float weights20[]={ 
    -0.19399546086788177, 0.1859448105096817, 
    -0.11269214749336243, 0.07764061540365219, 

    0.2632983326911926, -0.08807966113090515, 
    0.020808348432183266, 0.10710062831640244, 

    -0.07720884680747986, -0.01584813743829727, 
    0.00816967710852623, -0.04450131580233574, 

    -0.2318526953458786, 0.10545298457145691, 
    -0.04546103626489639, -0.007534476928412914, 

    -0.19423237442970276, 0.18658660352230072, 
    -0.11642085015773773, 0.10507739335298538, 

    0.22474385797977448, -0.14719220995903015, 
    -0.11861786246299744, -0.4100281596183777, 

    -0.26180702447891235, 0.1103953868150711, 
    0.026231687515974045, 0.0025835097767412663, 

    -0.0821228101849556, 0.009261761792004108, 
    -0.05742083489894867, 0.03537769243121147, 

    -0.05921662598848343, -0.0017876243218779564, 
    -0.15191657841205597, -0.09614469110965729, 

    -0.26327019929885864, 0.09719011187553406, 
    -0.11554285138845444, 0.05478787049651146, 

    0.26717111468315125, -0.21036195755004883, 
    0.12204736471176147, 0.1196446493268013, 

    -0.247574582695961, 0.20557476580142975, 
    0.04998784884810448, 0.0410953164100647, 

    -0.29295119643211365, 0.025973832234740257, 
    -0.0137123242020607, 0.039338368922472, 

    0.07933115214109421, -0.03010675683617592, 
    -0.2662033438682556, 0.14897924661636353, 

    -0.08750805258750916, 0.0967957079410553, 
    0.08179467916488647, 0.00393301248550415, 

    0.05637628957629204, 0.09372707456350327, 
    -0.07596918940544128, -0.12753795087337494, 

    -0.13472001254558563, 0.04027722403407097, 
    -0.15033382177352905, -0.04254261776804924, 

    -0.22075456380844116, -0.14210930466651917, 
    -0.13435766100883484, -0.0011154016247019172, 

    0.013489246368408203, -0.005458007100969553, 
    0.0350247286260128, -0.1474546641111374, 

    -0.132757768034935, 0.16328001022338867, 
    0.025606760755181313, -0.010279909707605839, 

    -0.12966975569725037, 0.059021852910518646, 
    0.08084084093570709, -0.13821791112422943, 

    0.0927337110042572, 0.1892569661140442, 
    0.151363804936409, 0.22966772317886353, 

    -0.058588236570358276, 0.08364947140216827, 
    0.11004798114299774, 0.20734308660030365, 

    -0.13259799778461456, -0.19697315990924835, 
    0.009782849811017513, 0.0198595579713583, 

    0.028726914897561073, -0.34293776750564575, 
    0.052196551114320755, 0.12671223282814026, 

    0.09666631370782852, -0.11384769529104233, 
    0.022766752168536186, 0.1345742642879486, 

    0.003733939491212368, 0.06511252373456955, 
    -0.057652998715639114, 0.12126174569129944, 

    0.04509842023253441, -0.036272190511226654, 
    -0.0793137401342392, 0.09908723086118698, 

    -0.2868911027908325, 0.2091340273618698, 
    0.0450454019010067, 0.059853386133909225, 

    -0.06752636283636093, 0.014347298070788383, 
    -0.046802859753370285, -0.14286497235298157, 

    -0.06613440066576004, 0.001899483148008585, 
    -0.020444490015506744, 0.17304769158363342, 

    -0.28182411193847656, 0.21339912712574005, 
    0.002499300055205822, -0.026015982031822205, 

        };
        static filter_t filter20 = {32, 2, weights20, 0.061202678829431534};
        filters[20]=filter20;
            
        static const float weights21[]={ 
    0.021799370646476746, -0.25049296021461487, 
    0.06299088150262833, -0.11361254006624222, 

    -0.17678403854370117, 0.17234033346176147, 
    -0.055990755558013916, 0.09799951314926147, 

    0.1121029406785965, 0.0955633893609047, 
    0.0013344254111871123, 0.18669924139976501, 

    0.1421443074941635, -0.2997935712337494, 
    0.011321011930704117, 0.02985568158328533, 

    0.11427149176597595, -0.19820408523082733, 
    -0.055078182369470596, -0.08484302461147308, 

    -0.3965913951396942, 5.960505222901702e-05, 
    -0.04403996095061302, 0.17842765152454376, 

    -0.04897163063287735, -0.29359909892082214, 
    0.085682213306427, -0.08918581902980804, 

    -0.03214622288942337, -0.05469848960638046, 
    -0.17899349331855774, 0.023983733728528023, 

    0.16086742281913757, -0.10030705481767654, 
    0.055929239839315414, -0.07420235872268677, 

    0.13486485183238983, -0.27136072516441345, 
    -0.08591262251138687, -0.04473897069692612, 

    -0.3482540547847748, 0.07988550513982773, 
    -0.01704392582178116, -0.05196619778871536, 

    -0.003279029158875346, -0.2877598702907562, 
    -0.14408831298351288, -0.16823823750019073, 

    0.1671205312013626, -0.24836619198322296, 
    0.05501852184534073, -0.168049156665802, 

    0.1348041146993637, -0.07721293717622757, 
    0.11921534687280655, -0.04005879536271095, 

    -0.022054076194763184, 0.023130297660827637, 
    0.07385832071304321, 0.11775016784667969, 

    0.048838693648576736, 0.08075600862503052, 
    0.12088648974895477, 0.04364233836531639, 

    0.14696522057056427, -0.02748122066259384, 
    -0.06799933314323425, -0.027489544823765755, 

    0.16775546967983246, -0.24793513119220734, 
    0.07241075485944748, -0.28346121311187744, 

    0.02914116345345974, 0.051111508160829544, 
    0.07447346299886703, 0.07344922423362732, 

    -0.11940358579158783, 0.049541763961315155, 
    -0.10657185316085815, -0.032467059791088104, 

    0.2860703468322754, 0.07621193677186966, 
    0.03750575706362724, 0.0904896929860115, 

    -0.6555501818656921, 0.05136086791753769, 
    -0.12961865961551666, 0.09208187460899353, 

    0.08919468522071838, -0.2793906331062317, 
    -0.06618121266365051, -0.1341332495212555, 

    0.1249256432056427, 0.06648340076208115, 
    -0.049635712057352066, -0.018297098577022552, 

    0.017220743000507355, -0.1854923814535141, 
    -0.08855971693992615, -0.2237793356180191, 

    0.058826200664043427, 0.0176599882543087, 
    0.07734932005405426, -0.1073521077632904, 

    -0.1463073343038559, -0.13985124230384827, 
    -0.1995297521352768, -0.0036211146507412195, 

    -0.10941582918167114, -0.19574083387851715, 
    -0.061809297651052475, -0.27183687686920166, 

    -0.007566822227090597, -0.24566423892974854, 
    0.1165047213435173, -0.18085673451423645, 

    -0.004950620234012604, 0.14145421981811523, 
    0.10512790083885193, 0.1582222580909729, 

    -0.06719418615102768, -0.03625220060348511, 
    -0.20324650406837463, 0.0035333195701241493, 

    0.2130112648010254, -0.2859073579311371, 
    0.13273079693317413, -0.1358872801065445, 

        };
        static filter_t filter21 = {32, 2, weights21, 0.011006135493516922};
        filters[21]=filter21;
            
        static const float weights22[]={ 
    0.03781356289982796, -0.045915357768535614, 
    -0.01072687841951847, 0.2251775562763214, 

    -0.08494942635297775, 0.05204308032989502, 
    0.11000677943229675, 0.00991358794271946, 

    -0.15841281414031982, -0.12490179389715195, 
    -0.09921997040510178, 0.05405404791235924, 

    0.09163965284824371, -0.0614141970872879, 
    -0.035524725914001465, 0.044860150665044785, 

    0.16400553286075592, -0.03504961356520653, 
    0.11444014310836792, 0.13517369329929352, 

    -0.37286484241485596, 0.17044363915920258, 
    -0.11359180510044098, -0.20788447558879852, 

    0.1320965588092804, -0.07610747218132019, 
    -0.06901315599679947, 0.1785876452922821, 

    -0.20629757642745972, 0.08326099067926407, 
    0.10651226341724396, 0.1417880356311798, 

    -0.07032327353954315, 0.1022523045539856, 
    -0.16498880088329315, 0.010194679722189903, 

    0.07919274270534515, 0.03319532424211502, 
    -0.06834131479263306, 0.019284313544631004, 

    -0.07063179463148117, -0.1564992517232895, 
    0.040172018110752106, -0.08009615540504456, 

    0.04892390966415405, 0.05827077105641365, 
    0.018067115917801857, 0.005283619277179241, 

    0.04813534393906593, 0.11899106204509735, 
    -0.04566067457199097, 0.111580990254879, 

    0.04093274846673012, -0.02756962738931179, 
    -0.09017042070627213, -0.07959137111902237, 

    0.05488380789756775, 0.012965083122253418, 
    0.02964109182357788, 0.0608653724193573, 

    0.0067330640740692616, -0.04558822140097618, 
    -0.23382823169231415, 0.06115641072392464, 

    0.06222910061478615, 0.13027720153331757, 
    -0.20452401041984558, 0.11733650416135788, 

    -0.04906555637717247, 0.025151366367936134, 
    -0.021784337237477303, 0.021643105894327164, 

    0.09006179124116898, 0.13917122781276703, 
    -0.020707767456769943, 0.05982498079538345, 

    -0.09437153488397598, 0.14646872878074646, 
    0.02344290353357792, 0.13267554342746735, 

    0.18277856707572937, -0.05427316203713417, 
    -0.21084241569042206, 0.055488117039203644, 

    -0.14058281481266022, -0.1767488569021225, 
    -0.0819275975227356, -0.13473665714263916, 

    0.021500376984477043, 0.06853770464658737, 
    0.10629580914974213, 0.21251124143600464, 

    -0.0723547637462616, -0.07493559271097183, 
    0.05609326437115669, 0.1590871512889862, 

    -0.10295712202787399, 0.09190502762794495, 
    0.06420861929655075, 0.012725950218737125, 

    0.08311649411916733, -0.01387584675103426, 
    0.033326130360364914, -0.05476761609315872, 

    -0.14717385172843933, -0.02256862074136734, 
    0.1746387630701065, 0.020057313144207, 

    -0.16195160150527954, 0.0861598551273346, 
    0.0415663905441761, 0.01676211878657341, 

    -0.08516247570514679, 0.15378905832767487, 
    -0.06726290285587311, 0.1792396456003189, 

    0.014634068123996258, -0.016906587406992912, 
    -0.12993772327899933, 0.12620599567890167, 

    -0.09505435079336166, 0.0963607057929039, 
    0.21609026193618774, 0.1407427340745926, 

    0.1548173576593399, -0.004681356716901064, 
    -0.06615316867828369, 0.0554485060274601, 

        };
        static filter_t filter22 = {32, 2, weights22, 0.021655471995472908};
        filters[22]=filter22;
            
        static const float weights23[]={ 
    -0.07079149037599564, -0.007310738321393728, 
    0.24652241170406342, -0.003363335970789194, 

    -0.051081158220767975, 0.09627857804298401, 
    0.02126639150083065, -0.04560445249080658, 

    0.07135812938213348, 0.1345171332359314, 
    0.07074356824159622, 0.10801906883716583, 

    -0.020125828683376312, 0.07733345776796341, 
    0.08443748950958252, -0.12614932656288147, 

    0.024180004373192787, 0.05876113101840019, 
    0.03169308230280876, 0.002350347815081477, 

    -0.07389792054891586, 0.02300930581986904, 
    0.02680588699877262, -0.3139525055885315, 

    0.0558946393430233, 0.0572148896753788, 
    0.19776199758052826, -0.049099795520305634, 

    -0.06671850383281708, 0.0694747343659401, 
    -0.10753234475851059, -0.13787777721881866, 

    -0.029117001220583916, 0.06928697973489761, 
    0.08045956492424011, 0.23190826177597046, 

    0.0762317031621933, -0.002382863312959671, 
    0.012411492876708508, -0.045780301094055176, 

    -0.18434025347232819, -0.15204553306102753, 
    0.06319719552993774, -0.1349097639322281, 

    0.024066949263215065, 0.019197743386030197, 
    0.022151123732328415, -0.005053407978266478, 

    0.19487090408802032, -0.05020039528608322, 
    0.16066424548625946, 0.0324094220995903, 

    0.029556909576058388, -0.0279857125133276, 
    0.04745906591415405, 0.10952412337064743, 

    0.04659441113471985, -0.03857174515724182, 
    0.008137226104736328, -0.023589760065078735, 

    -0.2035238891839981, 0.053361620754003525, 
    0.004755523521453142, 0.14445450901985168, 

    -0.029473165050148964, -0.007421277463436127, 
    0.07006470113992691, 0.19250167906284332, 

    0.16960646212100983, 0.1297382265329361, 
    0.014932234771549702, 0.008022804744541645, 

    0.13877764344215393, 0.09444207698106766, 
    -0.05965181812644005, 0.13030274212360382, 

    0.060908347368240356, 0.1250002533197403, 
    -0.09111258387565613, -0.24023482203483582, 

    -0.10031568259000778, 0.09325727820396423, 
    0.059480585157871246, -0.060003552585840225, 

    -0.11146806925535202, -0.09553901106119156, 
    -0.14396513998508453, 0.02398434467613697, 

    0.06776021420955658, -0.10905605554580688, 
    0.22089248895645142, -0.05544348806142807, 

    0.0475749708712101, 0.0246731024235487, 
    -0.09485512971878052, 0.21209436655044556, 

    0.20657500624656677, 0.1406533122062683, 
    -0.07781282812356949, 0.24979671835899353, 

    0.10482903569936752, -0.06530433893203735, 
    0.10519707202911377, 0.014085717499256134, 

    0.14597256481647491, 0.09632375091314316, 
    -0.12251865863800049, -0.14871899783611298, 

    0.13397958874702454, 0.0481717549264431, 
    0.11552811414003372, 0.13992996513843536, 

    0.17025981843471527, 0.05864962935447693, 
    -0.08293002843856812, 0.04895275458693504, 

    -0.11301924288272858, 0.18232734501361847, 
    -0.03936419636011124, 0.223227396607399, 

    0.15862613916397095, -0.1021304652094841, 
    0.14518088102340698, -0.06640451401472092, 

    0.05564543977379799, 0.022155746817588806, 
    0.14306381344795227, 0.04051891341805458, 

        };
        static filter_t filter23 = {32, 2, weights23, -0.020663507282733917};
        filters[23]=filter23;
            
        static const float weights24[]={ 
    0.3055446147918701, 0.11030951142311096, 
    0.03798364847898483, -0.10961700975894928, 

    -0.1391095668077469, 0.022001877427101135, 
    0.10324368625879288, 0.05376196652650833, 

    0.05345361307263374, 0.09439123421907425, 
    -0.14328458905220032, 0.1967478096485138, 

    0.09564760327339172, 0.12689414620399475, 
    -0.15262600779533386, -0.06081761047244072, 

    0.27206313610076904, 0.14223261177539825, 
    -0.08115044981241226, -0.09886244684457779, 

    -0.13448616862297058, -0.3210095465183258, 
    -0.007908951491117477, -0.18757957220077515, 

    0.13862423598766327, 0.16628912091255188, 
    -0.04635465890169144, 0.02715674228966236, 

    -0.2464069128036499, -0.03492942079901695, 
    0.07816833257675171, -0.16459894180297852, 

    0.0026656226254999638, 0.220938041806221, 
    0.019679829478263855, 0.0786941796541214, 

    0.129950612783432, 0.1810607761144638, 
    0.08776643127202988, 0.03756825253367424, 

    -0.151430144906044, -0.012296723201870918, 
    -0.08057590574026108, -0.03745235130190849, 

    0.14511628448963165, -0.06105951592326164, 
    0.09734316915273666, -0.2142883986234665, 

    0.2732742726802826, 0.0005710158729925752, 
    0.06735827028751373, -0.0013924585655331612, 

    0.17858503758907318, 0.0727367028594017, 
    0.06545526534318924, 0.025491176173090935, 

    -0.11135327816009521, 0.055983006954193115, 
    -0.0394781231880188, -0.009809166193008423, 

    0.09040974080562592, 0.015812262892723083, 
    -0.06698516011238098, 0.1532703936100006, 

    0.11824271082878113, 0.23463578522205353, 
    -0.06420756131410599, -0.05998039245605469, 

    0.23020145297050476, 0.2571467459201813, 
    0.13275611400604248, 0.05256420001387596, 

    0.09909718483686447, -0.012897687964141369, 
    -0.09270922094583511, 0.05602962151169777, 

    -0.030185483396053314, -0.016875354573130608, 
    0.029039595276117325, -0.17044630646705627, 

    0.09550386667251587, 0.21067935228347778, 
    -0.1125207170844078, -0.014009811915457249, 

    -0.10074956715106964, -0.09097244590520859, 
    -0.08607877790927887, -0.14437127113342285, 

    0.07940075546503067, 0.0941731259226799, 
    -0.03707224130630493, -0.189514622092247, 

    -0.03979965299367905, 0.1816648691892624, 
    -0.004892958793789148, 0.17284588515758514, 

    0.11036136001348495, -0.08378338068723679, 
    -0.07587207853794098, -0.04358638450503349, 

    0.14794661104679108, 0.20556624233722687, 
    0.05436481535434723, 0.09042888134717941, 

    -0.1424444168806076, -0.11244256794452667, 
    -0.016898903995752335, 0.02052818052470684, 

    0.1672191172838211, 0.12994903326034546, 
    0.13179290294647217, 0.03316635265946388, 

    0.20455290377140045, 0.05126047134399414, 
    -0.005302899982780218, -0.13274677097797394, 

    0.038934241980314255, 0.018361547961831093, 
    0.03458678722381592, -0.04680225998163223, 

    -0.07048027962446213, 0.079651840031147, 
    0.011641905643045902, -0.15428952872753143, 

    0.3454813063144684, 0.04801291972398758, 
    0.07570160925388336, -0.08904480934143066, 

        };
        static filter_t filter24 = {32, 2, weights24, 0.03180129826068878};
        filters[24]=filter24;
            
        static const float weights25[]={ 
    0.08229310810565948, 0.22010061144828796, 
    -0.0612148717045784, 0.031871501356363297, 

    -0.14911606907844543, -0.09007931500673294, 
    0.11702444404363632, 0.16286371648311615, 

    -0.024583259597420692, -0.06272821873426437, 
    -0.12404374778270721, 0.007489333860576153, 

    0.09189590066671371, -0.15686243772506714, 
    0.1649746596813202, 0.014954688958823681, 

    0.11447329819202423, -2.1740052034147084e-06, 
    -0.008534003049135208, 0.11558350920677185, 

    -0.4165079891681671, -0.20756837725639343, 
    0.030186261981725693, 0.30566200613975525, 

    0.16816353797912598, -0.06982623040676117, 
    0.0578831322491169, -0.13255107402801514, 

    -0.22828476130962372, -0.10371865332126617, 
    0.09631019830703735, 0.1205802708864212, 

    -0.0019545576069504023, 0.13968563079833984, 
    -0.12038170546293259, 0.17036178708076477, 

    0.04779312387108803, 0.028600528836250305, 
    0.04241709038615227, 0.08549731969833374, 

    0.04746535047888756, -0.036772772669792175, 
    -0.2610782980918884, -0.11890950798988342, 

    0.15997876226902008, -0.03656341880559921, 
    0.08455850183963776, 0.018262969329953194, 

    0.18897923827171326, 0.03421440348029137, 
    0.13615559041500092, -0.04229392483830452, 

    0.041782815009355545, 0.11165584623813629, 
    -0.11086149513721466, -0.0006903865723870695, 

    -0.07457563281059265, -0.09022602438926697, 
    -0.06692782044410706, -0.01108202338218689, 

    0.2088269591331482, 0.1254882514476776, 
    -0.2989903688430786, -0.22547930479049683, 

    0.058279480785131454, 0.02020823024213314, 
    -0.40825778245925903, 0.10915075987577438, 

    0.10288164019584656, 0.09614269435405731, 
    0.044520117342472076, 0.2532181441783905, 

    0.05318156257271767, 0.1060553565621376, 
    -0.20652145147323608, 0.042961545288562775, 

    -0.18214845657348633, 0.004989634733647108, 
    0.11789104342460632, 0.097708560526371, 

    0.24598683416843414, 0.0793033093214035, 
    0.004848659969866276, 0.011682217009365559, 

    -0.1332860291004181, -0.016892142593860626, 
    0.07569150626659393, -0.3121664822101593, 

    0.1361444890499115, 0.016146382316946983, 
    0.20223742723464966, -0.0736711174249649, 

    0.0024739778600633144, 0.07813461869955063, 
    -0.1362513303756714, 0.08160968869924545, 

    -0.378581166267395, 0.012484803795814514, 
    0.17962411046028137, 0.23871979117393494, 

    0.11867247521877289, 0.20897822082042694, 
    -0.24874450266361237, 0.07009057700634003, 

    0.021632196381688118, 0.04299728199839592, 
    0.16069333255290985, 0.12947379052639008, 

    -0.18024487793445587, 0.06051095947623253, 
    0.036208510398864746, 0.003681851550936699, 

    -0.0275297649204731, 0.00501231849193573, 
    0.1679573506116867, 0.155263289809227, 

    0.026689695194363594, -0.02598942443728447, 
    -0.11904604732990265, 0.16633674502372742, 

    0.03269045427441597, 0.08793698251247406, 
    0.21875225007534027, 0.14693284034729004, 

    0.18103636801242828, 0.10886430740356445, 
    -0.1406441032886505, 0.13218283653259277, 

        };
        static filter_t filter25 = {32, 2, weights25, -0.009824971668422222};
        filters[25]=filter25;
            
        static const float weights26[]={ 
    0.026169411838054657, 0.07394708693027496, 
    -0.10544416308403015, -0.11180724203586578, 

    -0.14389702677726746, 0.10428929328918457, 
    0.03251238912343979, 0.09882968664169312, 

    0.22489413619041443, 0.1795671135187149, 
    0.01895853877067566, 0.18178102374076843, 

    -0.03606530278921127, -0.07789415121078491, 
    -0.1125691756606102, -0.001112930360250175, 

    0.13945376873016357, 0.07683562487363815, 
    0.09433674812316895, -0.0670868307352066, 

    -0.37869998812675476, 0.27650338411331177, 
    0.1461121290922165, 0.03345344960689545, 

    0.05759792402386665, -0.001214591902680695, 
    -0.16388195753097534, 0.13377700746059418, 

    -0.012201294302940369, 0.1297982931137085, 
    0.20804236829280853, 0.12804940342903137, 

    -0.13153068721294403, -0.07009918242692947, 
    0.19595524668693542, 0.09714730829000473, 

    0.011283536441624165, 0.0730552077293396, 
    -0.009154360741376877, -0.13007788360118866, 

    0.03027329221367836, -0.03907269984483719, 
    0.08773323893547058, 0.07276953011751175, 

    0.14479681849479675, -0.15133361518383026, 
    -0.07433921098709106, -0.17581546306610107, 

    0.00795272272080183, 0.010998576879501343, 
    -0.13245460391044617, 0.03387884795665741, 

    0.13741891086101532, 0.009635865688323975, 
    0.14247988164424896, 0.0038957276847213507, 

    0.10798490047454834, 0.06273350119590759, 
    0.0010748803615570068, -0.03996118903160095, 

    0.08315349370241165, 0.12083972990512848, 
    -0.1605270951986313, 0.08154402673244476, 

    -0.061912860721349716, 0.18789725005626678, 
    0.2033131867647171, 0.10114283114671707, 

    -0.029942002147436142, -0.057226020842790604, 
    0.11509943008422852, -0.003721323562785983, 

    0.058544907718896866, 0.03911687061190605, 
    0.01796361431479454, -0.043855924159288406, 

    0.0368938222527504, 0.04421151429414749, 
    0.10970620810985565, 0.10313023626804352, 

    0.15517975389957428, 0.12370357662439346, 
    -0.10160095989704132, 0.14901624619960785, 

    -0.0018675136379897594, 0.08474402129650116, 
    -0.019364899024367332, 0.1484634131193161, 

    0.12342077493667603, -0.07677039504051208, 
    -0.054238658398389816, -0.04212198033928871, 

    0.14759698510169983, 0.05117574706673622, 
    0.058674804866313934, -0.0024945768527686596, 

    -0.13023073971271515, 0.013474935665726662, 
    0.07803904265165329, -0.13155299425125122, 

    0.12072516977787018, 0.0047600953839719296, 
    0.01767197623848915, 0.08735984563827515, 

    0.1444438397884369, 0.010132242925465107, 
    -0.02489786595106125, 0.10062503814697266, 

    -0.029110152274370193, -0.03778032958507538, 
    0.0337473526597023, -0.054823581129312515, 

    0.030346039682626724, -0.04430871456861496, 
    0.06731617450714111, -0.016256390139460564, 

    0.04093054309487343, -0.047983527183532715, 
    0.08520211279392242, 0.15049391984939575, 

    -0.12245763838291168, 0.04546211659908295, 
    0.16882118582725525, -0.040264442563056946, 

    -0.07610965520143509, 0.13125480711460114, 
    0.13246025145053864, 0.08322160691022873, 

        };
        static filter_t filter26 = {32, 2, weights26, 0.07201185822486877};
        filters[26]=filter26;
            
        static const float weights27[]={ 
    -0.024918440729379654, -0.032308295369148254, 
    0.06303190439939499, 0.14780399203300476, 

    -0.0012035295367240906, -0.06307975202798843, 
    0.13059277832508087, -0.01775413006544113, 

    0.024869799613952637, -0.002072390401735902, 
    0.12170864641666412, 0.09263233840465546, 

    0.004939691163599491, 0.1084086000919342, 
    -0.048888713121414185, 0.07239367812871933, 

    0.01271376945078373, -0.009128649719059467, 
    0.04530704766511917, 0.19749949872493744, 

